{"tool_embed.weight": [[-1.6369702816009521, -1.8246554136276245, 0.4713161885738373, -1.092776894569397], [0.17866016924381256, -1.0861072540283203, 0.8272157907485962, -0.4348370134830475], [0.5699443817138672, -0.5684006214141846, -0.2739103436470032, 0.8313658237457275], [-0.8898353576660156, 1.296222448348999, -0.23489613831043243, 0.2398023009300232], [1.766730336424485e-16, 0.014088064432144165, -1.3758264685748145e-05, -3.299524718788404e-19], [-0.9975306987762451, -0.6968685388565063, 1.3182886838912964, 0.03904213383793831], [0.9786126017570496, 0.10528826713562012, -0.31536585092544556, -0.6903798580169678]], "conv3.weight": [[[-0.14923495054244995, -0.2198449671268463, 0.1001480221748352], [0.005533630959689617, -0.1613520234823227, 0.08515067398548126], [-0.066719651222229, 0.0017585266614332795, 0.0829092264175415], [-0.05885787680745125, 0.05866454541683197, 0.06923568993806839], [0.01127954013645649, 0.14392179250717163, -0.07615083456039429], [4.053248801567212e-39, 1.9847753227957774e-39, -5.002332837171303e-39], [-3.816123878031095e-39, 5.471385268239356e-39, -1.525635677064358e-39], [-0.015976915135979652, 0.21147799491882324, -0.08262129127979279], [-3.063301501444945e-39, 1.2909724145405206e-38, 4.816429576401651e-39], [0.03348403796553612, 0.0586082860827446, -0.11961755156517029], [0.04156385362148285, -0.09687490016222, -0.042353976517915726], [0.023515082895755768, -0.021161088719964027, -0.023407796397805214], [-0.21238169074058533, -0.22722496092319489, -0.21013858914375305], [-0.08326337486505508, 0.06865354627370834, 0.06592617183923721], [0.025400273501873016, 0.03155307099223137, -0.19355732202529907], [0.05453548952937126, -0.14131581783294678, -0.13045519590377808], [-0.17563004791736603, 0.01859055459499359, 0.011321067810058594], [0.36646342277526855, 0.041830915957689285, -0.018442004919052124], [-0.1611589789390564, 0.00839361920952797, 0.03370092809200287]], [[-0.20624597370624542, 0.04868151992559433, -0.007562763057649136], [-0.044415246695280075, -0.07237065583467484, -0.027357522398233414], [-0.16690213978290558, 0.04891796037554741, 0.174763485789299], [-0.0394754633307457, 0.03457421064376831, -0.07176195830106735], [-0.022947212681174278, 0.006574565079063177, 0.10129539668560028], [-5.8002139658778174e-39, 2.5054375763049134e-38, -3.735994829244073e-39], [-1.1983918479890479e-39, 6.615409538409529e-38, 2.257287236451489e-39], [0.27866169810295105, 0.19908183813095093, -0.03406895697116852], [-8.784431787190127e-40, -2.187942580645911e-39, 3.3737101307698566e-40], [0.15297475457191467, -0.3407351076602936, 0.13234810531139374], [0.023222004994750023, -0.019531933590769768, -0.13317173719406128], [0.14475837349891663, -0.06659737974405289, 0.0074990903958678246], [-0.21758215129375458, 0.07301347702741623, 0.04214866831898689], [0.027400828897953033, 0.008285071700811386, 0.21714040637016296], [0.004908194299787283, -0.13419362902641296, -0.03978918492794037], [-0.04826796427369118, -0.1671214997768402, -0.052619002759456635], [-0.1298680156469345, 0.1736837476491928, -0.07479473948478699], [0.20261739194393158, -0.15691742300987244, 0.12584413588047028], [-0.10340884327888489, -0.178548663854599, 0.14774933457374573]], [[-0.26154226064682007, -0.04102445766329765, -0.1220204308629036], [0.016504891216754913, -0.05518072471022606, 0.04341878741979599], [-0.08492180705070496, 0.014223125763237476, 0.06168092042207718], [-0.15246936678886414, 0.021498335525393486, 0.04137001931667328], [0.19401437044143677, 0.06364284455776215, -0.1124940812587738], [4.9522574365486554e-39, 1.2522703726438728e-39, -1.7963539286857338e-39], [2.138692544818751e-39, -2.4265164467941397e-39, -6.196672130001523e-39], [0.16045546531677246, 0.26660066843032837, 0.18383760750293732], [2.8942928554805786e-38, -6.522604343714225e-39, 3.3470097898306115e-39], [0.180059552192688, -0.19194094836711884, -0.08269680291414261], [-0.07510574907064438, -0.03860078379511833, 0.08081988245248795], [-0.06293290853500366, 0.15190663933753967, -0.09170693904161453], [0.07346224784851074, -0.020472269505262375, 0.0291119497269392], [0.1088814064860344, 0.13136056065559387, -0.10148447006940842], [-0.12334321439266205, 0.014780054800212383, 0.08884235471487045], [-0.012420963495969772, -0.0630299374461174, -0.0006732815527357161], [0.16431112587451935, 0.11598092317581177, 0.218366801738739], [0.13024872541427612, 0.3118254542350769, -0.18647420406341553], [-0.046704407781362534, -0.21540698409080505, -0.12688590586185455]], [[-0.10695264488458633, -0.24881362915039062, -0.1514727622270584], [-0.012234615162014961, -0.028626959770917892, -0.035548727959394455], [-0.14385472238063812, -0.079323910176754, 0.10217729210853577], [-0.10906442999839783, -0.13305382430553436, -0.03159060329198837], [-0.10890833288431168, 0.027193015441298485, 0.14177294075489044], [4.233715024295283e-39, -5.328981114399275e-39, 4.3116454357917794e-39], [4.867129956139387e-39, 6.105193964951935e-39, -2.0022341003628003e-39], [-0.005889497231692076, 0.08808398246765137, -0.11029502004384995], [2.3272176350151545e-39, -2.5319137094898665e-39, 6.504657914281618e-39], [-0.2995873987674713, -0.032968174666166306, -0.3878864049911499], [-0.06350838392972946, 0.0768403708934784, 0.025074228644371033], [-0.05173557624220848, 0.05450059473514557, 0.13344019651412964], [-0.13848994672298431, -0.012277594767510891, 0.02456584759056568], [0.14232677221298218, 0.05143663287162781, 0.2692655324935913], [0.1427912414073944, 0.16340851783752441, -0.10162640362977982], [0.0357162281870842, -0.06609579920768738, 0.03382401168346405], [-0.14521218836307526, 0.09097795933485031, 0.10373304039239883], [0.221005380153656, -0.0025485900696367025, -0.09490305185317993], [-0.14878880977630615, -0.1262366622686386, -0.04404782876372337]], [[0.030652625486254692, -0.13585256040096283, 0.10983052849769592], [-0.01015150174498558, -0.008889997377991676, -0.11430123448371887], [0.03704662621021271, 0.004833386745303869, 0.2408779114484787], [0.09816884994506836, 0.007190334610641003, 0.03695516660809517], [0.11581209301948547, 0.08284110575914383, -0.03467237576842308], [-2.2197310363091195e-39, 2.0815489947420492e-39, 1.542999166335807e-39], [-3.764372524445115e-39, 8.725002719318111e-40, -3.664751414019335e-39], [0.12035280466079712, 0.29112839698791504, -0.028603678569197655], [-2.5987037981949803e-39, 2.054606229168476e-39, 5.825130453871977e-39], [0.061440303921699524, -0.11663343757390976, 0.10786421597003937], [-0.09638575464487076, -0.11997638642787933, -0.10558485984802246], [-0.14739413559436798, 0.07591218501329422, 0.2444082647562027], [0.2438134402036667, -0.026146356016397476, -0.15036316215991974], [0.01396497618407011, 0.11016995459794998, -0.049778051674366], [-0.22913631796836853, -0.0369516983628273, -0.22982758283615112], [-0.12688280642032623, -0.05973123759031296, 0.17940542101860046], [0.07615642249584198, 0.021575050428509712, -0.23867590725421906], [0.019245635718107224, -0.054800476878881454, 0.22682851552963257], [-0.1995197832584381, 0.1549818068742752, 0.0307375006377697]], [[-0.02836695685982704, -0.06301726400852203, -0.12989658117294312], [-0.027340117841959, -0.009450380690395832, 0.03426717594265938], [-0.017278922721743584, -0.013337848708033562, -0.014987803995609283], [0.153946191072464, -0.05361192300915718, -0.005930009298026562], [0.13838888704776764, 0.024202918633818626, 0.09745843708515167], [3.189146511332099e-39, 2.528671104843419e-40, 5.667150867600926e-39], [-3.416814071532488e-39, 2.554958062735688e-39, 2.2382744188875298e-39], [0.03472411632537842, 0.4212011694908142, 0.04571682587265968], [-5.513616200058713e-39, -1.45203667912109e-39, 1.910122548407337e-39], [0.09203584492206573, -0.06340961158275604, -0.082007497549057], [0.19827711582183838, 0.014813432469964027, 0.05969826132059097], [0.2857970595359802, -0.0068972245790064335, 0.18481232225894928], [-0.11073937267065048, 0.02601100131869316, 0.1846000850200653], [-0.17224599421024323, 0.038602057844400406, -0.11932250112295151], [0.09082326292991638, 0.08361898362636566, -0.00862096343189478], [-0.12169477343559265, 0.028266264125704765, -0.1482551246881485], [-0.013460000976920128, 0.17746779322624207, 0.2245091199874878], [-0.02064375765621662, -0.02727023884654045, 0.35514727234840393], [-0.08114397525787354, -0.26921096444129944, 0.01903359778225422]], [[0.07943566143512726, 0.08609981089830399, 0.19652794301509857], [-0.030832502990961075, 0.08919244259595871, 0.2502387464046478], [-0.4379192292690277, -0.23975108563899994, -0.2959378659725189], [0.0786590650677681, -0.17470715939998627, -0.07008886337280273], [0.21212933957576752, -0.17046190798282623, -0.0022369211073964834], [-2.7733826582653904e-39, -4.798923154686841e-39, -5.716948811127637e-39], [-4.427202112353861e-39, -2.073511146750682e-39, 3.5117618515797446e-39], [-0.06099602207541466, -0.14657069742679596, -0.04122263193130493], [2.4450275995078706e-40, -3.6776994118296965e-39, 2.0225038826492588e-39], [-0.21241319179534912, 0.15660223364830017, 0.07669112831354141], [0.32887253165245056, -0.07058199495077133, 0.18945419788360596], [-0.15245822072029114, 0.02584325522184372, 0.07045594602823257], [-0.0316244438290596, -0.001136176404543221, -0.0869237557053566], [0.029521876946091652, 0.10704507678747177, 0.005222876090556383], [-0.045058757066726685, 0.05648627132177353, -0.10682155191898346], [0.05036556348204613, -0.009379321709275246, 0.0014327410608530045], [0.0950964018702507, 0.1945001184940338, 0.12805919349193573], [0.2550477981567383, 0.08859096467494965, 0.11581838876008987], [0.1700742542743683, 0.06924695521593094, 0.05480485036969185]], [[0.1296640932559967, -0.15776394307613373, -0.13160987198352814], [-0.017062881961464882, 0.11256350576877594, 0.08009031414985657], [0.204143226146698, 0.0046473219990730286, -0.05278478562831879], [-0.05812212452292442, 0.058439951390028, -0.054600682109594345], [-0.05196612700819969, -0.028100190684199333, -0.042426303029060364], [4.448517263294706e-39, 4.8617041284855214e-39, -5.117599444951269e-39], [5.6388278230399925e-39, -4.6619994791407345e-39, 1.7548642837540046e-39], [0.002725184429436922, -0.033118098974227905, -0.04825645685195923], [3.978789406366848e-39, -3.39892929923231e-39, -1.9897036894948078e-40], [-0.09575885534286499, 0.0583808533847332, 0.0037462387699633837], [-0.006236320827156305, -0.05507386848330498, 0.010211135260760784], [-0.020543046295642853, -0.0050823925994336605, -0.013667598366737366], [-0.088740773499012, 0.23188820481300354, -0.20533104240894318], [-0.1628303974866867, 0.017781348899006844, -0.03419186919927597], [-0.1282573640346527, -0.018167046830058098, 0.10725639015436172], [-0.09500640630722046, -0.009902672842144966, -0.12331036478281021], [0.06268521398305893, 0.12236060947179794, -0.042549751698970795], [0.06244353577494621, 0.020088743418455124, -0.1532445102930069], [0.03177689015865326, 0.1904197484254837, 0.056091636419296265]], [[-0.06822516769170761, 0.16458795964717865, 0.09805240482091904], [0.13800129294395447, 0.22231851518154144, 0.2746397852897644], [0.10634934902191162, -0.3346168100833893, -0.27107298374176025], [-0.16458278894424438, -0.28315460681915283, -0.03927892819046974], [-0.19201922416687012, -0.17960196733474731, -0.08861193805932999], [3.7455909211277695e-39, 5.162019204971902e-40, 4.4835595339920766e-39], [-6.792027795554565e-39, -3.479101788271726e-39, 5.212423910733665e-40], [0.0020213157404214144, 0.10172021389007568, 0.007625103462487459], [-1.654777942238069e-39, -3.66384897780831e-40, -3.161776349726907e-39], [0.06387254595756531, -0.051161736249923706, -0.03261568397283554], [0.15665099024772644, 0.1859167367219925, 0.15459926426410675], [-0.25318172574043274, 0.23503610491752625, 0.027583150193095207], [0.24175922572612762, 0.08842755109071732, 0.04012986645102501], [-0.0016550355358049273, -0.005168491043150425, -0.06998636573553085], [0.05077817291021347, -0.06886687874794006, 0.04181647673249245], [-0.14077842235565186, -0.16743271052837372, 0.05960403382778168], [-0.10036420822143555, 0.0010961020598188043, 0.11211806535720825], [-0.12041826546192169, 0.11788227409124374, 0.06530329585075378], [0.0492204874753952, 0.1257351040840149, 0.023372860625386238]], [[0.13565170764923096, -0.07775641232728958, 0.03330913186073303], [0.029776372015476227, -0.1850961595773697, 0.20636439323425293], [-0.018532956019043922, 0.13863007724285126, 0.023253370076417923], [-0.2486782819032669, -0.1740747094154358, -0.013980928808450699], [-0.18059086799621582, -0.22370867431163788, -0.14843016862869263], [-3.017703249415815e-39, 2.6922853122395202e-39, -2.7401466612885343e-39], [1.7628418759114058e-39, -3.6469311014485164e-39, -6.281558587074928e-39], [0.08480169624090195, 0.0807429850101471, -0.20846772193908691], [2.8644712623418964e-39, 4.1654886046642366e-39, 1.7862631784441308e-39], [0.030151614919304848, -0.03592904657125473, 0.12873247265815735], [0.1652335822582245, 0.3097231090068817, -0.1735173612833023], [0.05436479300260544, 0.17917639017105103, 0.036755889654159546], [-0.021259348839521408, 0.06830701231956482, -0.06552386283874512], [-0.0457959808409214, 0.1361146867275238, 0.06831929087638855], [-0.2259719967842102, 0.022518863901495934, 0.2001725435256958], [-0.2694713771343231, 0.05628463998436928, -0.016285577788949013], [-0.01600322499871254, -0.09193658828735352, 0.18614085018634796], [0.03814757615327835, -0.11045727878808975, -0.01554810255765915], [0.16431543231010437, 0.13135142624378204, -0.10011661052703857]], [[-0.05973764508962631, -0.014803494326770306, 0.18953920900821686], [-0.10772348940372467, 0.12284398078918457, 0.13337019085884094], [-0.02899083122611046, -0.04336784407496452, -0.16860143840312958], [-0.05330836400389671, -0.2093634158372879, -0.0352603979408741], [-0.2744307518005371, -0.237811878323555, 0.18034568428993225], [-5.94425483632423e-39, -4.2936905985683855e-40, -5.0754091507873777e-39], [2.586942700183902e-39, 3.6260251296592545e-39, 2.833429698760173e-39], [-0.2189645916223526, -0.030121121555566788, -0.18966208398342133], [-1.3256872017867786e-39, 5.025406617684875e-40, -2.2911243904695402e-39], [0.14781828224658966, -0.05363525450229645, 0.20653846859931946], [0.12371821701526642, 0.003633903805166483, 0.1111009493470192], [-0.09733770787715912, -0.11089670658111572, 0.011880124919116497], [0.05273554101586342, 0.05426405742764473, -0.02808649092912674], [0.0655430257320404, 0.04039173573255539, 0.03756676986813545], [0.05388299375772476, 0.06924639642238617, 0.14138056337833405], [-0.020756708458065987, -0.05036615580320358, 0.10107539594173431], [-0.05766088515520096, -0.044084783643484116, 0.2573690116405487], [-0.1302085816860199, 0.2299797087907791, -0.05040516331791878], [0.0752658024430275, 0.15610161423683167, -0.014393733814358711]], [[0.03622324392199516, 0.0035736472345888615, -0.25609686970710754], [-0.09369964897632599, 0.09745687246322632, -0.05181458964943886], [-0.03148939833045006, 0.04561154544353485, -0.05053623393177986], [0.03701112046837807, 0.04237573221325874, -0.15722842514514923], [0.09540984779596329, 0.08210423588752747, 0.04374649003148079], [-6.870737328997226e-39, 2.2488177885331097e-39, 8.381880777343537e-40], [2.110176121069741e-39, -4.697804056202698e-39, 1.3459990230271668e-39], [-0.10531343519687653, 0.29430970549583435, 0.2880864143371582], [1.5141408257615016e-39, 4.7043214953602726e-39, -4.431050077936897e-39], [0.05617083981633186, -0.08245638757944107, -0.0930231437087059], [-0.06511253118515015, 0.20634713768959045, 0.12354477494955063], [0.006627602502703667, 0.08460552245378494, 0.0011893275659531355], [0.019512636587023735, 0.03692873939871788, 0.041968271136283875], [0.015988236293196678, 0.04090622067451477, 0.03715799003839493], [-0.0699942335486412, 0.12284808605909348, 0.037635430693626404], [0.05249442160129547, 0.03649422526359558, 0.0033239759504795074], [0.14590978622436523, 0.07687371224164963, 0.03911887854337692], [0.370535284280777, -0.05882265791296959, 0.19029882550239563], [0.21451511979103088, 0.07219520211219788, -0.11468058079481125]], [[-0.06225793808698654, -0.23288671672344208, -0.023768365383148193], [0.15733976662158966, 0.056432612240314484, 0.0089765265583992], [-0.010249733924865723, -0.14938019216060638, -0.04033851996064186], [-0.023504190146923065, -0.09369881451129913, 0.10874999314546585], [0.04741140455007553, 0.03672013431787491, -0.24376697838306427], [1.2024962511910553e-39, 5.16907894663517e-39, -1.3287616506175072e-39], [2.459093833492763e-39, 2.2409088600004604e-39, -6.657367217028343e-39], [0.2883921265602112, 0.1855240762233734, -0.1481890231370926], [-6.338770800776381e-39, -3.672209124446472e-39, -5.975722394639108e-39], [0.04744137078523636, -0.02052411437034607, -0.13083362579345703], [0.011529754847288132, 0.009730569086968899, 0.07332704216241837], [-0.05066857859492302, 0.046515174210071564, 0.1363704800605774], [0.10134083032608032, -0.06963682174682617, -0.0002787947887554765], [-0.08493968099355698, -0.04275277629494667, -0.23133261501789093], [0.15309947729110718, -0.022975213825702667, 0.03321198746562004], [0.08612004667520523, -0.0640622079372406, 0.000430850253906101], [0.010722567327320576, 0.13357266783714294, 0.20004305243492126], [-0.004657679703086615, 0.3029189705848694, -0.06205638498067856], [-0.023805031552910805, -0.08543530106544495, 0.01558737177401781]], [[-0.18785779178142548, 0.1030903235077858, 0.08275952190160751], [-0.10657186061143875, 0.12495154142379761, 0.09547891467809677], [0.20855756103992462, -0.22350457310676575, -0.037416722625494], [-0.09610795974731445, 0.0017623520689085126, -0.12061906605958939], [-0.402098149061203, -0.20708979666233063, -0.3753567039966583], [-4.921348996321043e-39, -5.040652744976729e-40, 3.971712849122008e-39], [-6.68841298450546e-39, -2.3058926749850595e-39, 6.745042258045754e-39], [0.15966877341270447, 0.15885184705257416, -0.03695051372051239], [-4.8776537076064665e-40, 3.800956783972629e-38, 2.4602555099196884e-39], [-0.12283726781606674, 0.14880771934986115, 0.15399713814258575], [0.19625478982925415, 0.03547538444399834, 0.0745934471487999], [-0.16505996882915497, 0.27634885907173157, 0.09534165263175964], [0.2281346321105957, -0.1149275079369545, 0.04428907111287117], [-0.03222100809216499, 0.05802086740732193, 0.10413077473640442], [-0.25512197613716125, 0.17148129642009735, 0.08989141136407852], [-0.09843891859054565, 0.00932428427040577, -0.045877210795879364], [-0.09514347463846207, 0.17716574668884277, -0.029644429683685303], [-0.07704167068004608, -0.03907725587487221, 0.07131784409284592], [-0.04698900505900383, -0.18745256960391998, 0.07231922447681427]], [[0.037861909717321396, 0.029994314536452293, -0.14474643766880035], [0.019043991342186928, -0.07870187610387802, -0.15631313621997833], [-0.0942121222615242, -0.07444214820861816, 0.17655356228351593], [-0.0007790508680045605, 0.20447339117527008, -0.08223967254161835], [-0.09142749756574631, -0.05932752043008804, 0.05315069109201431], [-4.422767002714273e-39, 3.590065008467751e-39, -4.536939196393602e-39], [-3.5700880975603365e-40, 1.7978841466087765e-39, -2.3109945224339733e-38], [0.02259126305580139, -0.12824802100658417, 0.03603731840848923], [-1.3930826514284807e-39, -4.4629772621480737e-39, 6.271581342008935e-40], [-0.32370173931121826, 0.09028950333595276, 0.04079785197973251], [-0.0056127095595002174, -0.11235914379358292, -0.028812436386942863], [-0.2186249941587448, 0.12595883011817932, 0.13535529375076294], [-0.009879980236291885, -0.09523451328277588, 0.06025564670562744], [0.2144179791212082, 0.10838357359170914, 0.13869866728782654], [-0.04133208468556404, 0.15471500158309937, -0.04081366956233978], [0.14332886040210724, -0.0809100940823555, -0.13396690785884857], [0.024101093411445618, -0.22184249758720398, 0.14034685492515564], [-0.25383618474006653, -0.09040028601884842, -0.01006618794053793], [0.09985392540693283, -0.15994928777217865, -0.004978523589670658]], [[-0.06057475507259369, 0.08534529060125351, -0.08651196956634521], [0.07276535779237747, 0.14603762328624725, -0.18035292625427246], [-0.035753339529037476, -0.1732577532529831, 0.18552199006080627], [0.11994700878858566, -0.06935320794582367, 0.011715933680534363], [0.025562681257724762, -0.1714068204164505, -0.15258269011974335], [4.12465757001074e-39, 3.140248201419485e-39, -5.378145671020111e-39], [2.491966894167359e-39, -1.2232018372999188e-39, -1.3718431706047094e-40], [0.09805932641029358, 0.1948913335800171, 0.12819267809391022], [1.8060649270435048e-39, -4.6542516999314825e-39, 1.4446756582879918e-39], [-0.020082363858819008, -0.04619951546192169, -0.03808527812361717], [-0.1223771944642067, 0.08260982483625412, -0.01047197263687849], [0.1339387595653534, 0.09659663587808609, -0.0822879821062088], [0.04144180938601494, -0.058082450181245804, 0.08468043059110641], [-0.17698436975479126, 0.011023525148630142, -0.06889013946056366], [-0.12144225835800171, -0.017626073211431503, -0.02350609563291073], [-0.02646978199481964, 0.04922826960682869, -0.07425899803638458], [-0.028321508318185806, 0.08078762888908386, -0.014949848875403404], [0.11630184203386307, 0.061842408031225204, 0.06652382016181946], [0.006310441996902227, -0.018272485584020615, 0.033007312566041946]]], "conv3.bias": [-0.03067973628640175, -0.03535338491201401, -0.014997093006968498, 0.037157174199819565, 0.06425350904464722, -0.05948696658015251, 0.019307203590869904, 0.05916830524802208, -0.03898562118411064, 0.017655543982982635, 0.008492987602949142, 0.04471643641591072, -0.16469186544418335, 0.006537734530866146, 0.05442500486969948, -0.06724651157855988], "conv5.weight": [[[-0.025282716378569603, 0.08612813800573349, 0.01334119588136673, -0.11939872801303864, 0.005754377227276564], [0.018806371837854385, 0.11079167574644089, 0.06709666550159454, -0.19287514686584473, 0.16520696878433228], [0.08677376061677933, 0.035425033420324326, 0.03146157041192055, 0.09169641137123108, -0.10940190404653549], [-0.07446882128715515, -0.04215626418590546, -0.10617829859256744, -0.05890132114291191, 0.10000456869602203], [-0.4006160795688629, -0.39964160323143005, -0.08492293953895569, -0.3224933445453644, -0.12928251922130585], [-9.846209646593684e-40, -3.337724786205995e-39, 5.5738356002646075e-39, 6.473648580564574e-40, 8.832328168700749e-40], [2.1060226724214822e-38, -9.474178917300088e-42, -3.389799839737234e-39, -2.5100198222832556e-40, 1.4343102535473811e-39], [0.06286850571632385, 0.26740705966949463, 0.06354690343141556, -0.06774186342954636, -0.006287822965532541], [-5.36663960932954e-39, -1.0663881313511858e-40, 4.729565887195084e-39, 2.3892068751814915e-39, -6.309050661646516e-39], [-0.011393227614462376, 0.10418280214071274, 0.11344672739505768, 0.13270412385463715, 0.05173606798052788], [0.28622421622276306, 0.1606285125017166, 0.2347155213356018, 0.32080939412117004, 0.0557137168943882], [-0.11224669963121414, 0.17449039220809937, 0.05375530943274498, 0.06214040145277977, 0.1351151317358017], [0.11103624105453491, -0.21566198766231537, -0.009133070707321167, 0.17884561419487, 0.06668528914451599], [0.1561836451292038, -0.022962618619203568, -0.10190750658512115, -0.0005348637932911515, -0.07269537448883057], [-0.09342518448829651, -0.0010506571270525455, -0.1215297132730484, -0.28811216354370117, -0.02353844791650772], [-0.21355590224266052, 0.024586645886301994, -0.1728171706199646, 0.011901685036718845, -0.1064743772149086], [-0.15566107630729675, 0.10778988897800446, -0.12804387509822845, -0.09459887444972992, 0.013430808670818806], [-0.03493747487664223, 0.07032718509435654, -0.0048910751938819885, -0.011662391945719719, -0.13346843421459198], [-0.04371446371078491, 0.12388520687818527, 0.1011304184794426, 0.03769737109541893, -0.1701909899711609]], [[-0.0022212835028767586, -0.15730707347393036, -0.09004423022270203, -0.029579980298876762, 0.03730231523513794], [-0.0031865336932241917, -0.05611618608236313, -0.11767157167196274, -0.040326137095689774, 0.15817895531654358], [-0.09327850490808487, 0.0452115535736084, 0.01846451498568058, 0.08903805166482925, -0.21944540739059448], [-0.1466875523328781, 0.05559909716248512, -0.07083706557750702, 0.04235164821147919, -0.14172780513763428], [-0.39544257521629333, -0.15822933614253998, -0.2876569628715515, -0.31967276334762573, -0.03825683146715164], [4.383815109301436e-39, -9.17672529227786e-40, 3.6848390275054314e-39, 4.5528831703206896e-39, 2.9046016477632306e-39], [1.3348488911465342e-40, 2.892420160212855e-40, -6.222907239850613e-39, -1.7542981591744174e-39, -2.3593998555468383e-39], [0.21275103092193604, 0.05263781175017357, 0.04777009040117264, 0.049409642815589905, -0.1351936310529709], [2.8670776774855406e-39, -4.2388928221209635e-39, 1.598224338814848e-39, -5.992064337330064e-39, 2.6523511086031916e-39], [0.09436137229204178, 0.0007705083116889, 0.05850372463464737, 0.1750379353761673, 0.1698911041021347], [0.11064684391021729, 0.11086855083703995, 0.19943977892398834, 0.016428980976343155, 0.2994042932987213], [0.010642832145094872, -0.04374062269926071, 0.20653079450130463, 0.09472057223320007, 0.026024695485830307], [-0.016625871881842613, 0.08295667171478271, 0.11369393765926361, -0.1516227126121521, -0.04410150274634361], [0.06101066619157791, -0.026765329763293266, -0.01892559416592121, -0.1063368171453476, -0.017145060002803802], [-0.05421311780810356, -0.10031535476446152, 0.0025071415584534407, -0.14075656235218048, -0.07399700582027435], [0.0543326772749424, 0.0670810341835022, 0.03780302032828331, -0.016862651333212852, 0.0322243832051754], [-0.11509480327367783, -0.06640516966581345, 0.07785966247320175, -0.049452874809503555, -0.09225394576787949], [0.024294260889291763, -0.033828604966402054, 0.01665225438773632, 0.09328792989253998, 0.06850019097328186], [0.06978703290224075, 0.0876755639910698, -0.021265728399157524, 0.053321342915296555, 0.01641128398478031]], [[-0.06718669086694717, -0.009696275927126408, 0.15538863837718964, 0.017909450456500053, -0.013224045746028423], [0.07101532071828842, -0.019556565210223198, 0.05913526937365532, -0.08142020553350449, -0.061468448489904404], [-0.08066214621067047, 0.10172438621520996, 0.016453014686703682, 0.08817210793495178, 0.15461581945419312], [-0.05255800113081932, -0.002048354595899582, 0.10043660551309586, -0.03791116178035736, -0.035868484526872635], [0.1142425611615181, -0.02894595079123974, -0.13157472014427185, 0.09847577661275864, 0.19137875735759735], [6.0455771230857e-39, -2.858343384157404e-39, 2.201001281034954e-39, -6.580747019595991e-39, -4.841494602033029e-39], [4.8904531677796094e-39, 1.3013970942061722e-39, -6.884335529295034e-39, 1.331555839755371e-39, -4.1988325016228456e-39], [0.32791006565093994, -0.32815584540367126, -0.17088690400123596, 0.049032747745513916, 0.12620732188224792], [-2.4652203103787912e-39, -1.0330862733465065e-39, 4.146680376676069e-39, 1.1201181183687923e-39, -6.577657156482155e-39], [0.07793228328227997, -0.026168573647737503, -0.09696468710899353, 0.025943465530872345, 0.14100269973278046], [-0.08088809251785278, -0.07990846037864685, -0.1700442135334015, 0.11936654150485992, 0.01758682169020176], [-0.08238527178764343, 0.054055891931056976, 0.08661776781082153, 0.06308560073375702, -0.0020182228181511164], [-0.05334784835577011, -0.15278488397598267, 0.001391298370435834, 0.03389635682106018, 0.023109130561351776], [-0.01685137115418911, -0.08550132811069489, 0.02043449878692627, -0.10392159968614578, 0.03394773229956627], [0.04273378476500511, -0.1307574361562729, -0.1322362869977951, 0.05499500036239624, -0.12500962615013123], [0.162744402885437, 0.04832461476325989, 0.14815640449523926, -0.12494141608476639, -0.044009704142808914], [-0.09861879050731659, -0.1453271508216858, 0.06556066870689392, 0.06468482315540314, 0.22685234248638153], [-0.050102315843105316, 0.42980295419692993, -0.03193510323762894, 0.14528214931488037, 0.17252272367477417], [-0.03191208466887474, 0.06219033524394035, -0.04232321307063103, 0.030865022912621498, 0.044548582285642624]], [[-0.15686295926570892, -0.16085664927959442, 0.00492578512057662, -0.16069145500659943, -0.08470803499221802], [0.012587424367666245, 0.0001679620472714305, -0.06498653441667557, -0.07235249876976013, 0.04944789409637451], [0.04385284706950188, -0.05761973187327385, 0.1783539056777954, 0.018132220953702927, -0.009353434666991234], [0.017542192712426186, -0.016289524734020233, -0.0022245021536946297, 0.026081940159201622, 0.06479429453611374], [-0.010972154326736927, -0.006830486934632063, 0.10647948086261749, 0.08262994140386581, -0.10080035030841827], [5.5310175243886984e-39, 1.8701981538602587e-39, 1.1761336231817125e-39, 5.6658420548352464e-39, 2.8975489125922837e-39], [2.3411269235720427e-39, -3.7872991686199334e-39, -3.3074875679427944e-39, -3.5728108204765196e-39, -2.667214681414285e-39], [0.12490946799516678, 0.16769762337207794, -0.20398998260498047, 0.33875513076782227, 0.1672450751066208], [-3.186095884575264e-39, -1.7387241280419114e-39, 2.3278958634718878e-39, 3.829106908303064e-39, -2.2644506742011173e-39], [-0.2653762698173523, -0.10715074092149734, -0.16294647753238678, -0.12638449668884277, -0.22909392416477203], [-0.02315763384103775, 0.13805042207241058, -0.06969369202852249, -0.07197975367307663, 0.06938272714614868], [0.23390613496303558, 0.04135372117161751, 0.00026072515174746513, 0.04592880234122276, -0.07175254076719284], [0.07310934364795685, 0.04464418441057205, -0.09133166819810867, -0.122861847281456, -0.07959648221731186], [0.09992054849863052, -0.014120799489319324, 0.045424751937389374, 0.12329386174678802, 0.10844140499830246], [-0.07377240061759949, 0.07671982795000076, -0.09293393790721893, 0.16322655975818634, -0.03877492994070053], [0.0014730759430676699, -0.032117102295160294, -0.09049055725336075, 0.08177916705608368, -0.026526661589741707], [-0.18881185352802277, 0.009547853842377663, -0.06333416700363159, -0.1047244742512703, 0.13140825927257538], [-0.023150315508246422, 0.065562404692173, 0.18004567921161652, 0.04617573693394661, 0.004719664808362722], [-0.03687761351466179, -0.019704869017004967, 0.0160321407020092, 0.04060722142457962, -0.1096574142575264]], [[-0.26632159948349, 0.0918952152132988, -0.02500091679394245, -0.05096053704619408, -0.09478598833084106], [-0.019287267699837685, 0.007397274952381849, -0.0038871625438332558, 0.02055380493402481, -0.16406822204589844], [0.0565824881196022, -0.03694522753357887, 0.05310583859682083, 0.0786508172750473, 0.17459137737751007], [-0.21230892837047577, 0.05979416146874428, 0.06653829663991928, -0.0342794731259346, -0.0637933760881424], [0.09405142068862915, -0.12246350198984146, -0.004450459498912096, 0.08086057752370834, 0.0701017752289772], [6.169959177376099e-39, 6.052734955641471e-39, 5.115357087148657e-38, 3.3148780160436435e-39, 4.4264622267646976e-39], [-5.175527722167993e-39, 3.010640705155618e-39, -6.825663162593754e-39, 4.103556817734937e-39, -3.364492389471528e-39], [-0.1016867458820343, -0.10801760852336884, -0.0033744564279913902, 0.1493230015039444, 0.06969211250543594], [8.205597430531475e-40, -4.3831396834416315e-39, -6.3742628882808e-39, -6.087547413390692e-39, -3.725804586811503e-39], [-0.17070387303829193, -0.19978231191635132, 0.003963575232774019, -0.26009494066238403, 0.09149347245693207], [-0.08830432593822479, -0.12242715805768967, -0.025209156796336174, -0.14334623515605927, -0.11090242117643356], [0.10451067239046097, -0.038858700543642044, -0.10522259026765823, -0.24525803327560425, 0.10308054834604263], [0.008241351693868637, -0.10884326696395874, 0.13217918574810028, -0.12190566211938858, -0.119796983897686], [-0.08225444704294205, 0.12361150234937668, 0.1682305783033371, 0.07300408184528351, 0.11689344793558121], [-0.17701807618141174, -0.007240720558911562, 0.07696481794118881, 0.09196040034294128, 0.021641893312335014], [0.12226211279630661, -0.04695151001214981, -0.1743840128183365, -0.10031164437532425, -0.16702036559581757], [-0.11417339742183685, -0.09519432485103607, 0.09800511598587036, -0.009830246679484844, -0.09104189276695251], [0.28514060378074646, -0.11516508460044861, 0.22853633761405945, -0.15764504671096802, 0.013935851864516735], [-0.03258068114519119, -0.030062582343816757, 0.062250763177871704, 0.16513235867023468, 0.0782088041305542]], [[-0.04504094645380974, -0.11399845778942108, -0.18673376739025116, -0.14888375997543335, 0.04140117019414902], [-0.07860478013753891, 0.05375535041093826, -0.1122296079993248, -0.09043973684310913, -0.02928060106933117], [0.07414203882217407, 0.08406037092208862, 0.10145239531993866, 0.11122868210077286, 0.03496306389570236], [0.14955121278762817, 0.11211574077606201, -0.10117770731449127, -0.011983832344412804, 0.10361485183238983], [0.038170889019966125, 0.012208775617182255, 0.10091473907232285, -0.15544411540031433, -0.04417051747441292], [-1.3155572151881745e-39, 2.882281765823465e-39, 4.6030594644327683e-39, 2.0835640619337483e-39, 8.876931498820208e-40], [3.7101801089342814e-39, 6.795589896250879e-39, -1.0616153087816955e-39, 5.607182299820145e-39, 3.53549424237155e-39], [0.12201473116874695, -0.06465115398168564, 0.008814698085188866, 0.024730926379561424, 0.0012146449880674481], [1.490636706489535e-38, -1.7938708278069502e-39, 2.557407532451328e-39, 3.8263505542237374e-39, -9.723133602472035e-40], [-0.010003922507166862, 0.15765729546546936, -0.21471743285655975, -0.04257624223828316, -0.07611288130283356], [-0.1174323558807373, -0.04460125043988228, -0.031195394694805145, -0.009625239297747612, -0.01227401290088892], [0.11100414395332336, -0.06404084712266922, 0.14762461185455322, 0.2012757807970047, 0.00824279896914959], [0.13767236471176147, -0.16431966423988342, 0.07516032457351685, 0.16586540639400482, 0.00034779534325934947], [0.061565935611724854, 0.07586760073900223, 0.05881130322813988, -0.10553249716758728, 0.04952371492981911], [-0.04173269495368004, -0.08839531987905502, 0.003906740806996822, -0.0930582582950592, 0.024432353675365448], [-0.016482360661029816, 0.09481428563594818, 0.06615854054689407, -0.0636851042509079, -0.07927954196929932], [-0.004180822521448135, 0.14677931368350983, 0.03433859720826149, 0.12281579524278641, 0.15435373783111572], [0.18117555975914001, -0.07359113544225693, 0.02225043624639511, -0.05537159740924835, -0.03722185268998146], [-0.033338651061058044, -0.007244414649903774, -0.19713571667671204, -0.10427778214216232, 0.07115459442138672]], [[0.11110974103212357, -0.09976951032876968, 0.05793211981654167, -0.13880610466003418, -0.033174555748701096], [-0.02818344533443451, -0.00766587071120739, -0.04033925384283066, 0.028932245448231697, -0.1122889593243599], [-0.059604089707136154, 0.023309461772441864, 0.05194437503814697, -0.061032410711050034, 0.127908855676651], [0.25221216678619385, -0.035075511783361435, -0.07778918743133545, -0.10093601793050766, -0.01653379201889038], [0.00961233489215374, 0.031504519283771515, -0.00014851520245429128, -0.023878447711467743, 0.002499966649338603], [-1.9656111649976712e-39, -5.59368219041484e-39, 5.59927477258596e-39, 1.2011425968745175e-39, -3.4966614593281804e-39], [4.027705933159499e-39, 2.2244295900600006e-39, -3.865759270935944e-39, 6.403613084616084e-39, 5.909058422795783e-39], [-0.13470017910003662, 0.12065930664539337, 0.15329816937446594, 0.04817946255207062, -0.004544067662209272], [5.978258744859536e-39, 1.364498965353183e-39, -2.2323034861310417e-39, -5.339888821645579e-39, -2.4432675686366786e-39], [0.23710784316062927, -0.06820779293775558, -0.011370440013706684, 0.17660285532474518, -0.09567336738109589], [-0.017953544855117798, -0.036619607359170914, -0.12210346013307571, -0.1658451110124588, -0.11869381368160248], [0.06688402593135834, -0.14176484942436218, -0.09048708528280258, 0.09432999044656754, 0.026837652549147606], [0.11561378091573715, -0.19673341512680054, -0.12679888308048248, -0.17016223073005676, -0.2170155793428421], [-0.10810379683971405, -0.020056065171957016, 0.11023014038801193, 0.0666523352265358, 0.23343105614185333], [-0.0547921322286129, 0.19601459801197052, -0.08318953216075897, -0.017634768038988113, -0.08785230666399002], [0.05437960475683212, -0.1948910653591156, 0.13307489454746246, -0.06749291718006134, 0.04614076390862465], [-0.14895780384540558, -0.04273107275366783, -0.134353905916214, 0.07682132720947266, -0.1731647551059723], [0.2735373377799988, -0.18150074779987335, 0.27025026082992554, -0.1269216537475586, 0.05502137541770935], [0.04837363213300705, -0.11786927282810211, -0.16593074798583984, 0.1450907588005066, 0.024410467594861984]], [[0.07167103886604309, 0.05239727720618248, -0.06940324604511261, 0.028936557471752167, -0.123780257999897], [-0.17344532907009125, -0.14502686262130737, 0.051788896322250366, 0.11604918539524078, -0.07738704979419708], [0.097064308822155, 0.13754414021968842, 0.032648470252752304, 0.04663475230336189, 0.06949453055858612], [0.045012883841991425, 0.03344939649105072, -0.07356581091880798, 0.10095356404781342, -0.0622267872095108], [-0.02920607291162014, 0.09444258362054825, 0.05697286128997803, -0.05093969404697418, 0.0025185788981616497], [4.477664271352662e-39, 5.278562395652868e-38, -1.2743226065769524e-39, 1.6640167030133624e-39, 1.1840794058639735e-38], [-5.935262704078657e-39, 5.198450162447418e-39, 3.0456213187205585e-39, 6.404603802630361e-39, 2.845056272118676e-41], [0.1096724420785904, -0.07598511874675751, 0.1408972293138504, 0.21661129593849182, 0.03331780806183815], [1.329075541473516e-39, 3.210031743904089e-38, -1.88852153257977e-39, -2.8295270825370285e-39, 3.063444433888306e-39], [0.22391125559806824, 0.07553071528673172, 0.04562761262059212, -0.24879030883312225, -0.2514854967594147], [-0.0036922802682965994, -0.08372035622596741, -0.08413033932447433, -0.018414843827486038, -0.07552920281887054], [-0.015214887447655201, 0.11134164780378342, 0.11086109280586243, 0.15432274341583252, 0.148078054189682], [0.08733709156513214, 0.15637381374835968, -0.08541355282068253, -0.04897700622677803, -0.2653711438179016], [0.0015774354105815291, -0.004058641381561756, 0.08605101704597473, 0.11097950488328934, 0.2606686055660248], [-0.04280195012688637, -0.06651315838098526, 0.09267044812440872, 0.017840789631009102, 0.07405852526426315], [-0.16276609897613525, -0.046683184802532196, -0.04828164353966713, 0.010749123059213161, 0.023289835080504417], [-0.16044601798057556, 0.11358794569969177, 0.03791527822613716, -0.03332861140370369, 0.12700536847114563], [-0.04197173938155174, 0.17045579850673676, -0.16287875175476074, 0.13137756288051605, 0.0846693366765976], [-0.061475709080696106, 0.18372492492198944, 0.044888149946928024, -0.01749269664287567, -0.06289243698120117]], [[-0.10351579636335373, -0.13462811708450317, -0.11688356101512909, -0.11419912427663803, -0.04574501886963844], [-0.12120294570922852, -0.06468403339385986, -0.003176773199811578, -0.040090665221214294, 0.10695895552635193], [0.001147135510109365, -0.04856789484620094, 0.008566363714635372, 0.2147606760263443, 0.043172597885131836], [-0.10574951767921448, -0.06783845275640488, -0.05767297372221947, -0.07869028300046921, -0.0066870166920125484], [-0.13352753221988678, -0.10777358710765839, -0.004979738499969244, 0.024948060512542725, -0.23604701459407806], [5.624219286549406e-39, -3.747789558418295e-39, -3.5481507701013314e-39, -7.542741217951906e-40, -2.073247702639389e-39], [-5.027571623812257e-39, -4.353167310588188e-39, -6.099311313998699e-39, -6.376130819133745e-39, 5.736146600088887e-39], [0.30135318636894226, 0.10715033859014511, 0.1777036041021347, 0.0671105831861496, 0.07455519586801529], [4.366524487550132e-39, 3.0700431483568114e-39, 1.5185591198195178e-40, 5.425155030602816e-40, 7.487417954580363e-41], [0.025261593982577324, 0.02824336476624012, -0.02964254654943943, 0.04065122827887535, 0.010508001782000065], [0.20789802074432373, 0.08759080618619919, 0.2694714665412903, 0.1723587065935135, 0.2711738049983978], [0.19640298187732697, 0.002161550335586071, 0.012840421870350838, -0.04736047238111496, 0.04963365197181702], [-0.022320272400975227, 0.11581813544034958, 0.09894253313541412, -0.004368459805846214, 0.018603689968585968], [-0.07068756967782974, -0.048604801297187805, -0.1236540749669075, -0.15930233895778656, 0.026315849274396896], [0.06397318840026855, -0.18241675198078156, 0.07710626721382141, -0.10265030711889267, -0.02155773714184761], [-0.11450455337762833, -0.0018442609580233693, -0.043714962899684906, -0.07983028143644333, 0.10275287926197052], [-0.04276175796985626, 0.05652618408203125, 0.06815959513187408, -0.07343388348817825, 0.10965682566165924], [0.30371347069740295, 0.09903984516859055, 0.31245294213294983, 0.10480878502130508, -0.000637008051853627], [0.07469125837087631, -0.12154211103916168, -0.07886296510696411, 0.08759353309869766, -0.19776329398155212]], [[-0.0677398219704628, -0.012101405300199986, -0.09741895645856857, -0.029539400711655617, 0.13649818301200867], [0.030365245416760445, -0.030636798590421677, -0.06701935827732086, -0.09691935777664185, -0.035359714180231094], [-0.009584627114236355, 0.062977135181427, 0.09063354134559631, 0.24237552285194397, -0.10755190253257751], [0.09433677047491074, -0.03011629916727543, -0.06315675377845764, -0.02422618865966797, 0.08242124319076538], [0.060124848037958145, 0.019394317641854286, 0.04207278788089752, 0.194088414311409, -0.03142732381820679], [-1.6470161500441737e-39, -3.0094510027594063e-39, 2.1282500686626024e-39, 1.2980367804887213e-40, 3.9903697368760286e-39], [-5.670662521552524e-40, 3.437689214755535e-39, 1.6326976823357028e-39, 5.356634338294261e-39, 6.22281895804736e-39], [0.22922112047672272, -0.12090250104665756, -0.22310221195220947, 0.022517701610922813, 0.14965610206127167], [-2.2812242168190854e-39, -4.6027189489059374e-39, -1.536907721911387e-39, -4.7228760883263975e-39, 4.088456425483373e-40], [0.14600516855716705, 0.12944312393665314, -0.28355544805526733, 0.038015857338905334, -0.020811062306165695], [-0.08261025696992874, -0.1892160177230835, -0.08808447420597076, 0.10183846205472946, 0.020002251490950584], [0.03187546879053116, 0.11945674568414688, 0.16713185608386993, 0.0980476438999176, -0.06697201728820801], [0.04801185801625252, -0.13841894268989563, 0.008534285239875317, 0.10491202026605606, -0.21021239459514618], [-0.0633445680141449, 0.14569060504436493, -0.08461960405111313, 0.03689338639378548, -0.051474086940288544], [-0.01009729690849781, -0.1685110330581665, 0.13458530604839325, -0.12329892069101334, 0.05660901963710785], [0.03442496433854103, 0.056283414363861084, -0.05291524529457092, 0.02752343937754631, 0.030746672302484512], [-0.023187123239040375, 0.018993504345417023, 0.019309207797050476, 0.17316526174545288, 0.08268581330776215], [0.10738155245780945, 0.09086426347494125, 0.15117065608501434, 0.07054250687360764, -0.02497694455087185], [0.06651164591312408, -0.07962587475776672, -0.036114782094955444, -0.04172191396355629, 0.04468733072280884]], [[-0.07342810928821564, 0.08416388928890228, -0.08825649321079254, 0.018707912415266037, 0.02967734821140766], [-0.0171137023717165, -0.0037164234090596437, 0.000961070996709168, 0.04304967075586319, 0.0633930116891861], [-0.0076719895005226135, 0.15448592603206635, 0.027849916368722916, 0.029730282723903656, 0.1490873545408249], [-0.11853083968162537, -0.0962790697813034, 0.02813917212188244, 0.03848223760724068, -0.004421537276357412], [-0.05329245328903198, 0.09239983558654785, 0.004639856982976198, -0.11456655710935593, -0.06273162364959717], [4.807667257104228e-39, 4.5811961255326797e-38, 1.9002857134474697e-38, 4.4136053133545174e-39, -1.3273491417654678e-39], [7.2869622092586975e-40, -1.2242416007604478e-39, -2.0536757669881643e-39, 5.5097107812386396e-39, 6.741173272985753e-39], [-0.026839883998036385, -0.0707198902964592, 0.09567106515169144, 0.04769587889313698, -0.006114876829087734], [-6.18407025291185e-40, -5.773869554748511e-39, 4.496054912398461e-39, 4.7728547993550064e-39, 4.211650178676025e-38], [-0.02802235260605812, -0.2494121491909027, -0.104819156229496, -0.323708713054657, 0.02428661845624447], [-0.018327640369534492, -0.08844640851020813, -0.06073550134897232, -0.09495034068822861, -0.06795728951692581], [-0.1688157469034195, 0.19208936393260956, 0.07859157770872116, 0.08012015372514725, -0.11593681573867798], [-0.17251360416412354, -0.03100713901221752, 0.018657280132174492, -0.046544454991817474, 0.09407481551170349], [0.13886132836341858, 0.13412532210350037, 0.09169697016477585, 0.24635052680969238, 0.3005838692188263], [-0.1013609990477562, -0.014826135709881783, -0.10025465488433838, -0.05304853245615959, -0.24533025920391083], [-0.09972148388624191, 0.059465762227773666, -0.045758385211229324, -0.08808957040309906, 0.07641565054655075], [0.17446479201316833, -0.1882164478302002, 0.1690864861011505, 0.010405241511762142, -0.10441021621227264], [0.05064278095960617, 0.18007095158100128, -0.1213051825761795, 0.03605589643120766, 0.009379335679113865], [-0.030851049348711967, 0.004777594469487667, 0.07470178604125977, 0.06617078185081482, 0.2528584599494934]], [[-0.011525091715157032, 0.1799812763929367, 0.14403866231441498, 0.12140641361474991, 0.0001436774036847055], [0.005804093554615974, 0.07367938756942749, -0.09597721695899963, 0.01620359718799591, 0.05130032077431679], [-0.29022035002708435, -0.3995261788368225, 0.08978807181119919, -0.04240407422184944, 0.12986771762371063], [-0.032048553228378296, 0.06706775724887848, -0.17353060841560364, -0.047557491809129715, -0.06856358051300049], [-0.06763345003128052, -0.2925020456314087, 0.0386296845972538, 0.0024529448710381985, -0.32189705967903137], [3.9300620548668814e-39, 1.3211427908669732e-39, 4.6777500738797454e-39, -2.4866943685654904e-38, 4.704412579760454e-39], [-6.196218109299082e-39, -1.3406250434164811e-39, 3.403246699800895e-39, -2.608801554928905e-39, -5.93318037456067e-39], [-0.05075554922223091, -0.16145844757556915, -0.05264783278107643, 0.09143846482038498, -0.03262375667691231], [-3.214763648558421e-39, -3.648681323230458e-39, -4.398276509453268e-39, -4.114940966459112e-39, -5.152975224683149e-39], [0.07259424775838852, 0.15766523778438568, 0.18742255866527557, -0.09502904117107391, -0.040009502321481705], [0.15846188366413116, 0.1347244530916214, -0.0015486516058444977, 0.07970443367958069, -0.052048612385988235], [-0.04232819005846977, 0.09087090939283371, -0.24580621719360352, -0.03205694630742073, -0.2505008578300476], [0.06574170291423798, 0.0015574705321341753, 0.006323224399238825, 0.06986531615257263, 0.018225695937871933], [0.22895105183124542, 0.09754526615142822, 0.034341003745794296, -0.11392553895711899, -0.0753139853477478], [-0.147413432598114, -0.03864220902323723, 0.1498708575963974, -0.020784849300980568, -0.026025138795375824], [-0.12401524186134338, 0.025270115584135056, -0.06321496516466141, -0.037150487303733826, -0.012791761197149754], [-0.11844440549612045, -0.035519324243068695, -0.04611014574766159, 0.06347944587469101, -0.04823746904730797], [0.10586461424827576, 0.000930646900087595, -0.17903591692447662, -0.1563856452703476, -0.027831966057419777], [0.16360272467136383, 0.1462244689464569, 0.03508913144469261, -0.026118194684386253, -0.004533327650278807]], [[-0.019691992551088333, 0.09881820529699326, 0.05459365248680115, -0.0419505350291729, 0.010975508950650692], [0.12177187204360962, 0.08466099202632904, -0.0008657841826789081, 0.03586370870471001, 0.013613690622150898], [-0.2673966884613037, -0.12203045934438705, -0.00235334993340075, -0.1641286313533783, 0.022925730794668198], [-0.021136008203029633, -0.10986796766519547, -0.10034218430519104, 0.04689266160130501, -0.1263704001903534], [0.1544937789440155, -0.508213460445404, -0.2502295672893524, -0.36469969153404236, -0.421178936958313], [4.3125310564212327e-39, -8.526466752892571e-40, -6.082505541516052e-39, 4.428904689988016e-39, -3.502513281715201e-39], [-1.2042016314221386e-39, -2.855142818464886e-39, 2.2474234965611065e-39, -5.435884772944151e-39, -1.715650347528339e-39], [0.006569677963852882, -0.04512833431363106, -0.12044765800237656, -0.05185695365071297, -0.028540244325995445], [2.8580056712275017e-39, 4.8390507375112464e-39, -3.381589632034755e-39, -4.010230340010904e-39, 5.01427190008735e-39], [-0.1268664300441742, 0.19237805902957916, 0.09409940987825394, 0.0896141529083252, -0.00787410605698824], [0.14981232583522797, -0.09489823132753372, 0.18619510531425476, 0.12443318217992783, 0.27202630043029785], [0.12689128518104553, -0.06496001034975052, -0.2113761454820633, 0.013444305397570133, -0.148877814412117], [0.06727619469165802, 0.10389711707830429, 0.0011839799117296934, 0.0654124990105629, 0.009854576550424099], [0.09597990661859512, 0.13244850933551788, 0.15077705681324005, 0.06331734359264374, 0.11415448784828186], [-0.16281658411026, 0.17263518273830414, 0.05842728540301323, 0.04997299239039421, 0.06109273061156273], [0.03093104623258114, 0.12217377126216888, 0.0738195925951004, 0.0957302451133728, -0.07212065160274506], [-0.13506339490413666, 0.10244854539632797, -0.03682513162493706, 0.08585456758737564, -0.02000732347369194], [0.0902530625462532, 0.02308144047856331, 0.030704420059919357, 0.2166488915681839, -0.01678142324090004], [0.17640912532806396, 0.05255358666181564, 0.040731847286224365, -0.030751409009099007, 0.11126415431499481]], [[-0.021088233217597008, 0.05571231245994568, 0.04453568160533905, -0.0230453722178936, -0.14880548417568207], [-0.050699133425951004, -0.08057901263237, -0.06351006031036377, 0.0029833733569830656, -0.18554498255252838], [0.13945703208446503, 0.024326913058757782, -0.00939087476581335, -0.0028460221365094185, 0.15568861365318298], [0.04024576023221016, -0.044597774744033813, 0.056533824652433395, 0.0439881905913353, -0.028391355648636818], [0.13345198333263397, 0.11162198334932327, 0.07671434432268143, 0.0914110466837883, 0.05228964984416962], [-5.023646586813683e-39, 3.195894323957209e-38, 5.8675015155377665e-39, 6.148080704452596e-39, -4.814966620804896e-39], [1.6109607405570962e-39, 5.1626834204439916e-39, 5.788091332862943e-40, 4.2937466505069585e-39, 6.364301057497915e-39], [0.060063667595386505, 0.06818791478872299, 0.02734461985528469, 0.168949156999588, -0.0019592023454606533], [3.8253724478956387e-39, -3.2302914368416045e-39, 3.3233937068113454e-39, -6.663618409477696e-39, 4.310141842539559e-38], [0.06307321786880493, 0.059116143733263016, 0.10936225205659866, 0.11261151731014252, -0.08667007088661194], [-0.11264596879482269, 0.014314275234937668, -0.014749713242053986, -0.04574504867196083, -0.1108655259013176], [-0.07773780822753906, 0.1779135763645172, -0.12093465030193329, -0.03232864290475845, 0.07544978708028793], [-0.021483641117811203, -0.024543050676584244, -0.0007665635785087943, -0.04110275208950043, 0.05968973785638809], [-0.04519442096352577, 0.10817433893680573, -0.047650065273046494, 0.10966160893440247, 0.0998375415802002], [0.02621985226869583, -0.044137224555015564, -0.055693767964839935, 0.12780235707759857, 0.034659165889024734], [0.011148647405207157, -0.05247742310166359, -0.10488251596689224, 0.11059845238924026, 0.022258175536990166], [-0.07955842465162277, -0.05669042840600014, 0.03559856489300728, 0.16699185967445374, 0.04210640862584114], [-0.08594217896461487, 0.17918547987937927, -0.13282428681850433, 0.1879947930574417, 0.01578632742166519], [0.07660388946533203, -0.09354563057422638, -0.009469988755881786, -0.13874582946300507, -0.019820284098386765]], [[-0.08174645155668259, -0.0982004702091217, 0.12732644379138947, -0.10890107601881027, 0.12494396418333054], [-0.03700079023838043, -0.09542183578014374, -0.04293220862746239, -0.09250514954328537, -0.07251475006341934], [0.07005918771028519, 0.11863748729228973, -0.027973268181085587, 0.08378664404153824, -0.019844261929392815], [0.07453339546918869, -0.06476113945245743, -0.02578824758529663, 0.0001389801618643105, -0.22400274872779846], [-0.07335131615400314, 0.15801070630550385, -0.07318714261054993, 0.006054779049009085, -0.001585941412486136], [3.785705892265996e-39, 7.91662166121841e-40, -3.45824626322718e-39, -4.1660407162591806e-39, 4.39368585568414e-39], [5.83967312933474e-40, -3.843760286344509e-39, 6.843137354443884e-39, -2.1294411723572785e-39, 4.437512866454363e-39], [0.04745839536190033, -0.03081107884645462, 0.0518403984606266, -0.08301528543233871, -0.0038369803223758936], [3.5030864127871096e-39, 3.940461090770636e-39, -6.54481352307531e-39, 2.6669806645707427e-39, -2.592106485024939e-39], [0.1324453055858612, 0.022478468716144562, -0.13102920353412628, -0.12377722561359406, -0.3144209682941437], [-0.13921910524368286, -0.11366961896419525, -0.11000105738639832, 0.120818592607975, -0.01948751136660576], [0.10622033476829529, -0.04167274013161659, 0.09691930562257767, -0.10257218033075333, -0.17729154229164124], [-0.17726477980613708, -0.03310833498835564, 0.05197083204984665, 0.01769872009754181, -0.04312487691640854], [0.06809529662132263, -0.0028337929397821426, 0.08230447769165039, 0.1553352326154709, 0.10620300471782684], [-0.015328810550272465, 0.11481259018182755, 0.23202039301395416, 0.13189981877803802, 0.24257616698741913], [-0.060279469937086105, -0.1684451401233673, 0.12157663702964783, -0.15433557331562042, -0.047802820801734924], [-0.17010879516601562, -0.11451598256826401, -0.059237442910671234, 0.053124140948057175, -0.1053176149725914], [-0.18485118448734283, 0.05535229295492172, -0.0335632860660553, -0.12622420489788055, -0.012863918207585812], [0.006727959960699081, -0.04105887934565544, 0.11437832564115524, 0.0873124897480011, -0.013640367425978184]], [[-0.0726858377456665, -0.14634969830513, -0.14932098984718323, -0.12966139614582062, 0.10556883364915848], [0.03946414589881897, -0.03766877204179764, 0.08619382232427597, -0.022514747455716133, 0.12776131927967072], [0.06386972218751907, 0.0647016391158104, -0.005274882540106773, 0.10568375885486603, 0.15755240619182587], [0.011385063640773296, -0.0075392653234303, 0.06875268369913101, -0.07418809831142426, 0.14126227796077728], [0.077775739133358, -0.04886620119214058, 0.0593758225440979, 0.0379900299012661, -0.051418207585811615], [1.534925725363446e-38, 4.9813652082496105e-39, -1.0995708789863975e-39, -5.342500841983081e-39, 4.8379114818597504e-39], [-2.866665695737029e-39, -5.81826549269525e-39, -3.0573810154331724e-40, -4.0135794433406405e-39, -4.626915169489434e-39], [-0.020045151934027672, 0.0335128977894783, 0.10200728476047516, 0.20059305429458618, -0.2369014471769333], [5.884378754242095e-39, -6.201813494067131e-39, 6.830782105883932e-39, 3.8866890647990997e-39, 2.7473507366936282e-39], [0.026712480932474136, 0.07955479621887207, 0.13212233781814575, 0.024807358160614967, -0.06487032771110535], [0.11308690160512924, -0.08140471577644348, 0.11119043081998825, -0.012027616612613201, 0.01884964294731617], [0.17268489301204681, -0.08868463337421417, 0.04142487421631813, 0.022391891106963158, -0.05912255868315697], [0.11496372520923615, 0.0989474430680275, -0.07600747793912888, -0.12817814946174622, -0.14657582342624664], [-0.010194842703640461, 0.04913041740655899, 0.003777420148253441, 0.023741744458675385, -0.08721203356981277], [-0.0017583966255187988, -0.047377560287714005, 0.0225115604698658, -0.04904913529753685, -0.060375042259693146], [0.0720958560705185, -0.046809758991003036, 0.04397588223218918, -0.07391579449176788, -0.026900913566350937], [0.0356561504304409, -0.011449677869677544, -0.07190860062837601, 0.04773854836821556, 0.08183083683252335], [0.04729999601840973, 0.04893866181373596, 0.21886394917964935, 0.008099664933979511, 0.15355047583580017], [0.00700457813218236, -0.11104404926300049, -0.09941844642162323, 0.09137711673974991, -0.03588216006755829]]], "conv5.bias": [0.05071435496211052, -0.11848568916320801, 0.003461862448602915, -0.12017614394426346, 0.11056330800056458, -0.02125648595392704, -0.06720475107431412, 0.012658409774303436, 0.009065702557563782, 0.014636541716754436, -0.09463551640510559, 0.009271095506846905, -0.05531094968318939, 0.004495257046073675, -0.038267582654953, -0.01666165515780449], "fc1.weight": [[-0.13956724107265472, -0.16247141361236572, -0.00939247477799654, -0.28571847081184387, -0.10259278863668442, -0.0221606083214283, -0.024776816368103027, -0.05233018472790718, 0.23207396268844604, 0.21276597678661346, 0.11690198630094528, 0.06220148876309395, 0.11482058465480804, 0.039156004786491394, -0.18479548394680023, 0.00410634046420455, 0.14899346232414246, 0.07152621448040009, -0.05021525174379349, 0.06555501371622086, -0.2304697036743164, -0.08075736463069916, -0.06003531813621521, -0.2408890277147293, 0.2642812430858612, -0.03193394094705582, -0.10745996236801147, -0.11074144393205643, 0.2051718384027481, 0.008296818472445011, -0.21399928629398346, 0.19767189025878906, 0.14023150503635406, -0.01009776908904314, -0.03409016132354736, 0.05149130895733833, -0.05037131905555725, -0.008609160780906677], [0.2852384150028229, 0.026622287929058075, 0.14579544961452484, 0.023272469639778137, 0.034474655985832214, 0.15995559096336365, -0.2384377121925354, 0.005682356655597687, -0.30244332551956177, -0.28063029050827026, -0.060074519366025925, 0.1696915179491043, 0.0795864686369896, -0.08740068972110748, -0.10086528211832047, 0.10114086419343948, -0.2014649510383606, 0.04039440676569939, 0.11265953630208969, 0.2671559453010559, 0.11865445971488953, 0.24529996514320374, 0.2478017508983612, 0.050040971487760544, 0.16878823935985565, 0.19128605723381042, 0.026646386831998825, -0.39603742957115173, -0.3491916358470917, 0.23761489987373352, -0.12239893525838852, 0.025200529024004936, -0.15094123780727386, -0.06266717612743378, -0.11680392920970917, -0.158991739153862, -0.07299326360225677, 0.1670619249343872], [-7.600898698935343e-32, 1.7159379062379235e-27, 2.5428951250353944e-38, -1.9431577650470203e-20, 3.4201182110338377e-31, -9.076948693774478e-36, -2.3243864933611725e-29, -1.134042524999537e-25, 7.87148586110056e-31, -1.2345006737016104e-22, -1.4630282140962927e-26, 5.844547332839256e-32, -1.1513646459532567e-35, 1.8041985706025217e-31, -1.968808517649864e-29, -8.414814766475361e-36, -2.0068558566469156e-25, 4.4551554655385345e-24, 4.687852369296082e-33, -5.198120429234499e-29, -1.2082747962696618e-14, -9.571379246154682e-20, -2.0058169021828362e-25, -3.2026031909337414e-19, -4.647833364822284e-16, 5.730809813596949e-24, 4.542602274604094e-24, 7.055794573798301e-28, 2.8494326120203593e-27, -1.2831314428890356e-25, -3.1111557375778016e-18, 5.302161663090562e-39, 7.804349628256706e-40, -1.786369849935225e-25, 1.1757518197298679e-24, 5.786027220224993e-39, 1.2773466086629654e-39, 2.23267284424561e-31], [-0.09976688027381897, -0.038627080619335175, -0.1789795607328415, -0.1262511909008026, -0.13005900382995605, 0.012362781912088394, -0.004304058849811554, 0.05984889343380928, 0.1417420506477356, 0.2382042109966278, 0.0634678453207016, 0.150770902633667, 0.0665157288312912, 0.24969077110290527, -0.22037513554096222, 0.22206944227218628, 0.13457806408405304, 0.22905950248241425, -0.13214053213596344, 0.013012135401368141, -0.17556877434253693, -0.14775492250919342, -0.24333542585372925, -0.13938942551612854, 0.16071796417236328, -0.09143272042274475, -0.18284311890602112, 0.10670681297779083, 0.0739913135766983, -0.16959543526172638, -0.2907472848892212, 0.20095503330230713, 0.22174444794654846, 0.04545784369111061, -0.13790421187877655, 0.09364030510187149, -0.05930608510971069, -0.07712422311306], [0.09635207802057266, 0.22555537521839142, 0.07681962102651596, 0.1416388750076294, 0.19870401918888092, 0.20515543222427368, -0.3122231066226959, -0.039215341210365295, -0.19982178509235382, -0.23413822054862976, -0.14659638702869415, 0.2487015277147293, 0.22092032432556152, -0.1901686191558838, 0.09381336718797684, -0.025493135675787926, -0.3159409165382385, -0.0049678063951432705, 0.3061010539531708, 0.2712358236312866, 0.06581643223762512, 0.236021488904953, 0.09069717675447464, 0.023492278531193733, 0.10575220733880997, 0.01998060569167137, 0.11511865258216858, -0.2734418213367462, -0.40502601861953735, -0.06629549711942673, -0.05328483134508133, 0.23320281505584717, -0.07418211549520493, -0.03890717029571533, 0.09149452298879623, -0.17090080678462982, -0.11226817220449448, -0.000722086988389492], [0.12894132733345032, -0.0066452003084123135, 0.19846995174884796, 0.023465769365429878, 0.2551443576812744, 0.22655440866947174, -0.2011081576347351, 0.12403633445501328, -0.35331490635871887, -0.0768236443400383, -0.32563072443008423, 0.1738576740026474, 0.10042224079370499, -0.06771878153085709, -0.05929001048207283, 0.11960043013095856, -0.12247980386018753, -0.15615388751029968, 0.17124009132385254, 0.2538606524467468, -0.018701061606407166, -0.03397997468709946, 0.18908849358558655, 0.1202598363161087, 0.1464967429637909, 0.16295239329338074, 0.16205868124961853, -0.38808348774909973, -0.2977007329463959, 0.17669560015201569, 0.05887897312641144, -0.01286260411143303, -0.17527389526367188, -0.014136765152215958, -0.05224617198109627, -0.08880496025085449, 0.020636646077036858, 0.19912205636501312], [0.0799514427781105, -0.019389808177947998, -0.04698441922664642, -0.06620482355356216, 0.021660728380084038, -0.1468229740858078, 0.08516070991754532, 0.08098839968442917, -0.08505871891975403, -0.00010544846736593172, 0.029136141762137413, -0.04958539083600044, 0.02010188065469265, 0.10666605085134506, 0.0005047350423410535, 0.042435795068740845, -0.0868348702788353, -0.05751632899045944, 0.0028263540007174015, 0.03626551106572151, -0.09340649098157883, 0.09836053848266602, -0.061653658747673035, -0.05950804427266121, 0.03645845875144005, -0.13189393281936646, -0.05286092683672905, -0.14281725883483887, 0.03990144282579422, -0.010064996778964996, -0.11592727154493332, -0.07548011839389801, 0.039830032736063004, 0.059831518679857254, -0.09827552735805511, 0.06345703452825546, 0.011464427225291729, 0.08716021478176117], [0.015543673187494278, -0.11711028218269348, -0.17181198298931122, -0.2067708671092987, -0.12409102916717529, 0.08826835453510284, 0.18564358353614807, -0.12506085634231567, 0.14819706976413727, 0.19955359399318695, 0.1874421238899231, 0.015233462676405907, 0.2064533531665802, 0.283843994140625, -0.16029466688632965, 0.12659145891666412, 0.20924122631549835, 0.26436689496040344, 0.051734231412410736, -0.11265729367733002, -0.1407468169927597, -0.05480558052659035, -0.2563968002796173, -0.252495139837265, 0.08482662588357925, -0.12215135246515274, -0.21227222681045532, 0.11279410123825073, 0.22635522484779358, -0.1190820261836052, -0.15468157827854156, 0.001109982025809586, 0.12494238466024399, -0.17562130093574524, -0.08620080351829529, -0.15589015185832977, -0.08392700552940369, -0.301317036151886], [0.003520786529406905, -0.25559788942337036, -0.090383380651474, -0.26833051443099976, -0.2480064034461975, 0.005565143655985594, 0.23403151333332062, -0.0476873442530632, 0.09957291930913925, 0.10511544346809387, 0.17199990153312683, 0.02006872184574604, -0.0667150616645813, 0.27060699462890625, -0.09292592108249664, 0.1676533967256546, 0.33331698179244995, 0.32300955057144165, -0.09102804213762283, 0.008681078441441059, -0.11258145421743393, 0.04604480043053627, -0.13801537454128265, -0.2500758171081543, 0.081099733710289, -0.10386083275079727, -0.2103729397058487, -0.06306338310241699, 0.004238319117575884, -0.03920814394950867, -0.15058478713035583, 0.10144339501857758, -0.020547252148389816, 0.05603557080030441, 0.018872182816267014, 0.08688110113143921, 0.13869096338748932, -0.09760193526744843], [-0.12768232822418213, -0.09730257838964462, -0.07956225425004959, -0.2757897973060608, -0.2104368507862091, -0.04352453351020813, 0.13781988620758057, -0.03206774219870567, 0.073609359562397, 0.09833571314811707, 0.1513049304485321, 0.10546532273292542, 0.11291664838790894, 0.032267339527606964, -0.2223721146583557, 0.08791391551494598, 0.1403302550315857, 0.17195793986320496, 0.019925802946090698, 0.06150023639202118, -0.28351908922195435, -0.024023201316595078, -0.2025158852338791, -0.22482576966285706, 0.2968274652957916, -0.039849504828453064, -0.13296015560626984, 0.14590193331241608, 0.11659994721412659, -0.12652334570884705, -0.09758173674345016, 0.12508536875247955, 0.06570522487163544, -0.10035083442926407, -0.14161020517349243, 0.06018633395433426, -0.029301730915904045, -0.10644069314002991], [-1.1519862709974404e-05, -7.8874385508243e-05, -9.423660230822861e-06, -0.000385028135497123, -0.00018825069128070027, -3.513514684527763e-06, 5.461201726575382e-05, -1.7963332084036665e-06, -6.151528396003414e-06, -4.8195241106441244e-05, -1.3542374290409498e-05, -4.618422977387127e-09, -4.24280628408269e-08, -4.71837029181188e-06, -4.954112955601886e-05, 1.809931232665818e-10, -1.4659499356639571e-05, -4.7345201892312616e-07, -1.3831249816576019e-06, -3.951949111069553e-06, -0.00021248537814244628, -0.00013515773753169924, -0.0003548955428414047, -0.00016522743680980057, -1.184165626000322e-06, -0.00023315138241741806, -0.00015224299568217248, -2.4414332074229605e-05, 7.459178959834389e-06, -0.00039382337126880884, -0.0005261186743155122, -2.290600598087167e-09, 4.5442469231993243e-10, -1.0284978998242877e-05, -1.035759396472713e-05, -7.905710808220334e-11, -7.051019490500465e-11, -3.582596946216654e-06], [0.03897113725543022, -0.17853833734989166, 0.00021083527826704085, -0.23201273381710052, -0.11169284582138062, 0.0031219259835779667, 0.2028229534626007, 0.025369226932525635, -0.013450860977172852, 0.21339157223701477, 0.05265501141548157, 0.1700250208377838, 0.08244610577821732, 0.12359301000833511, -0.20570708811283112, 0.1701933890581131, 0.18207256495952606, 0.22142446041107178, 0.038109906017780304, 0.0010724252788349986, -0.21988603472709656, -0.16617389023303986, -0.2994978129863739, -0.09317944198846817, 0.21802449226379395, -0.15009798109531403, -0.2131095826625824, -0.046670034527778625, -0.00931259710341692, -0.09525171667337418, -0.24359922111034393, -0.014668099582195282, 0.22925888001918793, -0.10428240895271301, 0.1661556214094162, 0.09514456987380981, 0.11382829397916794, -0.1611996591091156], [0.203033909201622, 0.16151612997055054, 0.2081393599510193, 0.03140617161989212, 0.1884077489376068, 0.19482378661632538, -0.3058716952800751, 0.08080139756202698, -0.2945941984653473, -0.23580114543437958, -0.20236527919769287, 0.1479262113571167, 0.1673288643360138, -0.1719466894865036, 9.906015475280583e-05, 0.01623624563217163, -0.2040296196937561, -0.037137389183044434, 0.2904079258441925, 0.17378480732440948, 0.10091054439544678, 0.08513320237398148, 0.16156138479709625, 0.09114973247051239, 0.10464762151241302, 0.1860354095697403, 0.12058523297309875, -0.2735235095024109, -0.35544803738594055, 0.06993857771158218, -0.0236465223133564, 0.14473110437393188, -0.11801484227180481, 0.00733386492356658, 0.012860850431025028, -0.06753819435834885, -0.031468816101551056, 0.06519750505685806], [0.2501547336578369, 0.15607404708862305, 0.09292204678058624, 0.13160091638565063, 0.22073552012443542, 0.21939267218112946, -0.23418693244457245, 0.1504652351140976, -0.2661531865596771, -0.20382608473300934, -0.14246869087219238, 0.2346324324607849, 0.2718956768512726, -0.09444063901901245, -0.1412895768880844, -0.15150293707847595, -0.12327547371387482, 0.010497207753360271, 0.14249356091022491, 0.18776507675647736, 0.1658783257007599, 0.19869817793369293, 0.2205285280942917, 0.08371594548225403, -0.032244566828012466, 0.005129695404320955, 0.10189324617385864, -0.12221653759479523, -0.3405495584011078, -0.10536136478185654, 0.005681549198925495, 0.003997216932475567, -0.0722178965806961, -0.08957219123840332, 0.07803071290254593, -0.2556838095188141, -0.13496790826320648, 0.11226637661457062], [0.19987648725509644, 0.12900802493095398, 0.25632137060165405, -0.05153225362300873, 0.05919615551829338, 0.13678033649921417, -0.29484373331069946, 0.05566519871354103, -0.18996073305606842, -0.19499722123146057, -0.1787905991077423, 0.06060900539159775, 0.22898633778095245, -0.21749058365821838, 0.07496979832649231, 0.04687930643558502, -0.21827425062656403, -0.03130752220749855, 0.2466646283864975, 0.19632397592067719, 0.19755972921848297, -0.026121828705072403, 0.1399083137512207, 0.06527199596166611, 0.08299018442630768, 0.1318855881690979, 0.19726037979125977, -0.2392117977142334, -0.2866773307323456, 0.17069153487682343, -0.09762951731681824, 0.07472182810306549, -0.10236607491970062, -0.062317006289958954, -0.13551442325115204, -0.040241487324237823, 0.008558041416108608, 0.012926999479532242], [0.18481303751468658, 0.03136538714170456, 0.3249449133872986, -0.0991361066699028, 0.19283980131149292, 0.09545133262872696, -0.36931559443473816, 0.16144421696662903, -0.2688503563404083, -0.28211814165115356, -0.19112282991409302, 0.18675698339939117, 0.16413992643356323, -0.30198395252227783, -0.044423334300518036, -0.10337788611650467, -0.1913055181503296, -0.05492936074733734, 0.2904200553894043, 0.3271888196468353, 0.1500498503446579, 0.15614385902881622, 0.027439480647444725, 0.20039726793766022, 0.1721487194299698, 0.23313212394714355, 0.22286298871040344, -0.3443658947944641, -0.3753978908061981, -0.030605295673012733, -0.08109990507364273, 0.15963153541088104, -0.024182479828596115, 0.059853751212358475, -0.15385782718658447, -0.052921462804079056, -0.23199144005775452, 0.17842231690883636]], "fc1.bias": [-0.0431530587375164, -0.05832546204328537, -1.7864626643511049e-25, 0.1527715027332306, -0.054270584136247635, 0.10102459788322449, -0.1192668229341507, 0.11688090860843658, -0.14779780805110931, -0.01600339636206627, -1.0126952474820428e-05, 0.030441805720329285, 0.0084385322406888, 0.10263210535049438, 0.17167459428310394, 0.10879026353359222], "fc2.weight": [[0.4761572480201721, -0.3032923638820648, -3.34088417730527e-06, 0.3722177743911743, -0.2634336054325104, -0.24538815021514893, -0.1692703664302826, 0.2757478654384613, 0.34341323375701904, 0.38609763979911804, 0.0023353693541139364, 0.41289734840393066, -0.23317097127437592, -0.23324847221374512, -0.34899550676345825, -0.2553670406341553]], "fc2.bias": [-0.01008086372166872], "norm_mean": [0.043760139495134354, 0.3931492269039154, 0.3054192364215851, 0.4337306618690491, 0.029304206371307373, 0.09868726879358292, 0.3831312954425812, 3.0828285217285156, 0.36539214849472046, 0.48448801040649414, 0.05671963095664978, 0.05205418914556503, 0.030726298689842224, 3.4025795459747314, 0.11231132596731186], "norm_std": [0.07697785645723343, 0.2944732904434204, 0.2874554395675659, 0.21108248829841614, 0.07998184114694595, 0.1730806827545166, 0.26159635186195374, 1.0871756076812744, 0.4815402030944824, 0.2663422226905823, 0.23130622506141663, 0.222136452794075, 0.17257526516914368, 2.8074183464050293, 0.1884484440088272], "feature_mask": [1.0, 0.0, 0.0, 1.0, 0.0, 1.0, 1.0, 1.0, 1.0, 1.0, 1.0, 1.0, 1.0, 1.0, 1.0]}