{"tool_embed.weight": [[-0.38690710067749023, 0.6355931758880615, 2.0529346466064453, 1.5389119386672974], [-0.3690080940723419, -1.6779521703720093, -0.5266301035881042, 1.5129352807998657], [-1.0439503192901611, -0.37493300437927246, 0.4381796419620514, 0.3513578176498413], [-0.11844585835933685, 0.686756432056427, 0.35549673438072205, -1.3789174556732178], [0.0007203003624454141, -0.02678866684436798, 0.32979556918144226, 0.2532724142074585], [-0.1572750359773636, -0.15060655772686005, -0.39425531029701233, -0.24163798987865448], [-2.018090009689331, 1.5895739793777466, -0.4341941475868225, -0.24765516817569733]], "conv3.weight": [[[0.030899396166205406, -0.0034987584222108126, -0.07936376333236694], [0.1908043473958969, 0.014947909861803055, -0.1639374941587448], [0.029719417914748192, -0.026776721701025963, -0.08639471977949142], [0.1112300306558609, -0.04883947595953941, 0.0621841736137867], [0.03705253079533577, -0.0667824074625969, 0.024613864719867706], [0.07590046525001526, -0.08870785683393478, 0.06451646238565445], [0.08325903117656708, 0.06791239976882935, -0.03611980006098747], [0.04719872027635574, 0.18533551692962646, -0.06120174005627632], [-0.017366833984851837, -0.10118487477302551, -0.019937757402658463], [0.0939716324210167, -0.08928731083869934, 0.11805693805217743], [-0.032205674797296524, -0.16882936656475067, -0.07016278803348541], [0.0016961820656433702, -0.12744295597076416, 0.028580810874700546], [-0.14729392528533936, -0.16771847009658813, 0.06525291502475739], [0.05820894241333008, -0.039892297238111496, -0.002887893933802843], [-0.08902521431446075, -0.13134941458702087, -0.042910195887088776], [-0.20816436409950256, 0.09040919691324234, -0.1524495929479599], [0.07590635120868683, -0.11957099288702011, -0.12513846158981323], [-0.015263894572854042, -0.173508420586586, 0.2854442000389099], [-0.006130680441856384, -0.10617459565401077, -0.03864177316427231]], [[-0.10260830819606781, 0.043216317892074585, -0.08963044732809067], [0.17842580378055573, 0.17055699229240417, -0.005394140724092722], [-0.05936948582530022, 0.008197716437280178, -0.030834779143333435], [-0.0560891255736351, 0.0357237346470356, -0.21425217390060425], [0.013329821638762951, -0.16354292631149292, 0.014221657998859882], [0.14912964403629303, 0.007184984162449837, -0.02570771798491478], [-0.18232393264770508, -0.14574545621871948, -0.21994875371456146], [-0.0693160742521286, -0.15723742544651031, 0.08472517877817154], [-0.08828126639127731, 0.022121336311101913, 0.07135830074548721], [0.12325873225927353, 0.17932353913784027, 0.018356937915086746], [0.18843106925487518, 0.1676313728094101, 0.07575366646051407], [-0.14473730325698853, -0.13302606344223022, 0.05837734788656235], [0.036065150052309036, 0.14732401072978973, -0.0058699785731732845], [0.018241941928863525, 0.20126603543758392, -0.06410925835371017], [-0.0056976736523211, 0.09870251268148422, -0.07331792265176773], [0.011486439034342766, -0.009889530017971992, -0.02421306073665619], [-0.02356649376451969, -0.006271339487284422, 0.059666480869054794], [-0.004430445376783609, -0.10115523636341095, 0.032042331993579865], [-0.08003043383359909, -0.10125445574522018, 0.006563518196344376]], [[0.020787300541996956, -0.0006637040060013533, 0.09820304065942764], [-0.06749767065048218, 0.10553964972496033, 0.03441711515188217], [0.09388234466314316, -0.007749586366117001, -0.09308568388223648], [-0.08588752150535583, -0.028432905673980713, -0.19500267505645752], [-0.09192657470703125, -0.17491087317466736, 0.051485493779182434], [0.09651977568864822, 0.14610126614570618, -0.15000233054161072], [-0.06410068273544312, -0.08416756242513657, -0.15832826495170593], [0.005221448373049498, -0.0017769628902897239, 0.024374650791287422], [-0.0793858990073204, -0.13317929208278656, -0.09382251650094986], [0.025541596114635468, 0.13829073309898376, -0.021156884729862213], [0.09477825462818146, 0.1781337708234787, -0.04474969208240509], [0.03331293538212776, 0.08298274874687195, -0.08795571327209473], [0.04275200515985489, 0.030901668593287468, -0.07931966334581375], [-0.107573963701725, 0.02166205830872059, 0.02858925424516201], [0.05835491791367531, 0.06301327794790268, -0.038388390094041824], [0.015111819840967655, 0.03552202507853508, -0.021760018542408943], [0.013314026407897472, -0.04330401122570038, 0.10107269883155823], [0.06689070165157318, 0.04488468915224075, 0.12354351580142975], [-0.0351659394800663, 0.057799577713012695, 0.10796916484832764]], [[0.0065779672004282475, -0.08381474018096924, -0.05647299066185951], [-0.0845305472612381, 0.08066799491643906, -0.07511475682258606], [0.19184547662734985, 0.04010651633143425, 0.15189826488494873], [-0.04260489344596863, -0.022367039695382118, 0.018481386825442314], [0.19488732516765594, 0.07535765320062637, 0.002927797846496105], [-0.008167951367795467, 0.07511018961668015, -0.08212120085954666], [-0.0874871239066124, 0.23329117894172668, 0.05683723837137222], [-0.013895855285227299, 0.2121739238500595, 0.1834793984889984], [-0.07107264548540115, -0.09073154628276825, -0.033663198351860046], [0.15875478088855743, -0.19601096212863922, -0.11723923683166504], [-0.033856138586997986, -0.02847086265683174, -0.024674605578184128], [0.05275855213403702, -0.03625495731830597, -0.00352105381898582], [0.020397115498781204, 0.012287575751543045, 0.03457557410001755], [0.0987422838807106, -0.04790215939283371, -0.012837895192205906], [0.05674024298787117, 0.15053874254226685, -0.07058561593294144], [-0.0883336216211319, 0.0915909856557846, -0.09319373220205307], [0.15368731319904327, -0.10102500021457672, 0.11628906428813934], [-0.03535997122526169, 0.042334333062171936, -0.009689795784652233], [0.02342093363404274, -0.0896126925945282, -0.043153997510671616]], [[-0.02564786747097969, -0.07527854293584824, 0.02886938489973545], [-0.011365283280611038, -0.1697193682193756, -0.11460363119840622], [-0.06024841591715813, -0.04187927767634392, 0.010333865880966187], [0.06616414338350296, 0.10287835448980331, 0.1658235341310501], [-0.01306575071066618, 0.019043099135160446, 0.01217559166252613], [-0.19117531180381775, -0.04271814972162247, -0.061913006007671356], [0.07787321507930756, 0.11160971969366074, -0.03161538392305374], [0.16710348427295685, 0.03872452676296234, -0.06074891611933708], [0.04038936644792557, 0.15255945920944214, 0.13702420890331268], [0.14280998706817627, 0.09971566498279572, 0.14073841273784637], [0.008735500276088715, -0.15304411947727203, -0.07155220210552216], [-0.13618135452270508, 0.06855884194374084, 0.1488954871892929], [-0.10696057230234146, -0.027954403311014175, -0.011113573797047138], [-0.12712706625461578, -0.09155811369419098, 0.003321337513625622], [-0.031241439282894135, -0.096335768699646, -0.0462193489074707], [-0.12319484353065491, 0.02088954485952854, 0.08441085368394852], [-0.09322704374790192, -0.06674768775701523, 0.025533977895975113], [-0.09729548543691635, 0.018663285300135612, 0.12874506413936615], [-0.11218096315860748, -0.01298457384109497, -0.0856131985783577]], [[0.08114328980445862, 0.1304972618818283, 0.12751638889312744], [-0.10369163751602173, 0.11318647861480713, 0.018446531146764755], [-0.1307973712682724, 0.0552259162068367, -0.059641033411026], [-0.02309318631887436, 0.13202255964279175, -0.04272148013114929], [-0.03123282641172409, -0.028455695137381554, 0.06166248023509979], [0.03905116766691208, 0.10990025848150253, -0.020762717351317406], [-0.07388949394226074, 0.12706391513347626, 0.10479048639535904], [-0.1048540249466896, -0.04216163605451584, 0.10992590337991714], [0.12188176810741425, -0.07443531602621078, 0.023335061967372894], [-0.002792752580717206, -0.019984114915132523, -0.10120775550603867], [0.05171242728829384, -0.045306917279958725, 0.1586790233850479], [-0.06989916414022446, 0.01516524888575077, 0.10855868458747864], [0.0265181977301836, -0.05072880908846855, 0.05424772575497627], [-0.042589880526065826, 0.05204957351088524, -0.01575310342013836], [-0.013668831437826157, -0.12579351663589478, 0.0473601408302784], [0.07214800268411636, -0.07193665951490402, -0.07272889465093613], [0.10601969063282013, 0.11408165097236633, 0.09700627624988556], [0.09601042419672012, -0.11688306927680969, 0.10144459456205368], [-0.023940641433000565, -0.09556090086698532, 0.10061216354370117]], [[-0.03860712796449661, 0.10064715892076492, 0.03521435335278511], [-0.08887975662946701, -0.20634907484054565, 0.03368760272860527], [0.15494486689567566, -0.018535183742642403, 0.058037642389535904], [0.04392257705330849, -0.06950966268777847, 0.11740091443061829], [-0.04385054484009743, -0.03363584354519844, -0.14080625772476196], [0.0016983278328552842, -0.12117510288953781, -0.05523528531193733], [-0.09117821604013443, 0.16643556952476501, 0.15647724270820618], [0.16397123038768768, -0.08443180471658707, 0.20556560158729553], [-0.09590290486812592, -0.05667763575911522, 0.06212245672941208], [0.02983209304511547, -0.03713662922382355, 0.14684100449085236], [-0.2002076804637909, 0.05649483576416969, -0.05380653962492943], [0.027631839737296104, 0.24937447905540466, 0.1243266612291336], [-0.11834654211997986, 0.12945657968521118, 0.059534456580877304], [-0.0604068897664547, -0.03841272369027138, -0.11665826290845871], [0.052357058972120285, 0.04685984179377556, 0.09168979525566101], [-0.11766467988491058, -0.017391830682754517, -0.022988419979810715], [-0.16421304643154144, 0.05377141758799553, 0.13228760659694672], [-0.12788742780685425, 0.0939064547419548, -0.07737826555967331], [-0.05437551438808441, -0.035081394016742706, -0.05154401436448097]], [[-0.0307087991386652, -0.12548820674419403, -0.12115319818258286], [-0.048936713486909866, -0.05886443704366684, 0.036106958985328674], [-0.11377480626106262, 0.12075891345739365, 0.0713868960738182], [-0.018898973241448402, 0.11438440531492233, 0.11469250917434692], [-0.0712580755352974, 0.06966831535100937, 0.025208963081240654], [0.12848488986492157, 0.06218573451042175, 0.08071514219045639], [0.1955595761537552, 0.22126583755016327, 0.2129417508840561], [0.11552281677722931, 0.088535837829113, 0.12011785805225372], [-0.07250990718603134, -0.008136154152452946, -0.009466771967709064], [-0.12040459364652634, -0.14266979694366455, 0.12077542394399643], [0.031805336475372314, -0.05829421058297157, -0.0819687768816948], [-0.10732387006282806, 0.048053596168756485, 0.06415380537509918], [-0.1542595624923706, 0.10951261967420578, -0.10436499863862991], [0.03760102391242981, -0.03159177675843239, -0.003266590414568782], [0.09078249335289001, 0.08268508315086365, 0.10339907556772232], [-0.07453160732984543, 0.06385473161935806, 0.09880676120519638], [-0.1619947850704193, 0.14210465550422668, -0.0084768645465374], [-0.051351357251405716, 0.08697066456079483, -0.11884117871522903], [-0.06314022094011307, -0.1351647526025772, 0.07548213005065918]], [[-0.035901110619306564, -0.04444317892193794, -0.05128762125968933], [0.10316259413957596, 0.035740796476602554, -0.005429367534816265], [0.06208913028240204, -0.10887180268764496, 0.07444975525140762], [0.1113724485039711, 0.10522258281707764, 0.05473918095231056], [0.010910237208008766, 0.09544795006513596, 0.11995048075914383], [-0.07893331348896027, -0.11294236034154892, -0.04661763831973076], [-0.022928355261683464, 0.016714319586753845, 0.07926025986671448], [-0.0061331880278885365, -0.13985222578048706, 0.17280453443527222], [0.02375601977109909, -0.11612726747989655, -0.0038296575658023357], [-0.03605518117547035, 0.15297478437423706, 0.10137876868247986], [-0.14267028868198395, -0.06616712361574173, 0.08213874697685242], [-0.025306101888418198, 0.05423031374812126, 0.07892627269029617], [-0.056882716715335846, 0.17812766134738922, -0.07821401208639145], [0.04159371182322502, 0.05176372826099396, -0.032189927995204926], [-0.10136895626783371, 0.041233859956264496, -0.08043811470270157], [-0.014706620015203953, -0.03678364306688309, -0.13812720775604248], [0.06724952161312103, -0.0359000526368618, -0.05726463347673416], [-0.07140903919935226, 0.1696271151304245, -0.13088572025299072], [-0.06714388728141785, 0.026840923354029655, -0.07615377008914948]], [[0.11662524193525314, -0.0953727513551712, 0.1069604754447937], [-0.017252475023269653, -0.05900465324521065, 0.045479144901037216], [-0.008662627078592777, 0.055808741599321365, 0.013139584101736546], [-0.043063871562480927, 0.12512139976024628, 0.06246647611260414], [0.025043077766895294, 0.04057066887617111, -0.12388541549444199], [0.025715457275509834, 0.10227379947900772, 0.011246602982282639], [-0.15327879786491394, 0.08372890949249268, -0.04289260134100914], [0.19165100157260895, 0.18641556799411774, -0.039785247296094894], [-0.05851409584283829, -0.07389379292726517, -0.047102030366659164], [0.028368540108203888, 0.08569944649934769, -0.09595023095607758], [0.1761918067932129, 0.17350682616233826, 0.028727559372782707], [-0.03208249807357788, -0.007409854792058468, 0.029506977647542953], [0.09801793098449707, 0.12358837574720383, 0.0989677831530571], [-0.06555190682411194, -0.0094600860029459, -0.07696419209241867], [-0.00011561554856598377, -0.05887044966220856, -0.12094168365001678], [-0.0569341704249382, 0.0296369269490242, -0.10051201283931732], [0.01237696036696434, -0.09763935208320618, 0.17596296966075897], [0.09906885772943497, 0.034405265003442764, 0.03954615443944931], [0.020240643993020058, -0.024214524775743484, -0.07590988278388977]], [[-0.02463909052312374, -0.11283443123102188, 0.03402813896536827], [0.1321289986371994, -0.002980832476168871, 0.06556180119514465], [0.07923533022403717, 0.02770530804991722, -0.09965268522500992], [-0.08224156498908997, -0.06685961782932281, 0.11427939683198929], [0.15002812445163727, -0.062251608818769455, 0.04771265387535095], [0.13293874263763428, 0.017825163900852203, 0.0916837751865387], [0.1966957002878189, 0.031637322157621384, 0.28040221333503723], [0.01973634399473667, -0.0383664071559906, -0.06604646146297455], [0.07858361303806305, 0.05929549038410187, -0.1402551680803299], [0.01895640790462494, 0.09798934310674667, 0.03035551682114601], [-0.054907072335481644, -0.0702902302145958, 0.0924777090549469], [-0.1231590136885643, -0.11987965553998947, 0.01142764464020729], [-0.041358377784490585, 0.009270649403333664, -0.049155473709106445], [0.16361574828624725, 0.07300076633691788, 0.12721990048885345], [0.006605842616409063, -0.01703745685517788, 0.06436710804700851], [-0.14971280097961426, 0.03187830373644829, 0.017021803185343742], [0.0006768322200514376, -0.05469149351119995, 0.08226937800645828], [0.0427279993891716, -0.09779326617717743, 0.045598167926073074], [0.055861443281173706, 0.08954998850822449, -0.03845525532960892]], [[-0.011652260087430477, -0.010225844569504261, 0.11020505428314209], [-0.11830731481313705, 0.09116257727146149, -0.08558644354343414], [0.1545560508966446, 0.07979615777730942, -0.0635022446513176], [0.1649264693260193, 0.1884954869747162, 0.1786920130252838], [0.12217175960540771, -0.015548125840723515, 0.05042074993252754], [-0.11549026519060135, 0.13517747819423676, 0.0771678015589714], [0.06966517120599747, 0.08824733644723892, 0.2347843050956726], [0.16806760430335999, 0.2112501561641693, -0.1519724279642105], [-0.04144839569926262, -0.1947605013847351, 0.12834683060646057], [-0.0334988534450531, -0.05068054422736168, -0.08279834687709808], [-0.0896512120962143, -0.1874873787164688, 0.04360772669315338], [0.1482868492603302, 0.1077880933880806, 0.19284257292747498], [-0.12579794228076935, -0.11751330643892288, -0.135870561003685], [-0.10650081187486649, -0.0071984329260885715, 0.01816093921661377], [0.009993781335651875, 0.1144728809595108, -0.04730597138404846], [-0.014372383244335651, 0.02483440935611725, 0.015549586154520512], [0.07003839313983917, -0.044272664934396744, 0.10778234899044037], [0.09867227077484131, -0.10085337609052658, 0.06414497643709183], [0.013521812856197357, 0.032946910709142685, 0.10187853872776031]], [[0.035250090062618256, -0.06511245667934418, -0.17366382479667664], [-0.022732410579919815, 0.18706202507019043, 0.04778839275240898], [0.02029622532427311, 0.02410748414695263, -0.28581908345222473], [0.015361332334578037, -0.056534405797719955, 0.009740854613482952], [0.07603676617145538, -0.08511243760585785, -0.05146174132823944], [0.12166329473257065, 0.01450270600616932, -0.014469562098383904], [0.027628004550933838, -0.05810660123825073, -0.010571976192295551], [-0.10639641433954239, -0.08924313634634018, -0.019646119326353073], [-0.22867310047149658, 0.07553625106811523, 0.06984257698059082], [0.0466812439262867, 0.0389941968023777, 0.012928414158523083], [-0.019409319385886192, -0.027623897418379784, 0.06872422248125076], [-0.11802925914525986, 0.1161246970295906, -0.1877724528312683], [0.10881668329238892, 0.06326311826705933, -0.0043958257883787155], [0.05805495008826256, -0.03240376338362694, 0.13005827367305756], [-0.12764406204223633, 0.03738662973046303, 0.12482074648141861], [0.0609554760158062, 0.022223351523280144, -0.004732118919491768], [-0.08282757550477982, 0.00653203297406435, -0.07381387054920197], [0.04391580447554588, 0.04139665141701698, 0.006812514737248421], [0.12657000124454498, 0.1375042200088501, -0.14433805644512177]], [[-0.08236584067344666, -0.009197716601192951, 0.10612378269433975], [-0.06305152177810669, 0.05635843798518181, -0.05261022225022316], [-0.007468008436262608, -0.052393727004528046, -0.08295400440692902], [-0.08180885761976242, -0.10764622688293457, -0.12354882806539536], [-0.13188211619853973, -0.04561230540275574, 0.02927274815738201], [0.0950416848063469, 0.09857497364282608, -0.08119890093803406], [-0.12158162146806717, -0.05263571813702583, -0.13589121401309967], [-0.19827653467655182, -0.03397272154688835, 0.029260339215397835], [-0.10787022113800049, 0.06183986738324165, 0.03197038546204567], [-0.06518907845020294, -0.022354470565915108, 0.05477562174201012], [0.07866337150335312, 0.098307766020298, -0.02043970674276352], [-0.10907868295907974, 0.07391204684972763, -0.06113172322511673], [-0.08999326080083847, -0.034866299480199814, -0.16462881863117218], [-0.018815981224179268, -0.07216328382492065, 0.10293956845998764], [-0.05369645357131958, 0.02426493540406227, 0.1367007941007614], [-0.08266402035951614, -0.025176426395773888, -0.0073094721883535385], [0.05148179456591606, 0.07226651906967163, 0.057739533483982086], [0.022832516580820084, -0.013670960441231728, 0.02380668930709362], [0.044276539236307144, -0.15595275163650513, -0.1941910833120346]], [[-0.030494829639792442, 0.0565161295235157, -0.036887697875499725], [0.1511017382144928, -0.043634697794914246, -0.1512984335422516], [0.1444268673658371, 0.09118912369012833, 0.03185649588704109], [0.12196329236030579, 0.12735773622989655, 0.022086994722485542], [0.07271334528923035, -0.11595966666936874, 0.16085556149482727], [-0.014563173986971378, -0.04655876010656357, 0.0337965190410614], [0.21248744428157806, 0.21853838860988617, -0.08236298710107803], [0.05758293345570564, 0.07318815588951111, 0.03596123680472374], [0.00481806555762887, 0.03541738539934158, -0.09987272322177887], [-0.13711190223693848, -0.11742719262838364, 0.0726938471198082], [0.03527660295367241, 0.03300141915678978, -0.15674778819084167], [0.08976686000823975, -0.004677075892686844, -0.08512743562459946], [0.062010105699300766, -0.041218750178813934, 0.0944976955652237], [0.020893041044473648, -0.017715176567435265, 0.059126272797584534], [0.12371876090765, 0.027900177985429764, -0.10831069201231003], [0.02502465434372425, -0.10281236469745636, -0.17051060497760773], [-0.0595305860042572, -0.031148722395300865, 0.07555831968784332], [0.14032796025276184, -0.10133595019578934, 0.08479978144168854], [-0.05653604865074158, -0.08212030678987503, -0.04985109716653824]], [[0.09167583286762238, 0.07450633496046066, -0.04272190108895302], [0.10853823274374008, 0.1541709303855896, -0.07747392356395721], [0.03724140673875809, 0.04359421879053116, 0.14651526510715485], [0.017143679782748222, 0.15607385337352753, 0.0495784617960453], [0.02626044489443302, -0.0870952233672142, -0.11332008987665176], [0.16873377561569214, -0.010452856309711933, -0.05149182304739952], [0.06178034096956253, 0.17005568742752075, 0.13860951364040375], [0.10433253645896912, 0.1964142918586731, 0.0129561061039567], [0.041780322790145874, -0.13403502106666565, -0.147706538438797], [0.05751881003379822, 0.06725343316793442, -0.11306692659854889], [-0.07590802758932114, 0.03238165006041527, 0.037836574018001556], [0.07574455440044403, 0.1672729104757309, 0.14268499612808228], [0.08729127794504166, -0.11455360054969788, 0.08256931602954865], [0.03224803879857063, 0.00527232326567173, 0.03073139861226082], [-0.0012157806195318699, -0.11768428981304169, 0.06541593372821808], [-0.03211311995983124, 0.11357728391885757, -0.0995236188173294], [0.1187582015991211, 0.10212019830942154, -0.16392672061920166], [0.0101816700771451, 0.1543400138616562, -0.11903625726699829], [-0.09917069971561432, -0.22343695163726807, -0.08608971536159515]]], "conv3.bias": [0.20353159308433533, -0.0650792047381401, -0.10770715028047562, 0.10166234523057938, -0.10345184057950974, 0.11128851026296616, 0.01947721652686596, 0.12671291828155518, 0.14605657756328583, -0.016016976907849312, -0.03512744978070259, -0.001996929757297039, 0.00496064405888319, -0.010886612348258495, -0.06685744971036911, 0.0647263154387474], "conv5.weight": [[[-0.09488558024168015, 0.06049570068717003, -0.060047902166843414, 0.10839797556400299, 0.016210269182920456], [0.14038585126399994, -0.0052150581032037735, -0.02125580981373787, 0.040093276649713516, 0.05048803240060806], [0.029107660055160522, 0.1106896847486496, 0.05566072836518288, 0.10168331116437912, 0.1357543021440506], [-0.016651693731546402, -0.018963661044836044, -0.08751493692398071, 0.06701415032148361, 0.10105742514133453], [-0.07670482993125916, -0.20294784009456635, -0.06873005628585815, -0.16150903701782227, -0.20638898015022278], [0.07850676774978638, 0.1787322461605072, 0.12919192016124725, -0.03651735931634903, 0.02493930794298649], [-0.17807768285274506, -0.02086472511291504, -0.2523399591445923, -0.18196316063404083, -0.1663810759782791], [0.1683889925479889, -0.045381609350442886, 0.04007598012685776, 0.0684889405965805, 0.13383445143699646], [-0.05348026379942894, -0.12301554530858994, 0.08566074073314667, 0.057183172553777695, -0.031166985630989075], [-0.02894625812768936, 0.05141932889819145, 0.03537514805793762, 0.06153816357254982, 0.05146931856870651], [0.10772455483675003, 0.23825187981128693, 0.06760261952877045, 0.1345713585615158, 0.24459794163703918], [0.05802159756422043, -0.11235285550355911, 0.08919186890125275, -0.0026505610439926386, -0.0176144540309906], [0.030578723177313805, 0.07417454570531845, 0.06680380553007126, 0.09501837193965912, 0.07404349744319916], [-0.011921054683625698, 0.0922798439860344, -0.02548953890800476, -0.06649357080459595, -0.09883566200733185], [-0.06431382894515991, -0.1261707842350006, 0.04837523028254509, -0.12010546773672104, -0.13162031769752502], [0.023974865674972534, 0.02306092530488968, 0.03167348727583885, -0.1117868572473526, -0.04281363636255264], [-0.024912219494581223, 0.05269518867135048, -0.010689293965697289, 0.08260448276996613, -0.0106542082503438], [-0.0568440742790699, 0.10752899944782257, 0.08307487517595291, -0.01796603575348854, 0.07270834594964981], [0.12054142355918884, 0.09873190522193909, 0.05594628304243088, 0.08049388974905014, 0.12716540694236755]], [[0.07251251488924026, -0.02414754405617714, -0.10174639523029327, 0.013610441237688065, 0.060851823538541794], [0.07353168725967407, 0.10700871050357819, 0.024986790493130684, 0.10955192148685455, -0.045843470841646194], [-0.010723440907895565, -0.014943385496735573, -0.06920931488275528, -0.0744277611374855, 0.03851207718253136], [0.06307031214237213, 0.07292802631855011, 0.010932229459285736, -0.1490190178155899, 0.02474392019212246], [-0.09669620543718338, -0.09393113106489182, -0.012597480788826942, -0.08898966759443283, -0.017499268054962158], [0.12837260961532593, 0.08628755062818527, -0.01707950048148632, -0.009485384449362755, -0.07094835489988327], [0.048465944826602936, -0.05575910583138466, -0.10332012176513672, -0.23086093366146088, -0.10458359867334366], [-0.08435621112585068, 0.0046804798766970634, 0.011173266917467117, 0.046615999191999435, 0.01700344868004322], [-0.14255161583423615, 0.11640960723161697, -0.018666349351406097, 0.07976502180099487, -0.047740187495946884], [0.034034281969070435, 0.060279689729213715, 0.05985866114497185, 0.041233282536268234, 0.06237301230430603], [0.07244088500738144, 0.17796869575977325, 0.164882093667984, 0.11178263276815414, 0.07862310856580734], [-0.1385200321674347, -0.09746522456407547, 0.001554260030388832, -0.07994592934846878, -0.018798870965838432], [-0.006892303936183453, 0.05079726502299309, -0.0254086684435606, 0.0813874751329422, 0.12196426838636398], [0.028167610988020897, -0.026631828397512436, 0.12739518284797668, 0.008869252167642117, 0.048851851373910904], [-0.028324291110038757, 0.08595586568117142, 0.07379581779241562, 0.0442538745701313, 0.0388554185628891], [0.06958713382482529, 0.05549253895878792, -0.06009494140744209, -0.0471627414226532, 0.05023131147027016], [0.01186486054211855, 0.07582297176122665, 0.011616123840212822, 0.0705622211098671, 0.1019413098692894], [0.038449861109256744, -0.02762334607541561, -0.0028046295046806335, -0.036597490310668945, -0.041977450251579285], [0.05563671886920929, 0.03943513333797455, 0.03859252110123634, 0.07560773193836212, 0.13644292950630188]], [[-0.008621160872280598, 0.06343202292919159, -0.0939159169793129, 0.08088022470474243, -0.043803922832012177], [-0.10513836145401001, 0.14847303926944733, 0.016477245837450027, 0.008572651073336601, -0.07031852751970291], [-0.03368674963712692, 0.2004907727241516, 0.09368494898080826, 0.02349204197525978, 0.09708347171545029], [0.011311350390315056, 0.004910399205982685, -0.01275702565908432, -0.0047896867617964745, -0.05772653594613075], [3.830110654234886e-05, 0.009951137006282806, -0.013447906821966171, 0.02164399065077305, -0.06412388384342194], [-0.1347626894712448, -0.02563714236021042, 0.12069777399301529, 0.09083904325962067, 0.018545987084507942], [0.05543389171361923, -0.09369184821844101, 0.15679112076759338, 0.12005144357681274, 0.12910179793834686], [-0.11554288119077682, -0.014577486552298069, 0.016453629359602928, -0.030406413599848747, 0.09672301262617111], [0.097716324031353, 0.015416942536830902, -0.06970090419054031, 0.005812580231577158, -0.10832533985376358], [-0.04665956273674965, -0.10556504130363464, -0.2036561220884323, -0.13472716510295868, -0.10963591933250427], [-0.10905329883098602, -0.05532297492027283, 0.05204874277114868, 0.024638349190354347, 0.0027075642719864845], [0.12844087183475494, 0.06167307123541832, 0.03994227945804596, 0.008837482891976833, -0.0786229595541954], [-0.014143477194011211, 0.03049422800540924, -0.10803230851888657, -0.06802122294902802, -0.18348386883735657], [0.03960898518562317, 0.0206721480935812, 0.08813267201185226, 0.058390844613313675, 0.07949599623680115], [-0.1255587339401245, 0.07542234659194946, -0.03004256635904312, -0.028407927602529526, 0.058799922466278076], [0.06611859053373337, -0.025142064318060875, 0.13423557579517365, -0.01980040781199932, -0.08820249885320663], [0.03353778272867203, 0.03941831737756729, -0.05198069289326668, 0.04323148354887962, -0.04486123099923134], [-0.05273813381791115, 0.1143827885389328, -0.03968239203095436, -0.03841182962059975, 0.06423242390155792], [0.10389354079961777, 0.020696040242910385, -0.05820271000266075, -0.03239494189620018, -0.02392551116645336]], [[-0.07322651892900467, 0.06065155193209648, -0.10266362130641937, -0.1183197945356369, -0.04531961679458618], [0.11490003019571304, -0.017987411469221115, 0.13565801084041595, 0.08532185107469559, 0.1416216939687729], [0.012836850248277187, 0.0671628788113594, 0.034155361354351044, -0.07963230460882187, -0.120821014046669], [-0.05891658738255501, 0.06967565417289734, 0.01391693390905857, -0.12693719565868378, -0.04778250306844711], [0.002573759062215686, 0.04097824543714523, -0.13533031940460205, -0.09158635139465332, -0.13111567497253418], [0.02097187750041485, 0.0380367785692215, 0.12538500130176544, -0.007801063358783722, 0.014186401851475239], [-0.16016894578933716, -0.19180898368358612, -0.10044516623020172, -0.19042901694774628, -0.2603646516799927], [0.031047886237502098, 0.07472129911184311, -0.0872940719127655, -0.028694679960608482, -0.012642175890505314], [0.0922461673617363, 0.0633733943104744, 0.02631697990000248, -0.05604987591505051, -0.003922797739505768], [0.027690941467881203, -0.05178041756153107, 0.13035579025745392, 0.010110555216670036, 0.03857487812638283], [0.06446801126003265, 0.08515588194131851, -0.008492165245115757, 0.11806712299585342, 0.11339094489812851], [-0.09377451241016388, -0.10947280377149582, 0.04559586942195892, 0.014385419897735119, 0.12905921041965485], [0.07841108739376068, 0.12107042968273163, 0.05826856940984726, 0.07929851114749908, 0.06496396660804749], [0.02848123200237751, 0.08018186688423157, -0.02322353981435299, 0.06338103115558624, -0.06533291190862656], [0.02420484647154808, 0.009539395570755005, -0.011640498414635658, -0.02394150011241436, -0.038005486130714417], [-0.016685225069522858, 0.05255128815770149, 0.02934100665152073, 0.030208252370357513, 0.0034815981052815914], [0.023370107635855675, -0.05596267804503441, 0.09088635444641113, -0.046094320714473724, 0.04388628154993057], [0.030320264399051666, 0.011396677233278751, 0.010783900506794453, 0.04289967566728592, 0.009129892103374004], [0.13549616932868958, 0.09833700954914093, 0.013740751892328262, 0.1348283290863037, 0.06944473832845688]], [[0.03605993092060089, 0.07148899137973785, -0.031122896820306778, 0.003416718915104866, -0.0986291915178299], [-0.0688936710357666, 0.032802898436784744, -0.0226303581148386, -0.12048541009426117, -0.0824328362941742], [0.05751321464776993, 0.15041647851467133, -0.04156433418393135, 0.01989572122693062, 0.03801164776086807], [0.039294350892305374, -0.016345664858818054, 0.11460267007350922, 0.016779595986008644, 0.1028815358877182], [0.03321560472249985, 0.08336896449327469, -0.039040133357048035, 0.0582730658352375, -0.10622433573007584], [-0.026068655773997307, -0.026002811267971992, -0.09736765176057816, -0.11544706672430038, 0.023755261674523354], [0.0145665118470788, -0.038904160261154175, -0.03312021121382713, 0.07578866183757782, 0.14800186455249786], [-0.0002596479607746005, 0.08775176852941513, -0.0929371789097786, 0.029274502769112587, 0.11232855916023254], [-0.022127775475382805, 0.016525961458683014, -0.03416117653250694, -0.1069679781794548, 0.0003799692785833031], [-0.09503602236509323, 0.14729128777980804, 0.025366276502609253, 0.11514469236135483, 0.007237386889755726], [-0.011070366017520428, -0.02847793698310852, -0.1282886415719986, -0.033815648406744, -0.09269937872886658], [0.10969165712594986, 0.08229637891054153, 0.020189940929412842, 0.05032265931367874, 0.10792622715234756], [0.0723862275481224, -0.09481154382228851, -0.0422457680106163, -0.0856940746307373, 0.10247683525085449], [-0.15402385592460632, 0.028415875509381294, -0.12417274713516235, -0.059437770396471024, -0.13859698176383972], [0.08838296681642532, 0.09089795500040054, 0.012273942120373249, 0.13651345670223236, 0.11590050160884857], [0.012515824288129807, -0.010589397512376308, -0.07794320583343506, 0.02143176458775997, -0.06589510291814804], [0.1108485758304596, -0.061536580324172974, 0.06098596379160881, 0.04334728792309761, -0.06629100441932678], [-0.06430359929800034, 0.11296740919351578, -0.10176374763250351, 0.12043836712837219, -0.09230723977088928], [0.04023042321205139, 0.0545717291533947, -0.12797445058822632, -0.018665356561541557, -0.11199749261140823]], [[-0.0316346138715744, -0.08503815531730652, -0.16000698506832123, -0.005312268156558275, 0.025021204724907875], [-0.032211095094680786, 0.1824565976858139, 0.008341334760189056, 0.05581905320286751, -0.02659538760781288], [0.026973120868206024, -0.08486047387123108, -0.07356797903776169, -0.019807249307632446, 0.013369658961892128], [0.11768649518489838, 0.007943210192024708, -0.14579389989376068, -0.11741367727518082, 0.005714531987905502], [-0.07491040974855423, 0.11075173318386078, -0.2627541422843933, -0.1699228435754776, -0.08598504215478897], [0.04940003529191017, 0.010865998454391956, 0.0937577486038208, 0.052952367812395096, -0.021511606872081757], [-0.05526556074619293, 0.036656904965639114, -0.16094981133937836, -0.07450581341981888, -0.06029796227812767], [-0.04188782349228859, 0.008735688403248787, 0.07160979509353638, -0.039128758013248444, -0.07311171293258667], [0.10892266780138016, -0.06515947729349136, 0.05828636884689331, 0.04827636852860451, -0.1259060502052307], [-0.05155394971370697, 0.026273947209119797, 0.10338617861270905, 0.02230675518512726, 0.11758854985237122], [-0.006138051860034466, 0.10737878084182739, -0.05197799205780029, 0.15849581360816956, 0.08647559583187103], [-0.1462872326374054, 0.07468963414430618, -0.012054034508764744, 1.0623432899592444e-05, -0.038771189749240875], [0.02971171960234642, 0.03745951130986214, 0.09026988595724106, -0.0753532350063324, 0.1289428323507309], [0.06144299358129501, 0.1318703591823578, -0.06013563647866249, -0.020424403250217438, -0.03581436723470688], [0.10978533327579498, -0.09663506597280502, 0.02781083807349205, 0.023811837658286095, -0.001447437796741724], [0.03849217668175697, 0.09868205338716507, 0.03989086300134659, 0.01792486198246479, 0.023318829014897346], [-0.03800052031874657, -0.011499266140162945, 0.1264985054731369, -0.029540900141000748, 0.07905080914497375], [-0.015743017196655273, -0.06078672409057617, 0.06794509291648865, 0.011137044057250023, 0.0010106650879606605], [-0.021549880504608154, 0.10960958898067474, 0.10483872145414352, 0.07066861540079117, -0.012201102450489998]], [[-0.10695593804121017, 0.05057951807975769, 0.019898712635040283, -0.11899355798959732, -0.08971740305423737], [0.13051676750183105, 0.055135440081357956, 0.008631940931081772, 0.14715419709682465, 0.03854036703705788], [-0.012229641899466515, 0.08618181198835373, 0.0038285290356725454, 0.07513943314552307, -0.2262663096189499], [-0.075253427028656, -0.04633311182260513, -0.05851276218891144, 0.06531564146280289, -0.1649378091096878], [0.05107143148779869, -0.03497694060206413, -0.20935046672821045, 0.029576662927865982, -0.22374196350574493], [0.18531610071659088, 0.015665434300899506, 0.05201389640569687, 0.009100815281271935, -0.0388612225651741], [0.034031204879283905, -0.2078751176595688, -0.22876784205436707, 0.0056763761676847935, -0.1956392526626587], [-0.03846672549843788, -0.019623298197984695, -0.07466759532690048, -0.09267774969339371, 0.03919655829668045], [-0.13835972547531128, 0.11115948855876923, 0.005396123509854078, 0.06457947194576263, 0.016981007531285286], [-0.05196792259812355, 0.09214399009943008, 0.0701000839471817, 0.013069888576865196, 0.0446014441549778], [0.09160512685775757, 0.043297503143548965, 0.15137740969657898, 0.09553084522485733, 0.09609988331794739], [-0.11732330918312073, -0.114990234375, -0.0486392118036747, -0.09725885093212128, -0.004891875199973583], [0.10207007825374603, 0.0010426939697936177, 0.004000366665422916, 0.11634679138660431, -0.011231305077672005], [0.1016373559832573, 0.09595224261283875, 0.05256166681647301, 0.05720558390021324, -0.05348001420497894], [-0.04878230020403862, 0.0334295816719532, 0.009753542952239513, -0.18301400542259216, 0.11533079296350479], [-0.059576429426670074, -0.08277551829814911, 0.007756391540169716, -0.09222135692834854, 0.11431825906038284], [-0.08709888905286789, 0.034189462661743164, -0.042350884526968, -0.07954563200473785, 0.11675296723842621], [-0.0374285988509655, 0.04715096205472946, -0.007071088999509811, 0.08222248405218124, -0.06323087215423584], [-0.01979394070804119, 0.0773414671421051, 0.018240565434098244, 0.13964499533176422, 0.008662176318466663]], [[-0.036529138684272766, 0.07938746362924576, -0.027394745498895645, -0.07314512878656387, 0.11068007349967957], [-0.13246405124664307, -0.07205267995595932, -0.02599644847214222, -0.08679058402776718, -0.1250516176223755], [-0.0679313912987709, 0.02053043618798256, 0.09746648371219635, -0.052983615547418594, 0.08181089162826538], [0.07650979608297348, 0.11974356323480606, 0.10699550807476044, 0.09284377098083496, -0.029969986528158188], [0.07681135833263397, 0.06964603066444397, 0.00802457146346569, 0.015238470397889614, 0.07703228294849396], [-0.14014233648777008, -0.08062706887722015, -0.029574589803814888, -0.13585257530212402, 0.047028880566358566], [-0.01698201894760132, 0.003296239534392953, 0.09823431819677353, 0.12947456538677216, 0.011681579053401947], [-0.12650609016418457, 0.0693298876285553, 0.06169984117150307, 0.02317390963435173, 0.006830110680311918], [0.0003332427004352212, 0.07279587537050247, 0.0415051132440567, 0.001293194480240345, 0.06516244262456894], [0.09802557528018951, 0.07256518304347992, 0.08943771570920944, -0.06127365678548813, -0.008637547492980957], [-0.03945999965071678, -0.05733189359307289, -0.10556089878082275, -0.04260089993476868, -0.058042485266923904], [0.12086176872253418, 0.0036904443986713886, -0.05002637207508087, -0.004959189798682928, 0.11470635235309601], [-0.004034875892102718, 0.007105753757059574, -0.057388290762901306, -0.0498744435608387, -0.0776526927947998], [0.034258417785167694, -0.120855912566185, -0.03507339954376221, -0.036672193557024, 0.12656550109386444], [-0.052371297031641006, 0.03297070786356926, -0.060492146760225296, -0.018780428916215897, 0.0032699499279260635], [-0.1415429264307022, 0.04504089057445526, -0.05749736726284027, 0.029802920296788216, -0.060546696186065674], [0.055275458842515945, 0.035258643329143524, -0.01422629039734602, 0.0671994686126709, 0.12635673582553864], [0.05177159607410431, -0.056957412511110306, 0.032803989946842194, -0.13869278132915497, 0.022732453420758247], [-0.10309712588787079, 0.004959999118000269, 0.01882411539554596, -0.023811358958482742, 0.02888261154294014]], [[-0.13867530226707458, 0.013892211019992828, -0.06672942638397217, 0.04033966362476349, 0.05837123468518257], [0.011938980780541897, -0.014042641967535019, -0.1543022096157074, -0.16839110851287842, -0.18114632368087769], [0.07619447261095047, -0.003929226193577051, 0.11254431307315826, 0.04896223917603493, 0.039997078478336334], [0.11317219585180283, 0.010237888433039188, 0.0075839064083993435, 0.07381202280521393, 0.07682912051677704], [0.06523297727108002, 0.14906275272369385, 0.08754456043243408, 0.04683879390358925, -0.08004916459321976], [-0.018220428377389908, 0.06049010530114174, -0.06890707463026047, -0.12841452658176422, -0.06659296154975891], [0.07867981493473053, 0.1990884393453598, 0.04847140982747078, -0.060276471078395844, -0.07178572565317154], [0.05884476751089096, 0.17436252534389496, -0.045968130230903625, -0.006772240158170462, 0.20222817361354828], [-0.04888811707496643, -0.0730833187699318, 0.010063227266073227, -0.08678297698497772, -0.13382087647914886], [-0.1462586522102356, 0.05116700008511543, -0.09200157970190048, -0.08990855515003204, 0.10218935459852219], [-0.08860770612955093, -0.033385179936885834, -0.03054889105260372, -0.14739733934402466, -0.10857176780700684], [-0.10399317741394043, 0.11281871050596237, 0.11237917095422745, 0.04925655946135521, 0.050040580332279205], [-0.11338236182928085, 0.07647225260734558, 0.0015059581492096186, -0.0698443353176117, 0.04825654625892639], [-0.01246405579149723, 0.13942602276802063, 0.010793131776154041, -0.018937289714813232, -0.16011415421962738], [-0.021895648911595345, -0.052408814430236816, -0.13213026523590088, -0.07626235485076904, -0.04091300815343857], [0.055991824716329575, 0.03244245424866676, 0.042979203164577484, -0.09547195583581924, 0.03403463959693909], [0.006434029433876276, -0.08707962930202484, -0.056779298931360245, -0.04443936422467232, -0.15174199640750885], [0.06378059089183807, -0.011411914601922035, -0.01720685511827469, 0.06466462463140488, -0.19167748093605042], [-0.01846444234251976, -0.016893062740564346, 0.027064867317676544, -0.0800846591591835, -0.05172860622406006]], [[-0.013852803036570549, -0.03775227069854736, 0.04874488338828087, 0.0055247400887310505, -0.00036581323365680873], [0.1824442446231842, -0.04079689830541611, -0.05066840350627899, -0.036956485360860825, 0.06428971141576767], [0.09389343112707138, -0.009153599850833416, 0.05351003259420395, -0.029354948550462723, 0.049646805971860886], [0.07509610056877136, -0.04702011123299599, -0.029286760836839676, 0.027271322906017303, 0.023885125294327736], [0.016678007319569588, -0.0937557965517044, 0.08063812553882599, -0.04032254219055176, -0.14964336156845093], [0.005420214496552944, -0.07656289637088776, 0.09230347722768784, -0.08110689371824265, -0.04720853641629219], [0.12392754852771759, -0.0028277086094021797, 0.12382198125123978, 0.06676922738552094, 0.17032702267169952], [0.11816494166851044, 0.11399772018194199, 0.0044267079792916775, -0.017538903281092644, 0.20983950793743134], [-0.014297102577984333, 0.11785532534122467, -0.01904895156621933, 0.022702226415276527, -0.033024564385414124], [0.08659517765045166, 0.035500962287187576, 0.05158965662121773, 0.014840256422758102, 0.08292021602392197], [-0.04758418723940849, 0.11942069232463837, -0.09778875857591629, -0.00402593519538641, -0.06208951771259308], [0.047507453709840775, -0.02664102055132389, 0.034146297723054886, 0.08441407233476639, -0.014159861952066422], [-0.053532928228378296, -0.03249330446124077, -0.08694641292095184, 0.06055610626935959, -0.1461060792207718], [0.05448354035615921, 0.001482469728216529, 0.09616406261920929, -0.045850880444049835, 0.08328530192375183], [0.0919550210237503, -0.05721575766801834, 0.024562595412135124, -0.028987698256969452, -0.0360591784119606], [0.008361577056348324, -0.16583459079265594, 0.07746900618076324, 0.005168993026018143, 0.01242835447192192], [0.006437469273805618, 0.0923134908080101, -0.1308278739452362, -0.05365514010190964, -0.05672427639365196], [0.013752710074186325, 0.02924087457358837, 0.2522084414958954, -0.12742473185062408, 0.07224865257740021], [-0.053115587681531906, -0.05358292907476425, 0.038837213069200516, -0.05291985347867012, -0.01012437604367733]], [[-0.12596160173416138, -0.04346608370542526, -0.0606832392513752, -0.11234284937381744, 0.05127410590648651], [-0.008552451618015766, 0.022184250876307487, 0.05838773399591446, 0.0745856910943985, 0.1180427148938179], [0.004440841730684042, -0.07168708741664886, 0.10272213816642761, -0.00645470479503274, -0.035185039043426514], [-0.025093214586377144, -0.11177720874547958, 0.016386184841394424, -0.05364486947655678, -0.11020166426897049], [-0.11684932559728622, -0.18586365878582, -0.18525634706020355, -0.10565005242824554, -0.17582450807094574], [-0.01635107584297657, 0.12540727853775024, 0.05125676468014717, 0.0366639606654644, -0.0756116509437561], [-0.07126939296722412, -0.24367564916610718, 0.04470129683613777, -0.14687375724315643, -0.2131146937608719], [0.11934040486812592, 0.0778517946600914, 0.03547503054141998, 0.08609077334403992, 0.09371239691972733], [0.10805033892393112, -0.017680473625659943, 0.017363063991069794, 0.05753452330827713, 0.11653420329093933], [0.10338642448186874, -0.026324152946472168, 0.06152113527059555, 0.09023138880729675, 0.08130968362092972], [0.022875165566802025, 0.10250207781791687, 0.06326226145029068, 0.200744166970253, 0.035704050213098526], [0.04756486043334007, 0.02925211936235428, -0.07978066056966782, 0.007286792155355215, -0.032656244933605194], [-0.019445151090621948, 0.10846789926290512, 0.05698278918862343, 0.12970034778118134, 0.11213946342468262], [0.09714807569980621, -0.004679176025092602, -0.021187979727983475, 0.06331681460142136, -0.032801561057567596], [0.04269002005457878, 0.00015869931667111814, -0.17253941297531128, 0.05495825782418251, 0.030324267223477364], [0.07942553609609604, 0.03502620384097099, -0.08158344030380249, 0.043315209448337555, -0.0663287416100502], [0.11933425813913345, -0.059905558824539185, 0.014873209409415722, -0.06489617377519608, 0.02183126099407673], [0.10252754390239716, 0.08675800263881683, 0.10776444524526596, 0.048929788172245026, -0.021341651678085327], [-0.02621796354651451, 0.06310197710990906, 0.09580593556165695, 0.02307947725057602, -0.07061260938644409]], [[-0.09110958129167557, -0.12154512107372284, -0.023514818400144577, -0.1105911061167717, -0.013846538960933685], [0.02322562411427498, -0.05061414837837219, -0.06179128587245941, -0.11032482981681824, -0.14111067354679108], [-0.001005177153274417, 0.15167701244354248, -0.025958523154258728, 0.08684239536523819, 0.021469106897711754], [-0.010405248962342739, 0.11262538284063339, 0.13759629428386688, 0.03751328960061073, 0.13186492025852203], [0.03612464666366577, -0.04376694932579994, -0.02268962748348713, 0.07425091415643692, -0.009196707047522068], [0.0812402293086052, -0.010924498550593853, -0.09699605405330658, -0.1490504890680313, -0.011707711033523083], [0.20435260236263275, 0.10682209581136703, 0.09988024830818176, -0.09739766269922256, 0.018126940354704857], [0.026434237137436867, 0.007174925412982702, -0.058868054300546646, 0.06739145517349243, 0.041894253343343735], [-0.02631673775613308, 0.02034594491124153, 0.002848126459866762, -0.09151691943407059, -0.019780011847615242], [-0.17122919857501984, 0.007155559957027435, 0.11629539728164673, -0.003965020179748535, -0.0848924070596695], [-0.02894633263349533, -0.08797867596149445, -0.050532761961221695, -0.14730826020240784, -0.08679696917533875], [-0.010147900320589542, 0.11862481385469437, 0.154645636677742, -0.05434166267514229, 0.13419389724731445], [-0.04828711971640587, 0.03074224852025509, -0.1037464439868927, -0.1441970318555832, -0.14551354944705963], [0.05035536363720894, -0.014460457488894463, -0.0019979628268629313, 0.00796973891556263, -0.050886303186416626], [0.1188356950879097, 0.042146530002355576, -0.05187377706170082, -0.000636042736005038, -0.006414308212697506], [0.12561136484146118, -0.020659392699599266, 0.06938089430332184, -0.01788518950343132, -0.040423434227705], [0.0611058808863163, -0.02714747004210949, 0.021648403257131577, -0.06418011337518692, 0.07431787252426147], [-0.01548898033797741, -0.06731852144002914, 0.12742272019386292, -0.15040256083011627, 0.01249972078949213], [-0.08708646893501282, -0.025381434708833694, 0.10119993984699249, -0.08782920241355896, -0.05394533649086952]], [[-0.08864689618349075, -0.1258266121149063, 0.029744720086455345, 0.05243067815899849, -0.054353032261133194], [-0.10309936106204987, 0.0005588039057329297, 0.07217924296855927, -0.1003323495388031, 0.051877185702323914], [-0.023510171100497246, 0.16916970908641815, 0.10642234981060028, 0.03693883866071701, -0.020718377083539963], [0.14940890669822693, 0.13714158535003662, 0.09012368321418762, -0.006747893989086151, 0.15434059500694275], [0.026799386367201805, 0.04480894282460213, -0.054449357092380524, 0.09600662440061569, -0.07114547491073608], [-0.17722204327583313, -0.0628032311797142, -0.021517464891076088, -0.06467293947935104, 0.11117501556873322], [0.10211081802845001, 0.09972529858350754, 0.16081763803958893, 0.09061060845851898, 0.18785785138607025], [-0.006207513157278299, 0.1373363882303238, 0.19636604189872742, -0.034396328032016754, 0.23407839238643646], [-0.05830207094550133, -0.025511670857667923, -0.09462971240282059, -0.06465359777212143, -0.09870059043169022], [-0.06388330459594727, -0.090824656188488, -0.15699872374534607, 0.08875005692243576, -0.09743981063365936], [0.02657587081193924, 0.06671465188264847, -0.09814349561929703, -0.13151223957538605, -0.018680337816476822], [-0.010799779556691647, -0.025562496855854988, -0.044714827090501785, 0.13156400620937347, 0.0430421307682991], [-0.10727648437023163, 0.04160623252391815, -0.0693173035979271, 0.013283930718898773, 0.07275445014238358], [-0.04155441001057625, 0.03615299239754677, 0.059450630098581314, 0.10560178011655807, 0.1812981218099594], [0.09362483769655228, 0.058435436338186264, -0.11890296638011932, -0.027014972642064095, -0.014835229143500328], [-0.142940491437912, 0.14755547046661377, -0.10519760102033615, -0.019923817366361618, 0.08304233849048615], [0.04054948687553406, -0.159457266330719, 0.04610608145594597, 0.02550465054810047, -0.08468802273273468], [0.05963768810033798, 0.09994715452194214, -0.07175027579069138, -0.03179781511425972, 0.028139792382717133], [-0.017940429970622063, -0.09266822785139084, -0.10756182670593262, -0.020497838035225868, 0.027933133766055107]], [[-0.05502103269100189, -0.03575975075364113, 0.020026961341500282, -0.04172177240252495, -0.014502708800137043], [0.15200257301330566, -0.18895377218723297, 0.07600689679384232, -0.07512012869119644, 0.030510982498526573], [0.052662599831819534, -0.16367970407009125, -0.007481818553060293, -0.08558104932308197, 0.019547058269381523], [-0.0764748826622963, 0.0637359544634819, 0.036774735897779465, -0.05632692575454712, 0.01565222255885601], [0.056875891983509064, 0.04271154850721359, 0.03253565728664398, 0.01736699417233467, 0.07060298323631287], [-0.016090180724859238, 0.022159656509757042, 0.07823231816291809, -0.0021842424757778645, 0.07569798827171326], [0.024597663432359695, 0.23221717774868011, 0.10954046994447708, 0.07770713418722153, 0.0685923621058464], [0.14427796006202698, -0.04703880101442337, 0.04562970623373985, -0.027050329372286797, -0.02235584892332554], [-0.03794195130467415, 0.03406962752342224, 0.09162572771310806, 0.012277149595320225, 0.03865724429488182], [-0.15149156749248505, -0.08024069666862488, 0.11396137624979019, -0.10490479320287704, -0.05274536833167076], [0.0038229618221521378, 0.057068612426519394, -0.03679554536938667, -0.05622813478112221, -0.07301878929138184], [-0.09277577698230743, 0.12123758345842361, -0.041033532470464706, 0.05844687297940254, -0.1411181092262268], [-0.05937695503234863, -0.009956982918083668, -0.036234959959983826, 0.051358286291360855, -0.02200295589864254], [-0.013126926496624947, 0.0645378902554512, 0.009111573919653893, 0.12174061685800552, 0.1460142433643341], [0.006987652741372585, 0.012810353189706802, -0.007809565402567387, -0.019925439730286598, -0.01994917169213295], [-0.10588477551937103, 0.05102212354540825, -0.04623465985059738, 0.025652358308434486, -0.043307941406965256], [0.1211431622505188, -0.1330408751964569, -0.02780153602361679, -0.06686896830797195, 0.13541704416275024], [-0.071296826004982, 0.10323076695203781, -0.010678989812731743, -0.0030710145365446806, 0.048523079603910446], [0.020242517814040184, -0.0016483278013765812, 0.08430664986371994, 0.10016005486249924, 0.08733434975147247]], [[0.08687642961740494, -0.12976117432117462, -0.00462851719930768, 0.05591367557644844, -0.0342738963663578], [0.1300584226846695, 0.16307637095451355, 0.1139494776725769, -0.03306424990296364, 0.10438227653503418], [-0.06288792192935944, 0.025864368304610252, -0.0807817205786705, -0.02166088856756687, -0.13243338465690613], [0.002350232331082225, -0.11066307872533798, 0.023511575534939766, -0.017359014600515366, -0.033116184175014496], [-0.09844519197940826, -0.18099991977214813, -0.18204674124717712, -0.003467421978712082, -0.12434067577123642], [0.15754002332687378, -0.06524045765399933, -0.04621385782957077, -0.01661432720720768, -0.0064019630663096905], [-0.01721980608999729, -0.20686665177345276, -0.13099689781665802, -0.08491606265306473, -0.1903039515018463], [-0.05162235349416733, -0.09766262769699097, 0.022049039602279663, 0.1037140041589737, -0.0027412150520831347], [0.10451406985521317, 0.06961829215288162, -0.002437031362205744, 0.04951667785644531, -0.08324064314365387], [-0.015544782392680645, 0.1120239794254303, -0.03036368452012539, 0.11318597197532654, 0.09456286579370499], [0.19820734858512878, 0.09711311012506485, 0.06670252978801727, 0.10146254301071167, 0.1342499703168869], [-0.175485759973526, -0.01683606207370758, -0.05909014865756035, -0.10919424146413803, -0.020442070439457893], [0.08935987204313278, 0.041261542588472366, 0.11122729629278183, -0.022676095366477966, -0.020987333729863167], [0.04031886160373688, 0.15881802141666412, -0.04401453584432602, -0.06805630028247833, 0.053716111928224564], [-0.02499522641301155, 0.10362798720598221, 0.01925773359835148, 0.05245622619986534, -0.028151024132966995], [-0.1140887439250946, 0.011472604237496853, -0.006915372796356678, 0.07930199056863785, -0.08695914596319199], [0.03063189797103405, 0.08886732161045074, -0.05875733867287636, 0.10648784041404724, -0.0612923763692379], [-0.07224917411804199, -0.09436547756195068, 0.03820048272609711, -0.005649580620229244, -0.00929217878729105], [-0.08814690262079239, -0.00972073059529066, 0.01855693757534027, 0.011585170403122902, 0.16450735926628113]], [[0.03911089524626732, -0.0033538115676492453, -0.10484736412763596, -0.055259738117456436, 0.058768730610609055], [0.16024479269981384, 0.19054611027240753, 0.1513577699661255, 0.11914784461259842, 0.14468328654766083], [0.13122116029262543, -0.03835064917802811, 0.05771167576313019, 0.05606367439031601, 0.006788430269807577], [0.009363514371216297, -0.044938936829566956, -0.05562711879611015, 0.12928003072738647, 0.129383385181427], [-0.024497980251908302, 0.04442274570465088, -0.14061002433300018, -0.11455128341913223, -0.14579133689403534], [0.09976232796907425, 0.09452810138463974, 0.09315574169158936, 0.024542085826396942, 0.009287063032388687], [0.033428654074668884, -0.10075303167104721, -0.14949727058410645, -0.22262588143348694, -0.04228711500763893], [0.07062141597270966, 0.010209471918642521, 0.018255159258842468, 0.1272108554840088, 0.05950521305203438], [-0.010134972631931305, -0.016958557069301605, 0.05949726700782776, -0.042730655521154404, 0.02185359224677086], [-0.07127813994884491, -0.04347929731011391, -0.006057358346879482, 0.049906276166439056, 0.042395807802677155], [0.11146100610494614, 0.14921383559703827, 0.14568530023097992, 0.13229729235172272, 0.21246519684791565], [-0.021076656877994537, -0.1028960719704628, 0.04410009831190109, 0.12195515632629395, 0.026547741144895554], [0.08080711960792542, 0.04347129911184311, 0.007531200535595417, 0.023111047223210335, 0.044090576469898224], [-0.021603694185614586, -0.03237302601337433, -0.004427031613886356, -0.01737656444311142, 0.05032326653599739], [-0.09259399771690369, -0.0023706795182079077, 0.03672796115279198, -0.1360630989074707, -0.08758535981178284], [0.06824697554111481, -0.10968849062919617, 0.09338116645812988, -0.10074879974126816, 0.04086999222636223], [-0.09072721749544144, -0.07271347939968109, 0.047421060502529144, 0.0013507723342627287, -0.09390901774168015], [0.09466776996850967, 0.06196913495659828, -0.027157513424754143, -0.05741327628493309, 0.10401353985071182], [0.06445197016000748, 0.05514112859964371, 0.12465986609458923, 0.0759175643324852, -0.02614385262131691]]], "conv5.bias": [0.018893688917160034, -0.09880653768777847, -0.005074927117675543, 0.10063749551773071, -0.021828915923833847, 0.0278411116451025, -0.09113342314958572, 0.05080883949995041, 0.16579636931419373, 0.1278473436832428, -0.07390417903661728, 0.014765771105885506, -0.010546174831688404, -0.06393857300281525, 0.039068009704351425, -0.0748133435845375], "fc1.weight": [[0.13912732899188995, -0.0028970290441066027, 0.06826567649841309, 0.00023583845177199692, -0.031583625823259354, 0.06306305527687073, 0.23507779836654663, 0.2167629897594452, -0.0033088228665292263, 0.19342964887619019, 0.14726622402668, 0.14915716648101807, 0.03277720883488655, -0.1924295574426651, -0.0841546356678009, 0.1965646743774414, -0.0031556470785290003, -0.07725148648023605, 0.011467082425951958, -0.03320888429880142, 0.07597358524799347, -0.15287724137306213, -0.10944284498691559, 0.08217461407184601, 0.1351722925901413, 0.15552522242069244, -0.04828896000981331, -0.01949511468410492, 0.2294624298810959, 0.1108546331524849, -0.11788713932037354, -0.06897477060556412, -0.0754179060459137, 0.10754650831222534, 0.04204621911048889, 0.10348846018314362, 0.13508716225624084, 0.07767418026924133], [0.14898765087127686, 0.007047455757856369, 0.07302585989236832, 0.1527758091688156, 0.18046261370182037, -0.1019052043557167, 0.25362488627433777, 0.22943486273288727, 0.14843982458114624, 0.055792540311813354, 0.10372457653284073, 0.2493627816438675, -0.08831664174795151, -0.05943728983402252, -0.028797922655940056, 0.14376740157604218, -0.012885221280157566, -0.024366458877921104, 0.17152874171733856, -0.2245853990316391, 0.17272712290287018, -0.10664639621973038, -0.06722106784582138, 0.1437905728816986, 0.14848177134990692, -0.014447115361690521, 0.01021235529333353, 0.09276381880044937, 0.040222350507974625, 0.09351351857185364, -0.11924806982278824, 0.08983407914638519, 0.1031932458281517, -0.08598296344280243, 0.0707009807229042, -0.00426664762198925, 0.008486022241413593, 0.0973048135638237], [0.20385323464870453, -0.09834394603967667, -0.05368362367153168, 0.05235791951417923, 0.22152701020240784, 0.101427361369133, 0.23237764835357666, 0.014004931785166264, 0.015610719099640846, -0.040248338133096695, 0.04466485604643822, 0.10351761430501938, -0.23352666199207306, 0.0005502203712239861, -0.006748562213033438, 0.13230803608894348, 0.0917828157544136, -0.12497356534004211, 0.19874584674835205, 0.0391036681830883, -0.05811581015586853, -0.0009026549523696303, -0.015909597277641296, 0.21019524335861206, 0.0944555327296257, 0.08932798355817795, -0.0436919741332531, -0.012574386782944202, 0.2029038667678833, 0.09078266471624374, -0.1180683895945549, -0.09023924916982651, 0.11192373931407928, 0.014493217691779137, -0.05379217118024826, -0.14681164920330048, -0.05868946388363838, 0.17849498987197876], [-0.034841686487197876, 0.09403198957443237, 0.022455139085650444, -0.14422839879989624, -0.22065594792366028, -0.01188828144222498, -0.1192338764667511, -0.22481198608875275, -0.148372620344162, 0.021135015413165092, -0.15581820905208588, -0.11139040440320969, -0.09980589896440506, 0.023197613656520844, -0.10586488991975784, -0.1175360307097435, 0.259537935256958, 0.12550005316734314, -0.01305246539413929, 0.11903497576713562, -0.016166185960173607, 0.00872438307851553, 0.03795069456100464, -0.1736002117395401, -0.06261646002531052, -0.04650934040546417, 0.09225515276193619, -0.09183666855096817, -0.07107935100793839, -0.21726539731025696, 0.14409643411636353, 0.18106310069561005, 0.015254492871463299, -0.09699032455682755, 0.07816117256879807, -0.02539241686463356, 0.23876769840717316, 0.10344107449054718], [-0.2187754213809967, -0.08374949544668198, 0.1817644089460373, -0.04030990973114967, 0.061680711805820465, -0.05445072799921036, -0.11752818524837494, -0.1514977663755417, -0.05487721413373947, 0.17970512807369232, -0.15655110776424408, 0.020639542490243912, -0.05288635566830635, 0.06757994741201401, -0.17385165393352509, 0.04250850901007652, 0.06511373817920685, 0.019700707867741585, 0.008280669339001179, 0.21511922776699066, -0.1376497447490692, 0.17283344268798828, 0.1796605885028839, 0.05073372647166252, -0.25022178888320923, -0.07582853734493256, 0.09171517938375473, -0.08196821063756943, 0.06536440551280975, -0.13212880492210388, 0.07875962555408478, 0.08070577681064606, -0.08901284635066986, -0.1262582391500473, -0.06006631255149841, 0.18443657457828522, 0.016460418701171875, -0.20059439539909363], [0.18371953070163727, -0.22545431554317474, -0.07393456250429153, 0.09950234740972519, -0.03549245744943619, 0.09808733314275742, 0.06680882722139359, 0.0608171708881855, 0.10076110810041428, 0.02930763177573681, -0.13901259005069733, 0.19614200294017792, 0.011429986916482449, -0.12953369319438934, 0.17835597693920135, 0.11210475116968155, 0.010200178250670433, -0.14512908458709717, 0.172637477517128, -0.18877921998500824, 0.050521623343229294, -0.013210106641054153, -0.22098985314369202, -0.020596040412783623, -0.01668047346174717, 0.15167802572250366, -0.042986851185560226, 0.08146201819181442, 0.03605468571186066, 0.014260080642998219, -0.0004231813654769212, 0.07339853048324585, -0.07700268924236298, 0.15924027562141418, 0.021135548129677773, -0.13542139530181885, -0.10490593314170837, 0.09336723387241364], [-0.1047653779387474, -0.13950620591640472, -0.06084103882312775, -0.08864594995975494, 0.022688956931233406, 0.06831812858581543, -0.12491700053215027, -0.04744459316134453, -0.03913431242108345, -0.03239354118704796, -0.10932888835668564, 0.015027307905256748, 0.0686359778046608, -0.07392309606075287, -0.13870278000831604, 0.004676918499171734, -0.030832044780254364, 0.11880237609148026, -0.14701774716377258, 0.02117932215332985, 0.1432952582836151, 0.12091594189405441, 0.049527376890182495, -0.08329429477453232, -0.14151796698570251, -0.06795434653759003, -0.12852883338928223, 0.0379696749150753, -0.10646705329418182, -0.08506275713443756, -0.12443331629037857, -0.04480073228478432, 0.03469989076256752, 0.1397695541381836, -0.12523797154426575, 0.006380131002515554, -0.0598401241004467, -0.032067734748125076], [-0.03017807938158512, -0.09820764511823654, -0.036125410348176956, 0.040900155901908875, -0.0611615888774395, -0.09822145849466324, 0.05202856659889221, -0.08196516335010529, -0.035687852650880814, 0.015338894911110401, 0.036080677062273026, -0.06271814554929733, 0.00722349900752306, 0.08790844678878784, 0.10533273220062256, 0.02259744144976139, -0.06707820296287537, 0.034901197999715805, -0.018911212682724, 0.08919709920883179, 0.07389919459819794, -0.10216598957777023, 0.05337045341730118, -0.02748989313840866, -0.08264123648405075, -0.04497132450342178, -0.04772822931408882, -0.07860565185546875, 0.08489735424518585, 0.041042760014534, -0.028951432555913925, 0.07318957149982452, -0.07483560591936111, -0.05991361662745476, -0.07209660112857819, -0.04138825088739395, -0.054290108382701874, -0.04003104567527771], [-0.002620032522827387, 0.19170799851417542, 0.0825352668762207, 0.07439377903938293, 0.05056660994887352, 0.1719028204679489, -0.16644203662872314, -0.12211509793996811, -0.10707361251115799, 0.1642182320356369, -0.027979599311947823, -0.17815691232681274, 0.20745223760604858, -0.052285242825746536, -0.22153425216674805, 0.0593271404504776, 0.18899251520633698, 0.21444495022296906, -0.14378182590007782, 0.1912502944469452, -0.11986493319272995, -0.027744464576244354, 0.1594826877117157, 0.01057368516921997, -0.09653662890195847, 0.07005948573350906, 0.1031457707285881, -0.22278393805027008, 0.016947750002145767, -0.1860576719045639, 0.24602119624614716, -0.016046104952692986, -0.056843675673007965, 0.01466046180576086, -0.03194583207368851, 0.13778138160705566, 0.010164006613194942, -0.06473655253648758], [-0.18005551397800446, 0.0007120079826563597, 0.11857113242149353, -0.14077764749526978, -0.04455975443124771, -0.07340715080499649, 0.021246042102575302, 0.11232701689004898, 0.03810713067650795, 0.14695793390274048, 0.04979420825839043, -0.1143435686826706, 0.08363033831119537, 0.039106257259845734, -0.03271379694342613, 0.04556562751531601, 0.01358678936958313, 0.2697683870792389, -0.15264587104320526, 0.0698380246758461, -0.007882198318839073, 0.15466296672821045, 0.23247075080871582, 0.10292080789804459, -0.1757696270942688, -0.1375478357076645, 0.22668424248695374, -0.09638532996177673, -0.04509903863072395, -0.10933595895767212, 0.20086851716041565, 0.14884452521800995, 0.05624756962060928, -0.01789768412709236, 0.05137654021382332, 0.19720958173274994, -0.02866281569004059, -0.1700115203857422], [-0.22297629714012146, 0.1494525969028473, 0.12986430525779724, -0.033057305961847305, -0.21744009852409363, -0.07340463995933533, -0.023759160190820694, 0.06324894726276398, 0.08557121455669403, -0.031171275302767754, 0.005151069723069668, -0.1622210592031479, -0.09925244748592377, -0.0464620366692543, -0.09539107233285904, -0.1747565120458603, 0.21494026482105255, 0.23955753445625305, -0.2277267724275589, 0.017905689775943756, -0.02338702417910099, 0.03371744602918625, 0.12173008173704147, 0.03708441182971001, -0.11758298426866531, 0.02203294448554516, -0.02068273350596428, 0.01972363144159317, -0.0917491763830185, -0.07793829590082169, 0.20357173681259155, 0.1093425527215004, 0.10834269970655441, 0.1352800577878952, -0.035805217921733856, 0.1406075358390808, -0.02079097367823124, -0.07675515115261078], [-0.13939595222473145, 0.10267635434865952, -0.08073272556066513, 0.04443827643990517, 0.013610699214041233, 0.04019218310713768, 0.10073927789926529, -0.027220843359827995, 0.0758284404873848, -0.031787123531103134, -0.07646071165800095, -0.04333499073982239, -0.14596930146217346, -0.12057281285524368, -0.04670494422316551, -0.027716543525457382, -0.14197513461112976, -0.052465394139289856, 0.028108155354857445, 0.07898508757352829, 0.0024135904386639595, -0.08273462951183319, -0.002781315241008997, -0.09813646972179413, -0.03649483621120453, -0.1062091812491417, -0.04202979430556297, -0.09979944676160812, 0.06291600316762924, -0.008105231449007988, 0.010849631391465664, -0.09903344511985779, -0.07871884107589722, 0.024812674149870872, 0.1340499371290207, -0.03825508803129196, -0.14047886431217194, 0.09336858987808228], [0.10096326470375061, -0.021585235372185707, 0.008556876331567764, 0.2251085638999939, 0.11900095641613007, 0.010270696133375168, 0.0339721217751503, -0.06644773483276367, 0.18386146426200867, 0.19550032913684845, 0.09385649859905243, 0.10635558515787125, -0.19140513241291046, -0.051093246787786484, 0.07013394683599472, 0.20836712419986725, -0.11659768968820572, -0.1115843802690506, 0.09408224374055862, 0.0014283910859376192, -0.00657800305634737, -0.22061151266098022, -0.1282588243484497, -0.044178370386362076, 0.10295483469963074, 0.14397868514060974, -0.08027636259794235, 0.11552558839321136, 0.19222703576087952, 0.1497381180524826, -0.12300322949886322, -0.0054380339570343494, 0.004653369076550007, 0.07713546603918076, -0.048856351524591446, -0.1542772799730301, 0.10124869644641876, 0.12951776385307312], [-0.03832746297121048, -0.0027528514619916677, -0.16869468986988068, 0.04115692526102066, 0.005820314399898052, -0.011138055473566055, 0.06640951335430145, 0.042975131422281265, 0.1739116609096527, -0.051222171634435654, -0.14582984149456024, 0.07023794949054718, -0.10337626934051514, -0.12100344151258469, 0.07379160076379776, 0.10818454623222351, 0.01839342899620533, 0.01923547312617302, -0.07624075561761856, -0.07474998384714127, 0.17316794395446777, -0.23616187274456024, -0.21096043288707733, 0.06714606285095215, 0.2002650946378708, 0.04390154778957367, -0.006589535623788834, 0.15460777282714844, 0.13027511537075043, 0.054880961775779724, 0.08952398598194122, 0.021318547427654266, -0.12659583985805511, -0.13221430778503418, 0.13900455832481384, -0.02703973837196827, 0.08742856979370117, 0.06548645347356796], [-0.22418566048145294, 0.21606945991516113, 0.08222731947898865, -0.08550149947404861, -0.14417968690395355, 0.1210494190454483, -0.17368854582309723, 0.08954913914203644, 0.15080638229846954, -0.09961394220590591, -0.0038083577528595924, -0.1663707196712494, -0.03885354846715927, -0.030587822198867798, -0.01908617839217186, -0.025642329826951027, 0.04928363859653473, -0.05191366747021675, -0.12467489391565323, 0.17814011871814728, -0.04531709477305412, 0.14293955266475677, 0.11640869081020355, -0.12155081331729889, 0.06905485689640045, -0.16098564863204956, 0.10642807930707932, -0.0979611948132515, -0.11397770792245865, 0.06340338289737701, 0.13830140233039856, 0.2109476625919342, -0.06554511934518814, 0.14997722208499908, 0.040581051260232925, 0.1853068768978119, -0.019525600597262383, 0.011016279458999634], [0.1068936139345169, -0.16226816177368164, 0.12369401007890701, 0.032505374401807785, -0.05441674217581749, -0.0913044810295105, 0.19363436102867126, 0.10673163831233978, 0.008001266047358513, 0.10434483736753464, -0.0712251216173172, -0.05495654046535492, -0.09953514486551285, -0.14908930659294128, 0.13454055786132812, -0.04492279514670372, -0.006303615402430296, -0.13156747817993164, 0.11455731838941574, 0.005493647418916225, 0.08882514387369156, -0.19676414132118225, -0.14006146788597107, 0.10435589402914047, 0.2095913290977478, 0.12708349525928497, -0.12263722717761993, 0.1668214350938797, 0.0996566191315651, 0.045105744153261185, -0.1706184446811676, 0.004085153341293335, -0.15312111377716064, 0.035581860691308975, 0.13688762485980988, -0.03892816603183746, 0.11822925508022308, 0.16426624357700348]], "fc1.bias": [-0.07551158964633942, -0.08879963308572769, -0.03459906578063965, 0.18086017668247223, 0.1607770174741745, -0.0887131616473198, -0.02831275574862957, -0.05809299647808075, 0.09081237763166428, -0.045751988887786865, -0.05971412733197212, 0.06725151836872101, 0.10847675055265427, -0.016350917518138885, 0.00861298106610775, 0.07049623131752014], "fc2.weight": [[-0.20630446076393127, -0.16965541243553162, -0.20090843737125397, 0.3275524377822876, 0.32521823048591614, -0.2797701954841614, -0.1856478452682495, 0.027989141643047333, 0.19895289838314056, 0.1791050285100937, 0.30250224471092224, 0.16120171546936035, -0.14748379588127136, -0.2575366199016571, 0.2714209258556366, -0.2504803538322449]], "fc2.bias": [0.050926148891448975], "norm_mean": [0.043760139495134354, 0.3931492269039154, 0.3054192364215851, 0.4337306618690491, 0.029304206371307373, 0.09868726879358292, 0.3831312954425812, 3.0828285217285156, 0.36539214849472046, 0.48448801040649414, 0.05671963095664978, 0.05205418914556503, 0.030726298689842224, 3.4025795459747314, 0.11231132596731186], "norm_std": [0.07697785645723343, 0.2944732904434204, 0.2874554395675659, 0.21108248829841614, 0.07998184114694595, 0.1730806827545166, 0.26159635186195374, 1.0871756076812744, 0.4815402030944824, 0.2663422226905823, 0.23130622506141663, 0.222136452794075, 0.17257526516914368, 2.8074183464050293, 0.1884484440088272]}