{"tool_embed.weight": [[0.7159980535507202, 1.1433626413345337, 1.4097672700881958, 0.4510074555873871], [-1.364087462425232, 0.038938749581575394, -1.322324275970459, -1.046293020248413], [0.5642935633659363, -1.0790551900863647, 0.39459601044654846, 1.3936561346054077], [0.3991720974445343, -0.30268532037734985, 1.500016212463379, 0.2989165186882019], [-0.04438779503107071, -0.1872253715991974, -0.1270352452993393, -1.1738929469372571e-39], [-0.40297502279281616, 1.2406514883041382, 0.22041210532188416, 0.0247491542249918], [0.5513912439346313, -0.19577032327651978, 0.22073064744472504, -0.8212185502052307]], "conv3.weight": [[[-0.05284404382109642, -0.3330948054790497, -0.14136837422847748], [0.16230212152004242, -0.09076516330242157, 0.09168744087219238], [-0.15298232436180115, -0.2568126916885376, -0.016666250303387642], [-0.1482277810573578, -0.11024296283721924, -0.11561733484268188], [-0.003738613100722432, -0.09905720502138138, 0.16202162206172943], [-1.7381986411177896e-40, 1.1353474300790744e-39, -1.3632055668706112e-39], [9.600043545365743e-40, -4.5510754953017106e-39, 1.47174313942489e-39], [-0.08828489482402802, -0.001486129709519446, 0.21499821543693542], [1.755189384997728e-39, 2.133153211989275e-39, -2.7936944795057786e-39], [-0.019061172381043434, -0.4018445611000061, 0.06840810179710388], [0.03646044433116913, -0.013697530142962933, 0.07128523290157318], [0.039564069360494614, 0.005188371520489454, 0.10238838940858841], [-0.0003406881005503237, -0.08066361397504807, 0.21562598645687103], [0.0995977520942688, 0.13816215097904205, 0.12885355949401855], [0.004956524819135666, -0.08512885123491287, 0.15526339411735535], [0.09989840537309647, 0.0721120834350586, -0.05417538806796074], [-0.17608070373535156, 0.04597273841500282, -0.14135794341564178], [0.08658050745725632, -0.032412994652986526, 0.004802245181053877], [0.20685091614723206, 0.08715009689331055, 0.050656743347644806]], [[0.16229695081710815, -0.04240228235721588, -0.12708961963653564], [0.10637392103672028, 0.21292026340961456, 0.02297890931367874], [0.2725229263305664, 0.17220179736614227, -0.09090815484523773], [0.06427310407161713, 5.44511858606711e-05, -0.10611198097467422], [-0.016183817759156227, -0.0013852346455678344, 0.1006012111902237], [5.3670207625118364e-39, -2.863334809287329e-39, 1.9997762228563745e-39], [4.401523317995109e-39, 4.6619224077251966e-39, 4.058172964370849e-39], [0.1273559331893921, 0.07763450592756271, -0.11490829288959503], [9.480821072020988e-39, 1.7749546998370295e-40, -1.7883581196482964e-39], [-0.006046861410140991, -0.31219860911369324, -0.09290521591901779], [0.0046378448605537415, 0.07900413125753403, -0.12127141654491425], [0.2491270750761032, -0.04063324257731438, -0.011531725525856018], [0.022961927577853203, -0.12111810594797134, -0.07351921498775482], [0.0021642236970365047, -0.05616704747080803, 0.07095170021057129], [0.15879279375076294, -0.08468109369277954, -0.10325323790311813], [-0.00555353332310915, -0.03880982846021652, -0.00898775551468134], [-0.09012612700462341, 0.1896105706691742, -0.005017532501369715], [0.2105538249015808, -0.20403261482715607, 0.05253388732671738], [-0.18483658134937286, -0.12111775577068329, 0.12086545675992966]], [[0.08014187961816788, 0.13221777975559235, 0.03336825966835022], [-0.15977172553539276, 0.028260812163352966, 0.09946144372224808], [-0.2195371687412262, 0.13925698399543762, 0.030362175777554512], [0.0628141537308693, 0.061046965420246124, 0.13415449857711792], [0.007049167063087225, 0.0612463504076004, 0.11216828972101212], [-4.931348662162465e-39, -5.836011536447459e-39, 3.015730221178046e-39], [3.748487405053529e-40, 2.646279282357272e-39, 5.53250850595474e-40], [0.08196750283241272, 0.14808958768844604, 0.12148795276880264], [1.6888869481581993e-40, 5.1808750771078564e-39, -2.4170927146215553e-39], [0.16920268535614014, 0.13986140489578247, 0.16766652464866638], [-0.10391148179769516, -0.06770455092191696, 0.07850974798202515], [-0.2865735590457916, 0.13584844768047333, 0.10081525146961212], [-0.034788116812705994, -0.014771373942494392, 0.19276712834835052], [-0.12572717666625977, -0.04502890259027481, -0.08778941631317139], [-0.08418010175228119, 0.053249556571245193, 0.057429905980825424], [0.05698199197649956, -0.035753488540649414, -0.023104490712285042], [-0.1509167104959488, -0.02229156531393528, 0.11540243774652481], [0.04176799952983856, -0.059525009244680405, -0.0047709327191114426], [-0.06458485126495361, -0.03445449098944664, -0.1082310751080513]], [[0.1705395132303238, 0.23941844701766968, -0.04905097931623459], [0.053252968937158585, 0.13791148364543915, 0.04241785407066345], [-0.003761749714612961, 0.04436827450990677, 0.020936692133545876], [0.010334544815123081, 0.11877620965242386, -0.050885945558547974], [-0.16981635987758636, 0.040861647576093674, -0.09294913709163666], [4.9877116889945376e-39, 6.385361172118253e-39, -5.303841819949288e-39], [-6.15839846504542e-39, 5.491604603781099e-40, -1.3964387612505386e-39], [0.12951362133026123, 0.11092287302017212, -0.03467358648777008], [9.196468186341732e-39, -1.0346347081495854e-39, 1.8680415555236628e-39], [-0.190949946641922, -0.10249966382980347, -0.1242925152182579], [-0.044432539492845535, 0.10227853804826736, -0.03058088943362236], [-0.1744682341814041, 0.01748005859553814, -0.15100812911987305], [-0.18879035115242004, -0.0764443576335907, -0.22090044617652893], [0.1025577262043953, 0.11755996942520142, 0.1656963974237442], [0.09142382442951202, 0.0718519315123558, -0.06184526905417442], [0.10012789070606232, -0.20695316791534424, -0.050313230603933334], [0.08679500967264175, -0.12605318427085876, -0.04431931674480438], [0.16759459674358368, 0.12424346804618835, -0.24385742843151093], [-0.08030354231595993, -0.06351470202207565, 0.023009832948446274]], [[0.017885619774460793, 0.11363236606121063, 0.04167311638593674], [-0.17619694769382477, 0.09149637818336487, -0.0422903373837471], [-0.05655945464968681, 0.08637427538633347, -0.013077949173748493], [-0.2247549295425415, -0.09861406683921814, -0.1162211075425148], [-0.07180572301149368, -0.23174796998500824, -0.340885728597641], [1.0937849176272003e-39, 1.0882974328409043e-39, -2.0260954106133233e-39], [1.464234141473959e-38, 8.227401634636369e-40, 6.432876400446579e-39], [0.0772293210029602, -0.06479047983884811, 0.02262110821902752], [4.9705541905973446e-39, -1.9091592958429602e-38, -5.1529500013107914e-39], [-0.09838393330574036, -0.0084110451862216, 0.12077774852514267], [0.16338816285133362, 0.09377721697092056, -0.051923442631959915], [0.01599038951098919, -0.1115947887301445, 0.11102469265460968], [0.012055504135787487, 0.17595349252223969, -0.1020328477025032], [-0.005072966683655977, 0.12422475218772888, -0.10877936333417892], [-0.050380732864141464, -0.14271800220012665, 0.06937313824892044], [-0.15827760100364685, 0.022431671619415283, 0.010923407040536404], [0.015919988974928856, -0.025609133765101433, 0.08571146428585052], [0.027079995721578598, -0.14561815559864044, 0.0566205270588398], [0.030056705698370934, 0.043047431856393814, 0.014873453415930271]], [[0.07411615550518036, -0.05782703682780266, -0.03086310438811779], [0.013109559193253517, 0.0375785194337368, 0.10709176957607269], [0.23231123387813568, 0.10163819044828415, -0.022008949890732765], [0.013507683761417866, -0.0613151453435421, 0.21983397006988525], [0.1866334080696106, -0.024111157283186913, -0.03492538630962372], [6.643420093412918e-39, -3.7055123837496154e-39, -1.4310536359162902e-39], [1.4469709851725558e-39, -6.963643417181961e-39, 6.187195148487295e-39], [0.034560881555080414, 0.20366336405277252, 0.0659463033080101], [2.262473442067955e-39, 2.030960718881459e-39, -1.0536189392248723e-38], [-0.11087869852781296, 0.001326975878328085, -0.21796835958957672], [-0.17665433883666992, 0.21345828473567963, 0.007179854903370142], [-0.11699456721544266, 0.12326623499393463, 0.008756146766245365], [0.16867868602275848, -0.1731724888086319, -0.0009014938841573894], [0.0663701593875885, -0.018605094403028488, 0.03964127227663994], [-0.19169467687606812, 0.02103775553405285, 0.08284256607294083], [-0.07783052325248718, 0.05016409605741501, -0.08919518440961838], [0.17377401888370514, -0.23029178380966187, -0.03456271067261696], [-0.16056351363658905, 0.22603492438793182, -0.014572173357009888], [-0.0779038816690445, -0.1167081966996193, 0.025490790605545044]], [[0.021207384765148163, 0.13962240517139435, 0.09303859621286392], [-0.22269023954868317, -0.04760551452636719, 0.11594972759485245], [-0.11178651452064514, -0.09870471805334091, 0.08693841099739075], [-0.1508849412202835, -0.035122476518154144, -0.0801427885890007], [0.024729495868086815, -0.22026056051254272, -0.20798155665397644], [-4.4068454495626145e-39, 2.994190862482909e-39, -2.0443893620650837e-39], [-6.377105282085837e-38, -1.6967580416323118e-39, 2.069771081149399e-39], [-0.12890033423900604, 0.06981349736452103, 0.14983774721622467], [-1.056691145978058e-39, 6.68869184289986e-40, -2.120185596000413e-39], [-0.09735077619552612, -0.049036089330911636, -0.07867512851953506], [-0.087976835668087, 0.1881699413061142, 0.21678230166435242], [0.10827625542879105, -0.09781605005264282, 0.0005549272755160928], [-0.04134827479720116, -0.0333956778049469, 0.0498264878988266], [-0.14132355153560638, 0.08713102340698242, -0.12427186965942383], [0.10296804457902908, -0.0916769728064537, -0.055031634867191315], [0.03742498904466629, 0.006761380936950445, -0.06560798734426498], [0.13588859140872955, -0.028344502672553062, 0.10056156665086746], [0.04844009503722191, -0.05544834956526756, 0.05519956722855568], [-0.14764828979969025, 0.1684224009513855, 0.05377862602472305]], [[0.20032024383544922, 0.12859846651554108, 0.12553948163986206], [0.036343976855278015, 0.1202789843082428, -0.08183687180280685], [-0.08152573555707932, -0.018016058951616287, -0.09115440398454666], [0.03489146754145622, -0.1428459733724594, -0.22608788311481476], [-0.20225785672664642, -0.12018737941980362, -0.3243396282196045], [4.9881895317708724e-39, 1.0441733467962445e-39, -4.958865960106411e-39], [-1.2820872013677762e-39, -3.083320451306289e-39, -1.6022138355427807e-39], [0.019844552502036095, 0.023815441876649857, 0.04192139580845833], [2.1151255072457362e-39, 6.374223651923799e-39, 3.9733159345651955e-39], [0.02310914359986782, 0.049314893782138824, -0.016037316992878914], [0.1856965273618698, 0.12878966331481934, 0.19026894867420197], [0.046954259276390076, -0.16507072746753693, 0.21776893734931946], [0.12622442841529846, 0.0793255865573883, -0.013121739029884338], [0.09369707852602005, 0.09399622678756714, 0.019303111359477043], [-0.04127807915210724, -0.002487469231709838, 0.029609089717268944], [-0.022370971739292145, -0.10076785087585449, 0.08669736236333847], [-0.04193829745054245, 0.006937642116099596, 0.12809626758098602], [-0.11292815208435059, 0.01473319809883833, 0.05700313672423363], [-0.0544547475874424, 0.06394850462675095, -0.014762268401682377]], [[-0.060741811990737915, 0.1379820853471756, 0.015764858573675156], [0.12019415944814682, -0.09373153001070023, 0.03987494856119156], [0.052465084940195084, 0.03512894734740257, -0.02066563442349434], [-0.11458770185709, -0.03246874362230301, -0.14876294136047363], [-0.0382116362452507, 0.06031818315386772, -0.35056188702583313], [5.3518180754723765e-39, -1.2036621315133735e-39, 4.6459644208134656e-39], [-5.662107594427821e-39, -2.798739153977348e-39, 2.428450238674908e-41], [-0.075143001973629, 0.12055827677249908, 0.050949130207300186], [4.38575730897299e-39, -3.470049400192188e-39, 5.3348371406816884e-39], [-0.06062599644064903, -0.008111299946904182, -0.006523552350699902], [0.08312374353408813, 0.05840782821178436, 0.18746992945671082], [0.021127648651599884, -0.1176668033003807, -0.11760567128658295], [0.0779024139046669, -0.09903447329998016, 0.13142934441566467], [-0.1370156705379486, -0.05791253596544266, -0.043463170528411865], [-0.06595184653997421, -0.12045758217573166, 0.02078014798462391], [-0.037057533860206604, 0.06893058866262436, 0.0893440991640091], [-0.008387229405343533, -0.043268345296382904, 0.10846717655658722], [-0.07692846655845642, 0.10974132269620895, -0.001435135374777019], [-0.17475131154060364, -0.06595347076654434, 0.06976398080587387]], [[-0.04268605634570122, 0.0491924025118351, 0.06683462858200073], [-0.1673927903175354, -0.05746004730463028, -0.08180911093950272], [0.023703915998339653, 0.06074907258152962, -0.1410462111234665], [0.13652335107326508, 0.09005794674158096, -0.08519474416971207], [-0.19194692373275757, -0.11949308216571808, 0.12327039241790771], [-2.6695562511481717e-39, 1.5220525568910795e-39, 1.4857416906939556e-38], [-7.61430412922651e-39, 1.253224656898078e-39, 4.126758116408763e-39], [-0.19070255756378174, -0.08123612403869629, -0.1151852011680603], [5.1648666434514097e-39, -1.4257427147364992e-39, -6.323348109878022e-39], [0.08565748482942581, -0.003951880149543285, 0.09505396336317062], [0.0841970220208168, -0.11840151250362396, -0.14587552845478058], [-0.12832237780094147, -0.09786450117826462, -0.09245211631059647], [0.07305018603801727, 0.07087820023298264, -0.00441546319052577], [0.01058745477348566, -0.03366250544786453, 0.11955802887678146], [0.17994444072246552, -0.029265863820910454, -0.01871141977608204], [0.021532965824007988, 0.06520092487335205, 0.09112998843193054], [-0.10542012751102448, -0.1292719542980194, 0.15884263813495636], [0.1530667096376419, 0.025798574090003967, 0.009135219268500805], [0.1852876842021942, 0.09349138289690018, -0.03370629623532295]], [[0.026030590757727623, 0.13586170971393585, 0.11189273744821548], [0.09175412356853485, -0.07826641201972961, -0.15026357769966125], [-0.029963694512844086, -0.07197678089141846, -0.12709593772888184], [-0.025897201150655746, 0.011994888074696064, -0.1216469258069992], [-0.22742003202438354, 0.03206140175461769, -0.19177556037902832], [1.4636101432677951e-38, 3.231886114494006e-39, -2.7615753174049894e-39], [-1.3170341837695728e-39, 6.256008712174893e-39, 3.6558783921432304e-39], [0.04499528929591179, 0.07090765982866287, -0.008754841983318329], [-3.65027600088286e-39, 4.4619024662259365e-39, 2.4873972598751957e-39], [0.011168439872562885, -0.04410567134618759, -0.020958002656698227], [0.20741496980190277, -0.028955312445759773, 0.2545850872993469], [-0.17321279644966125, 0.2177126705646515, 0.050346020609140396], [0.05153943598270416, 0.011381837539374828, 0.06723003089427948], [0.08436311781406403, 0.013907412067055702, -0.05237606167793274], [0.03358623757958412, -0.14216360449790955, -0.06438487023115158], [-0.009882310405373573, -0.11008074879646301, -0.059019699692726135], [-0.03620591387152672, -0.019424904137849808, -0.15233710408210754], [-0.01806427538394928, -0.0531616285443306, 0.018223127350211143], [0.041346121579408646, 0.005198302678763866, 0.04766959324479103]], [[-0.16901707649230957, 0.02555236406624317, -0.290974885225296], [-0.05894394963979721, -0.052851349115371704, 0.039448801428079605], [-0.1391732096672058, 0.16244292259216309, -0.14752180874347687], [0.1464528739452362, 0.0652913898229599, -0.05867317318916321], [-0.06945694983005524, 0.044910114258527756, -0.08751998096704483], [4.478853132969795e-38, 2.2591481608121122e-39, -5.0054591340452114e-39], [2.5415336234474564e-39, -9.924163880164073e-40, -7.668317739053296e-38], [-0.06317796558141708, -0.03669930621981621, 0.049522604793310165], [6.521259097188474e-39, 1.519928188419163e-39, -6.124320287691504e-39], [-0.023126225918531418, 0.13337668776512146, -0.12964701652526855], [-0.019768718630075455, -0.12639598548412323, 0.10253676027059555], [0.0951574519276619, -0.051451511681079865, 0.1571194976568222], [0.05733489245176315, -0.08280275017023087, -0.06270576268434525], [-0.12603656947612762, -0.11222930252552032, -0.086307093501091], [-0.06906133145093918, 0.12277627736330032, -0.0012516021961346269], [0.03267573192715645, 0.06234453245997429, -0.016479074954986572], [-0.025021420791745186, -0.19215786457061768, 0.017398616299033165], [-0.07125125825405121, 0.23416858911514282, -0.11808915436267853], [-0.04811592772603035, -0.017897048965096474, -0.0876951739192009]], [[0.049738965928554535, -0.15251533687114716, -0.08361417055130005], [-0.030131585896015167, -0.23201884329319, -0.044312432408332825], [0.026927821338176727, -0.1704895943403244, -0.11760252714157104], [0.10856088995933533, -0.1282259076833725, -0.0048370361328125], [0.135038822889328, -0.02543141134083271, -0.0031752316281199455], [5.828679942882112e-39, 1.5742520457259504e-38, 5.4004599477660195e-39], [-9.965640072630545e-38, 4.919985532915255e-39, -7.510259119548857e-40], [0.2557104527950287, -0.05776141956448555, 0.21124394237995148], [-2.995416998639193e-39, 1.1474112085584467e-40, -1.3265363886561594e-39], [0.23039832711219788, -0.042785800993442535, 0.11886876821517944], [0.07027217000722885, -0.12248841673135757, -0.06390335410833359], [-0.1463649421930313, 0.19568870961666107, -0.026855528354644775], [-0.12994952499866486, -0.05768987536430359, 0.022189486771821976], [-0.048564374446868896, -0.058567967265844345, 0.030896617099642754], [0.10451977699995041, -0.1278482973575592, -0.11162099242210388], [-0.14339450001716614, 0.0886562392115593, 0.14987687766551971], [-0.05132348835468292, -0.20700456202030182, -0.09461501985788345], [0.034390151500701904, 0.10404783487319946, 0.11235727369785309], [0.11597566306591034, -0.1363188475370407, -0.045067548751831055]], [[0.04815232753753662, -0.00957088079303503, -0.0005413070903159678], [0.042184896767139435, 0.270684152841568, -0.005794331897050142], [0.08327662944793701, -0.15347588062286377, -0.013742984272539616], [0.004201928153634071, 0.031136631965637207, -0.056139394640922546], [-0.035608842968940735, 0.08191162347793579, 0.044845253229141235], [-3.103796224467003e-39, 2.5105242897304125e-39, 1.708657868191358e-39], [4.437702041747047e-39, 6.051735829836407e-39, -1.2943948057799411e-39], [0.09129676222801208, -0.22430698573589325, 0.21959201991558075], [-1.6845922486247366e-38, -3.1407778922389995e-39, -4.196071943648126e-39], [-0.10916981846094131, -0.14512400329113007, -0.12100416421890259], [-0.061439406126737595, 0.09070359915494919, 0.04240284860134125], [0.07902572304010391, 0.275813490152359, 0.005481353960931301], [0.1342831403017044, 0.02323034778237343, -0.004808000288903713], [0.04614261910319328, 0.06134553626179695, -0.1644376516342163], [-0.026775022968649864, -0.004603059031069279, 0.21320049464702606], [-0.07497195899486542, 0.022051360458135605, 0.041724301874637604], [0.09609638154506683, 0.03482409566640854, -0.027895517647266388], [0.04158925637602806, 0.3693443536758423, -0.15854324400424957], [-0.06757903099060059, -0.0069099604152143, -0.0514700822532177]], [[-0.003681480186060071, 0.16868354380130768, -0.15417464077472687], [0.0017668685177341104, 0.003792763454839587, -0.013860476203262806], [-0.02442251518368721, -0.0921315997838974, -0.20009611546993256], [-0.20384281873703003, -0.07920704036951065, -0.23770615458488464], [0.006854211911559105, -0.278959721326828, -0.20564521849155426], [6.216557956508757e-39, -2.8228022512067337e-39, -5.029806694862855e-39], [-4.1145514054860295e-39, 2.2752855139272768e-39, -3.363487658472607e-39], [-0.05828334018588066, 0.003028596518561244, -0.0055265906266868114], [-5.044300324879367e-39, 1.0913466582992751e-39, 4.7687349818698915e-39], [0.07577922195196152, 0.02989456243813038, 0.020773911848664284], [0.05604061111807823, 0.09019231051206589, -0.18069404363632202], [0.0151219442486763, 0.24557901918888092, -0.0001622968993615359], [0.054113734513521194, -0.003239203942939639, -0.025711163878440857], [-0.09248213469982147, 0.15974795818328857, -0.038701288402080536], [-0.02042214944958687, 0.041401561349630356, 0.17257624864578247], [-0.07809920608997345, -0.028273187577724457, -0.069187693297863], [0.07104279100894928, 0.09119470417499542, 0.020020637661218643], [-0.01567585952579975, -0.046180300414562225, -0.12097273021936417], [-0.012345602735877037, -0.05925162881612778, -0.14015303552150726]], [[0.019052335992455482, 0.09038673341274261, 0.035852182656526566], [0.06847018003463745, -0.03191886097192764, -0.02560807578265667], [0.10122233629226685, 0.1392509490251541, 0.028776835650205612], [-0.07789482176303864, 0.03257691487669945, 0.011025184765458107], [-0.29066383838653564, -0.0692402794957161, -0.3497605323791504], [7.688266063472039e-40, -7.574312472353144e-40, -4.0386823040305553e-41], [-4.3918193261296595e-39, 2.8214415903978743e-39, 3.542908512546292e-39], [-0.03330868482589722, -0.18313738703727722, 0.06346331536769867], [-4.637492170298158e-39, 2.0355443661582655e-39, 4.765129440921184e-39], [0.12390226125717163, -0.07581987977027893, -0.016201302409172058], [-0.002097778022289276, 0.21512116491794586, 0.20132243633270264], [0.019393956288695335, -0.14112277328968048, 0.21595749258995056], [-0.07466360181570053, -0.01744602620601654, 0.08461710065603256], [0.09485949575901031, 0.1954811066389084, 0.16800983250141144], [-0.11601725965738297, -0.16816860437393188, -0.032618843019008636], [-0.022532416507601738, -0.06608989089727402, -0.010082254186272621], [-0.03165062144398689, 0.015923090279102325, -0.003469890682026744], [0.10129296779632568, 0.07860419899225235, 0.061203483492136], [0.0274442620575428, 0.09966488927602768, 0.05832637846469879]]], "conv3.bias": [-0.007478622253984213, 0.12308186292648315, 0.0884939581155777, 0.09463416785001755, 0.03392559289932251, -0.057507555931806564, -0.1584789752960205, 0.02500426396727562, 0.0128283416852355, -0.012774736620485783, -0.11778398603200912, -0.15635493397712708, 0.16360971331596375, 0.07580705732107162, -0.17347180843353271, -0.07726021111011505], "conv5.weight": [[[-0.1354837417602539, 0.1908409297466278, 0.03867509216070175, 0.13109515607357025, 0.044100336730480194], [-0.06198371201753616, 0.026059620082378387, 0.09493745863437653, -0.10865078121423721, 0.09034571051597595], [-0.053720638155937195, 0.016123086214065552, 0.0692228376865387, 0.024058356881141663, -0.0024609395768493414], [-0.09398475289344788, 0.10203520208597183, -0.048370279371738434, -0.06737597286701202, -0.1307028979063034], [0.09100103378295898, -0.3528682589530945, -0.045665133744478226, -0.1672045886516571, -0.10669141262769699], [-1.8167316109539453e-39, 5.344416416983813e-39, -4.9196043797329586e-39, 2.8198931555947954e-39, 3.802052038852345e-39], [2.7045340621161834e-39, 5.561027732300679e-39, -3.156824160953983e-39, -2.0853069969636755e-38, -2.096698432439865e-39], [0.0703015923500061, 0.03988506644964218, -0.042346976697444916, 0.04648751765489578, -0.13297200202941895], [2.8565385117353537e-39, -4.26011128346777e-39, -6.752281365912456e-39, -3.8456001912281674e-39, 3.2363870851614175e-39], [-0.029290098696947098, -0.0020776872988790274, -0.014358500950038433, 0.0029531465843319893, 0.13517697155475616], [-0.09497419744729996, 0.21332314610481262, 0.09159243851900101, 0.17727991938591003, 0.20033182203769684], [-0.09446679055690765, 0.10128825902938843, -0.04430559277534485, 0.00271354871802032, 0.0985037162899971], [0.10254088044166565, 0.08254057914018631, 0.15141208469867706, 0.16092491149902344, 0.0785553976893425], [-0.11263101547956467, -0.017519135028123856, 0.012121054343879223, 0.05539907142519951, -0.10676611959934235], [0.022608866915106773, -0.06145617738366127, -0.186515212059021, -0.030467471107840538, -0.06930787861347198], [0.08075911551713943, -0.1432822346687317, -0.014691361226141453, -0.02336372248828411, 0.02096380665898323], [-0.08793013542890549, -0.0792064443230629, -0.0859416201710701, -0.02964075841009617, -0.0689479261636734], [-0.03830326348543167, -0.06440530717372894, 0.018779050558805466, -0.04135449230670929, -0.10032466799020767], [0.020233774557709694, 0.11676027625799179, -0.007778095081448555, -0.061355963349342346, -0.010447933338582516]], [[0.1524282693862915, -0.10103357583284378, 0.24475322663784027, -0.12599888443946838, -0.06353393197059631], [-0.017222920432686806, -0.13351409137248993, 0.15798141062259674, 0.04569022357463837, -0.1507665067911148], [0.005277837160974741, 0.0380447693169117, 0.08372463285923004, -0.11084873974323273, -0.0686776340007782], [-0.11566276103258133, -0.06548105925321579, -0.016992907971143723, -0.06462575495243073, -0.0029686568304896355], [0.035381291061639786, 0.03761173412203789, -0.01369980163872242, -0.04635362699627876, 0.013627748936414719], [-1.2947563407837369e-39, -1.0262759628098879e-39, 1.2420240782727297e-39, 6.943976193235162e-39, 2.773592853035039e-39], [-5.175079306659409e-39, 4.578575977664085e-39, -6.595906266383057e-39, 4.254908262269732e-39, -2.9202734895285464e-38], [0.08332214504480362, 0.09607566893100739, -0.0751008465886116, 0.08744223415851593, -0.010513095185160637], [9.276119392352419e-40, -3.9880912255730364e-39, -6.521679486727771e-39, 1.3763833776291218e-39, -4.066115524066642e-39], [0.16317424178123474, -0.07436946779489517, -0.07441477477550507, 0.12510085105895996, 0.20105236768722534], [-0.031771160662174225, -0.12334180623292923, -0.12300379574298859, -0.015395878814160824, -0.038954783231019974], [-0.09257545322179794, -0.10487544536590576, -0.03579620644450188, -0.0005922961863689125, 0.024001598358154297], [0.04690314829349518, -0.0555167980492115, -0.018815262243151665, -0.22188039124011993, -0.025682587176561356], [0.15289010107517242, 0.22135917842388153, 0.2368628829717636, -0.13391736149787903, -0.18823494017124176], [-0.08684071153402328, -0.0006131865666247904, -0.04363657534122467, -0.13738980889320374, 0.07376692444086075], [-0.1844673901796341, 0.032026179134845734, 0.03879271075129509, 0.014820460230112076, 0.050736524164676666], [-0.016391092911362648, -0.059210631996393204, -0.162957102060318, -0.09348048269748688, -0.060342129319906235], [0.10567721724510193, -0.011664526537060738, 0.20752471685409546, -0.1941175013780594, 0.08893013745546341], [0.11418955773115158, 0.08420857042074203, 0.026331715285778046, -0.004194426815956831, -0.004629879258573055]], [[-0.0024656495079398155, -0.005368153098970652, 0.10115201771259308, 0.04496312513947487, 0.010137268342077732], [-0.11762189865112305, -0.06586023420095444, -0.20820605754852295, 0.0507303886115551, 0.03304300084710121], [-0.009865646250545979, 0.13750462234020233, 0.04391585662961006, 0.017255473881959915, -0.01077126245945692], [0.052047185599803925, -0.08671846240758896, 0.05563301593065262, -0.052023064345121384, -0.1767711490392685], [-0.06296993792057037, -0.20686545968055725, -0.09507396072149277, -0.2750661373138428, 0.0009053272660821676], [4.6362099822033005e-39, 4.201884529678145e-39, 5.882805096066658e-39, 1.4492954590651778e-38, 5.806678155693748e-39], [7.344765770912096e-41, -4.6717020697077195e-38, -1.388532635314818e-40, 6.904654357027744e-39, -2.0133646140649323e-39], [-0.07885883003473282, 0.015576914884150028, 0.09298177063465118, 0.15073007345199585, 0.034902989864349365], [-1.4112098483629865e-39, 4.4677739067914575e-40, 5.389253763946814e-39, 5.885246157991512e-39, 2.892114677147632e-39], [0.02486426942050457, 0.16235776245594025, -0.009070303291082382, -0.11819674074649811, 0.09404636174440384], [0.23364317417144775, 0.014016009867191315, 0.1955842822790146, 0.1434759944677353, 0.003907090984284878], [-0.08765606582164764, -0.04991636797785759, 0.1413739174604416, -0.006336543709039688, -0.0988626480102539], [0.006424570456147194, 0.07165417075157166, 0.008845442906022072, 0.08485746383666992, 0.14572514593601227], [0.048757895827293396, 0.0980018749833107, 0.013862895779311657, -0.15894995629787445, -0.17930252850055695], [-0.04195486754179001, -0.11153624206781387, -0.11867470294237137, -0.08375971764326096, -0.17639285326004028], [0.0737643837928772, -0.09263984858989716, 0.07432805746793747, -0.015955202281475067, -0.0895436480641365], [0.0992351695895195, -0.06434022635221481, 0.07845266908407211, 0.04825913533568382, 0.1413671225309372], [0.050840333104133606, 0.012813239358365536, -0.006347807124257088, -0.012948189862072468, -0.11562393605709076], [0.059752680361270905, -0.005605264101177454, 0.05294180288910866, 0.03263825550675392, -0.03488569334149361]], [[-0.10728093236684799, 0.048503369092941284, -0.03476281091570854, -0.006991181522607803, 0.08908330649137497], [-0.20195560157299042, -0.1068020910024643, -0.11058346182107925, 0.023456664755940437, 0.04328610375523567], [-0.23983195424079895, 0.0669892281293869, -0.13847556710243225, -0.08578312397003174, 0.02331128530204296], [-0.1452900469303131, -0.031024347990751266, -0.15946698188781738, 0.05762344226241112, -0.01022674422711134], [-0.021262429654598236, -0.2621753513813019, 0.12282036244869232, -0.26466694474220276, 0.005023455712944269], [-1.6204741558313974e-39, 5.535337727554212e-39, -4.195374097012892e-39, -2.3961082701182912e-39, -4.0274018513927405e-40], [-3.773646317682017e-39, 6.815163233200568e-39, -5.417503940987602e-39, -1.8650553884961866e-39, 4.4914404365554394e-39], [-0.13053104281425476, 0.021888267248868942, 0.04535454884171486, 0.08817941695451736, -0.16957633197307587], [-2.1913143850107694e-38, 6.059123475340328e-39, 4.600897260902315e-39, -2.084870072102499e-39, -1.602374984866178e-39], [-0.05493022873997688, -0.12629257142543793, 0.08609117567539215, 0.024397842586040497, 0.05863475054502487], [0.11833451688289642, 0.11962363123893738, 0.04994099959731102, 0.12191364914178848, 0.07066551595926285], [-0.11774582415819168, 0.018604621291160583, -0.08961504697799683, 0.00903354212641716, -0.0024628962855786085], [-0.08732765167951584, 0.03598422929644585, -0.07170433551073074, -0.030928710475564003, -0.05911530181765556], [0.047196805477142334, -0.02418125793337822, -0.03539685904979706, -0.06812991201877594, -0.024347957223653793], [0.2181711196899414, -0.12742255628108978, -0.07017354667186737, -0.040111422538757324, 0.10344628244638443], [0.0020130842458456755, -0.11790504306554794, 0.0547744445502758, -0.08352763205766678, 0.1054103821516037], [0.14810551702976227, -0.054339926689863205, 0.07083343714475632, -0.029848357662558556, 0.16762755811214447], [0.008334057405591011, -0.014067462645471096, 0.03726818785071373, -0.007432937156409025, 0.0022267692256718874], [-0.1278420239686966, -0.06670250743627548, -0.07570843398571014, 0.15217207372188568, -0.05142949894070625]], [[-0.17643390595912933, -0.055467646569013596, -0.03425121679902077, -0.010284359566867352, -0.1753990203142166], [0.12670394778251648, 0.10360492020845413, 0.0154421953484416, 0.08291763067245483, -5.3891766583546996e-05], [-0.0916718989610672, 0.09908691048622131, -0.041367389261722565, 0.09521224349737167, 0.03808896988630295], [-0.07559224963188171, 0.015084542334079742, -0.04695390537381172, -0.04496641457080841, 0.02497779205441475], [0.04204833507537842, 0.029928458854556084, -0.11124103516340256, -0.04086381196975708, 0.05816403031349182], [6.415660047513884e-39, -1.2643874004648895e-39, -3.758949499388178e-39, -2.528913529477747e-39, 1.2361904727657455e-39], [2.2371985019266212e-38, -1.1298991816497795e-39, -2.6702790408960704e-38, -3.9276378085235995e-39, 2.085434795383622e-39], [-0.10537616908550262, -0.012021945789456367, -0.04450030252337456, 0.056265849620103836, 0.012459314428269863], [4.4180137983232833e-41, -3.4322703935939907e-40, 1.7558718173498542e-39, -1.9902515971943588e-39, 3.743724391573289e-38], [-0.34514570236206055, -0.0902896597981453, -0.36725983023643494, -0.08293608576059341, -0.2518945038318634], [0.03674035891890526, -0.05263622850179672, -0.1284290999174118, -0.021541232243180275, -0.07239581644535065], [0.30188819766044617, 0.08095717430114746, 0.038550179451704025, -0.06432773172855377, 0.05472071096301079], [0.030562296509742737, 0.020241664722561836, 0.011140221729874611, 0.041451845318078995, -0.008591776713728905], [0.0757916271686554, 0.14538297057151794, 0.16489718854427338, 0.25860145688056946, 0.20112666487693787], [0.047328267246484756, 0.09877738356590271, -0.0830509290099144, -0.06431961804628372, -0.07534876465797424], [-0.0869893878698349, -0.0503774955868721, -0.06412544846534729, -0.02110544964671135, 0.01226161140948534], [0.054944708943367004, 0.1232820376753807, -0.10309366136789322, 0.06616006046533585, 0.05542191490530968], [0.22615408897399902, -0.05708820000290871, 0.03971368074417114, -0.10592129826545715, 0.012274754233658314], [0.02326524257659912, 0.08290376514196396, 0.031232044100761414, 0.05362408980727196, 0.10965205729007721]], [[-0.07786116749048233, -0.11955007910728455, 0.06107630208134651, 0.11158616840839386, -0.11971559375524521], [-0.042298201471567154, -0.03744480386376381, 0.0604679100215435, 0.0655769482254982, -0.03335953131318092], [-0.01040618121623993, 0.08279440551996231, 0.18156063556671143, 0.12932699918746948, 0.042659226804971695], [-0.130594402551651, -0.019315211102366447, 0.04258159548044205, 0.054591644555330276, 0.12415368109941483], [-0.03531050682067871, 0.12209931015968323, 0.09467026591300964, -0.07563959062099457, -0.010606939904391766], [-2.2855444199845988e-39, -5.5786939020404217e-39, -2.634557420703195e-39, 1.783550264617198e-39, -1.3131932246788585e-39], [-2.1669441231580036e-39, -5.863111247449037e-39, -2.804718494524622e-39, 4.653782264945934e-40, 5.166381447091345e-39], [0.0527147576212883, -0.08923178911209106, 0.18583369255065918, 0.1904703974723816, -0.03627994284033775], [-4.811127063012646e-39, -2.719191644053021e-40, 3.57486512402522e-39, 5.267657491003492e-39, -2.9504353179343667e-39], [-0.054860055446624756, 0.09471112489700317, -0.00538843497633934, -0.11221420019865036, -0.055569104850292206], [-0.08465524017810822, -0.1427210420370102, 0.04339190199971199, 0.057196468114852905, 0.022291945293545723], [-0.07328177243471146, -0.06287211179733276, -0.05198002979159355, 0.07743550837039948, 0.031018007546663284], [-0.09140877425670624, 0.08901865780353546, -0.14562338590621948, -0.06234975531697273, -0.13747023046016693], [0.2520146369934082, 0.060522280633449554, 0.1680370718240738, -0.07172731310129166, -0.012994728051126003], [-0.10403544455766678, 0.13556966185569763, 0.10750642418861389, 0.0522233247756958, 0.07974235713481903], [-0.015666188672184944, -0.1092844158411026, 0.10137709230184555, -0.027473339810967445, 0.014228373765945435], [-0.09421111643314362, 0.18716417253017426, 0.00475401571020484, -0.04944221302866936, 0.030669229105114937], [0.08122532814741135, -0.05576984956860542, 0.09999792277812958, -0.13094811141490936, 0.027637459337711334], [0.0744313895702362, 0.011420524679124355, -0.07376404851675034, -0.09990226477384567, -0.15497153997421265]], [[0.05090571194887161, 0.0741589143872261, 0.11102710664272308, -0.06307673454284668, 0.07798512279987335], [0.0040846047922968864, 0.1236489787697792, -0.1524488478899002, 0.0658603236079216, 0.06096508353948593], [0.11815573275089264, -0.015255438163876534, -0.08264032006263733, -0.15480570495128632, 0.010058308951556683], [-0.0048631033860147, -0.08326549828052521, 0.18387173116207123, -0.06662576645612717, 0.097562775015831], [-0.16992323100566864, -0.06923729181289673, -0.29796770215034485, -0.044749077409505844, -0.04629332199692726], [-3.4737586372272556e-39, -3.71939785023261e-39, 4.870606577629377e-39, 2.5930397498021794e-39, 2.9800167285162636e-39], [-3.692267310664817e-40, -5.5236663126448504e-39, -4.648219110042564e-39, 6.365373050823124e-39, -6.036468683067589e-39], [-0.017612315714359283, 0.07192288339138031, 0.11694375425577164, -0.0907815620303154, -0.06899867206811905], [1.9923311241154168e-39, -6.776956830570752e-39, 1.9496711147062835e-38, -4.820902521099776e-39, -8.577908419517935e-41], [0.002873359713703394, -0.004521076567471027, -0.0011442159302532673, 0.14459535479545593, 0.06484867632389069], [0.00601267721503973, 0.1013944074511528, 0.09351112693548203, 0.11711477488279343, 0.2504805028438568], [-0.0066124796867370605, -0.1502419412136078, 0.19301030039787292, -0.0337178111076355, -0.058990366756916046], [0.01213132031261921, 0.18702436983585358, -0.08520739525556564, 0.08268377184867859, 0.11539490520954132], [0.11153876781463623, 0.10958705842494965, -0.08010845631361008, 0.10480379313230515, -0.011552764102816582], [-0.01730979047715664, -0.026268839836120605, 0.11461307853460312, 0.05999079719185829, -0.10963631421327591], [-0.017238156870007515, -0.09823878854513168, 0.023728318512439728, -0.05263473838567734, 0.05212556570768356], [-0.010386393405497074, -0.0522240474820137, 0.15416747331619263, -0.05455769971013069, 0.03702675923705101], [0.07736704498529434, 0.0478384830057621, 0.04404737055301666, -0.03319936618208885, -0.013006840832531452], [0.10404092818498611, -0.011442484334111214, 0.014446789398789406, 0.12432694435119629, -0.02214924991130829]], [[-0.10745655000209808, 0.1266501396894455, -0.20201575756072998, -0.17452473938465118, 0.04755767807364464], [0.028713589534163475, 0.019302507862448692, -0.017522767186164856, -0.0937071144580841, 0.10600901395082474], [-0.03614479675889015, 0.0803399309515953, -0.14384010434150696, -0.1388169825077057, 0.13798381388187408], [-0.036926619708538055, 0.1815241426229477, -0.08746006339788437, 0.05691942945122719, 0.11503396928310394], [0.03274121880531311, 0.13999484479427338, -0.019305091351270676, 0.06732188910245895, -0.04658618941903114], [-6.132498265529304e-39, -4.858610061476292e-40, 4.4475447621604645e-39, 6.335748199988833e-39, 1.0025477759134758e-39], [-4.719590043427556e-39, -3.228584655312057e-39, -4.1266866501870824e-39, -2.8744933489587475e-39, 9.264872570877748e-39], [0.0038736932910978794, -0.03155701234936714, -0.0026910246815532446, 0.047568388283252716, 0.12032878398895264], [-2.9219104863945707e-39, -1.2279424300047296e-39, -5.952107712918306e-39, -4.737986289667212e-39, 5.025706495556241e-39], [-0.3092944324016571, 0.0321304090321064, -0.0022085444070398808, -0.03603319078683853, 0.02003280073404312], [0.0005742731154896319, 0.004966373555362225, -0.041166290640830994, -0.05427597463130951, -0.06962862610816956], [0.059787821024656296, 0.09823442995548248, 0.07222073525190353, 0.11910218745470047, 0.12043607234954834], [0.0790918692946434, -0.23321546614170074, 0.051063355058431625, 0.019876882433891296, -0.004364672116935253], [0.1273878961801529, -0.061884354799985886, -0.03965366259217262, 0.06018238887190819, 0.0899263322353363], [0.04833756759762764, 0.14220884442329407, -0.22307755053043365, 0.11497662961483002, 0.05657941848039627], [-0.04911891371011734, -0.06652113795280457, 0.06308063864707947, -0.05923665687441826, -0.06330802291631699], [0.12103048712015152, -0.13399863243103027, 0.03278222307562828, -0.02979486994445324, -0.019070209935307503], [0.09441030770540237, -0.021622756496071815, -0.14309419691562653, 0.06246272101998329, -0.014958847314119339], [0.12192972749471664, -0.04895443469285965, -0.09017917513847351, 0.0035536785144358873, 0.13390572369098663]], [[-0.02867109887301922, -0.06488000601530075, -0.013024944812059402, 0.17397746443748474, 0.11667242646217346], [-0.03125230222940445, 0.1953064203262329, -0.16038468480110168, -0.06188076362013817, -0.004993943963199854], [-0.007926376536488533, 0.03149102255702019, -0.05403706058859825, 0.1296602189540863, 0.08818254619836807], [0.09254653751850128, 0.0024347351863980293, 0.08828277140855789, 0.08737443387508392, 0.03357852250337601], [0.017264163121581078, 0.07409914582967758, -0.04345996677875519, -0.09487936645746231, -0.0613740012049675], [3.2632850091841324e-39, 3.550060739908206e-39, -5.312860576865682e-39, -6.902667315805331e-39, 6.639255434376945e-39], [5.16821714807961e-39, 4.208795733704195e-39, 4.8852683634616076e-39, 7.00428387524431e-39, -1.3414770328827906e-40], [0.033812955021858215, 0.13153797388076782, -0.14062559604644775, 0.15868353843688965, 0.13522669672966003], [-1.5358105052138206e-39, 5.905406638997753e-39, 3.9819100980468996e-39, 3.0552202132011835e-39, 3.314625782320065e-39], [-0.1482289880514145, -0.053710389882326126, 0.0371752567589283, -0.16088122129440308, 0.014779365621507168], [-0.023594457656145096, -0.07497605681419373, -0.06587319821119308, -0.18351255357265472, -0.10881289839744568], [-0.06686326861381531, 0.07725726068019867, 0.07098791748285294, -0.028217123821377754, -0.009571249596774578], [-0.024579672142863274, 0.27449288964271545, -0.23135563731193542, -0.11859358102083206, -0.11968307197093964], [0.03758847713470459, 0.0028532661963254213, 0.16556863486766815, -0.06510203331708908, 0.0012480666628107429], [0.03976618871092796, -0.10141788423061371, -0.02034272626042366, -0.0693744495511055, -0.046352319419384], [-0.13736149668693542, -0.06813434511423111, -0.10190878808498383, 0.06867078691720963, 0.008200024254620075], [0.1212255135178566, 0.11467763781547546, -0.11635354906320572, 0.18465565145015717, -0.011626079678535461], [0.00958949699997902, -0.038692329078912735, -0.04276294261217117, -0.054575394839048386, -0.04657149687409401], [-0.04062948003411293, 0.07425674796104431, -0.03485526889562607, -0.209445059299469, -0.21931084990501404]], [[-0.024396095424890518, -0.06986292451620102, 0.03566678985953331, 0.01624014601111412, -0.07047709077596664], [0.08145161718130112, -0.09972822666168213, 0.04346857964992523, -0.0020811711438000202, 0.2607180178165436], [0.08417262136936188, -0.15001221001148224, 0.1536504179239273, 0.0455394946038723, 0.010267590172588825], [0.08957000076770782, 0.03643498942255974, 0.08245255053043365, 0.03885960951447487, 0.08789145201444626], [0.09953225404024124, -0.01047458779066801, 0.03981775417923927, -0.02982177399098873, 0.1062399223446846], [-6.823482742183264e-41, -1.0182367135200564e-39, 6.825387106796282e-39, -1.4351314144474755e-39, 6.089935225973902e-39], [-2.8734353686181823e-39, -4.654132589562015e-41, 5.8893911988489844e-40, -3.623076797690315e-39, 2.775551868288165e-41], [0.14287115633487701, -0.20539657771587372, 0.06847067922353745, 0.050103507936000824, 0.12176376581192017], [1.0368445558278257e-39, -2.657181944929105e-38, 6.253599880114719e-39, -4.870100708883756e-39, -2.242977176533804e-39], [0.1878364384174347, 0.02774316631257534, 0.06955496966838837, -0.0458093099296093, 0.07156969606876373], [0.004238469991832972, -0.10636952519416809, -0.0754600241780281, -0.034543752670288086, -0.014610717073082924], [-0.13009922206401825, 0.09443139284849167, -0.03891879692673683, 0.02683316171169281, 0.19673645496368408], [-0.041181642562150955, 0.047575078904628754, -0.05472845211625099, -0.10212264955043793, 0.049798283725976944], [0.005202731117606163, -0.09489002078771591, 0.11651952564716339, -0.04725205898284912, 0.08720459789037704], [-0.18402695655822754, 0.086073137819767, -0.04392844811081886, -0.05808527022600174, -0.18633945286273956], [-0.12826383113861084, 0.06852426379919052, 0.05094852298498154, 0.022558966651558876, -0.20609693229198456], [0.03416439890861511, -0.10749240219593048, 0.14680643379688263, -0.015146056190133095, 0.22633621096611023], [-0.14876802265644073, 0.2285807877779007, -0.14598321914672852, -0.008877702988684177, 0.23615670204162598], [-0.10424605011940002, 0.0028832051903009415, 0.01387003343552351, -0.1712152063846588, -0.04926740750670433]], [[-0.04800183326005936, 0.08065485954284668, 0.0382036529481411, 0.03350139036774635, -0.11097110062837601], [-0.044562723487615585, 0.09915537387132645, -0.14652179181575775, 0.030668912455439568, 0.2621613144874573], [0.14409004151821136, 0.1535411924123764, -0.11820370703935623, 0.060802534222602844, 0.1723780781030655], [0.08211272209882736, 0.026470771059393883, -0.03370307385921478, 0.12727008759975433, 0.010557630099356174], [-0.0010281041031703353, 0.10248938947916031, -0.021734653040766716, 0.016907457262277603, -0.059730492532253265], [1.702496358843722e-38, -5.22734633808026e-39, -4.512270738227628e-39, 2.6193435232760205e-39, -3.085570936639995e-39], [-3.592584543106607e-39, -1.8844241358700843e-38, 1.9941037666727877e-40, -3.214961231641891e-39, -4.443186723936414e-39], [0.00964825227856636, 0.003524036379531026, 0.0005312389694154263, 0.20736131072044373, -0.0909043401479721], [-5.1089422230386705e-39, -6.62389580190948e-39, 7.830862195201732e-40, 3.1982535500517462e-40, -1.298518827160449e-37], [0.17195995151996613, -0.10680421441793442, -0.0168398879468441, 0.05883348733186722, -0.15891824662685394], [-0.004125057253986597, 0.018756169825792313, -0.14589710533618927, -0.058521538972854614, -0.1069416031241417], [0.1552366316318512, -0.15643393993377686, -0.06896093487739563, -0.07262679189443588, 0.05671137198805809], [0.051043663173913956, -0.06773708760738373, -0.02156851440668106, -0.15658751130104065, -0.2644760310649872], [0.05397578701376915, 0.0600784607231617, 0.09370779991149902, 0.03180984780192375, 0.11357523500919342], [0.03224635496735573, -0.2142944633960724, -0.050732504576444626, -0.024182062596082687, -0.15907913446426392], [0.09864302724599838, -0.0642564594745636, 0.11876078695058823, -0.08760368824005127, 0.04701942577958107], [-0.11634430289268494, 0.13164016604423523, -0.07810786366462708, 0.1241249218583107, -0.0015588192036375403], [0.19366554915905, -0.16696858406066895, 0.09592676907777786, -0.10249585658311844, 0.021081285551190376], [0.025164730846881866, -0.04410702735185623, -0.06369894742965698, -0.09259191155433655, -0.11285234242677689]], [[0.03085508942604065, -0.22291353344917297, -0.2443402260541916, 0.05383240059018135, -0.016324669122695923], [0.07501459866762161, -0.02766665257513523, -0.051322199404239655, 0.1394505798816681, 0.15697729587554932], [0.010520200245082378, -0.04365135729312897, -0.025736162438988686, 0.125551238656044, 0.08472806960344315], [-0.006687664892524481, 0.05327527970075607, 0.12043430656194687, 0.10448432713747025, 0.06512909382581711], [0.06313126534223557, -0.02524145506322384, 0.06433889269828796, 0.1573731154203415, 0.034261833876371384], [4.0665737486644764e-39, 4.0705380220200513e-39, 3.121228377363204e-39, 6.421642190658087e-39, 4.231816264876123e-39], [-4.426921852660996e-39, 3.7005167547242975e-39, -2.6916140902751086e-39, 4.8079250960216636e-39, -1.785254243549817e-39], [0.13616043329238892, -0.08948276937007904, 0.10208212584257126, 0.10238665342330933, 0.18003050982952118], [1.2015209474598852e-39, 2.8996928992427007e-39, 5.743361885881695e-40, -1.5175095472697385e-39, 4.7165716465354e-39], [0.06162070482969284, -0.003749171970412135, -0.013192005455493927, 0.006327083799988031, -0.057491421699523926], [-0.018279721960425377, -0.04405451565980911, -0.061529967933893204, 0.07467750459909439, 0.03640812262892723], [0.04887073114514351, 0.14200423657894135, 0.16636808216571808, 0.0010425501968711615, -0.023507360368967056], [-0.11427154392004013, 0.10602828860282898, 0.09372128546237946, -0.12060616910457611, -0.0985248014330864], [-0.06350623816251755, -0.09931755810976028, -0.056872930377721786, -0.11612394452095032, -0.059507738798856735], [0.010246198624372482, 0.0037791538052260876, 0.05807056650519371, 0.2152564525604248, 0.07798346877098083], [-0.03757590427994728, -0.06533072143793106, 0.02966448850929737, -0.10043458640575409, 0.056483957916498184], [0.026171555742621422, 0.06832356750965118, -0.016621839255094528, 0.057929180562496185, 0.13540951907634735], [0.0011722036870196462, 0.17655937373638153, -0.11652785539627075, 0.012875065207481384, -0.11007583886384964], [-0.16479423642158508, 0.048078954219818115, -0.0987381711602211, -0.08673989027738571, -0.001647519413381815]], [[0.1873069852590561, 0.07509080320596695, 0.06950768828392029, -0.11283724009990692, -0.15016454458236694], [0.02626905031502247, 0.16843858361244202, 0.2146034985780716, 0.13787421584129333, 0.14687755703926086], [0.21967656910419464, 0.031092749908566475, 0.08076003938913345, -0.07246159017086029, -0.07220185548067093], [0.0648777112364769, 0.11971178650856018, 0.11045940220355988, -0.04283424839377403, 0.0473669096827507], [0.12578338384628296, 0.07871989905834198, 0.16189375519752502, -0.025894179940223694, 0.05409637838602066], [5.787542023864928e-39, -4.2602598211049883e-39, 3.523186637959385e-39, 5.070892765836859e-39, 5.3532628141890954e-39], [4.1548107103660815e-39, 2.660977501949575e-39, 5.747752153970425e-39, 2.2356497868638494e-39, -2.1310989084405748e-39], [0.12538252770900726, 0.08643238246440887, 0.1255565583705902, -0.098497174680233, 0.18234744668006897], [-1.4012802474447808e-39, -3.320539261839516e-39, 1.5873558679255447e-38, 1.5901088588885572e-38, -1.730365382702214e-39], [-0.055392250418663025, -0.09932451695203781, 0.058411307632923126, -0.22038930654525757, -0.13295067846775055], [0.08339451998472214, 0.15085557103157043, -0.12477019429206848, 0.05411135405302048, 0.0622042715549469], [0.06758136302232742, 0.01878220960497856, -0.06583800911903381, 0.17079418897628784, 0.03407718613743782], [-0.012482176534831524, 0.009525947272777557, 0.02640465460717678, -0.10502991080284119, 0.07626519352197647], [-0.07437881827354431, -0.01634455844759941, 0.014676281251013279, 0.1265544295310974, 0.11639686673879623], [0.017688065767288208, -0.1376575231552124, -0.21255096793174744, 0.11467596143484116, -0.019078858196735382], [-0.005371693056076765, 0.04631683602929115, 0.030208608135581017, 0.03528870269656181, 0.09027815610170364], [0.027858983725309372, 0.08716708421707153, 0.21654579043388367, -0.08916422724723816, 0.08549515157938004], [0.16639403998851776, -0.006955667398869991, 0.11298281699419022, 0.12449860572814941, 0.036202602088451385], [-0.28096482157707214, -0.06249971315264702, 0.13099516928195953, -0.03544265404343605, -0.10973713546991348]], [[0.05975202098488808, -0.0005786451511085033, 0.2071426808834076, 0.011166485026478767, 0.026432104408740997], [-0.061451323330402374, -0.07434733957052231, -0.06829728186130524, -0.00323588983155787, -0.08286454528570175], [-0.04308270290493965, 0.06923796236515045, 0.06646497547626495, -0.05072712525725365, 0.012920149601995945], [0.15240749716758728, 0.02485019341111183, -0.15455728769302368, 0.01972470059990883, 0.1892099529504776], [0.16399513185024261, -0.23529507219791412, -0.24538658559322357, 0.02033303491771221, -0.0820302739739418], [4.705958211966604e-39, 4.2719382425066714e-39, -3.501306763737417e-39, 5.8180188641655285e-39, 1.3400785370153945e-39], [-1.554586223077616e-38, -3.971342906327426e-39, 5.388495661477614e-39, -1.8214231582125048e-39, 4.965896274501929e-39], [-0.11478863656520844, -0.10267998278141022, -0.19241665303707123, -0.059567902237176895, -0.17475366592407227], [4.092693952039491e-39, -3.1316049924915293e-38, -6.961751664255123e-39, 6.62414523303613e-39, 1.6085042643491348e-39], [0.1441541314125061, 0.1750638633966446, 0.007382284849882126, 0.08898820728063583, -0.0411330945789814], [-0.022779962047934532, -0.12764061987400055, -0.01799524948000908, 0.08602467179298401, 0.03468308225274086], [0.058398082852363586, -0.022137150168418884, 0.21098896861076355, -0.10240304470062256, 0.029523568227887154], [0.08747353404760361, 0.051341041922569275, 0.02334453910589218, -0.033249031752347946, -0.006116580683737993], [0.10926895588636398, 0.03160765394568443, 0.13642214238643646, 0.17974789440631866, 0.1257442981004715], [0.09773828834295273, 0.0019317943369969726, 0.0005172931705601513, 0.17241404950618744, 0.12194149941205978], [0.1044732928276062, -0.037795983254909515, -0.020562224090099335, 0.11522218585014343, -0.07622499763965607], [-0.01821901462972164, -0.059512775391340256, 0.02129417657852173, -0.02424394153058529, -0.026644375175237656], [-0.07562879472970963, 0.021706506609916687, 0.02402428351342678, 0.03346117213368416, -0.11048713326454163], [-0.0038810106925666332, 0.042215973138809204, -0.03440604358911514, -0.012750723399221897, -0.11785347759723663]], [[0.04272652044892311, 0.07440654188394547, 0.01762629672884941, 0.06149506941437721, 0.1938931941986084], [-0.09621264040470123, -0.045591048896312714, -0.010894796811044216, 0.09588608145713806, -0.060352422297000885], [0.12164098769426346, 0.07583840936422348, -0.06594637781381607, 0.02576584368944168, 0.0653035044670105], [0.06948312371969223, -0.20396745204925537, -0.2209741175174713, 0.04408332332968712, 0.0676456093788147], [-0.1067667081952095, -0.013346535153687, -0.17282962799072266, -0.14547836780548096, -0.17151492834091187], [6.495091249665672e-39, -5.260016210477529e-39, -5.135402941940516e-39, 5.967069376621902e-39, 3.436352376020569e-39], [4.92533989434744e-40, 3.9464104435307733e-38, 3.131548940552956e-39, -1.6982714439737826e-39, 3.793756351943542e-39], [0.16847918927669525, 0.042446546256542206, -0.04692375659942627, -0.15845917165279388, 0.005258671008050442], [3.3754057019116896e-39, -1.9089902992481626e-39, -3.3184975699769945e-39, -7.685477479528032e-40, -4.4568886203205823e-39], [-0.13419067859649658, -0.10626904666423798, 0.1656932830810547, 0.20248949527740479, 0.16087022423744202], [0.23865137994289398, 0.21035541594028473, 0.06708849966526031, 0.22698451578617096, -0.013778635300695896], [0.12271039187908173, -0.16675280034542084, 0.04597673565149307, -0.05389365926384926, 0.08863116055727005], [0.04790711775422096, 0.06817791610956192, -0.07589408755302429, 0.03543965145945549, -0.038275331258773804], [0.16126197576522827, 0.08149167150259018, 0.0320030152797699, 0.05642787739634514, -0.07618916034698486], [-0.21977323293685913, 0.12539313733577728, 0.002544321585446596, -0.12756110727787018, -0.10233275592327118], [0.06927911192178726, 0.026620343327522278, 0.023014837875962257, -0.04424877464771271, -0.04263966158032417], [-0.07144936919212341, 0.04512495920062065, 0.04467165097594261, 0.013412799686193466, 0.04613115265965462], [-0.04918627068400383, 0.04225176200270653, 0.14577610790729523, 0.09304172545671463, 0.08219687640666962], [-0.019959181547164917, -0.065480075776577, 0.12151793390512466, -0.04155036807060242, 0.16811765730381012]], [[0.04748188704252243, 0.16616883873939514, 0.0786571204662323, 0.20287960767745972, 0.1775278002023697], [0.17535141110420227, 0.01569405570626259, -0.1628376692533493, -0.1805645376443863, 0.12578177452087402], [0.04381299018859863, 0.10901152342557907, 0.07449494302272797, 0.04310479015111923, -0.0034687260631471872], [-0.04688746854662895, -0.07727563381195068, -0.043281543999910355, -0.12267503142356873, 0.039584316313266754], [-0.21626727283000946, 0.15154042840003967, 0.020044604316353798, -0.34457892179489136, -0.10357034206390381], [6.857345119573673e-39, 1.1765301906471164e-39, 3.809494334996374e-39, -2.037776634611935e-39, -3.506163664214767e-39], [-4.748439976211075e-39, 4.054099389735057e-39, -2.6868889118534053e-39, 1.9325489290303914e-39, -1.596848263722881e-39], [-0.029701579362154007, -0.11876948177814484, -0.047330085188150406, -0.12857118248939514, -0.04978908598423004], [-4.492717019456439e-39, 4.394223954294441e-39, 1.6096524883108026e-38, -6.021811101130751e-39, -3.8347457333235074e-39], [-0.10034649074077606, -0.09050421416759491, 0.13857613503932953, 0.12378208339214325, 0.1378231942653656], [-0.15632688999176025, 0.17005856335163116, -0.14317944645881653, 0.10165499150753021, 0.05510071665048599], [0.02146928943693638, -0.0909813717007637, 0.06088728830218315, 0.1915505975484848, 0.0809255838394165], [-0.040771499276161194, -0.06545750796794891, -0.05508643388748169, 0.07625153660774231, -0.03174310550093651], [0.08285735547542572, 0.09180289506912231, 0.10334528237581253, 0.16304758191108704, -0.028475038707256317], [-0.2693443298339844, -0.04930340498685837, 0.21604783833026886, 0.023805690929293633, -0.22885975241661072], [0.03770754486322403, 0.058291129767894745, -0.046983059495687485, 0.029593493789434433, -0.06507449597120285], [-0.00410187104716897, -0.014175050891935825, 0.09635937213897705, 0.13417328894138336, -0.0891648605465889], [0.08883452415466309, 0.08462704718112946, 0.08955909311771393, 0.07812972366809845, 0.14274081587791443], [-0.019404785707592964, 0.09778765588998795, 0.07769336551427841, 0.08429287374019623, 0.03783247619867325]]], "conv5.bias": [0.009917068295180798, 0.04351884871721268, -0.0291949063539505, -0.060268521308898926, 0.023315178230404854, -0.08045058697462082, 0.033526066690683365, -0.01815352775156498, 0.10847081243991852, 0.09740616381168365, 0.09363960474729538, -0.12601859867572784, -0.05519634485244751, -0.0779678225517273, 0.006528045050799847, -0.07033464312553406], "fc1.weight": [[0.009941964410245419, -0.016691407188773155, -0.008575593121349812, 0.03366761654615402, 0.0237430352717638, -0.02124875970184803, -0.028088023886084557, -0.00805824063718319, 5.1541024731704965e-05, 0.05765081197023392, -0.006098742131143808, -0.04015345126390457, 0.028828227892518044, -0.007437996566295624, -0.0022631653118878603, -0.004458890296518803, -0.008461768738925457, 0.01829441823065281, -0.01051355991512537, -0.02143136039376259, -0.008554213680326939, 0.003464405657723546, 0.027092523872852325, 0.015543664805591106, -0.009624424390494823, -0.01826552487909794, -0.022283755242824554, 0.02503543347120285, 0.004595856182277203, -0.03260846436023712, -0.04126647487282753, -0.020446408540010452, -0.00033376715146005154, 0.012871620245277882, -0.034676775336265564, -0.004031369462609291, -0.0019921804778277874, -0.04722025245428085], [0.006655534729361534, 0.2642335891723633, -0.024100366979837418, 0.10506994277238846, -0.18140681087970734, 0.14728979766368866, -0.047358691692352295, -0.0671757236123085, 0.07805034518241882, -0.05118021368980408, -0.04112701863050461, 0.18637864291667938, 0.021397987380623817, 0.12403511255979538, -0.2775743901729584, -0.015681739896535873, -0.24948547780513763, 0.11122599989175797, -0.1221289113163948, -0.024349216371774673, 0.3069900870323181, 0.25863438844680786, -0.2239888608455658, 0.18671688437461853, 0.28231874108314514, 0.06951762735843658, -0.0056511154398322105, 0.06024564057588577, 0.25400853157043457, -0.18037638068199158, -0.045591194182634354, -0.3205712139606476, -0.08579930663108826, 0.0691082775592804, 0.09795351326465607, 0.037643395364284515, 0.01982910931110382, 0.09203720092773438], [0.08978798240423203, -0.0018626661039888859, 0.1466459482908249, 0.16051751375198364, -0.08390405774116516, 0.2978076934814453, -0.06229843571782112, -0.18290401995182037, -0.0866733267903328, -0.10963770002126694, -0.014093066565692425, 0.07880828529596329, 0.05535732954740524, 0.16536647081375122, -0.2641266882419586, -0.005447590723633766, -0.042406972497701645, 0.25580090284347534, 0.014041317626833916, -0.288019061088562, 0.21330073475837708, 0.026707127690315247, -0.1643097847700119, 0.2168359011411667, 0.19758903980255127, 0.19053763151168823, 0.20917683839797974, 0.1368381381034851, 0.26540982723236084, -0.18248024582862854, -0.1507464200258255, -0.29319053888320923, -0.06238935887813568, -0.03265118971467018, -0.052858617156744, -0.19670535624027252, 0.04825245589017868, -0.06295005232095718], [0.19579832255840302, 0.26710742712020874, -0.07984403520822525, 0.0480499230325222, -0.18237143754959106, 0.1340404748916626, 0.061144959181547165, 0.059721071273088455, -0.0071561564691364765, -0.12786997854709625, -0.030692262575030327, 0.11396019160747528, 0.08406974375247955, 0.019431348890066147, -0.11706403642892838, 0.05565793439745903, -0.06862636655569077, -0.008876574225723743, -0.15376150608062744, -0.12783658504486084, 0.21262599527835846, 0.05765848606824875, -0.040794987231492996, -0.06732555478811264, 0.0888969749212265, 0.1358916312456131, 0.21637216210365295, 0.0953131690621376, 0.22043338418006897, -0.2133859097957611, -0.2670649290084839, -0.13952402770519257, -0.13732263445854187, 0.10300801694393158, -0.12380163371562958, -0.13817638158798218, -0.15872791409492493, 0.20366239547729492], [-0.005421965382993221, -0.12243504822254181, -0.028727415949106216, -0.048433464020490646, 0.0438142865896225, 0.029273169115185738, 0.19487988948822021, 0.2199060618877411, 0.011594155803322792, 0.11699050664901733, -0.06194619461894035, 0.03357477858662605, -0.15743210911750793, -0.14428842067718506, 0.1894892156124115, 0.2170855551958084, 0.23373347520828247, -0.022805849090218544, 0.16293734312057495, 0.17326433956623077, -0.16824589669704437, -0.12443745881319046, 0.03235179930925369, -0.2635132074356079, -0.06365209817886353, -0.18345235288143158, -0.13076333701610565, 0.0280101727694273, -0.13911519944667816, 0.1440259963274002, 0.02845926024019718, 0.23609089851379395, 0.17488151788711548, -0.029322605580091476, -0.11041094362735748, 0.19248656928539276, 0.02180015854537487, -0.18213893473148346], [-0.2614539861679077, -0.07503404468297958, -0.17481206357479095, -0.014031216502189636, 0.10102108865976334, -0.20006874203681946, 0.2247806191444397, 0.19297818839550018, 0.1496676355600357, -0.08685562014579773, 0.19208669662475586, 0.04118310660123825, -0.12151272594928741, -0.22559599578380585, 0.1318490356206894, 0.13369391858577728, 0.1444065123796463, -0.3113267421722412, 0.09226306527853012, -0.04156425595283508, -0.1603599190711975, -0.0800047293305397, 0.19370049238204956, -0.2106579840183258, -0.24867171049118042, -0.08294571191072464, -0.04496345296502113, -0.032869961112737656, -0.028583332896232605, -0.005758604034781456, 0.16728802025318146, 0.17275041341781616, 0.16467492282390594, -0.032721567898988724, 0.061863068491220474, -0.05568915233016014, 0.005901985801756382, -0.09671472758054733], [-0.01570337451994419, 0.19663052260875702, 0.16737057268619537, 0.19485731422901154, -0.04364816099405289, -0.006000060588121414, -0.08205880224704742, 0.06576427817344666, -0.018537718802690506, -0.07591542601585388, -0.10995816439390182, 0.16283613443374634, 0.029101310297846794, 0.12844201922416687, -0.12420672178268433, -0.2609859108924866, -0.14451132714748383, 0.03388043865561485, -0.11690690368413925, -0.12764838337898254, 0.22409003973007202, 0.16525866091251373, -0.22568298876285553, 0.037235695868730545, 0.1925966888666153, -0.004336875397711992, 0.09900010377168655, 0.21063469350337982, 0.20410293340682983, -0.19155950844287872, -0.02351078763604164, -0.08593542128801346, -0.14565370976924896, -0.12152958661317825, 0.16535858809947968, -0.11890148371458054, 0.03887290507555008, 0.081727035343647], [0.12533238530158997, 0.16801606118679047, 0.10047372430562973, 0.14347071945667267, 0.10346491634845734, 0.19060243666172028, 0.06597119569778442, -0.03889988362789154, -0.14403875172138214, -0.1796146184206009, -0.13355737924575806, 0.16625791788101196, 0.16558749973773956, 0.025519268587231636, -0.20396260917186737, -0.06284668296575546, -0.10640626400709152, 0.020732134580612183, -0.046683263033628464, -0.20893537998199463, 0.2369249165058136, 0.2051941454410553, -0.20825697481632233, 0.1550433188676834, 0.00540575385093689, 0.16559381783008575, 0.13005143404006958, 0.013126077130436897, 0.08455152064561844, -0.16468332707881927, -0.05375343933701515, -0.2830992341041565, 0.05580728501081467, 0.010045749135315418, 0.07329419255256653, -0.14475998282432556, -0.027775797992944717, 0.09039416164159775], [-0.28172567486763, 0.061862509697675705, -0.14882415533065796, -0.13196329772472382, 0.16850899159908295, -0.12671099603176117, 0.17300371825695038, 0.015882298350334167, -0.038093190640211105, 0.08367706835269928, 0.15709583461284637, -0.15764257311820984, -0.1756884604692459, -0.1911199390888214, 0.09204290807247162, 0.15974459052085876, 0.1869182139635086, -0.095308318734169, -0.02694709599018097, 0.18784569203853607, -0.27862900495529175, -0.125230073928833, 0.08403613418340683, 0.05802755057811737, -0.05942321941256523, -0.05600589141249657, -0.029133129864931107, -0.23599854111671448, 0.01646433211863041, 0.19969043135643005, 0.09628196060657501, 0.2177557647228241, 0.10535814613103867, 0.06158590689301491, 0.08856275677680969, 0.07346249371767044, 0.1013813465833664, 0.031137770041823387], [-0.26241084933280945, 0.014382047578692436, -0.12131550163030624, -0.06858599931001663, 0.1643165647983551, -0.015423258766531944, 0.060168419033288956, 0.08212737739086151, 0.15037864446640015, -0.09694182127714157, 0.25535035133361816, -0.11141457408666611, 0.016901951283216476, 0.05830321088433266, -0.01803259178996086, 0.03347126767039299, 0.15364998579025269, -0.14700452983379364, 0.2743959426879883, 0.23683494329452515, -0.2031724750995636, -0.16555824875831604, 0.20153266191482544, -0.28370538353919983, -0.11494336277246475, -0.19983820617198944, -0.19111698865890503, -0.12781675159931183, 0.007442230824381113, -0.11521368473768234, 0.18820102512836456, 0.07790984213352203, -0.012394891120493412, -0.06397116184234619, -0.05211729183793068, 0.11179881542921066, 0.12067309767007828, -0.028947945684194565], [-0.1918671578168869, 0.14835870265960693, 0.040263112634420395, 0.041237857192754745, 0.03577898070216179, 0.06577407568693161, 0.26215851306915283, 0.1362365484237671, 0.21429266035556793, -0.06985106319189072, 0.03085234947502613, -0.08379418402910233, -0.06664355099201202, -0.19023792445659637, 0.01735144667327404, 0.16646893322467804, 0.05973244085907936, -0.2743910551071167, 0.2676178216934204, 0.06525254249572754, -0.1432739794254303, -0.019632140174508095, 0.21082334220409393, -0.28426775336265564, -0.24862219393253326, -0.2504340708255768, -0.272041916847229, -0.18030908703804016, -0.06258419901132584, -0.08689594268798828, 0.2465440183877945, -0.05237017571926117, -0.0091201551258564, 0.058155376464128494, 0.11333663016557693, -0.060660503804683685, 0.023129072040319443, -0.15989722311496735], [0.1028803363442421, 0.13210219144821167, 0.18275819718837738, 0.1950332224369049, -0.14284798502922058, 0.005075585097074509, -0.09652774035930634, -0.059165529906749725, 0.0681665763258934, -0.22765186429023743, -0.0068630981259047985, 0.012702107429504395, 0.1153491958975792, 0.1656719148159027, -0.23630547523498535, -0.05653814598917961, 0.010495672933757305, 0.2170136421918869, -0.02799842692911625, -0.2870161831378937, 0.2983163595199585, 0.05403825640678406, -0.005568737164139748, 0.01969240792095661, 0.21794861555099487, 0.23026631772518158, 0.10075309127569199, 0.2567709982395172, 0.23152323067188263, -0.08703762292861938, -0.13633190095424652, -0.25630486011505127, -0.11631179600954056, 0.046430543065071106, 0.035788945853710175, 0.07183507829904556, -0.08178718388080597, 0.014379027299582958], [-0.050379928201436996, -0.12353149056434631, -0.18231254816055298, -0.0685683935880661, 0.0883176177740097, -0.22699925303459167, -0.016414424404501915, 0.19192913174629211, 0.04992544651031494, -0.06883081793785095, 0.1501731276512146, 0.07473049312829971, -0.12134793400764465, -0.22151733934879303, 0.18245002627372742, 0.1815403252840042, 0.16612409055233002, -0.28072306513786316, 0.23730184137821198, 0.029781032353639603, -0.3129402697086334, -0.22199103236198425, 0.30226218700408936, 0.0012699732324108481, -0.13501259684562683, -0.014361887238919735, -0.24521109461784363, -0.07516606897115707, 0.00020969993784092367, 0.05810247361660004, 0.28212225437164307, 0.03407440707087517, -0.03943542763590813, -0.06007043644785881, 0.11465280503034592, -0.0468769334256649, 0.09579573571681976, -0.09302743524312973], [0.23108626902103424, -0.005406179931014776, -0.07161635905504227, -0.01898038014769554, -0.06752576678991318, 0.09323761612176895, 0.06250636279582977, -0.04827331006526947, -0.11945351958274841, -0.12174361944198608, -0.05498511344194412, 0.16225790977478027, 0.23112958669662476, 0.17376714944839478, -0.18662796914577484, -0.2097356766462326, -0.1958041787147522, 0.2584645748138428, -0.015251858159899712, -0.26761502027511597, 0.2731989920139313, 0.04876834899187088, -0.011110197752714157, -0.06698102504014969, 0.030003294348716736, 0.24107438325881958, 0.23811611533164978, 0.15488748252391815, 0.19677942991256714, -0.18121552467346191, -0.09483744204044342, -0.2706451117992401, -0.0009773201309144497, 0.022220976650714874, -0.12426493316888809, -0.16797159612178802, 0.10515637695789337, 0.18361055850982666], [-0.06724800914525986, -0.08973659574985504, -0.13912074267864227, -0.2306620180606842, 0.19504396617412567, -0.09992392361164093, 0.24201273918151855, 0.18077294528484344, 0.15185579657554626, 0.1641862988471985, 0.18718449771404266, -0.07554640620946884, -0.04424723610281944, -0.17876991629600525, 0.14686515927314758, 0.08040611445903778, 0.1233595535159111, -0.17286916077136993, 0.24333074688911438, 0.05921139940619469, -0.08396007120609283, -0.07895204424858093, 0.2100381851196289, -0.33791765570640564, -0.03188704326748848, -0.2178320586681366, -0.23397628962993622, -0.18915380537509918, 0.013735882006585598, 0.0813077762722969, 0.13916552066802979, 0.13693277537822723, 0.08589896559715271, -0.02060140110552311, -0.09557963907718658, 0.23196867108345032, 0.15121862292289734, -0.13774016499519348], [0.11474409699440002, 0.1975426822900772, 0.06486964225769043, 0.02356843277812004, -0.1560927927494049, 0.16385766863822937, 0.14870832860469818, -0.06651570647954941, -0.08302509784698486, -0.11291272938251495, -0.12563665211200714, 0.03840956836938858, -0.055725112557411194, 0.1398279368877411, -0.02193974144756794, -0.1497054100036621, 0.05339090898633003, -0.030240479856729507, -0.06558240950107574, -0.2765434682369232, -0.03135010227560997, 0.2304646521806717, 0.0033428044989705086, 0.1917111873626709, 0.036107759922742844, 0.22483056783676147, -0.012459670193493366, 0.21620866656303406, 0.24826523661613464, -0.1223583072423935, -0.1920989751815796, -0.158040389418602, -0.03480493277311325, 0.0446760430932045, 0.11142614483833313, 0.0009613991715013981, -0.0054658143781125546, 0.13530541956424713]], "fc1.bias": [-0.029313815757632256, 0.09104292094707489, 0.15751913189888, 0.1236766055226326, -0.05661334842443466, 0.047483328729867935, -0.00378432241268456, 0.0641818642616272, -0.11555162072181702, -0.038751550018787384, -0.04710179939866066, 0.0022971804719418287, 0.15322907269001007, 0.057073865085840225, 0.07364469766616821, -0.13252389430999756], "fc2.weight": [[0.012595758773386478, -0.24118885397911072, -0.19699107110500336, -0.38064146041870117, 0.31755247712135315, 0.38469162583351135, -0.2874772548675537, -0.3650113046169281, 0.3605227470397949, 0.4374562203884125, 0.5024303197860718, -0.21276886761188507, 0.3066716492176056, -0.22975176572799683, 0.22340157628059387, -0.38245677947998047]], "fc2.bias": [-0.12735532224178314], "norm_mean": [0.044680990278720856, 0.3927738666534424, 0.21653330326080322, 0.43134596943855286, 0.02958771586418152, 0.12136790156364441, 0.34399881958961487, 3.069890260696411, 0.3619852364063263, 0.484487920999527, 0.05533311888575554, 0.050781723111867905, 0.029975194483995438, 3.319403648376465, 0.10956587642431259], "norm_std": [0.07855235785245895, 0.29407361149787903, 0.25748705863952637, 0.21153540909290314, 0.08059747517108917, 0.17071516811847687, 0.2800247073173523, 1.1176931858062744, 0.4805748164653778, 0.2660176753997803, 0.2286294400691986, 0.21955180168151855, 0.17051894962787628, 2.822237968444824, 0.18693719804286957], "feature_mask": [1.0, 0.0, 0.0, 1.0, 0.0, 1.0, 1.0, 1.0, 1.0, 1.0, 1.0, 1.0, 1.0, 1.0, 1.0]}