{"tool_embed.weight": [[0.686634361743927, -1.1297248601913452, 0.1869858354330063, 1.9941768646240234], [0.910010814666748, -1.0135695934295654, -1.6889967918395996, -1.0349109172821045], [-0.34389036893844604, -0.7359068393707275, 2.019916534423828, -0.6841946840286255], [-0.26526278257369995, -2.6262781620025635, 0.6080406308174133, -0.3831586539745331], [-7.01920943244061e-13, -7.456803174932247e-09, -2.570032901347929e-25, -5.749220714761037e-39], [0.13598303496837616, -0.006021041888743639, 0.32155436277389526, 0.4214576184749603], [-1.2644939422607422, -0.06941355764865875, -0.896701455116272, -1.0069342851638794]], "conv3.weight": [[[0.06836666911840439, -0.08924940228462219, 0.11896323412656784], [-0.0005622435128316283, -0.023521404713392258, -0.04037625715136528], [-0.06623455882072449, 0.12035981565713882, -0.06266328692436218], [-0.08272631466388702, 0.22357918322086334, 0.0269464198499918], [-0.12457093596458435, 0.15288183093070984, 0.05687112361192703], [-2.598231560612503e-40, 5.624053933330616e-39, 2.341676232570058e-39], [6.705745645210693e-40, 6.244550294632109e-39, -4.544881756089395e-39], [-0.33564773201942444, 0.21907752752304077, 0.1996838003396988], [-9.079503204823003e-40, -5.507533163425079e-39, 3.957325717788785e-39], [-0.056027285754680634, 0.23456929624080658, -0.008201174437999725], [-0.20415878295898438, -0.16232778131961823, -0.1200329065322876], [-0.03982727229595184, -0.0740206316113472, 0.06852386891841888], [-0.3596237003803253, 0.21919210255146027, -0.2456885129213333], [0.10983940958976746, 0.2639719843864441, 0.0287137683480978], [-0.04897460713982582, 0.09291613847017288, -0.06585926562547684], [0.11933250725269318, 0.07538141310214996, 0.012968520633876324], [0.14440804719924927, -0.13070526719093323, -0.2019319236278534], [-0.19872145354747772, -0.05330977961421013, -0.12606923282146454], [0.10060066729784012, 0.25011318922042847, -0.26771605014801025]], [[0.12323805689811707, -0.0725666955113411, 0.07285846024751663], [-0.011114579625427723, 0.2050456404685974, 0.01790960319340229], [0.04927590489387512, -0.0048617031425237656, 0.22974930703639984], [0.14025035500526428, 0.1765686720609665, 0.25530532002449036], [0.12416654825210571, -0.028409795835614204, 0.19429157674312592], [1.400051308691568e-39, 6.129439230981683e-39, 6.514328274983923e-39], [-2.920073384107841e-39, 3.018565047971375e-40, -5.063311741144862e-41], [0.13383960723876953, -0.08811888843774796, 0.3907981216907501], [5.138941220562936e-39, -5.919126752261957e-39, -3.544232739595079e-39], [-0.054732296615839005, -0.1691557914018631, -0.28132131695747375], [-0.041161395609378815, 0.10375134646892548, 0.027161693200469017], [-0.07665708661079407, 0.11871896684169769, 0.03681507706642151], [0.06693921983242035, -0.23511937260627747, -0.09404873847961426], [0.18429270386695862, 0.09905564785003662, 0.07251928001642227], [-0.11186620593070984, 0.06154007092118263, 0.1840563416481018], [-0.11907821148633957, 0.0895601212978363, -0.08736515790224075], [-0.014568003825843334, -0.1636841744184494, 0.24391071498394012], [-0.12323088943958282, 0.24545028805732727, -0.11931030452251434], [0.26871737837791443, -0.16827094554901123, 0.1247938871383667]], [[0.1956200748682022, 0.037166446447372437, 0.30357658863067627], [0.01267453096807003, -0.006859941408038139, 0.015559309162199497], [0.1647360473871231, -0.21363551914691925, -0.22204184532165527], [0.0572403185069561, -0.09729824215173721, 0.23816074430942535], [-0.09415728598833084, 0.07828222215175629, -0.2913404703140259], [2.4028008715839065e-39, 6.87449421018008e-39, -6.100510825484161e-39], [8.661281193990176e-38, 6.079136820007815e-39, -2.5306497382750455e-39], [-0.06359724700450897, 0.13007065653800964, 0.1647428572177887], [-3.6364998356800825e-39, -1.017488420140107e-39, -2.5150504837701817e-39], [0.007049245294183493, 0.0015465803444385529, 0.009547141380608082], [-0.08076614141464233, -0.12442665547132492, 0.21335619688034058], [0.04504457116127014, -0.08858174085617065, -0.18998776376247406], [0.07263585925102234, -0.05872208997607231, 0.24064813554286957], [-0.049269966781139374, -0.030877966433763504, -0.051356855779886246], [0.18089228868484497, -0.14678049087524414, -0.22866837680339813], [0.18962043523788452, 0.09513977915048599, 0.05672053247690201], [0.04537894204258919, -0.034918904304504395, -0.06931596249341965], [-0.04541506618261337, 0.08481626212596893, 0.05640684813261032], [-0.14176079630851746, 0.3019011616706848, -0.15223480761051178]], [[0.17277497053146362, -0.16993114352226257, -0.1758231520652771], [-0.027585286647081375, 0.00913372915238142, 0.39286932349205017], [-0.12038702517747879, 0.0676821619272232, -0.33538317680358887], [-0.009167352691292763, -0.00762921292334795, -0.30698883533477783], [-0.26753705739974976, 0.015571177005767822, -0.23182067275047302], [4.5899419095082237e-38, -3.4464543366498865e-39, -1.573103261244897e-39], [3.728678649961833e-39, -3.360777547242603e-39, 6.122885358064036e-39], [-0.10827949643135071, 0.15240249037742615, 0.09452017396688461], [-5.6716966798191955e-39, -5.375464987057858e-39, 3.8454362393078414e-39], [-0.09135304391384125, 0.016424253582954407, 0.03699060529470444], [0.1256353259086609, 0.003789484966546297, -0.03688684478402138], [0.021985895931720734, 0.13439913094043732, 0.2543228268623352], [0.04442901536822319, 0.14608189463615417, -0.08071739226579666], [0.03876745328307152, -0.1200893223285675, -0.06467239558696747], [-0.01816008798778057, -0.17794744670391083, 0.12197130173444748], [0.052292950451374054, -0.25471562147140503, 0.044146254658699036], [0.06980495154857635, 0.11155170202255249, 0.22049680352210999], [0.04393830522894859, -0.012751222588121891, -0.2846531569957733], [0.07080014050006866, -0.017839061096310616, -0.21170839667320251]], [[0.14967334270477295, 0.1433667093515396, -0.07766739279031754], [-0.06701838225126266, -0.1517646312713623, 0.09889338165521622], [-0.03192789852619171, -0.24727500975131989, 0.10309537500143051], [0.24858811497688293, -0.21313022077083588, 0.030950486660003662], [0.019473308697342873, -0.04390542209148407, 0.12881872057914734], [-2.551182964672797e-39, -4.125848673705416e-38, 5.009276271062032e-39], [4.096205605991089e-39, 3.8976990668333e-39, 4.087667494447958e-39], [0.02177289128303528, -0.3787955045700073, 0.18907411396503448], [-1.8773209539544218e-39, -8.887614437792835e-38, 1.0645804563322068e-40], [-0.2171439677476883, -0.26702967286109924, 0.22626067698001862], [-0.1221759244799614, -0.11272960156202316, 0.010866992175579071], [0.16366952657699585, 0.3199675679206848, -0.32166823744773865], [0.0280932430177927, -0.10914327949285507, 0.10817185789346695], [0.09270716458559036, 0.03639507666230202, 0.012174921110272408], [-0.04742845520377159, -0.05983373895287514, 0.14850424230098724], [0.0005719311884604394, -0.017825832590460777, 0.04926394671201706], [-0.0032721098978072405, 0.024281354621052742, -0.11028186976909637], [0.058017559349536896, 0.11070121824741364, 0.03147890791296959], [-0.014056004583835602, -0.15673565864562988, 7.440715125994757e-05]], [[-0.07800779491662979, 0.03643801808357239, -0.010196560993790627], [-0.03151292726397514, 0.10819490253925323, 0.10662401467561722], [-0.10985711216926575, 0.0366666205227375, -0.14665715396404266], [-0.01762133464217186, -0.06204814836382866, 0.1554209142923355], [-0.20229572057724, 0.05980918928980827, 0.1707765907049179], [1.9698346785691462e-39, -4.6095741009934144e-39, -7.494044975277847e-38], [6.412288523408719e-39, 5.004193761531926e-39, -9.52659869025355e-38], [0.031817492097616196, 0.3015957772731781, -0.09321895986795425], [-7.856995290522618e-38, -1.4328823304122341e-39, 4.545306349524085e-39], [0.25338754057884216, -0.14407801628112793, 0.324492484331131], [0.21477216482162476, -0.026936965063214302, -0.15737184882164001], [0.1134130209684372, -0.017414771020412445, 0.1663733869791031], [-0.2491695135831833, 0.13361302018165588, 0.02820049412548542], [-0.22379054129123688, -0.12199317663908005, 0.0027059190906584263], [0.026048624888062477, -0.2934516966342926, 0.06562065333127975], [-0.16518566012382507, -0.01635902002453804, -0.06937717646360397], [-0.0683237835764885, 0.2161044180393219, -0.007577346172183752], [-0.2606823742389679, -0.018940405920147896, 0.28431013226509094], [-0.1459568589925766, -0.10053983330726624, 0.033090025186538696]], [[-0.32978805899620056, 0.03652746230363846, -0.04049709066748619], [-0.060437511652708054, 0.14744652807712555, 0.22656942903995514], [0.12258492410182953, 0.14004217088222504, -6.808769830968231e-05], [-0.039384666830301285, 0.14248177409172058, 0.09172021597623825], [-0.43736696243286133, -0.10783357173204422, -0.379239022731781], [3.977346068948594e-39, -2.8788037430350107e-39, -1.2100478486153017e-39], [-1.6066013010345817e-39, 4.126375561928002e-40, -4.9933575205073023e-39], [0.00725518586114049, 0.03893093764781952, 0.009316564537584782], [-2.7091793665254202e-39, 5.117589635862019e-39, 5.8035140237613023e-39], [0.04373752325773239, -0.11295008659362793, 0.06126637011766434], [0.04225551337003708, 0.26546651124954224, 0.22731858491897583], [-0.01752309314906597, -0.1387486308813095, 0.3067551851272583], [-0.10842861980199814, -0.0400591678917408, -0.04202388972043991], [0.17371119558811188, 0.10445311665534973, 0.12915648519992828], [-0.04314478114247322, 0.026125118136405945, -0.08419851958751678], [0.06754158437252045, 0.07978443056344986, 0.022555986419320107], [-0.07033823430538177, 0.033374425023794174, 0.06004424765706062], [0.098117895424366, -0.021202974021434784, 0.04134172573685646], [0.11733988672494888, 0.12460856139659882, 0.103571318089962]], [[0.07894852757453918, -0.018011508509516716, 0.08661048114299774], [-0.03174716606736183, 0.10745777934789658, 0.04460030421614647], [0.1488763391971588, -0.0739142969250679, -0.08526941388845444], [0.08417042344808578, 0.0021972355898469687, 0.1335415095090866], [-0.1483936458826065, 0.10041214525699615, -0.1515183448791504], [-9.121500119798818e-40, -5.151338508076818e-39, -1.9977065050245668e-39], [-4.230403756024084e-39, -6.269009959326899e-39, -5.561418414312532e-38], [-0.07113586366176605, -0.0324057973921299, 0.10423821955919266], [-5.2651435615584936e-39, 1.1066670544097383e-39, 2.762954195093885e-39], [0.10422959923744202, 0.026021430268883705, -0.18622933328151703], [0.11152554303407669, -0.11062569171190262, 0.07307730615139008], [-0.2195844054222107, 0.1547420471906662, 0.17855168879032135], [-0.21960720419883728, 0.09363587200641632, 0.0775001123547554], [-0.06559302657842636, 0.10346223413944244, 0.12532764673233032], [-0.1184312179684639, 0.11396702378988266, 0.1304256021976471], [-0.12886370718479156, 0.026848183944821358, -0.04328439012169838], [0.17215000092983246, -0.02534070983529091, -0.036232076585292816], [-0.12842227518558502, 0.19536978006362915, -0.16037383675575256], [-0.006176323629915714, 0.0015869337366893888, 0.15075980126857758]], [[-0.03051626682281494, -0.046562470495700836, -0.06761184334754944], [0.023393984884023666, 0.00940241664648056, 0.0885116308927536], [0.0732342004776001, 0.09263967722654343, -0.11472903937101364], [0.016433576121926308, 0.05370698869228363, -0.1838637888431549], [-0.15737049281597137, -0.18470421433448792, 0.10788631439208984], [1.0803730900251475e-39, 3.118708842724348e-39, -5.114560028582149e-39], [3.3504737996344225e-39, 8.044181860425899e-40, -1.393575908487923e-39], [0.03941161930561066, -0.04788396507501602, 0.03530367836356163], [-1.8469604214263603e-39, -6.371729340657301e-39, -2.866958567116073e-39], [0.1302463263273239, -0.1218336746096611, 0.1584022492170334], [-0.1844530701637268, 0.07658916711807251, 0.08740890771150589], [0.11313052475452423, -0.0774478018283844, 0.09203128516674042], [-0.3882830739021301, -0.08720849454402924, 0.13634447753429413], [-0.040592893958091736, -0.09115990251302719, 0.07737194001674652], [-0.09295438975095749, -0.06956741958856583, 0.03932945430278778], [-0.0531327985227108, -0.07479500025510788, 0.15664540231227875], [-0.2556689977645874, -0.00989040732383728, 0.07285026460886002], [0.05041729286313057, -0.16082260012626648, 0.19964896142482758], [-0.16892115771770477, -0.15016046166419983, -0.02883920446038246]], [[-0.2786194384098053, -0.05079774931073189, -0.24338220059871674], [0.23215650022029877, -0.08404946327209473, 0.04987581819295883], [0.2350817322731018, 0.07880467176437378, 0.11235019564628601], [-0.13959912955760956, 0.10994857549667358, 0.025163210928440094], [-0.3243218958377838, -0.24387188255786896, -0.032725416123867035], [3.446714978164251e-39, -3.3438386514058445e-39, -2.4424772363027994e-40], [1.0108981134623874e-39, 4.995289911089606e-39, 2.6149084136364325e-39], [-0.15287795662879944, -0.10858668386936188, -0.1481626033782959], [6.173584336503308e-39, -1.0294456999361906e-39, -4.653335250735814e-39], [-0.019235782325267792, 0.18774020671844482, 0.05353175476193428], [-0.018079010769724846, 0.010192661546170712, 0.002652723342180252], [0.28308191895484924, -0.058202747255563736, -2.3383981897495687e-05], [0.0636131763458252, 0.08840379118919373, 0.03182966262102127], [0.24211308360099792, 0.22492370009422302, 0.1443096548318863], [0.054622698575258255, -0.02387533336877823, -0.04655992239713669], [0.04822426661849022, 0.032007016241550446, -0.049080148339271545], [0.0912252739071846, -0.13291580975055695, 0.013411933556199074], [0.1669783592224121, 0.18388429284095764, 0.07518330961465836], [-0.21016201376914978, 0.19708548486232758, 0.05324361100792885]], [[-0.14357522130012512, -0.04192481189966202, 0.0013360383454710245], [0.006097069941461086, 0.12490936368703842, -0.0972338393330574], [0.22557280957698822, 0.06680963933467865, -0.05869722366333008], [0.1956699788570404, 0.21419642865657806, 0.028052154928445816], [-0.028334498405456543, 0.3484255075454712, 0.07123376429080963], [3.657753329488497e-40, -1.311098283474693e-39, 5.922517894545623e-40], [6.848602418454751e-39, 5.161366199887526e-39, 6.636601094825821e-38], [0.17101508378982544, 0.40977275371551514, 0.22095204889774323], [-2.4752564099802855e-39, -3.476024536844069e-39, 5.040040377547819e-39], [-0.024802440777420998, 0.09721381962299347, -0.38673943281173706], [0.07697194814682007, 0.09474565088748932, -0.0012058478314429522], [-0.05490442365407944, 0.0323079451918602, -0.10863542556762695], [-0.001720323576591909, 0.006893952377140522, -0.01885312795639038], [0.021506570279598236, 0.05161251500248909, -0.013154181651771069], [0.1572093367576599, 0.019460875540971756, -0.016240455210208893], [-0.09681727737188339, -0.0911123976111412, -0.06462248414754868], [0.20451781153678894, 0.0786040797829628, 0.09592713415622711], [-0.011869165115058422, -0.1501542031764984, 0.2910632789134979], [0.1374587118625641, 0.03629984334111214, 0.07456570863723755]], [[-0.2953445613384247, 0.08893293142318726, 0.18016816675662994], [0.11542482674121857, 0.11773163825273514, -0.009293917566537857], [-0.1361958235502243, -0.026232900097966194, 0.3708515167236328], [-0.022901827469468117, 0.0794508084654808, -0.14842723309993744], [-0.1490565687417984, -0.04822978004813194, -0.31974801421165466], [-3.544372869441512e-39, 5.6727406471751174e-39, 6.066642842899895e-39], [-3.935918081149295e-39, 2.100875703162017e-39, 1.2475536020129554e-39], [0.0542139932513237, 0.052819594740867615, 0.02250373549759388], [-4.825001319107926e-39, 1.57567044003154e-39, -2.0290003023298686e-39], [-0.1059633120894432, 0.17398986220359802, -0.041546665132045746], [0.0016530619468539953, -0.17191746830940247, 0.19918349385261536], [0.38630032539367676, -0.028362372890114784, -0.050044018775224686], [0.050774820148944855, -0.04587550088763237, -0.041803378611803055], [-0.1596289873123169, -0.05694224312901497, 0.13998669385910034], [-0.007548183668404818, 0.10111308097839355, 0.038421157747507095], [0.04275399446487427, -0.06718136370182037, 0.11645649373531342], [0.08925435692071915, -0.11111694574356079, -0.08075762540102005], [0.05482890456914902, 0.16239586472511292, 0.11424283683300018], [-0.05119502171874046, 0.019435884431004524, -0.15649868547916412]], [[-0.0903109759092331, 0.05282760411500931, 0.05507717281579971], [0.14496751129627228, 0.09512678533792496, -0.0490688756108284], [-0.009724420495331287, -0.24335339665412903, -0.15753616392612457], [-0.21661031246185303, -0.1231062263250351, -0.20430321991443634], [-0.1022227481007576, -0.08274859935045242, -0.028146933764219284], [5.802510694060846e-40, 1.592215851259516e-38, 1.1742726988210891e-39], [1.2430358157639722e-40, -6.38197423372998e-39, 6.493774029109207e-39], [0.01913192681968212, -0.22969865798950195, 0.1865902692079544], [-3.5637416168154094e-39, 6.781101871428224e-39, 2.96017294096296e-40], [-0.28794777393341064, 0.19775530695915222, -0.35579392313957214], [-0.18384891748428345, 0.0031790663488209248, -0.11154446750879288], [-0.2977570593357086, -0.1510133296251297, -0.014146014116704464], [0.04960072040557861, 0.2261766940355301, 0.03838871791958809], [0.29057177901268005, 0.3401818573474884, 0.513181746006012], [-0.02847028337419033, -0.15130947530269623, 0.14153701066970825], [-0.05128447338938713, 0.12563741207122803, -0.031488124281167984], [-0.06893669068813324, -0.04516034945845604, -0.035408515483140945], [-0.10242767632007599, 0.2302989512681961, -0.05710441619157791], [0.12359372526407242, 0.2070605605840683, 0.13748522102832794]], [[0.19950897991657257, 0.09936611354351044, 0.003789281938225031], [-0.19168804585933685, -0.012699964456260204, -0.06337028741836548], [-0.06004000082612038, 0.12595701217651367, -0.2442658394575119], [-0.24093753099441528, 0.10623027384281158, 0.04738031327724457], [-0.4353388547897339, 0.2187618613243103, 0.09756088256835938], [-1.2855231852023007e-40, -1.1170114396733841e-39, 3.678111393578208e-39], [5.725628453815665e-39, -4.794921046272729e-40, -5.006980944177468e-39], [-0.18776962161064148, 0.0853300392627716, 0.018242232501506805], [-3.435314013858504e-39, 5.904431335266583e-39, -3.727421685239334e-39], [-0.2266855388879776, 0.09461764991283417, -0.5529965758323669], [-0.07943370938301086, 0.09367978572845459, 0.02873281016945839], [0.2648976445198059, 0.03824765980243683, 0.01087923999875784], [0.3043796122074127, 0.09262503683567047, -0.28450921177864075], [0.03537485748529434, 0.12117472290992737, 0.2551417052745819], [-0.3089579641819, 0.14407560229301453, -0.08294981718063354], [-0.16467568278312683, -0.10996171087026596, 0.07389026135206223], [-0.048783402889966965, 0.1521233320236206, 0.012873350642621517], [-0.1380670815706253, 0.2711656987667084, 0.13202789425849915], [0.12962865829467773, 0.064234159886837, 0.15726904571056366]], [[0.1320042759180069, -0.15985791385173798, -0.2280310094356537], [-0.019876549020409584, 0.005034048110246658, 0.3889627456665039], [0.033484745770692825, -0.0538630411028862, -0.18403278291225433], [0.1270522028207779, 0.09351173788309097, 0.0018004165031015873], [-0.13965407013893127, -0.10993041098117828, -0.06440851837396622], [-2.9361686982690757e-40, 5.011337581103054e-40, 5.006781959795534e-39], [-9.73403458348571e-38, 8.082983814903053e-40, 1.25457971251308e-39], [0.11050938069820404, -0.18934018909931183, 0.026047537103295326], [6.338183656719829e-39, 5.311055704443632e-38, 4.003373786624963e-39], [-0.11196859925985336, -0.03599976748228073, -0.08243712037801743], [0.2032567411661148, 0.043049782514572144, 0.16677606105804443], [-0.08916764706373215, -0.046589214354753494, 0.25624924898147583], [0.019392047077417374, 0.24924606084823608, 0.08210167288780212], [0.09264140576124191, 0.20835274457931519, 0.09170296043157578], [-0.1842765063047409, 0.13067547976970673, 0.1462329924106598], [0.04007703810930252, -0.08923365920782089, -0.008831492625176907], [0.10067588090896606, 0.012907530181109905, 0.007607705425471067], [-0.13472934067249298, 0.057192765176296234, 0.14488187432289124], [-0.02160426415503025, 0.10748569667339325, 0.011628626845777035]], [[0.0009397768299095333, -0.12959705293178558, 0.021404216066002846], [-0.07060935348272324, 0.20236188173294067, 0.18001334369182587], [-0.00521934824064374, 0.09219706058502197, 0.2686857283115387], [-0.03452349081635475, 0.032061416655778885, 0.07203119993209839], [0.06790967285633087, -0.03662068769335747, 0.22300934791564941], [-5.228880759898696e-39, 6.109752388856384e-39, -1.0621001580503519e-39], [3.164796147917527e-39, -4.096799756539963e-39, -7.216112558902435e-40], [-0.04965953528881073, -0.09105175733566284, 0.3251464366912842], [9.844923254603434e-38, 1.3754192842856663e-39, -2.5785489223825964e-39], [-0.19834718108177185, 0.08006735146045685, 0.1110437884926796], [-0.0673760250210762, 0.08336181193590164, -0.04892220348119736], [0.07815301418304443, 0.061261631548404694, 0.19927608966827393], [-0.08674351871013641, 0.31169161200523376, -0.16838283836841583], [0.12288550287485123, 0.04424654692411423, -0.06460747867822647], [0.12425118684768677, 0.1433546245098114, 0.18661412596702576], [0.1360873430967331, -0.10577119141817093, 0.058504071086645126], [-0.158421128988266, 0.14949248731136322, -0.1005655825138092], [-0.03281897306442261, -0.00953395664691925, 0.0021362020634114742], [0.1388971209526062, -0.15348435938358307, -0.04225680232048035]]], "conv3.bias": [0.14147454500198364, -0.0924689769744873, -0.1313071846961975, -0.02214156836271286, 0.1900930404663086, 0.015808312222361565, -0.1488528549671173, -0.08832663297653198, 0.024395398795604706, -0.05441698059439659, 0.04820716008543968, -0.048202019184827805, 0.006625508889555931, -0.03224773332476616, -0.08107814937829971, 0.057957254350185394], "conv5.weight": [[[0.06224425882101059, 0.2322157472372055, 0.1930474489927292, 0.04028042405843735, -0.009011688642203808], [0.12729281187057495, 0.0876430869102478, 0.11702020466327667, 0.15252569317817688, 0.1469036489725113], [0.08524475991725922, -0.20616042613983154, 0.16250447928905487, -0.07711571455001831, 0.04167845845222473], [0.10829797387123108, -0.1988842636346817, 0.024835795164108276, 0.037615884095430374, 0.025816304609179497], [0.1533951312303543, -0.1624337136745453, -0.3061462640762329, 0.02218630723655224, -0.001727151102386415], [4.4953497790112127e-38, -3.6059823577240166e-39, 7.04965231432529e-39, 2.452566585245938e-40, 5.507943743875126e-41], [-4.46515347866317e-40, 6.715874230510833e-39, 6.35640333935298e-39, 1.8718446795558404e-39, 6.930858638310618e-39], [0.09842407703399658, 0.09738101065158844, -0.009130100719630718, -0.16981394588947296, -0.12973608076572418], [6.087931369169917e-39, 5.6064031778739806e-39, 1.1820457014026989e-39, -6.035002924873905e-39, 4.853262706536429e-39], [-0.05024999752640724, 0.198662668466568, -0.01410709135234356, -0.008458726108074188, 0.08938879519701004], [-0.022006956860423088, -0.3877898156642914, 0.27476292848587036, -0.020575398579239845, -0.1264955848455429], [-0.022779567167162895, -0.032931260764598846, 0.0888059213757515, 0.059756480157375336, 0.16045421361923218], [0.04399244487285614, -0.22169950604438782, -0.1652580350637436, -0.012943172827363014, 0.01956620253622532], [0.05976158753037453, 0.22776848077774048, 0.17704150080680847, 0.16349275410175323, 0.19930747151374817], [-0.25441065430641174, 0.16901768743991852, -0.09321467578411102, 0.1632622331380844, 0.19722899794578552], [0.05163995176553726, -0.029178384691476822, -0.024132145568728447, -0.06159193068742752, -0.10644277185201645], [-0.05841337516903877, -0.0024567190557718277, 0.04915153980255127, -0.21676519513130188, -0.09864631295204163], [-0.14847145974636078, -0.16744916141033173, 0.04705049470067024, -0.011176779866218567, -0.1701805591583252], [-0.16122403740882874, -0.25832948088645935, -0.006014636717736721, 0.06598271429538727, 0.014109283685684204]], [[0.12340676784515381, -0.018699388951063156, 0.15368419885635376, -0.015211165882647038, 0.04796230420470238], [-0.09844143688678741, 0.05203130841255188, 0.16906094551086426, -0.017996521666646004, -0.040234390646219254], [0.2590940594673157, 0.148098886013031, 0.07091864943504333, -0.01965928077697754, 0.05705616623163223], [0.29487115144729614, -0.1038253903388977, -0.09919118881225586, 0.0709799975156784, -0.02430715225636959], [0.09481953829526901, -0.034053824841976166, 0.029137777164578438, -0.13542364537715912, -0.056365884840488434], [1.1890297729488938e-39, 5.506810093417487e-39, 5.6358977079510894e-39, -6.085755152654821e-39, 1.4657413781021868e-39], [1.1031371835781041e-39, 5.424104056754572e-39, 3.2049377437265756e-39, 5.743653355962275e-39, 3.139477487264106e-39], [-0.04271650314331055, 0.038474924862384796, -0.058341577649116516, -0.12494190782308578, 0.14362110197544098], [5.003109156520539e-39, 3.4132701877162105e-39, 5.2955769616067e-40, -5.318377488919729e-39, 3.2808390750467293e-39], [0.09805206209421158, -0.3642955422401428, 0.018044425174593925, -0.3887137174606323, -0.01613422855734825], [0.2105122059583664, 0.3785902261734009, 0.06031741574406624, -0.16809000074863434, 0.1234738826751709], [0.15295173227787018, 0.17750515043735504, 0.10794521868228912, 0.1619269996881485, -0.11139827221632004], [0.018697643652558327, 0.1409802883863449, -0.11849550157785416, 0.1190795749425888, -0.11252211034297943], [0.03177041560411453, -0.0019289684714749455, -0.003953540697693825, 0.2008940726518631, 0.08714988827705383], [0.12890833616256714, -0.07216145098209381, -0.23668208718299866, 0.17727379500865936, -0.029247358441352844], [-0.24247775971889496, -0.007502105552703142, -0.04310672730207443, -0.07446747273206711, -0.054293062537908554], [0.082518070936203, 0.2883748412132263, -0.07743939012289047, -0.12322975695133209, 0.03527514636516571], [0.14819331467151642, -0.14590126276016235, 0.3416004478931427, 0.01622399315237999, -0.062302134931087494], [-0.2739160358905792, -0.0024360090028494596, -0.04668058454990387, 0.03752198815345764, 0.1497141718864441]], [[0.14489316940307617, -0.05609433725476265, 0.011782164685428143, -0.06975346058607101, -0.2654496729373932], [-0.1944526582956314, 0.13927866518497467, -0.08716271817684174, 0.07095440477132797, 0.2651154398918152], [-0.030873868614435196, 0.0814017578959465, -0.07575221359729767, 0.003988226875662804, 0.04953653737902641], [-0.025616152212023735, 0.12586313486099243, -0.19480596482753754, 0.036876384168863297, -0.034072499722242355], [0.06982265412807465, -0.15141740441322327, 0.20216530561447144, 0.04199305921792984, -0.024670928716659546], [-4.4876443190155834e-39, 6.525762870452814e-39, -6.561692163078102e-38, -3.9516420512174836e-39, 4.454057997422646e-39], [3.746672723542228e-39, -9.095478007316306e-40, -6.880888335072795e-39, 4.044384187481893e-39, 1.7761738295009921e-40], [-0.11638648808002472, 0.04375917464494705, -0.07917268574237823, -0.1251784861087799, -0.15597309172153473], [2.6782541107162358e-39, -2.2120379077399762e-39, -4.346104766327991e-39, -8.711662918457125e-38, 3.032007984399336e-38], [-0.009397448971867561, 0.06165719032287598, 0.07095430046319962, -0.12643350660800934, -0.0807514488697052], [0.09789563715457916, 0.032114896923303604, -0.055964499711990356, 0.06304150074720383, 0.1719597578048706], [-0.262783020734787, 0.4697461426258087, -0.08555226773023605, -0.14007830619812012, 0.11595485359430313], [0.14830011129379272, -0.08576001971960068, 0.046719569712877274, 0.010144039988517761, -0.054870277643203735], [0.1249026358127594, 0.2297355830669403, 0.14826053380966187, -0.014208224602043629, -0.18300499022006989], [0.045767638832330704, 0.19752679765224457, -0.01611481048166752, -0.016925964504480362, -0.18135187029838562], [0.13291887938976288, -0.03456055745482445, 0.01703132688999176, -0.12053528428077698, -0.09856101125478745], [-0.181293785572052, 0.2786959111690521, 0.12813137471675873, 0.12342027574777603, -0.17580565810203552], [0.13620232045650482, 0.14480553567409515, 0.20557630062103271, 0.08403214812278748, 0.0916706994175911], [0.21350236237049103, 0.15767991542816162, 0.1022164523601532, 0.10794353485107422, 0.09625734388828278]], [[0.047143951058387756, -0.03697510436177254, -0.029457557946443558, 0.2542765736579895, 0.03354262560606003], [0.1503089815378189, 0.10024717450141907, 0.03832780569791794, 0.035622578114271164, 0.027250248938798904], [0.1808663159608841, 0.27615463733673096, 0.049791671335697174, -0.10595832765102386, -0.13541805744171143], [-0.039779067039489746, 0.12587061524391174, 0.13494965434074402, -0.16225658357143402, -0.08686340600252151], [-0.10251814872026443, 0.0740291103720665, -0.07660465687513351, -0.032488469034433365, 0.006187635473906994], [-2.645989213575157e-39, 1.3611060854594212e-37, -6.345864173602794e-40, 4.999317242876076e-39, 6.188763201468874e-39], [4.889949260851838e-38, 1.0730078652966562e-39, -2.4902138697884886e-39, 2.0610956423567642e-39, 1.3508951598615177e-39], [-0.061371609568595886, 0.02475464716553688, 0.04971417412161827, -0.10173232853412628, 0.05447175353765488], [-5.6453760907637824e-39, -1.95656438211199e-39, 1.7199369195307086e-39, -4.7923720843661225e-39, -7.138634766809916e-41], [0.009006012231111526, -0.19380676746368408, -0.3007616698741913, -0.09268371015787125, -0.34609562158584595], [0.09870711714029312, -0.03649474307894707, -0.03542257845401764, 0.06790487468242645, -0.03915085643529892], [0.06820278614759445, 0.18333610892295837, 0.04571406543254852, 0.22966371476650238, -0.04620238021016121], [0.37740224599838257, -0.13640600442886353, -0.0818299949169159, -0.28394225239753723, -0.053861550986766815], [0.056055739521980286, 0.16543544828891754, 0.13864049315452576, 0.15638533234596252, 0.11094997078180313], [0.21535378694534302, 0.033517688512802124, -0.01605503261089325, -0.09382323920726776, 0.04480896517634392], [-0.16193726658821106, 0.13910157978534698, 0.08987763524055481, -0.140410915017128, 0.15436320006847382], [0.22012659907341003, -0.07603965699672699, -0.130543053150177, 0.20086447894573212, 0.09913364052772522], [0.19409340620040894, 0.1121634691953659, 0.012229750864207745, 0.11967051029205322, 0.04468604177236557], [-0.22205136716365814, -0.3790202736854553, -0.1497676968574524, 0.06368214637041092, 0.03916482627391815]], [[0.11335659772157669, 0.010818208567798138, -0.06298747658729553, -0.15490755438804626, 0.06447192281484604], [0.06831075996160507, -0.11720696836709976, 0.14379781484603882, 0.1304945945739746, -0.14356078207492828], [-0.10108547657728195, 0.1594969481229782, -0.12620021402835846, 0.14522188901901245, -0.139138862490654], [0.1072775349020958, 0.0269906185567379, -0.009522520937025547, -0.01158695574849844, 0.1414160579442978], [-0.07197468727827072, -0.15650574862957, 0.15783663094043732, -0.02306596376001835, -0.2164773941040039], [4.1438651680612404e-39, 3.0406425052768124e-39, -4.6680657001927966e-39, 3.692867066407548e-39, 6.126902880761255e-39], [-7.372889831091095e-40, 4.719180864275973e-40, 3.4689479795992285e-39, -2.289746914079109e-39, 3.329230675434644e-38], [0.07987102121114731, 0.28555965423583984, -0.01884032040834427, 0.2147437036037445, -0.20756970345973969], [-5.078866154098867e-39, -6.399762316436119e-39, -2.6054132152421675e-39, 2.7697818817314613e-38, -1.7768450514654037e-39], [-0.0640517920255661, -0.07224307954311371, -0.061572685837745667, 0.15413060784339905, -0.014323689974844456], [0.16183455288410187, 0.23374946415424347, 0.19551964104175568, 0.03650673106312752, 0.1874552071094513], [-0.07462555170059204, -0.16513411700725555, 0.07355853915214539, 0.14280714094638824, 0.08036405593156815], [-0.00408698758110404, -0.05233614891767502, 0.11244305223226547, 0.2644098699092865, 0.07313092797994614], [0.11723082512617111, -0.03156072646379471, 0.04096918925642967, 0.18849405646324158, 0.12949052453041077], [0.07601689547300339, -0.1706998497247696, -0.17530906200408936, -0.18896566331386566, -0.16491299867630005], [-0.027354996651411057, -0.22479987144470215, 0.07295366376638412, -0.21852315962314606, 0.09202050417661667], [0.10915669798851013, -0.20282913744449615, 0.050431665033102036, -0.022601816803216934, -0.028475552797317505], [-0.24782097339630127, 0.02156735397875309, 0.002657199976965785, 0.002522383350878954, -0.2318134903907776], [-0.0726977214217186, -0.06531447917222977, 0.2200411856174469, 0.1391589492559433, -0.03669409081339836]], [[-0.07383792847394943, -0.3632088601589203, 0.11489175260066986, -0.13143695890903473, 0.122096948325634], [0.1507863998413086, 0.30533450841903687, 0.12372901290655136, 0.2118598073720932, 0.2497890144586563], [-0.12649865448474884, -0.10555382817983627, -0.00729821203276515, -0.06203265115618706, -0.05046461895108223], [0.1443503350019455, -0.27592697739601135, 0.17036280035972595, 0.00880903284996748, 0.13293245434761047], [-0.11126940697431564, 0.01252996176481247, -0.17025674879550934, -0.05681833624839783, -0.017779553309082985], [5.394032191710162e-40, -1.4547145604864148e-39, -2.622356314974319e-39, -5.8585850534092677e-39, -2.269953573270521e-39], [1.1535545010260467e-39, 4.46805977167818e-39, -5.263306459271764e-39, -2.981834212624493e-39, -5.457847323775514e-40], [-0.01492084190249443, -0.1331247091293335, -0.14087794721126556, -0.04491373151540756, -0.0038240691646933556], [2.8861283301080365e-40, 6.410018980415898e-38, -4.579443381413502e-39, 4.644351526281028e-39, 6.648700186026494e-39], [-0.24570003151893616, -0.06605226546525955, 0.1399562507867813, 0.10177566856145859, 0.0614151805639267], [0.14823731780052185, -0.008096612989902496, 0.12754277884960175, -0.007861766032874584, -0.1401972472667694], [0.2033044993877411, 0.12194129824638367, -0.22900789976119995, 0.2933167815208435, 0.2437429279088974], [-0.07361660152673721, -0.3230324685573578, -0.01650073565542698, -0.1781080961227417, -0.04541962966322899], [-0.1585048884153366, -0.23959454894065857, 0.0023952804040163755, 0.012544991448521614, 0.08734188973903656], [0.0997178703546524, -0.3073596656322479, -0.0645204484462738, 0.08719419687986374, 0.07067622244358063], [-0.0011590227950364351, 0.04076763242483139, -0.06400670111179352, -0.024961819872260094, 0.07408805191516876], [0.08033210784196854, 0.05677610635757446, 0.06496910005807877, 0.03766915202140808, 0.03612029179930687], [0.08470740169286728, 0.16786397993564606, -0.13553282618522644, 0.07093527913093567, -0.03037118911743164], [-0.09751632809638977, 0.010247423313558102, -0.0266233142465353, -0.10451210290193558, -0.05779328569769859]], [[0.039028361439704895, 0.015528845600783825, 0.01056619267910719, -0.014884836971759796, -0.060341328382492065], [0.0500771664083004, -0.06371637433767319, 0.07798479497432709, -0.09475336968898773, 0.08690647035837173], [-0.06421186774969101, 0.0903347060084343, -0.008060676977038383, 0.07288412749767303, 0.14407211542129517], [-0.06442221254110336, 0.017971621826291084, 0.116208516061306, 0.004745809826999903, -0.09103525429964066], [0.21510662138462067, -0.421689510345459, 0.22387073934078217, 0.10096387565135956, 0.09512625634670258], [8.35621235259342e-38, -6.040797294023888e-39, 1.663121273294659e-39, 4.1763808976274334e-39, 4.491744518322198e-39], [-6.658978149742931e-38, -1.802191738088111e-39, -2.8472535081107374e-39, 3.799760915863174e-40, 3.995040264657623e-38], [0.08795268833637238, 0.04079258814454079, -0.1716889888048172, 0.055915601551532745, -0.0374009869992733], [-5.5053191118514456e-39, -1.6390651825575947e-39, -2.5867240976234674e-39, -3.3216294720447604e-39, 2.4850500849474517e-39], [-0.005669443402439356, -0.10552175343036652, -0.1437782645225525, 0.18108069896697998, 0.021566325798630714], [-0.06334906816482544, -0.014758920297026634, 0.19147515296936035, 0.12416470795869827, 0.08509831130504608], [-0.22778062522411346, 0.14176733791828156, -0.10775619000196457, 0.0019397439900785685, 0.01307007484138012], [-0.10903406888246536, 0.054672129452228546, 0.13166098296642303, 0.01795690879225731, 0.10042838752269745], [0.0648479014635086, 0.02163299359381199, 0.1160750463604927, 0.06106773391366005, 0.07088810950517654], [0.24695126712322235, -0.1997557282447815, -0.3351995646953583, 0.08570940792560577, -0.2638109624385834], [0.10495853424072266, -0.04907100647687912, 0.016445539891719818, -0.027189970016479492, 0.026813548058271408], [-0.009214647114276886, 0.10732178390026093, -0.08531852811574936, 0.08611877262592316, -0.00025003275368362665], [0.041036054491996765, -0.019536707550287247, 0.15665580332279205, 0.01167750358581543, -0.0462733656167984], [-0.2872573435306549, 0.320725679397583, 0.1150866448879242, 0.15643072128295898, -0.09545399993658066]], [[0.01242839265614748, 0.17845046520233154, -0.1386387199163437, -0.04343554377555847, -0.03516233712434769], [0.16223746538162231, 0.04751283675432205, -0.13102194666862488, -0.05119941383600235, 0.11218975484371185], [0.012193262577056885, 0.15329153835773468, -0.09519723057746887, 0.015819411724805832, -0.016047243028879166], [0.19068466126918793, 0.10820188373327255, -0.04007086530327797, -0.024680081754922867, -0.1664583683013916], [0.10351741313934326, -0.37016355991363525, -0.16007627546787262, -0.1717141568660736, 0.005333414301276207], [6.171616913459396e-39, 4.4802804955855565e-39, -2.9313370211640837e-39, -6.859035085521649e-39, 2.5922508187667645e-39], [-4.928518039264529e-39, 4.398731931454174e-38, 5.98894925084387e-39, -5.0166541074767024e-39, -4.5580035149093325e-40], [0.1663520336151123, 0.2872280776500702, -0.1347552239894867, 0.08576357364654541, -0.11238080263137817], [4.151552691436526e-39, -5.07932718129363e-39, 4.43760254955608e-39, -7.027234341493021e-39, -3.110408951920152e-39], [-0.22321034967899323, 0.13198193907737732, 0.02524690143764019, -0.1381697803735733, -0.09248942881822586], [0.1825530230998993, 0.011553796008229256, 0.29000192880630493, 0.16803763806819916, 0.642135500907898], [0.20345456898212433, 0.08364197611808777, -0.25184470415115356, 0.04440486431121826, 0.10343408584594727], [0.1817692220211029, 0.19173018634319305, -0.27213871479034424, 0.0023081947583705187, 0.12125572562217712], [0.06339326500892639, -0.07205988466739655, -0.10499745607376099, -0.139424130320549, 0.04566943645477295], [-0.15097196400165558, -0.01070462353527546, 0.0415731742978096, -0.014008132740855217, -0.09860426187515259], [0.05733129754662514, 0.1799836903810501, -0.10411544144153595, -0.08416210114955902, 0.010711600072681904], [0.2250039428472519, 0.12503711879253387, 0.09838005900382996, -0.15611757338047028, 0.24930435419082642], [0.28251913189888, 0.12356118112802505, 0.18913617730140686, -0.04897449165582657, -0.11446909606456757], [-0.027134843170642853, 0.009125943295657635, -0.1077948659658432, 0.21132823824882507, -0.005885417107492685]], [[0.1302805244922638, -0.08147694915533066, 0.08405406028032303, 0.22186259925365448, 0.03169669955968857], [-0.06867409497499466, -0.06771276891231537, -0.13447938859462738, 0.03670896962285042, 0.03128872066736221], [-0.04632406309247017, 0.12970611453056335, -0.045678094029426575, -0.0337178073823452, -0.07449034601449966], [0.010333124548196793, -0.09948693960905075, 0.13539130985736847, -0.06825495511293411, 0.07942559570074081], [-0.06711400300264359, -0.11904886364936829, -0.13273513317108154, -0.08592981845140457, 0.15908652544021606], [4.394777467187849e-39, 5.1490417798937895e-39, -3.685043617081223e-39, -2.349311907902164e-39, -2.108781548838045e-38], [6.629178697119985e-39, 8.910730817779723e-40, -1.4836751958486158e-39, 5.943671335643685e-38, 6.166301788384212e-39], [0.1120317131280899, -0.18736404180526733, 0.10295091569423676, 0.11710880696773529, 0.26518604159355164], [-2.775336628844045e-38, -8.376873657670811e-38, -5.871300435674551e-39, -2.427937363436965e-39, 5.6316573787980425e-39], [-0.036277782171964645, 0.16698719561100006, 0.16871748864650726, -0.18633799254894257, 0.01402139663696289], [-0.04153750464320183, -0.1120872050523758, -0.11278198659420013, 0.07238439470529556, -0.008953988552093506], [0.027643879875540733, -0.1456381231546402, 0.040248218923807144, 0.16451577842235565, 0.272276908159256], [-0.14640335738658905, 0.03674362227320671, -0.22480903565883636, 0.05766236409544945, 0.05609073117375374], [-0.07595352083444595, 0.02207750454545021, 0.010706492699682713, -0.0527944378554821, -0.012715543620288372], [0.1922733634710312, -0.2971036732196808, -0.10297447443008423, 0.015388384461402893, 0.0598851777613163], [-0.2085237056016922, -0.072392538189888, -0.023219991475343704, 0.05229092389345169, -0.014592012390494347], [0.08791184425354004, -0.11699195206165314, 0.17250749468803406, 0.20859409868717194, -0.031024733558297157], [-0.131282240152359, 0.12424610555171967, -0.21976099908351898, 0.16407452523708344, 0.05564801022410393], [0.05384324863553047, -0.08564086258411407, -0.18602783977985382, -0.16127784550189972, -0.02146531641483307]], [[-0.028634078800678253, 0.1814294457435608, 0.026311948895454407, -0.1251727044582367, 0.10869071632623672], [-0.187087744474411, 0.06933585554361343, -0.07705366611480713, 0.1481434851884842, -0.10004575550556183], [0.17062003910541534, 0.08586740493774414, -0.174179807305336, 0.08410922437906265, 0.1283332258462906], [-0.11172209680080414, -0.051683422178030014, 0.01279450487345457, -0.08606074005365372, 0.13493598997592926], [0.053656045347452164, 0.0818677544593811, 0.18349489569664001, -0.1113528162240982, -0.09938570111989975], [-2.9075485784337056e-39, -3.144915926604151e-39, 2.643862042506312e-39, 2.94594555765467e-39, 3.95305035617413e-39], [-6.873874836258849e-39, 1.1605385725722416e-39, -1.4442094743148802e-37, 3.6729588191248856e-39, -4.606121301577318e-38], [0.1380079835653305, -0.1144525557756424, -0.01415327936410904, 0.1808946430683136, 0.11273325234651566], [-2.484076182514746e-39, -3.846361096294296e-39, 1.24526107772532e-39, -4.5757944002124004e-39, -1.8837178814440645e-39], [-0.11442558467388153, 0.007127656601369381, 0.14640551805496216, -0.01860509067773819, -0.06407126039266586], [-0.0403938964009285, 0.1759970784187317, 0.028188785538077354, -0.047554485499858856, -0.09113787859678268], [0.02751315012574196, 0.22450098395347595, -0.1310635805130005, -0.06257368624210358, 0.08036687225103378], [-0.058903470635414124, 0.0625525563955307, 0.061514824628829956, 0.1036534532904625, -0.10180220007896423], [-0.12626801431179047, -0.04608173295855522, 0.16921378672122955, 0.07234393805265427, 0.22099706530570984], [-0.0015107406070455909, 0.23848727345466614, -0.10737771540880203, 0.16317982971668243, -0.30333104729652405], [0.1311991959810257, 0.030463507398962975, 0.01826619915664196, -0.16850179433822632, -0.22993458807468414], [0.15021230280399323, -0.18173383176326752, 0.23913460969924927, 0.08779045939445496, 0.09491599351167679], [-0.2433791160583496, 0.3694118559360504, -0.24332787096500397, 0.0933661162853241, 0.12529422342777252], [0.08600443601608276, -0.05206409469246864, 0.05903945490717888, 0.09570126235485077, -0.2253478616476059]], [[-0.06212441623210907, -0.06367051601409912, 0.0719543918967247, 0.1586703658103943, -0.08762320876121521], [-0.10459991544485092, 0.10775919258594513, -0.042346030473709106, -0.13230983912944794, -0.04395654797554016], [0.002419422846287489, 0.10395295172929764, -0.15603695809841156, 0.04960944503545761, 0.1629556268453598], [-0.13590849936008453, -0.004154863301664591, -0.011092100292444229, 0.2546645700931549, 0.13480836153030396], [-0.0800309106707573, -0.3281189203262329, -0.3071203827857971, -0.10338335484266281, -0.14975540339946747], [7.988115908868263e-40, -3.2573056686368584e-39, 4.8375275260805254e-39, 3.523699513197328e-39, -5.077899258158483e-40], [4.524757708843226e-39, -3.095860671263532e-39, -4.0009397311924307e-39, -2.051642482916429e-39, 1.7103029925884755e-39], [0.13355761766433716, 0.2437351644039154, 0.04114588722586632, 0.016670096665620804, 0.11187252402305603], [6.91731228605599e-39, -3.199888865359613e-39, -3.8194183307207225e-39, -1.3235684385087195e-39, 2.3676142671447104e-39], [-0.19964520633220673, -0.012758832424879074, -0.0687827467918396, -0.04624995216727257, 0.36875662207603455], [0.22880235314369202, 0.058967892080545425, 0.21350911259651184, 0.1932542622089386, 0.2131211906671524], [-0.130426824092865, -0.07444261759519577, -0.03330892696976662, 0.12584085762500763, -0.02716388925909996], [0.13986122608184814, 0.09208887815475464, 0.10109139233827591, -0.0032213435042649508, -0.1736256629228592], [0.14161986112594604, 0.1399385631084442, 0.0031618194188922644, -0.01594673842191696, -0.030158396810293198], [-0.2168761044740677, 0.18351058661937714, -0.1961318403482437, -0.2979029715061188, -0.012004093267023563], [0.026315392926335335, 0.026561131700873375, -0.09650970995426178, -0.28662851452827454, -0.027583884075284004], [-0.06298206001520157, 0.14842233061790466, -0.10268890857696533, 0.12097390741109848, 0.05100036412477493], [-0.0955224260687828, -0.0032503490801900625, 0.07594835013151169, 0.06712333112955093, 0.09267813712358475], [-0.047226790338754654, 0.0448247455060482, 0.13954028487205505, -0.016431404277682304, 0.052836254239082336]], [[-0.009758319705724716, -0.3111720681190491, -0.0879397988319397, 0.08485136926174164, 0.10632414370775223], [-0.08557628840208054, 0.1825157105922699, 0.003216738346964121, 0.06860519200563431, 0.08162478357553482], [0.03486724942922592, 0.02465951256453991, -0.03980899229645729, -0.1464909017086029, 0.10423459112644196], [-0.026326335966587067, -0.0798291563987732, 0.12505313754081726, 0.19524645805358887, 0.19320784509181976], [0.09307429939508438, 0.05237232893705368, -0.13737934827804565, -0.1951828896999359, -0.10482532531023026], [2.2602888177620726e-39, 3.546798517083258e-40, 2.139767340740888e-39, -1.7244757252566567e-39, -3.83984645973365e-39], [-4.1181961827917384e-39, 1.935903637553985e-39, -6.03992008118522e-39, -6.447043527920903e-39, 4.057179443759643e-39], [-0.12606501579284668, 0.13818426430225372, 0.08881839364767075, -0.2493729144334793, -0.03480519726872444], [3.806555812116685e-39, 2.3496692390105668e-40, -6.098868503683973e-39, 5.806005532430872e-39, 3.612386291705981e-39], [-0.11496002227067947, -0.005429845303297043, 0.056094907224178314, -0.11789072304964066, 0.11082920432090759], [0.04521241784095764, 0.0454925037920475, 0.13498671352863312, 0.12001670151948929, 0.07820843160152435], [0.044924456626176834, 0.028681622818112373, 0.08024098724126816, 0.04441031068563461, -0.004003083799034357], [0.11926421523094177, 0.10413055866956711, 0.048091161996126175, 0.024957377463579178, -0.0727028027176857], [-0.06256286054849625, 0.09521952271461487, 0.01422229502350092, 0.07113339006900787, 0.1778481900691986], [0.11457865685224533, -0.18100284039974213, -0.1611975133419037, -0.07009896636009216, 0.35934221744537354], [0.07948417961597443, -0.0394289530813694, -0.2053765207529068, 0.040479473769664764, 0.10301097482442856], [0.01046076975762844, 0.0768011212348938, -0.008426663465797901, -0.057404644787311554, 0.15016773343086243], [0.05729541927576065, 0.11750701069831848, -0.02212625741958618, -0.03762946277856827, -0.0326157845556736], [-0.42687496542930603, -0.06469592452049255, 0.20983821153640747, 0.1705387830734253, -0.029686735942959785]], [[-0.05319823697209358, 0.06071694195270538, 0.2634173631668091, -0.10526224225759506, 0.20300234854221344], [0.029734201729297638, 0.14840327203273773, -0.011296378448605537, -0.07016123086214066, -0.00771451136097312], [0.07775517553091049, -0.02323967218399048, -0.22598543763160706, -0.02027135156095028, 0.1522960364818573], [0.1484920084476471, 0.2056201547384262, -0.11211046576499939, 0.07391742616891861, 0.31666049361228943], [-0.0832480862736702, 0.01754216104745865, 0.11463694274425507, -0.007240018807351589, -0.13524392247200012], [-3.424175092365586e-39, -4.66808952226669e-39, -6.965844857069415e-39, 3.9532199132883133e-39, -6.449470576861113e-39], [-3.302169640270682e-39, 3.710407119285502e-39, 1.9684501956863933e-39, 4.7664480627761134e-39, 9.213887727551753e-40], [-0.12194649875164032, 0.030371079221367836, 0.10403724014759064, 0.04550889879465103, 0.05908579379320145], [2.7196820985155347e-39, 3.6871946102239614e-40, -6.399103986417579e-38, 1.2301690932645418e-39, -1.6596979011463133e-40], [-0.006435891147702932, -0.4433106482028961, -0.2577465772628784, -0.3461487591266632, -0.0264773927628994], [0.025744788348674774, 0.028818581253290176, 0.1053871139883995, -0.122358039021492, 0.018718527629971504], [0.19570131599903107, -0.17498815059661865, -0.06850077211856842, -0.08160590380430222, -0.045196738094091415], [0.025488639250397682, 0.03050924465060234, 0.1202845424413681, -0.1760244369506836, -0.16791148483753204], [0.10249350965023041, 0.12740746140480042, 0.1379825472831726, 0.09645547717809677, 0.14289861917495728], [-0.025842340663075447, -0.06729722023010254, 0.10771834850311279, 0.22886115312576294, -0.10535792261362076], [-0.0398295596241951, -0.06953445822000504, 0.0020611383952200413, 0.1612510085105896, -0.08972011506557465], [0.14099588990211487, 0.043763432651758194, -0.013156486675143242, 0.14822080731391907, -0.10275133699178696], [0.16782251000404358, -0.13190659880638123, 0.17952661216259003, -0.1131448820233345, -0.09779336303472519], [0.09636145085096359, -0.03338410705327988, -0.1335485279560089, -0.01883918233215809, 0.06184108182787895]], [[-0.19085675477981567, -0.051238052546978, -0.05227101594209671, -0.06992737948894501, -0.0016533724265173078], [0.07912904024124146, -0.024656565859913826, 0.028899436816573143, 0.03209897130727768, 0.12199856340885162], [0.01922331377863884, -0.25848373770713806, -0.028304433450102806, -0.12098348885774612, -0.09052935242652893], [0.07493174076080322, 0.061273228377103806, -0.2583182454109192, 0.18935446441173553, -0.15240029990673065], [-0.08450320363044739, 0.027670614421367645, -0.0672578513622284, 0.12972240149974823, 0.011184674687683582], [-3.6413231049942885e-39, 6.636466850432938e-39, 7.022307376092455e-39, -4.0782563739615524e-39, -6.597381833665991e-39], [-5.173522464065544e-39, -1.5933730435313554e-39, -5.815780990518002e-40, 1.4238341462280888e-39, -3.2162411776592053e-38], [0.3039759397506714, 0.01516171544790268, -0.08757969737052917, 0.33995693922042847, -0.07677978277206421], [-2.7274691140817877e-39, 1.0761491280381639e-37, -1.7448113685709384e-39, 3.2099207610657147e-39, -4.4188615838942e-39], [0.03895217552781105, -0.18676789104938507, 0.11685121059417725, 0.2519843876361847, -0.06720098853111267], [-0.0876486524939537, -0.04269015043973923, -0.193746879696846, -0.104331836104393, 0.10297749191522598], [-0.3693332076072693, -0.02869587391614914, 0.0913669690489769, 0.016251729801297188, -0.10651674121618271], [-0.09806709736585617, 0.01697687618434429, -0.2866768538951874, 0.019633926451206207, -0.05678565800189972], [-0.20055952668190002, 0.005859481170773506, -0.04261162504553795, 0.018356861546635628, 0.2177170217037201], [0.04968813434243202, -0.048952069133520126, -0.20985154807567596, -0.09665173292160034, -0.0862775519490242], [-0.09487248957157135, -0.006626482121646404, -0.08706710487604141, 0.27468758821487427, 0.07267166674137115], [0.014513256028294563, -0.050948984920978546, -0.18719813227653503, 0.052549250423908234, -0.11231853812932968], [0.005574976559728384, 0.06658405810594559, 0.045413993299007416, -0.018895942717790604, 0.22375930845737457], [-0.09011193364858627, 0.005827959626913071, -0.0931839793920517, -0.05114233121275902, 0.032666850835084915]], [[0.11772717535495758, 0.2461947798728943, 0.04606702923774719, 0.2733395993709564, 0.03011036105453968], [0.1276220828294754, 0.18796828389167786, 0.03250214457511902, 0.24821703135967255, 0.1718355119228363], [-0.1054011657834053, 0.13821224868297577, 0.06251323223114014, -0.19669891893863678, 0.06039881706237793], [-0.08464094251394272, -0.12838834524154663, 0.06637270748615265, -0.1610032469034195, -0.01419270969927311], [0.07423988729715347, -0.5542269349098206, -0.14465820789337158, 0.02854100987315178, -0.040683913975954056], [3.797336669519892e-39, 6.35882338180087e-39, 6.159649824574062e-39, 1.7331805913170424e-39, 5.015052423331979e-39], [-9.411092460436185e-40, -4.0714368148550693e-38, 6.256227314735328e-39, -3.86632819811246e-39, 1.6623939993916743e-39], [0.1492067277431488, -0.20562675595283508, -0.0703662857413292, 0.11895791441202164, 0.010739248245954514], [-5.7583025301083264e-39, -2.1245618511044995e-39, -9.187363389699628e-38, -1.4226114292400575e-37, -2.778900411098516e-38], [-0.059829242527484894, 0.0012353346683084965, 0.018640505149960518, 0.004918040707707405, -0.0489204116165638], [-0.2203773409128189, 0.05527491867542267, -0.09378508478403091, -0.03803233429789543, 0.09706694632768631], [-0.25518089532852173, -0.13507933914661407, 0.2088574767112732, -0.07921802997589111, -0.12252239882946014], [0.2283894419670105, 0.11986984312534332, 0.137134850025177, -0.1571713536977768, -0.10491122305393219], [0.2153293490409851, 0.041098035871982574, 0.2306445688009262, 0.0414879210293293, -0.01841081492602825], [0.03782673180103302, -3.1174058676697314e-05, 0.13864153623580933, 0.024820789694786072, 0.2517559230327606], [-0.01252976804971695, -0.08139538764953613, 0.05416727066040039, -0.2074332982301712, -0.011869202367961407], [-0.06921035796403885, -0.03609194606542587, 0.051877472549676895, 0.17679181694984436, 0.05904088169336319], [-0.18966743350028992, -0.12411054223775864, -0.21934016048908234, -0.08732178807258606, -0.06339974701404572], [-0.39085274934768677, 0.12796491384506226, -0.0674428939819336, -0.11378113180398941, -0.23679587244987488]], [[0.04493868350982666, 0.14940904080867767, -0.02288922481238842, -0.11872372776269913, 0.01555006206035614], [-0.0896650105714798, -0.11019324511289597, 0.0835752859711647, 0.3091300129890442, 0.0669526755809784], [0.014412953518331051, 0.10634305328130722, -0.0676383227109909, -0.033714476972818375, -0.28247880935668945], [0.11916644126176834, 0.08262897282838821, 0.07812939584255219, 0.0736585184931755, -0.07405801862478256], [-0.6004200577735901, -0.5375763773918152, -0.6985055208206177, -0.29168686270713806, -0.48299267888069153], [6.266487622091114e-39, 3.6961811372756765e-39, 5.189937554536338e-38, -1.700744735763316e-39, -3.7608244367334446e-39], [5.312074448427196e-39, 6.453894476112987e-39, 4.003755220066952e-38, -4.052269293940649e-39, 1.977366657814892e-39], [0.12506838142871857, 0.14387266337871552, 0.2649184465408325, 0.06266453862190247, -0.03350289538502693], [-2.0554624225301784e-39, 3.7086395214026027e-38, 6.931968466694363e-39, 2.2584895505338796e-39, 4.1578305085567015e-39], [-0.13715383410453796, -0.019168786704540253, 0.006605247035622597, -0.11196209490299225, -0.0260754507035017], [0.0869070366024971, -0.010678292252123356, 0.09808723628520966, 0.1879795789718628, 0.2680388391017914], [-0.10255357623100281, -0.07489299029111862, -0.1522325724363327, 0.23120220005512238, 0.003350440412759781], [-0.05717049539089203, -0.006579049862921238, 0.028403401374816895, -0.07622798532247543, -0.2000415027141571], [-0.07057250291109085, 0.023353971540927887, -0.11692934483289719, 0.05577454715967178, -0.04412105306982994], [-0.16329818964004517, -0.10746405273675919, -0.036622095853090286, 0.047969963401556015, -0.028923137113451958], [-0.054140400141477585, 0.08535899221897125, -0.008609987795352936, 0.06861007213592529, 0.07969556003808975], [0.14308927953243256, -0.04729282483458519, 0.01081715989857912, 0.12190549075603485, -0.08623631298542023], [0.0783647745847702, -0.00981216598302126, 0.028104640543460846, 0.1599823236465454, 0.09429515153169632], [0.15722937881946564, -0.10126859694719315, -0.18877796828746796, -0.2338505983352661, -0.1275940090417862]]], "conv5.bias": [-0.1210690587759018, 0.03951757028698921, -0.09016819298267365, -0.1026834100484848, -0.17475438117980957, -0.16503097116947174, -0.015545522794127464, 0.006429592147469521, -0.021705200895667076, -0.04027760773897171, -0.04119262844324112, 0.03936849161982536, -0.012887961231172085, 0.12706699967384338, -0.2343960404396057, -0.10948019474744797], "fc1.weight": [[-0.14018553495407104, -0.2010948657989502, 0.2284652441740036, 0.1357685774564743, -0.21686208248138428, -0.1272953301668167, 0.19241070747375488, -0.26075929403305054, -0.1342155486345291, 0.11820650845766068, -0.03297640010714531, 0.2438649833202362, -0.22246399521827698, -0.2043459415435791, 0.27798086404800415, -0.07378983497619629, 0.10687067359685898, -0.05699123814702034, 0.13081519305706024, 0.002731223590672016, -0.036804161965847015, 0.04117303341627121, 0.09286002814769745, 0.26614660024642944, -0.28163382411003113, -0.20939595997333527, 0.14665338397026062, 0.07950365543365479, -0.2600909173488617, -0.10216790437698364, 0.3360242545604706, 0.27442842721939087, 0.17419151961803436, -0.15310870110988617, 0.1359381526708603, 0.10947329550981522, 0.16094481945037842, -0.10562856495380402], [0.14621751010417938, 0.17615965008735657, 0.010705641470849514, -0.19069895148277283, 0.11558569222688675, 0.10842941701412201, -0.10674994438886642, 0.08412829786539078, 0.06390278786420822, -0.1726825088262558, 0.23745258152484894, -0.04958806559443474, 0.071059450507164, 0.09060054272413254, -0.2531827688217163, 0.14196015894412994, -0.04509183019399643, 0.16262832283973694, -0.1346600502729416, 0.24338915944099426, -0.1743166595697403, -0.33790162205696106, -0.16268101334571838, 0.13709188997745514, 0.12410479038953781, 0.14709679782390594, -0.10570225119590759, -0.22494764626026154, 0.15843725204467773, 0.14659424126148224, -0.06066030263900757, 0.04986344277858734, -0.06393999606370926, 0.017867302522063255, 0.007559760008007288, -0.05665186047554016, -0.04208062216639519, 0.03426824137568474], [-0.23645681142807007, -0.005944433622062206, 0.09145734459161758, 0.19368426501750946, -0.10775670409202576, -0.23967835307121277, 0.22745642066001892, -0.019439175724983215, -0.06550832092761993, 0.18497882783412933, -0.2711009383201599, 0.20359192788600922, -0.2805257737636566, -0.0633997842669487, 0.054748643189668655, -0.21259014308452606, 0.2969834506511688, -0.16869895160198212, 0.19831779599189758, -0.16254891455173492, 0.1787908673286438, 0.14370104670524597, 0.10093966871500015, 0.0034454406704753637, -0.09576436132192612, -0.14050953090190887, 0.21813471615314484, 0.0992918610572815, -0.16523338854312897, -0.14387276768684387, 0.40408018231391907, 0.2910422682762146, 0.14896129071712494, -0.09306418150663376, -0.0927920788526535, 0.1140516921877861, -0.03033837117254734, -0.23928627371788025], [-0.1571049988269806, -0.24699722230434418, 0.08245036005973816, 0.13972127437591553, -0.16350732743740082, -0.24274186789989471, 0.16635887324810028, -0.2149340957403183, -0.17549753189086914, 0.18059086799621582, -0.04528270661830902, 0.2087285816669464, -0.27361729741096497, -0.28607746958732605, 0.07437172532081604, -0.02091836929321289, 0.22421620786190033, -0.07766512781381607, 0.3021963834762573, -0.09545484185218811, 0.1657198667526245, 0.048914745450019836, -0.029949547722935677, 0.2510297894477844, -0.21908976137638092, -0.2120191752910614, 0.10011370480060577, 0.09196977317333221, -0.11800647526979446, -0.18180876970291138, 0.36296623945236206, 0.3015153408050537, 0.2860402464866638, -0.13164451718330383, 0.0008356942562386394, -0.05020749196410179, 0.09095508605241776, -0.2762269079685211], [-3.02083025260913e-10, -5.633501132251695e-07, -2.5521407209794233e-09, 2.4518194515399296e-16, -1.1228917173866648e-07, -1.2063494734398938e-12, -1.4237046667997e-14, -8.828711095532071e-10, -1.3693320921603913e-09, 7.394654704992308e-18, -9.693037117310815e-14, -9.951696584853398e-13, -1.0249240345316935e-09, -1.2055784281983506e-06, -7.019316287704772e-36, -1.766647131319285e-13, -1.141999655374093e-05, -3.756467137350228e-09, -2.186101937695639e-06, -1.901870234632952e-07, -7.150020050854244e-13, -1.106624015513591e-12, -1.604582990921699e-07, -3.428852535236615e-09, -1.882566991184831e-08, -2.4834664102968418e-08, -7.855439854154156e-09, -3.465384779133274e-08, -8.520880783180473e-07, -4.953153442954772e-10, -1.1822097079061678e-08, -2.1408300199254882e-07, 3.701678431151223e-39, -6.551965187843317e-14, -6.377460815302702e-14, -6.297879158282745e-35, -9.030541836479494e-40, -8.618687293254594e-16], [-1.0725750008809579e-31, -1.25140437019292e-39, -1.4842676241723363e-13, -7.111763691665777e-37, -1.3877117191703166e-26, -6.491023692584185e-22, 3.079045089691634e-40, -2.8273172348587882e-39, -5.266598109364463e-40, -6.19582030969548e-32, -5.544949233721016e-39, 1.2845787100373458e-39, -5.234949783547687e-39, -1.7059626416593768e-14, 5.291473959703157e-39, 6.795570278072378e-39, 6.473498358678705e-34, 2.346451857736477e-39, -6.015185761991423e-39, 2.552316615130436e-39, -8.156261175704489e-25, -2.335852436152324e-39, -1.3019946918676539e-17, -3.339141047886468e-20, -1.2450900423979871e-17, -1.8927912890005677e-39, -3.3380989889479086e-37, -2.3277103312236574e-16, -1.069754050262494e-39, 8.365346528406443e-29, -5.788040402868178e-14, -7.544880772570956e-22, -1.8441928569593188e-39, -6.038025525661453e-39, -5.775660414185918e-39, -4.619516313597799e-39, 7.809870744206146e-40, 1.1449589362458783e-39], [0.31047019362449646, 0.3061583638191223, -0.1796465516090393, -0.38588860630989075, 0.19762450456619263, 0.1718452274799347, -0.20465216040611267, 0.03773374482989311, 0.02854491025209427, -0.24004130065441132, 0.1640913188457489, 0.08383622765541077, 0.3338565230369568, 0.1509312242269516, -0.10239161550998688, 0.12797366082668304, -0.33105701208114624, 0.34777867794036865, -0.3664184808731079, 0.39386484026908875, -0.21130476891994476, -0.24736270308494568, -0.17408479750156403, 0.22937090694904327, 0.1657896190881729, 0.2900716960430145, -0.1771208941936493, -0.24906927347183228, 0.10135001689195633, 0.17043796181678772, -0.18002192676067352, -0.16578792035579681, 0.053330499678850174, 0.016132045537233353, 0.18763089179992676, 0.06545226275920868, 0.14129818975925446, 0.054571349173784256], [-0.13542068004608154, -0.22375991940498352, 0.18879303336143494, 0.20684388279914856, -0.055876750499010086, -0.3615070879459381, 0.15484052896499634, -0.0808127298951149, -0.038076210767030716, 0.20202164351940155, -0.14729009568691254, 0.03866828978061676, -0.29840201139450073, -0.11442970484495163, 0.3019881844520569, -0.1519048810005188, 0.2754340171813965, -0.24204353988170624, 0.10358358174562454, -0.08645255863666534, 0.05387669801712036, 0.20117639005184174, 0.1881430447101593, 0.1439494788646698, -0.17670078575611115, -0.13731853663921356, 0.20195980370044708, -0.031083323061466217, -0.1877795159816742, -0.19077403843402863, 0.3603573143482208, 0.30201658606529236, 0.2207789272069931, 0.004640270955860615, 0.04007098078727722, 0.11127544194459915, 0.07103653997182846, -0.09349463135004044], [0.17840544879436493, 0.07576064020395279, -0.07912815362215042, -0.18297354876995087, 0.2107677459716797, 0.11254420131444931, -0.04607115313410759, -0.0879381075501442, 0.14173337817192078, -0.25893205404281616, 0.30190861225128174, 0.011217010207474232, 0.17718280851840973, 0.16625970602035522, -0.21690529584884644, 0.16723957657814026, -0.16111215949058533, 0.156338170170784, -0.19480681419372559, 0.32907772064208984, -0.39137396216392517, -0.33548209071159363, -0.277249813079834, 0.30495721101760864, 0.19290319085121155, 0.29831236600875854, -0.12120215594768524, -0.32116174697875977, 0.17805305123329163, 0.18831588327884674, -0.1424253284931183, -0.18311458826065063, -0.13621112704277039, 0.03526705130934715, 0.07856522500514984, -0.04700606316328049, -0.044904567301273346, 0.0070386058650910854], [0.2539518475532532, 0.15837514400482178, -0.11159103363752365, -0.23701372742652893, 0.14572735130786896, 0.012275886721909046, -0.1603594273328781, 0.1919368952512741, 0.10907981544733047, -0.10438015311956406, 0.09392896294593811, -0.06471368670463562, 0.19640356302261353, 0.2564045190811157, -0.10185591131448746, 0.19506974518299103, -0.3034980297088623, 0.16498447954654694, -0.3388356566429138, 0.4152819812297821, -0.16023141145706177, -0.43639495968818665, -0.2062145173549652, 0.2829509675502777, 0.11255889385938644, 0.2590444087982178, -0.14092427492141724, -0.13902951776981354, 0.10629244148731232, 0.2045297622680664, -0.28449058532714844, -0.1652245670557022, -0.16462720930576324, -0.06470895558595657, 0.15185777842998505, -0.04960951209068298, -0.05724792182445526, 0.1512221097946167], [-0.1470438688993454, -0.1927448809146881, 0.25422677397727966, 0.2038816660642624, -0.29714885354042053, -0.16512176394462585, -0.02402668632566929, -0.28608793020248413, -0.1546860784292221, 0.003476921934634447, -0.05812995508313179, 0.3369085192680359, -0.09817449003458023, -0.20279952883720398, 0.15377545356750488, -0.10672035813331604, 0.03239705413579941, -0.1273038387298584, 0.16372452676296234, -0.1521502137184143, 0.13992804288864136, 0.19499237835407257, 0.11050427705049515, 0.2766525447368622, -0.1266287863254547, -0.020293360576033592, 0.2569873034954071, -0.01799565553665161, -0.28520211577415466, -0.12318947166204453, 0.32389721274375916, 0.26416435837745667, 0.10130578279495239, -0.12821441888809204, -0.05300573632121086, 0.19272060692310333, 0.04662173241376877, -0.26222342252731323], [0.06106959655880928, 0.16148900985717773, -0.18217027187347412, -0.32260093092918396, 0.2806541919708252, 0.15921306610107422, -0.13135789334774017, 0.046531930565834045, -0.009260590188205242, -0.2442205846309662, 0.2934667468070984, -0.1126391813158989, 0.15231744945049286, 0.30075880885124207, -0.22238817811012268, 0.25590503215789795, -0.09984000772237778, 0.1890324503183365, -0.19611841440200806, 0.29254263639450073, -0.3371831476688385, -0.34255459904670715, -0.2615346908569336, 0.2559888958930969, 0.1957143396139145, 0.2794315814971924, -0.0792284831404686, -0.16259032487869263, 0.024324825033545494, 0.2276732176542282, -0.2015651911497116, -0.08855050057172775, -0.028784649446606636, -0.041917555034160614, -0.003683342132717371, -0.029962269589304924, 0.07753897458314896, 0.00579634727910161], [-0.1431884616613388, -0.33290913701057434, 0.199258491396904, 0.16567012667655945, -0.0706392303109169, -0.38285499811172485, 0.06952255219221115, 0.004530258942395449, -0.2173951417207718, 0.24550779163837433, -0.10359224677085876, 0.2321765124797821, -0.2931059002876282, -0.24715371429920197, 0.12607043981552124, -0.21330006420612335, 0.3127407133579254, -0.2273004949092865, 0.1290663480758667, -0.11015656590461731, 0.15146851539611816, 0.07200689613819122, 0.16349782049655914, 0.15114982426166534, -0.3609039783477783, -0.05837392061948776, 0.1873631328344345, 0.21502311527729034, -0.18065927922725677, -0.24669617414474487, 0.442501038312912, 0.33725568652153015, 0.18094514310359955, 0.09910453110933304, -0.039049189537763596, -0.01648162305355072, 0.07128940522670746, -0.06872780621051788], [0.3357151448726654, 0.21091660857200623, -0.027552537620067596, -0.13705025613307953, 0.16701741516590118, 0.037437211722135544, -0.2028956562280655, 0.08632855862379074, 0.1520761102437973, -0.2978428900241852, 0.30169588327407837, -0.06231291964650154, 0.35680195689201355, 0.29267439246177673, -0.005837223492562771, 0.07074582576751709, -0.30735671520233154, 0.2372220754623413, -0.32609763741493225, 0.2133459746837616, -0.3366139531135559, -0.42505568265914917, -0.265893816947937, 0.13288402557373047, 0.13229545950889587, 0.06026988476514816, -0.1265294849872589, -0.2553969621658325, 0.07690118253231049, 0.2218949943780899, -0.22497740387916565, -0.07399361580610275, 0.0036191761028021574, -0.006905423942953348, 0.12697182595729828, -0.18904556334018707, 0.1040976494550705, 0.14921651780605316], [0.1708158552646637, 0.0917399451136589, -0.15923678874969482, -0.31360694766044617, 0.12906594574451447, 0.08433569222688675, -0.22540169954299927, 0.021906942129135132, 0.15109360218048096, -0.27215707302093506, 0.21229705214500427, 0.005292509216815233, 0.3158082067966461, 0.14916175603866577, -0.14511485397815704, 0.2782391607761383, -0.34261927008628845, 0.3120133876800537, -0.12827779352664948, 0.27529850602149963, -0.3346911072731018, -0.39970073103904724, -0.15984386205673218, 0.13615241646766663, 0.20442795753479004, 0.15265776216983795, -0.17268985509872437, -0.1897895187139511, 0.22213973104953766, 0.054587408900260925, -0.2085931897163391, 0.003476949641481042, -0.17887000739574432, 0.02551252208650112, 0.17424489557743073, 0.036746907979249954, -0.05511701852083206, -0.05774560570716858], [-0.1910831332206726, -0.13365761935710907, 0.18149559199810028, 0.2304198443889618, -0.1632588803768158, -0.3216080665588379, 0.275635302066803, -0.0076377736404538155, -0.06643068045377731, 0.1951858252286911, -0.18079280853271484, 0.3015359044075012, -0.22234441339969635, -0.21867281198501587, 0.055136315524578094, -0.24926792085170746, 0.2939785122871399, -0.1824636310338974, 0.20185759663581848, -0.08741379529237747, 0.14211900532245636, 0.26810213923454285, 0.08466096222400665, -0.0007313600508496165, -0.143511101603508, -0.06531126797199249, 0.07046698778867722, 0.13211379945278168, -0.10403698682785034, -0.21975551545619965, 0.37715479731559753, 0.3194497227668762, 0.11454585939645767, -0.1282908171415329, -0.15213382244110107, 0.045132674276828766, -0.049155086278915405, -0.021845221519470215]], "fc1.bias": [-0.10799509286880493, 0.01138175930827856, 0.06061317026615143, 0.09546040743589401, -6.388214067974685e-14, -5.5732400484172695e-39, 0.03089285083115101, 0.04413142427802086, 0.12187905609607697, -0.1373070776462555, 0.02458534948527813, -0.011815045960247517, -0.06435604393482208, 0.08340048044919968, 0.1698576956987381, 0.038967132568359375], "fc2.weight": [[0.5739884972572327, -0.22217302024364471, 0.5696355104446411, 0.5716778039932251, 0.010951775126159191, -4.9443835773607856e-20, -0.5178150534629822, 0.5028359293937683, -0.5012271404266357, -0.619487464427948, 0.47758835554122925, -0.5840427875518799, 0.4814293086528778, -0.4710521996021271, -0.6084604263305664, 0.5219741463661194]], "fc2.bias": [-0.2619088888168335], "norm_mean": [0.044680990278720856, 0.3927738666534424, 0.3046850860118866, 0.43134596943855286, 0.02958771586418152, 0.09797894954681396, 0.3844827115535736, 3.069890260696411, 0.3619852364063263, 0.484487920999527, 0.05533311888575554, 0.050781723111867905, 0.029975194483995438, 3.319403648376465, 0.10956587642431259], "norm_std": [0.07855235785245895, 0.29407361149787903, 0.2867025136947632, 0.21153540909290314, 0.08059747517108917, 0.17230527102947235, 0.2613131105899811, 1.1176931858062744, 0.4805748164653778, 0.2660176753997803, 0.2286294400691986, 0.21955180168151855, 0.17051894962787628, 2.822237968444824, 0.18693719804286957], "feature_mask": [1.0, 0.0, 0.0, 1.0, 0.0, 1.0, 1.0, 1.0, 1.0, 1.0, 1.0, 1.0, 1.0, 1.0, 1.0]}