{"tool_embed.weight": [[-0.6305526494979858, 1.181023120880127, -0.9206903576850891, 2.0559651851654053], [-0.6239163875579834, 1.4875744581222534, 0.0749354436993599, -1.1020466089248657], [-0.2533191442489624, -0.0965886190533638, 0.6201233863830566, 0.4180773198604584], [0.5902024507522583, 1.3799437284469604, -1.2074322700500488, 0.7956607937812805], [2.560846599142474e-38, -0.00021508811914827675, -6.7120677904597414e-09, -0.01633109152317047], [-0.08327401429414749, 0.2661968469619751, -0.927479088306427, 0.8582350015640259], [0.36743733286857605, 1.840749740600586, 1.6037644147872925, 0.30645719170570374]], "conv3.weight": [[[-0.0023630540817976, -0.09833039343357086, -0.13419309258460999], [-0.06013276427984238, -0.27698421478271484, -0.16435356438159943], [0.1676115095615387, -0.026120752096176147, -0.07080480456352234], [-0.16006840765476227, -0.12766706943511963, -0.13680993020534515], [-0.0017291359836235642, -0.001301753451116383, -0.07483002543449402], [-3.0030148389127625e-39, 5.595607574504822e-39, -2.565039003888041e-39], [-5.193582051582354e-39, 5.538053443978073e-39, 2.695257466282353e-41], [-0.34433984756469727, -0.03027750551700592, -0.06152063235640526], [-4.3281387187168825e-39, 5.626516014732435e-39, 6.004098688541685e-39], [-0.26044735312461853, -0.207261860370636, -0.12020022422075272], [0.04487592354416847, -0.03329141438007355, 0.1403418332338333], [0.2568877339363098, 0.2165747433900833, 0.09399151802062988], [-0.16520071029663086, 0.1638268232345581, 0.22026009857654572], [-0.061382632702589035, -0.06872126460075378, 0.15884312987327576], [-0.055757224559783936, -0.0879206731915474, 0.01597868651151657], [0.063553586602211, -0.052261579781770706, 0.07603362947702408], [-0.12346173822879791, 0.22944875061511993, 0.06360135227441788], [-0.13133923709392548, -0.057422518730163574, 0.07053242623806], [-0.2586488425731659, -0.1014515832066536, 0.037981968373060226]], [[-0.0570979043841362, 0.36252790689468384, 0.3728025555610657], [0.010327916592359543, -0.08687123656272888, -0.01690489798784256], [-0.0486968569457531, 0.29204845428466797, 0.16923652589321136], [0.061481110751628876, 0.09008106589317322, -0.14818109571933746], [0.12405239045619965, -0.12012795358896255, -0.21068422496318817], [4.772288674775419e-39, 6.299069212685131e-39, -1.585174046216591e-39], [2.2739430699984537e-40, -3.1059668357882424e-39, -2.6140662332593733e-40], [0.02693820931017399, -0.04983927309513092, -0.15581238269805908], [9.378454537643903e-38, -8.887441237302644e-40, -5.5421312225092585e-39], [-0.10212913155555725, 0.169147327542305, 0.10327139496803284], [0.23680175840854645, 0.13673599064350128, 0.16983908414840698], [-0.17200438678264618, 0.25279921293258667, 0.03827047348022461], [0.05562060326337814, 0.08574511110782623, 0.06789317727088928], [0.18182775378227234, 0.04927970841526985, 0.10230495780706406], [-0.1536414474248886, -0.12288744002580643, 0.053438834846019745], [0.011012100614607334, -0.14152511954307556, -0.01928793638944626], [-0.1212979182600975, 0.07200542837381363, -0.005188885144889355], [0.05532731115818024, 0.11168910562992096, 0.0423029363155365], [0.058524683117866516, 0.0868845209479332, -0.03487082198262215]], [[-0.1516469568014145, -0.03197944909334183, 0.315766304731369], [0.007493020035326481, 0.11977770179510117, -0.0830993801355362], [-0.06045244634151459, -0.06497253477573395, 0.1021554097533226], [0.07785290479660034, 0.16853706538677216, -0.08827974647283554], [-0.16168881952762604, -0.0808788314461708, -0.16917787492275238], [-5.4967417639513134e-39, -5.452724176589942e-39, 6.200422004692057e-39], [-5.353131092133449e-39, 2.6033025794952015e-38, 3.047866198860407e-39], [0.07608076184988022, -0.10821540653705597, 0.07704536616802216], [-1.8154480215606238e-38, -1.1951001978963489e-39, -4.3112449446906753e-38], [0.04520324990153313, -0.014638708904385567, 0.059926241636276245], [0.15991979837417603, 0.12605419754981995, 0.14337684214115143], [-0.15312878787517548, 0.04202849045395851, 0.11410455405712128], [0.016852380707859993, 0.15630435943603516, 0.06645367294549942], [0.02492481656372547, -0.00971841812133789, 0.06365208327770233], [-0.15789172053337097, -0.007983186282217503, -0.051569920033216476], [0.043604955077171326, -0.14789626002311707, 0.07670608162879944], [-0.08619729429483414, -0.06403758376836777, 0.06373127549886703], [-0.10470320284366608, -0.09461284428834915, -0.011117557995021343], [0.05012346804141998, 0.09614355862140656, -0.08918331563472748]], [[-0.18578501045703888, 0.18232667446136475, 0.5097361207008362], [-0.016450731083750725, -0.10645721852779388, 0.10216683149337769], [-0.09630990773439407, -0.025564126670360565, 0.2320443093776703], [-0.12271164357662201, 0.07125478237867355, -0.1553007811307907], [-0.07578107714653015, -0.31724801659584045, 0.18022418022155762], [4.287376347688138e-39, 4.368579071358525e-38, 6.726637323755619e-38], [-5.3968277821464896e-39, -1.2651076678755524e-39, -6.944507285353141e-39], [-0.0434998944401741, 0.08503911644220352, -0.1465187668800354], [4.1739734668657234e-39, -2.071413402949588e-40, 3.790379222644519e-39], [-0.010309761390089989, -0.0707973912358284, -0.07178237289190292], [0.3181687891483307, -0.05598368123173714, 0.20755153894424438], [-0.23376424610614777, 0.16750468313694, -0.05562648922204971], [0.01294745970517397, -0.052953969687223434, -0.15014143288135529], [-0.1074688509106636, 0.017264988273382187, -0.1391729861497879], [0.07773347944021225, -0.2012622207403183, -0.10551449656486511], [-0.09145185351371765, -0.07980407029390335, 0.008531436324119568], [-0.07652656733989716, -0.05895405635237694, 0.11159787327051163], [-0.1176050677895546, 0.03171293064951897, 0.11462696641683578], [0.022105686366558075, -0.01930459961295128, -0.15394672751426697]], [[0.14465264976024628, 0.13762922585010529, -0.04778008908033371], [0.12401313334703445, 0.0725315734744072, -0.11105650663375854], [-0.026163700968027115, -0.20263706147670746, 0.00020618404960259795], [0.21122121810913086, -0.0014015503693372011, 0.05680552124977112], [0.18732935190200806, 0.12756572663784027, -0.0379365049302578], [6.432380340790208e-41, -8.671150819334109e-40, -6.123049309984362e-39], [3.910117373824146e-39, 5.5328994682262866e-39, -3.252157298078929e-39], [0.03566643223166466, 0.19141492247581482, 0.19909493625164032], [-2.722819605777158e-39, -3.4072908471689365e-39, -5.020724879515566e-39], [0.046122729778289795, 0.2417224943637848, 0.17061662673950195], [-0.1365431696176529, -0.0710662305355072, -0.1680421233177185], [-0.19521543383598328, -0.03163411095738411, -0.0821022242307663], [0.023337284103035927, 0.03590666130185127, -0.19558659195899963], [0.018607255071401596, 0.0865422934293747, -0.10537628084421158], [0.010251821018755436, 0.18185915052890778, -0.05314095690846443], [-0.1189568042755127, -0.0942162275314331, -0.25200513005256653], [0.032216157764196396, -0.21643191576004028, 0.14358875155448914], [-0.17713449895381927, 0.1261623054742813, -0.06256484240293503], [-0.13739928603172302, 0.005285715218633413, -0.2095530927181244]], [[0.16632747650146484, -0.09544406831264496, 0.01714228466153145], [-0.0061669135466217995, 0.19527490437030792, 0.11388609558343887], [-0.19249886274337769, -0.0673413872718811, 0.11523324996232986], [0.08853407949209213, 0.023532716557383537, -0.0731610432267189], [-0.01454685628414154, -0.06621932983398438, -0.0279361791908741], [1.8632911537296017e-39, -6.491599213892575e-39, 5.418241023979837e-39], [-1.6523290330418149e-38, 6.273681888406958e-39, -1.946318087740847e-39], [0.10824001580476761, 0.07560285180807114, -0.12770774960517883], [-2.3060944619639223e-39, 3.5447245953560573e-40, 3.6456587224429095e-39], [-0.28455233573913574, 0.07112467288970947, -0.1903940737247467], [-0.2363385409116745, 0.10765968263149261, -0.11286187171936035], [0.0430770106613636, 0.12375511974096298, -0.10539079457521439], [0.3066309988498688, -0.06529389321804047, -0.13138321042060852], [0.006371398456394672, 0.16413335502147675, 0.266402006149292], [-0.10718648880720139, 0.048375677317380905, -0.28528761863708496], [-0.21162085235118866, -0.09841808676719666, -0.05696098506450653], [0.07551071792840958, -0.20884406566619873, -0.06562748551368713], [-0.1233745664358139, 0.024720022454857826, -0.14468452334403992], [-0.06328287720680237, -0.06652020663022995, 0.0795789286494255]], [[0.17490096390247345, 0.2362610250711441, 0.04523536190390587], [0.11611019819974899, 0.13464921712875366, -0.1827981024980545], [-0.04547249898314476, -0.15645255148410797, -0.1545274257659912], [0.1230306476354599, 0.09982987493276596, 0.18208888173103333], [0.07024897634983063, 0.008096851408481598, -0.029758643358945847], [3.5827768551547977e-39, -5.940832865474348e-39, 5.877588061883976e-39], [6.112660083169858e-39, -1.4279105234608097e-39, 5.8202497313207336e-39], [0.035447895526885986, 0.16620679199695587, 0.4732199013233185], [-5.208851720688408e-38, 6.109947169342925e-39, 2.8305234057451634e-39], [0.17029814422130585, 0.11843280494213104, -0.007962167263031006], [-0.13461671769618988, -0.044199518859386444, 0.07496600598096848], [-0.2898429334163666, -0.1986319124698639, -0.0006809287006035447], [-0.1769629865884781, -0.05778848007321358, -0.06103459373116493], [0.15017418563365936, 0.2808968424797058, 0.13004595041275024], [0.05895664170384407, -0.0019965211395174265, -0.16485893726348877], [-0.07956365495920181, -0.030168242752552032, -0.0006848466000519693], [0.22401228547096252, 0.07643017172813416, 0.15691746771335602], [-0.030804922804236412, 0.02931247651576996, -0.22500532865524292], [-0.20700034499168396, -0.0856410562992096, -0.04924431070685387]], [[0.21104799211025238, 0.4374082684516907, -0.1040203720331192], [-0.07280553877353668, -0.025831980630755424, -0.07933591306209564], [0.0806451365351677, 0.3166198134422302, -0.11982238292694092], [-0.0859367698431015, 0.1419374644756317, 0.09987796097993851], [0.05492885410785675, -0.29739415645599365, -0.22705242037773132], [2.3668477568847247e-39, -5.888425704207065e-39, -1.4992422204888e-39], [5.365263534237573e-39, -4.146377696207775e-39, -1.6830197114880713e-39], [-0.08188363909721375, -0.1362917423248291, -0.17774665355682373], [-2.8511673347215966e-39, 2.474261488070615e-39, -3.802768102367615e-39], [0.07093770056962967, 0.10619954764842987, 0.15377967059612274], [-0.16557371616363525, 0.1311754733324051, 0.044344495981931686], [0.20864002406597137, 0.21330267190933228, -0.042063985019922256], [0.013516110368072987, 0.023854007944464684, 0.10275356471538544], [0.09307416528463364, 0.21183310449123383, 0.1468021273612976], [0.14595448970794678, 0.028572138398885727, -0.1318308562040329], [0.0393914096057415, 0.11329738050699234, 0.02456515282392502], [0.05237921327352524, 0.06371556222438812, -0.08538444340229034], [0.16435441374778748, 0.18954627215862274, 0.12676790356636047], [-0.014840568415820599, 0.15164299309253693, 0.06276337802410126]], [[0.22786712646484375, 0.2227848470211029, -0.08670298010110855], [0.030939266085624695, 0.08642224222421646, 0.0696248933672905], [-0.0836687684059143, -0.09344512224197388, 0.11264072358608246], [0.14892800152301788, 0.19565436244010925, 0.0750264823436737], [-0.025490619242191315, 0.05051660165190697, 0.11881858855485916], [1.5910272699020757e-39, 2.5885331739409108e-39, 3.39712442681026e-39], [5.960448241377967e-39, 2.3023866262273188e-39, -3.2179137675062234e-39], [0.09545869380235672, 0.2307424694299698, 0.050841402262449265], [-6.012076280699086e-39, -2.6700088705521486e-39, 2.263300348291753e-38], [0.07160694152116776, 0.08671111613512039, 0.16923359036445618], [-0.0712713897228241, -0.15729926526546478, -0.18645364046096802], [-0.05037764832377434, 0.0014968502800911665, 0.08550673723220825], [-0.2322641909122467, 0.0373375304043293, -0.1624949425458908], [0.05558257922530174, 0.007369647268205881, 0.17504280805587769], [-0.0011864200932905078, -0.02705947868525982, -0.11991917341947556], [-0.19017769396305084, -0.025342639535665512, 0.04813914746046066], [-0.03499695658683777, 0.1411629021167755, 0.02557358518242836], [-0.19335055351257324, -0.09471800178289413, 0.06530816853046417], [-0.12594421207904816, -0.17734380066394806, -0.006082202307879925]], [[-0.04411982744932175, -0.08690208196640015, 0.034771449863910675], [-0.09192731231451035, -0.2999249994754791, -0.07953377068042755], [-0.11002465337514877, -0.032010603696107864, -0.28310486674308777], [0.03965802118182182, 0.16137510538101196, 0.06327567249536514], [-0.011842108331620693, -0.013360437005758286, 0.13652239739894867], [-1.1545704424126822e-39, 6.830796118868575e-39, 3.439552941713087e-39], [-5.805876612972154e-39, 2.5771644394998435e-39, 5.90074311770848e-39], [-0.10734783113002777, 0.14229333400726318, 0.06521795690059662], [6.762795308290285e-39, -3.4701040508322964e-39, -1.0468049853122465e-39], [-0.24184304475784302, 0.07611099630594254, -0.11577446013689041], [-0.0767541378736496, 0.12343329191207886, 0.0590553916990757], [0.21586066484451294, 0.2710919976234436, 0.15694545209407806], [0.14211046695709229, 0.1811593919992447, -0.17513853311538696], [0.07837881147861481, 0.05839487910270691, -0.02142731100320816], [-0.09197314083576202, 0.11397361755371094, 0.006303003523498774], [0.02025265246629715, -0.07840549945831299, -0.14238646626472473], [0.19906461238861084, 0.0052088787779212, 0.18552228808403015], [0.06411818414926529, -0.1522393375635147, -0.06203804910182953], [0.11281014233827591, -0.18858155608177185, -0.005721171386539936]], [[-0.051035452634096146, 0.13565616309642792, 0.06523916125297546], [-0.13499020040035248, 0.030376965180039406, 0.046779271215200424], [0.14627213776111603, -0.2656290531158447, -0.21884076297283173], [0.02794259786605835, 0.25055766105651855, 0.13664503395557404], [-0.057600345462560654, 0.19145192205905914, -0.12668077647686005], [-1.6411469515561957e-38, -4.5704750712418234e-39, 6.648026161465154e-40], [6.242563253409697e-39, 1.684794596122985e-38, -6.070677181178686e-40], [-0.09917160868644714, -0.017109112814068794, 0.16223014891147614], [1.1753502973401549e-39, 8.404525760527026e-40, -2.1388228655759332e-39], [-0.08029568195343018, -0.155404195189476, -0.3157465159893036], [0.0826859399676323, -0.0030331402085721493, 0.022602207958698273], [-0.03644246980547905, 0.04595907777547836, -0.03490547835826874], [0.10750780254602432, 0.0519876703619957, 0.03783918172121048], [0.04873182624578476, 0.03417188301682472, 0.16878266632556915], [0.17752432823181152, 0.12158097326755524, 0.03224596753716469], [-0.1383909434080124, 0.1354392021894455, -0.0877213180065155], [0.15490494668483734, -0.09770821779966354, 0.09980566054582596], [-0.06610015034675598, 0.06981019675731659, -0.17248177528381348], [0.06658665835857391, -0.03605470433831215, 0.04232191666960716]], [[-0.004385818727314472, 0.05308670178055763, 0.012347577139735222], [0.05287622660398483, -0.025358498096466064, -0.10064385831356049], [-0.14142204821109772, -0.05252138152718544, -0.1526084691286087], [0.12773242592811584, 0.26422712206840515, 0.020362576469779015], [0.19086597859859467, -0.012214154936373234, -0.023218169808387756], [-3.30339521590758e-38, -1.813102247931344e-39, 4.652226823650533e-39], [-6.336909876415758e-39, -1.2290200285237954e-39, 4.20673021976778e-39], [-0.09415110945701599, -0.02015400119125843, 0.1426316201686859], [7.028185823150298e-39, 1.7529178801870575e-39, -2.1853964213362328e-39], [0.021675286814570427, -0.284515380859375, -0.11215699464082718], [0.10020137578248978, -0.03966100513935089, 0.1514216810464859], [0.12118785083293915, 0.18771293759346008, -0.068637415766716], [0.0005771012511104345, -0.16170863807201385, 0.006735432893037796], [0.13604438304901123, 0.13233749568462372, 0.06774738430976868], [0.20716474950313568, -0.03740799054503441, 0.15698117017745972], [0.013214066624641418, 0.003991520497947931, 0.01976749859750271], [-0.010747551918029785, 0.02690546028316021, 0.23770427703857422], [0.2656412720680237, -0.03189845383167267, -0.1390305459499359], [0.030857374891638756, -0.17519646883010864, -0.08171339333057404]], [[0.24631913006305695, 0.10615843534469604, -0.15989428758621216], [-0.01842094212770462, 0.12096448242664337, -0.08459576964378357], [-0.2112945169210434, -0.029819149523973465, 0.1062699556350708], [0.22947630286216736, -0.12171777337789536, -0.23354572057724], [0.06215828284621239, -0.049781639128923416, 0.03254775330424309], [4.4263711423645165e-39, 3.830855728786542e-40, -6.29213839048058e-40], [1.72193461062145e-38, -2.673241666109346e-39, 2.352983309878695e-39], [-0.032611098140478134, 0.3010717034339905, -0.24504996836185455], [3.932030879209258e-39, -7.1888853297406035e-40, 4.599882720814144e-39], [-0.24354510009288788, -0.028556376695632935, -0.03951985016465187], [0.04488009959459305, -0.13207454979419708, 0.061643216758966446], [0.1255829632282257, -0.06711708009243011, 0.11985069513320923], [-0.26084595918655396, -0.040147989988327026, 0.05215068534016609], [-0.07468032091856003, -0.10511800646781921, 0.09409945458173752], [0.11420253664255142, -0.15373194217681885, 0.14570844173431396], [0.024409806355834007, -0.05765482410788536, 0.006803497206419706], [0.00898352824151516, 0.12348960340023041, -0.02411189302802086], [0.004128209315240383, -0.24289390444755554, 0.19472649693489075], [0.013190764002501965, -0.08679269999265671, -0.17728574573993683]], [[0.011765094473958015, 0.13712529838085175, -0.05389867722988129], [-0.10074828565120697, -0.22354300320148468, -0.05119582638144493], [-0.15392667055130005, 0.04406800493597984, 0.007521982304751873], [0.15384499728679657, -0.0914805606007576, -0.07886453717947006], [-0.03784770891070366, -0.1959902048110962, -0.16481678187847137], [2.9733171205583266e-40, -8.818034924364636e-40, -4.4380327481846276e-39], [1.7065791820493787e-38, 7.05129183352855e-40, 5.3633451566399124e-39], [-0.006612737197428942, -0.008397181518375874, -0.09898420423269272], [1.3028838718768208e-39, -1.7951905707006514e-38, 6.252403171226186e-39], [-0.14458104968070984, 0.11058696359395981, 0.03547436371445656], [-0.03636978194117546, -0.3057457506656647, -0.10179346054792404], [-0.27580246329307556, 0.021897515282034874, 0.04050507768988609], [-0.04645196348428726, -0.16112898290157318, -0.08232758939266205], [0.21783652901649475, 0.33780890703201294, 0.28439658880233765], [-0.1379847526550293, 0.16751229763031006, 0.14387550950050354], [0.10130170732736588, -0.047857098281383514, -0.0490177646279335], [0.008989277295768261, 0.15385133028030396, 0.046730369329452515], [-0.10585492104291916, -0.047980137169361115, -0.05418207123875618], [-0.19660358130931854, -0.2501187324523926, 0.11866551637649536]], [[-0.03141668438911438, -0.189763605594635, -0.02617526426911354], [0.11605524271726608, 0.016012610867619514, -0.1970786154270172], [-0.03946791589260101, 0.054151855409145355, 0.2826631963253021], [0.25567421317100525, -0.3627012372016907, -0.13886815309524536], [-0.02515316754579544, -0.12267211824655533, -0.06972111016511917], [1.6190434300993217e-39, -1.6756208555964362e-39, -2.760550968227568e-39], [3.968899041805644e-39, 1.9691886799770924e-40, 2.0184530090485886e-38], [0.06229173392057419, -0.26675140857696533, 0.004141996614634991], [-3.024112788591637e-39, 5.3532852349645246e-39, -3.7118588644945425e-39], [-0.18063600361347198, -0.41893213987350464, 0.15355096757411957], [-0.07208941131830215, -0.006415968295186758, 0.10513336211442947], [0.08031833171844482, 0.23546555638313293, -0.1096382737159729], [-0.02682865969836712, -0.169348806142807, 0.08675996214151382], [0.12119659781455994, 0.04485458880662918, -0.05452704057097435], [0.061527177691459656, -0.09457330405712128, 0.0889832079410553], [-0.02376369573175907, 0.09516429156064987, 0.06724335253238678], [-0.11567580699920654, -0.06073993444442749, 0.07028855383396149], [0.10517037659883499, 0.00973888672888279, 0.1190946027636528], [0.058127425611019135, 0.030602335929870605, 0.002381781116127968]], [[-0.09630566835403442, 0.09116329997777939, 0.042354363948106766], [0.06315632909536362, 0.0663985162973404, -0.10194046795368195], [-0.03477087616920471, 0.21371687948703766, 0.011863098479807377], [0.04226815700531006, 0.07915662974119186, -0.09513098746538162], [-0.26511043310165405, -0.036925848573446274, -0.01966342143714428], [2.501380817250693e-39, -2.9732736803059325e-39, -2.1592481919919317e-39], [-6.110635206888908e-39, -1.5244347642804317e-39, 6.149388115919811e-39], [-0.075966976583004, -0.1414051204919815, -0.04471293464303017], [6.406948174961177e-39, 3.080055425884412e-39, -5.40312661874363e-41], [0.0376683808863163, 0.151780366897583, 0.1301291584968567], [0.11034517735242844, 0.03650002181529999, 0.08433181047439575], [-0.2279842644929886, 0.18293483555316925, -0.05269257724285126], [0.06694521009922028, 0.09889495372772217, 0.057130176573991776], [0.07293795794248581, -0.011212961748242378, 0.11021284013986588], [0.10856129974126816, -0.032280806452035904, -0.19211217761039734], [-0.26730960607528687, -0.007674520369619131, -0.1339649260044098], [-0.11585014313459396, 0.02773554064333439, 0.09546609967947006], [0.17907491326332092, 0.036325640976428986, 0.05558823049068451], [0.1190391331911087, 0.0776829645037651, -0.11247331649065018]]], "conv3.bias": [0.048568371683359146, -0.10932378470897675, 0.0042897239327430725, 0.046801913529634476, 0.07591503858566284, 0.01787215657532215, 0.01871802844107151, -0.012056881561875343, 0.0748792439699173, -0.08665740489959717, 0.08087063580751419, 0.026422910392284393, -0.03342317417263985, -0.15812957286834717, 0.06525157392024994, -0.15975800156593323], "conv5.weight": [[[0.12872019410133362, -0.03839340806007385, -0.0632380023598671, -0.007948855869472027, 0.20486091077327728], [0.03177046403288841, -0.00028459817986004055, -0.0613178052008152, 0.13473540544509888, 0.04587090015411377], [0.12554292380809784, -0.05737496167421341, -0.005367121193557978, -0.041302233934402466, 0.09119890630245209], [0.08031943440437317, 0.033131737262010574, 0.13510344922542572, -0.08944706618785858, 0.06764231622219086], [-0.1721004843711853, 0.0933815985918045, 0.036346256732940674, -0.2239105999469757, -0.15056096017360687], [3.13981632123278e-38, -4.1207241252213803e-39, 4.6965428875848055e-39, 1.718945921256738e-38, -4.5256643489496444e-39], [5.774081150816624e-39, -2.457095581882636e-39, -3.14535313172502e-39, -5.647281856675264e-39, -6.142144804157716e-39], [0.1187940239906311, -0.17849457263946533, -0.016352804377675056, -0.21415956318378448, -0.029071534052491188], [5.8359134455549564e-39, -1.7924429046718033e-39, 6.987714922202133e-41, 6.26281201621919e-39, 2.763143370386569e-39], [-0.0824502483010292, -0.017925985157489777, 0.18238680064678192, 0.07517123222351074, -0.04100727289915085], [0.16130919754505157, 0.1481597125530243, 0.0960063636302948, -0.032209690660238266, 0.15667904913425446], [0.077119842171669, -0.13765662908554077, 0.0670376569032669, 0.06149829179048538, 0.09783239662647247], [-0.07218938320875168, 0.13981127738952637, 0.05687522515654564, 0.020573178306221962, 0.02880009636282921], [0.015746936202049255, 0.023860638961195946, 0.02795008197426796, 0.01961987465620041, -0.09252787381410599], [-0.2435968518257141, -0.0742996409535408, -0.045084014534950256, -0.0032430479768663645, -0.11164647340774536], [-0.003565595019608736, 0.10540860891342163, 0.03349064290523529, 0.036632101982831955, -0.04354822263121605], [-0.04393233358860016, -0.088620625436306, 0.08735571056604385, 0.011150555685162544, -0.054800890386104584], [0.04404854774475098, 0.14929036796092987, 0.04090568795800209, -0.013058502227067947, 0.1833173930644989], [0.09702997654676437, 0.12506461143493652, 0.017687151208519936, 0.009982134215533733, -0.04132431000471115]], [[0.07544103264808655, -0.016323070973157883, -0.031247176229953766, 0.0006870591314509511, 0.01251184567809105], [-0.009306566789746284, -0.12310103327035904, 0.017001308500766754, -0.14740264415740967, -0.15988904237747192], [-0.01079098042100668, -0.03688284754753113, -0.002349565736949444, 0.048337407410144806, -0.052269529551267624], [-0.07287278771400452, -0.009590060450136662, -0.06825915724039078, 0.009097224101424217, -0.044386934489011765], [-0.0010862722992897034, -0.1660623401403427, -0.21401122212409973, -0.0863553136587143, -0.2072274088859558], [-4.639327871286423e-39, 5.771571425267018e-39, 1.4456621724068765e-39, -3.4898287280161326e-39, -2.0808931870607452e-39], [-9.236560736704529e-40, 3.042991081503021e-39, 7.207284378577188e-40, -3.985808510374651e-39, -4.2921589793468785e-39], [0.16216671466827393, 0.19279038906097412, 0.1874857246875763, 0.09132584929466248, 0.21220862865447998], [-6.605421082955822e-39, -3.86965908456216e-39, 5.185304581553587e-39, -1.2536618620189473e-39, 1.0725104043418209e-39], [0.008681993931531906, -0.02216952294111252, 0.0031194030307233334, 0.1713418960571289, 0.003341157454997301], [0.022032270208001137, -0.007779373321682215, 0.3361538350582123, 0.052011072635650635, 0.2391015887260437], [-0.11363175511360168, 0.1359434872865677, -0.08044276386499405, -0.20279884338378906, -0.10996784269809723], [0.13252253830432892, -0.024021698161959648, 0.11061020195484161, 0.02259824052453041, -0.025899171829223633], [0.09419175237417221, 0.0038888403214514256, 0.20729723572731018, 0.14239434897899628, 0.1382877081632614], [0.14466413855552673, 0.025534745305776596, -0.1275254189968109, 0.05687353014945984, -0.07457511126995087], [0.06119312718510628, -0.03273042291402817, -0.09380216151475906, 0.033951736986637115, -0.0779004693031311], [0.04598579555749893, 0.04821138456463814, -0.10145200043916702, 0.02525147795677185, -0.03944315016269684], [0.042884573340415955, -0.07578432559967041, -0.17495368421077728, -0.22008736431598663, -0.06617338955402374], [-0.24100591242313385, 0.1199004277586937, -0.06081201508641243, -0.05219316855072975, -0.002636959310621023]], [[0.03132898360490799, 0.05904600769281387, 0.13307279348373413, -0.05894487351179123, 0.20002613961696625], [0.018482159823179245, -0.005173732526600361, -0.10925702750682831, 0.013914805836975574, 0.19349661469459534], [-0.07517577707767487, -0.09715747088193893, 0.02228637970983982, 0.05648675188422203, 0.06592131406068802], [-0.011717861518263817, 0.056775107979774475, 0.09926267713308334, -0.1389888972043991, -0.052487775683403015], [0.1802273690700531, 0.05773868039250374, -0.012443716637790203, 0.01379300281405449, 0.11558876931667328], [5.862183587865654e-39, 3.5104320193371003e-39, 5.045987488230414e-39, 1.761600325472014e-39, -6.077900033983202e-38], [3.9723678160242334e-38, 2.5296677083112467e-38, -4.9692159505639144e-39, -2.1888884571093302e-39, 5.08998405611482e-39], [0.159719780087471, -0.09539731591939926, 0.15330708026885986, -0.22063682973384857, 0.17992953956127167], [2.4892203491772823e-39, 4.373559005841043e-39, 2.1946435899023123e-39, -1.4519161674531581e-39, -5.045569901288045e-39], [-0.06875526160001755, -0.2418188750743866, -0.072550930082798, -0.12302953749895096, -0.09688419848680496], [0.027384953573346138, 0.001012460794299841, -0.0945214182138443, -0.0560208335518837, 0.0046295165084302425], [0.011130471713840961, 0.15884514153003693, -0.055490296334028244, 0.24115170538425446, -0.3439139723777771], [-0.009263102896511555, 0.0814862847328186, -0.28183719515800476, 0.16712065041065216, -0.14991289377212524], [0.010229497216641903, -0.07851112633943558, -0.001012806547805667, 0.06723806262016296, 0.23403608798980713], [0.028650900349020958, 0.03668755292892456, -0.10682381689548492, -0.03144842013716698, -0.19634507596492767], [0.2518727779388428, 0.03696589544415474, -0.043408170342445374, -0.09834002703428268, -0.020077308639883995], [0.0830821841955185, 0.021001804620027542, 0.0522775836288929, 0.09978847950696945, 0.046001456677913666], [0.23862844705581665, 0.11439390480518341, -0.2240646928548813, 0.2421315312385559, -0.3334457278251648], [-0.14058977365493774, -0.07674195617437363, 0.06591374427080154, -0.07695858180522919, -0.0040861135348677635]], [[-0.033992305397987366, -0.16720497608184814, -0.03876909986138344, -0.0356307178735733, 0.1059250757098198], [0.08448316901922226, -0.027363207191228867, 0.09962927550077438, 0.1478232890367508, -0.11860117316246033], [0.027814209461212158, -0.08526132255792618, 0.05919357389211655, -0.016742797568440437, -0.06954725831747055], [-0.11508993059396744, -0.3747957646846771, -0.028283433988690376, -0.10994715243577957, -0.012075561098754406], [0.11759067326784134, -0.03398055583238602, 0.03856584057211876, -0.012466974556446075, 0.1807437539100647], [1.7174201874887812e-39, 5.980329863989808e-39, 5.193782437262752e-39, -4.1148190534927156e-39, 3.9067710730913386e-39], [2.551040032229436e-39, -4.239529011623767e-39, -4.2439276875032826e-39, 4.512054938264122e-40, -6.401271514882197e-40], [0.040594182908535004, 0.09235038608312607, -0.016818705946207047, 0.038068536669015884, 0.11511602252721786], [-4.909904591762902e-39, 2.408790021220431e-40, 8.761898907883784e-41, 7.884139562815362e-40, 4.321376052328051e-39], [0.02731958031654358, -0.19909027218818665, 0.2447393834590912, -0.16976423561573029, 0.22113899886608124], [0.027790499851107597, -0.207963764667511, -0.09474793821573257, -0.053603604435920715, -0.2169356495141983], [-0.12128305435180664, 0.026163630187511444, -0.07904533296823502, -0.15948021411895752, -0.105359748005867], [0.08644236624240875, 0.17749905586242676, -0.19053691625595093, -0.10930691659450531, -0.15889979898929596], [0.08734826743602753, 0.24894756078720093, 0.210594043135643, 0.20693643391132355, 0.1575598567724228], [-0.00450338888913393, -0.0607287622988224, 0.13948100805282593, -0.1757124364376068, -0.01653985120356083], [-0.022783635184168816, -0.10506802052259445, -0.019205722957849503, 0.09459579735994339, -0.09323027729988098], [0.03195618465542793, -0.07777540385723114, -0.20659130811691284, 0.012893558479845524, 0.04373588040471077], [0.24485282599925995, 0.11707679182291031, 0.07289358228445053, -0.025917798280715942, -0.08137895166873932], [0.1128215342760086, 0.18857929110527039, 0.16262111067771912, 0.11975063383579254, 0.06321065127849579]], [[0.04451470449566841, 0.04386428743600845, 0.06492454558610916, 0.017004575580358505, -0.1114586666226387], [-0.06683488190174103, 0.04533546045422554, 0.03786865994334221, -0.027767743915319443, -0.07009395211935043], [0.04512571170926094, 0.08817580342292786, 0.15331798791885376, -0.12542293965816498, -0.1304645985364914], [0.012776109389960766, 0.10071944445371628, 0.09119365364313126, 0.10316211730241776, 0.06270851194858551], [0.16254550218582153, 0.13056792318820953, 0.11414524912834167, 0.02278776653110981, 0.05333617702126503], [3.576950256140135e-39, 4.3619870831226484e-39, -4.865602540813273e-39, 1.8793609642587858e-38, 5.611177401741935e-40], [-7.316725788640957e-40, 8.296948077420809e-41, 6.510211260095737e-39, -2.8260798883147894e-39, 6.039564151375282e-39], [0.1111096665263176, 0.08447994291782379, -0.06292346864938736, 0.13434921205043793, 0.050581615418195724], [5.802378972005199e-39, 4.3023450178840556e-39, 5.722660503668225e-39, -4.339961473860391e-39, 2.4880012195133197e-39], [0.21430718898773193, 0.18392790853977203, 0.003829659428447485, -0.01080306526273489, -0.14684252440929413], [-0.020521657541394234, -0.12190599739551544, -0.12401709705591202, 0.1098131611943245, 0.0006855649990029633], [0.00878902617841959, -0.18029779195785522, 0.019178669899702072, 0.28347325325012207, 0.15690478682518005], [-0.02258562296628952, -0.032521553337574005, -0.19089487195014954, 0.14355504512786865, 0.30361148715019226], [-0.07400228083133698, 0.02329193986952305, 0.059390150010585785, 0.21005895733833313, 0.2368505448102951], [0.05882054939866066, 0.045826006680727005, -0.0441228486597538, 0.2036810666322708, 0.012117587961256504], [-0.08979228883981705, 0.10168694704771042, -0.014418082311749458, -0.08054505288600922, -0.013839418068528175], [-0.09647826850414276, 0.0037332794163376093, 0.01967630535364151, -0.04093226045370102, 0.1492663472890854], [0.10240817070007324, -0.12183219939470291, 0.12222598493099213, 0.0022085988894104958, 0.08561767637729645], [-0.11022110283374786, 0.06341720372438431, -0.1563711166381836, -0.12622766196727753, 0.012638465501368046]], [[-0.13649597764015198, 0.07066553086042404, -0.00480043888092041, -0.010078123770654202, -0.06775180250406265], [-0.13119256496429443, -0.11708807945251465, -0.0773615762591362, -0.17920233309268951, 0.0038233164232224226], [-0.014505351893603802, 0.02330753766000271, 0.0467163622379303, -0.13664808869361877, -0.09470103681087494], [-0.23110331594944, 0.07913894206285477, -0.2898552715778351, 0.135102778673172, 0.03614699840545654], [0.043402016162872314, -0.1908564269542694, 0.2681739330291748, 0.04977434128522873, 0.02896873839199543], [1.5298465789496542e-39, 3.9272790761167323e-41, -1.331051372308214e-39, 1.8714873484474375e-39, 2.9302285940788028e-39], [3.752056512242164e-39, 6.409705930338968e-39, -4.5773918804617307e-38, -1.2939127591082134e-39, -1.7820298557834055e-39], [-0.15957173705101013, 0.051401279866695404, -0.08318432420492172, -0.25798964500427246, -0.1998339742422104], [5.639913829349844e-39, -4.111858109837597e-40, -5.461821406220339e-39, 6.028180843430186e-38, 8.647707096025954e-40], [0.07574129104614258, 0.1511564701795578, 0.017030339688062668, -0.017931252717971802, 0.12970751523971558], [-0.05577778071165085, -0.03188386932015419, -0.07007778435945511, -0.02022259496152401, 0.0627983883023262], [-0.19528022408485413, 0.21768948435783386, -0.07890869677066803, 0.058815713971853256, -0.0757044106721878], [-0.024945255368947983, -0.15112270414829254, -0.054775018244981766, -0.08012683689594269, 0.012151879258453846], [0.37392446398735046, 0.3139995336532593, 0.06775254756212234, 0.05222262069582939, 0.04143751040101051], [0.23002460598945618, -0.09518399834632874, -0.11969214677810669, -0.0652463361620903, 0.12351056188344955], [-0.07272721081972122, -0.183971107006073, 0.05033689737319946, -0.11466202139854431, 0.04818399250507355], [0.12478440254926682, -0.062312301248311996, -0.006284530274569988, -0.16099436581134796, 0.17005881667137146], [0.14934037625789642, -0.06905978173017502, -0.01637376844882965, -0.04478512704372406, 0.00903416145592928], [-0.1990053951740265, -0.09372612088918686, 0.07573480159044266, -0.019888024777173996, -0.15739993751049042]], [[0.35867151618003845, 0.1520649939775467, -0.03586237505078316, 0.01779780164361, -0.1429218053817749], [-0.17791886627674103, -0.09168867021799088, -0.02603386715054512, -0.11968327313661575, 0.06177869066596031], [0.20938682556152344, -0.14266912639141083, 0.04766692593693733, 0.048024047166109085, -0.12712198495864868], [-0.0001510887232143432, 0.05871498957276344, -0.1245507076382637, 0.05128315091133118, -0.07372570782899857], [0.2044781893491745, -0.17669808864593506, 0.050237931311130524, -0.32265472412109375, -0.2351161241531372], [-5.917433983717053e-39, 6.151649811641231e-38, -1.4206724805809406e-37, 1.202137518784188e-38, 2.8182724137909573e-38], [-4.5244522257780034e-39, 1.3852676098929412e-40, 1.992478260454171e-40, -2.194293265286231e-40, -5.1821782846796785e-39], [-0.016795167699456215, -0.04789435490965843, -0.016259999945759773, 0.11373082548379898, -0.1822975128889084], [-6.761309931918101e-39, -8.480588241170577e-40, 4.2620632922285744e-39, 2.9046086542555522e-39, 1.477809360476952e-40], [-0.016993148252367973, 0.12420140951871872, 0.17517505586147308, -0.0012439282145351171, 0.13562029600143433], [0.24545612931251526, -0.05104506388306618, 0.03313782066106796, 0.243803009390831, 0.1372222751379013], [0.07349911332130432, -0.05993857607245445, -0.04814142733812332, -0.08854344487190247, 0.06836390495300293], [-0.019315076991915703, 0.010608715936541557, 0.07619709521532059, 0.08321104198694229, 0.15338769555091858], [-0.03991032764315605, -0.023541366681456566, 0.0909045860171318, -0.019586101174354553, 0.044068291783332825], [-0.014417491853237152, -0.2123887538909912, -0.1377898007631302, -0.12532541155815125, 0.007312397938221693], [0.08698470145463943, -0.19873757660388947, -0.01368628814816475, -0.08353232592344284, 0.005111840553581715], [0.05410141125321388, -0.17100678384304047, -0.02876950241625309, -0.055663738399744034, 0.08919310569763184], [0.11567793786525726, -0.016195686534047127, 0.08449004590511322, 0.051375601440668106, -0.19086097180843353], [0.05991179496049881, 0.10336365550756454, 0.04549692943692207, 0.11574529111385345, -0.03193998336791992]], [[-0.04431091994047165, -0.20167438685894012, -0.07077266275882721, -0.07737179100513458, -0.1509287804365158], [-0.13785305619239807, -0.10293298214673996, -0.11179559677839279, -0.015718553215265274, -0.14552171528339386], [-0.16453205049037933, -0.10443487763404846, -0.20174995064735413, -0.23328718543052673, -0.28133276104927063], [0.13167628645896912, 0.12971031665802002, -0.189766526222229, 0.04057745262980461, 0.01660734787583351], [0.011080598458647728, 0.01265625562518835, 0.09173122048377991, 0.12521590292453766, -0.046130940318107605], [-1.456225160230957e-39, -1.4137229370289066e-38, 4.4563157695083664e-38, -5.656279594114694e-39, -3.552255173303339e-39], [5.0249497943855053e-39, 5.553820854298656e-39, -3.478088649482019e-39, -6.239191729304531e-39, -1.1430027235896808e-39], [-0.07230128347873688, -0.018961358815431595, -0.18961885571479797, 0.17549671232700348, 0.12995685636997223], [3.557432971129019e-39, 3.482005278689807e-39, 9.729159185868632e-40, -3.5500495295204916e-40, 9.592238312919454e-40], [0.015788523480296135, -0.07124093174934387, -0.014042784459888935, -0.15919549763202667, -0.22131192684173584], [-0.1452973186969757, 0.0280718132853508, 0.0722564309835434, 0.16511955857276917, 0.10607310384511948], [0.1401928961277008, 0.10739892721176147, 0.3341476619243622, 0.042356763035058975, 0.19052211940288544], [-0.13390973210334778, 0.07956551015377045, 0.11531253159046173, 0.040671054273843765, 0.037551190704107285], [0.06640935689210892, -0.029753021895885468, 0.027976002544164658, 0.06440089643001556, 0.07951774448156357], [-0.07029108703136444, -0.12598440051078796, -0.00038063948159106076, 0.16972962021827698, -0.11734144389629364], [0.11429658532142639, -0.1757810413837433, -0.046578116714954376, 0.009554539807140827, 0.043714847415685654], [0.021315662190318108, 0.026066990569233894, 0.12365221977233887, 0.10371141880750656, 0.09108424186706543], [-0.006951081566512585, -0.026698581874370575, 0.22523511946201324, -0.1106589138507843, 0.067869171500206], [-0.12059540301561356, -0.023733913898468018, -0.10108605772256851, 0.02634994126856327, -0.10467217117547989]], [[0.06890235841274261, 0.12784066796302795, -0.09657969325780869, -0.10407441854476929, 0.11417695134878159], [-0.11851116269826889, -0.036740124225616455, -0.007024835795164108, 0.010078188963234425, -0.1557401567697525], [0.09040053933858871, -0.013687252067029476, 0.08219032734632492, -0.1719129979610443, -0.050661973655223846], [-0.06897370517253876, -0.3113088011741638, 0.02639131061732769, 0.12469524890184402, 0.04557298123836517], [0.1057601049542427, -0.2659255564212799, -0.16361385583877563, -0.1650427281856537, -0.022820129990577698], [-5.812373032652764e-39, -3.163870730411687e-38, 3.186395201927244e-38, -3.339121880774927e-39, -2.2949611456648616e-39], [6.421210590731075e-39, -3.240491488363425e-39, -1.894673232838156e-39, -2.9213233423380186e-39, -1.3421622678318455e-39], [0.19907206296920776, 0.10993172228336334, -8.506032463628799e-05, -0.2757442891597748, -0.0804143026471138], [-4.2025851789103075e-39, 3.1956443323111734e-39, 1.550580191027804e-39, -5.868203566068393e-39, -5.265416814759037e-39], [-0.17788462340831757, 0.09140311181545258, -0.10963443666696548, -0.08161670714616776, 0.21845518052577972], [0.08215026557445526, -0.038420841097831726, 0.2693970501422882, 0.2946265637874603, -0.027906227856874466], [0.057950399816036224, -0.12711569666862488, 0.09641428291797638, -0.0326162651181221, 0.1398819088935852], [0.05175665020942688, 0.06358301639556885, -0.0168431606143713, 0.09246205538511276, 0.011592059396207333], [-0.09180811047554016, 0.1603589504957199, -0.006092200055718422, 0.0054108561016619205, 0.05921009182929993], [0.10200203210115433, 0.16918964684009552, -0.2530363202095032, 0.11127686500549316, 0.21788063645362854], [0.015102850273251534, 0.08861955255270004, -0.030495882034301758, 0.08375827223062515, -0.13696442544460297], [-0.007996495813131332, -0.07335741817951202, 0.03329548239707947, -0.14714398980140686, -0.005482316017150879], [-0.14213617146015167, -0.1529940813779831, -0.09966116398572922, 0.1277608871459961, 0.04252126067876816], [-0.28978368639945984, -0.225395068526268, 0.08955832570791245, 0.14778174459934235, 0.0273762010037899]], [[0.07626557350158691, 0.10221133381128311, 0.03247813880443573, 0.02444535307586193, -0.19854876399040222], [-0.08096348494291306, 0.07069254666566849, -0.00021694539464078844, -0.061571214348077774, 0.07032240927219391], [0.07915207743644714, -0.058980703353881836, 0.006904417183250189, 0.08540919423103333, -0.2111731916666031], [-0.037468113005161285, -0.004610138945281506, -0.08759291470050812, 0.009616043418645859, 0.03435354679822922], [-0.13071617484092712, -0.09328978508710861, -0.30610570311546326, -0.2800099849700928, -0.32032841444015503], [-2.372971431173824e-39, 6.294534610854576e-39, -2.382564720460592e-39, -8.993659660898465e-40, -3.786344884365728e-39], [-5.122649724616696e-39, -1.4179472913794602e-39, -9.960891912914027e-40, 4.5410660203710384e-39, -3.262965513134266e-39], [0.12430430203676224, 0.01718384213745594, 0.21941760182380676, 0.18121634423732758, 0.06392267346382141], [2.514848696791319e-39, 3.769054262614424e-39, 5.8748527272816145e-39, 5.271449404647955e-39, 2.935945611553555e-38], [-0.05941242352128029, -0.04075685515999794, 0.0007989461882971227, 0.007996738888323307, 0.0012375270016491413], [0.0216427743434906, 0.22458399832248688, 0.13173887133598328, 0.20784656703472137, 0.1103154718875885], [-0.0013633000198751688, -0.1479918509721756, 0.04196664318442345, 0.003177005099132657, -0.07439417392015457], [0.0761646032333374, 0.20512905716896057, -0.07837056368589401, -0.09682013839483261, 0.15447650849819183], [0.003592982655391097, 0.020130621269345284, -0.007680014707148075, -0.10711101442575455, -0.09326154738664627], [-0.06975477933883667, -0.1124471053481102, -0.01118654664605856, -0.18229161202907562, -0.18518687784671783], [0.029134055599570274, 0.11461110413074493, -0.014792552217841148, 0.006708110682666302, 0.01435770932585001], [0.04214702546596527, -0.03627815470099449, 0.1458159238100052, 0.04407280683517456, -0.018920350819826126], [-0.04097890481352806, -0.04800393059849739, 0.01653989776968956, -0.05009016394615173, -0.11115854978561401], [0.09076578170061111, -0.10539581626653671, 0.07391286641359329, 0.08036129176616669, 0.01872185617685318]], [[-0.023660210892558098, 0.0056047867983579636, 0.031845271587371826, -0.04216243326663971, 0.0772566869854927], [0.21455051004886627, 0.09609822183847427, -0.03451737016439438, 0.03851006180047989, -0.030662350356578827], [-0.012459835037589073, -0.04919374734163284, 0.03882260620594025, -0.0360923670232296, -0.1021123006939888], [0.045978955924510956, 0.12251729518175125, 0.049334567040205, 0.248836487531662, 0.06958909332752228], [0.09622526913881302, 0.14042338728904724, 0.05112672224640846, 0.024885211139917374, 0.03088569827377796], [-4.1075631300444417e-39, 4.42998312928616e-38, -3.91101280354285e-39, 3.4223772264358575e-40, -1.650516593608057e-39], [5.4428324107302734e-39, -4.9366497742530056e-39, 2.4747939814870583e-39, 7.020314729676185e-39, -2.4282893696112035e-38], [-0.15829262137413025, -0.014329088851809502, 0.2994128465652466, 0.04945555329322815, 0.1837390810251236], [-2.707651951199306e-39, -6.961363504580505e-39, 4.5742501693047144e-39, -4.286569199772687e-38, -1.5860002517911568e-38], [0.040698613971471786, 0.09474154561758041, 0.07161227613687515, 0.06784047186374664, -0.03949316218495369], [-0.17167507112026215, -0.1540711522102356, 0.05081423744559288, -0.03767012432217598, -0.15531013906002045], [0.04307975992560387, -0.10013321787118912, -0.08948443084955215, -0.20485374331474304, -0.16032260656356812], [-0.21095405519008636, -0.032485898584127426, 0.06305211782455444, -0.2198808193206787, -0.30352917313575745], [-0.03766297549009323, 0.012007292360067368, 0.1555478572845459, 0.09037940204143524, 0.2255336344242096], [-0.029230646789073944, 0.1407732218503952, 0.08967935293912888, 0.11384563893079758, 0.012539769522845745], [0.05527874827384949, -0.1604798585176468, -0.005822727922350168, -0.09218952059745789, -0.11668749153614044], [0.026152092963457108, 0.10327755659818649, -0.0893051028251648, -0.023633627220988274, 0.07344309240579605], [-0.11966430395841599, 0.07165483385324478, -0.12341422587633133, 0.012817692011594772, -0.14149798452854156], [-0.0011523808352649212, -0.040659092366695404, -0.09129241108894348, 0.07445383816957474, 0.09597226977348328]], [[-0.14233852922916412, 0.17783613502979279, 0.5053223967552185, 0.29625192284584045, 0.1588480919599533], [-0.10223820805549622, -0.014171158894896507, 0.07425640523433685, -0.1381158083677292, -0.26886337995529175], [-0.1359570324420929, -0.034866832196712494, 0.13897019624710083, 0.1714298129081726, 0.06711874157190323], [0.11084315180778503, 0.08366743475198746, -0.05757686123251915, -0.025817273184657097, 0.12002842873334885], [-0.038277845829725266, -0.039106082171201706, 0.10280207544565201, -0.13105805218219757, -0.02118230052292347], [1.287880169219295e-39, -2.0750259503906172e-39, -1.6021087381579563e-39, -2.098889502718683e-38, 1.065267092579726e-41], [-5.877526404751546e-39, -2.3715266924571053e-39, -5.906732267345004e-39, -1.6459245385404647e-39, -4.5583398265407704e-39], [-0.14310769736766815, 0.05335406959056854, -0.049777742475271225, -0.10033637285232544, -0.08184957504272461], [-6.209840131670784e-39, 1.5702067773191375e-39, -6.897731942613979e-39, -2.1645058638300784e-39, 2.2597619295394865e-39], [-0.0379495732486248, 0.04234608635306358, 0.006223529577255249, 0.15266014635562897, -0.04253268241882324], [0.08057098090648651, 0.1173497885465622, 0.04994255304336548, 0.14728571474552155, 0.2861458361148834], [-0.10116558521986008, 0.03750620782375336, 0.04983588680624962, -0.029995964840054512, 0.12052663415670395], [0.1236429214477539, -0.045633960515260696, -0.03655712306499481, -0.02458477020263672, -0.0413769967854023], [0.057080574333667755, 0.15391340851783752, 0.033629272133111954, 0.0235007144510746, 0.17423270642757416], [-0.00036667322274297476, 0.07656878978013992, 0.06652598083019257, -0.15238796174526215, 0.05047519505023956], [0.0011598044075071812, -0.02296062558889389, 0.027098556980490685, -0.15035170316696167, 0.06356015801429749], [-0.06698804348707199, -0.036505501717329025, 0.0774693563580513, -0.06582982838153839, 0.07942783087491989], [0.09583717584609985, 0.028552737087011337, 0.08303559571504593, 0.14894774556159973, 0.10673774778842926], [0.05247393250465393, 0.038864631205797195, -0.06081700325012207, 0.17228879034519196, 0.15783488750457764]], [[0.027113502845168114, 0.043180204927921295, -0.06234247609972954, -0.11944787949323654, 0.07147514820098877], [0.11695320159196854, 0.07878856360912323, 0.04681514948606491, -0.005125496070832014, -0.17434322834014893], [-0.06892310082912445, 0.10478123277425766, -0.1690506935119629, -0.008726842701435089, 0.040822260081768036], [-0.07033900171518326, 0.0015196769963949919, 0.22623088955879211, -0.13974463939666748, 5.658640657202341e-05], [-0.040878139436244965, 0.028990289196372032, 0.1814463585615158, -0.10129668563604355, -0.05493180453777313], [5.2513169496110006e-39, 1.0726981783360404e-39, -4.0609965807764637e-39, -5.365241113462144e-39, -7.554259891328656e-40], [-2.8677292812714516e-39, -5.169933738698408e-39, -3.373354200959918e-39, 6.625036458859441e-39, 4.445808553363166e-39], [0.15433798730373383, 0.16269049048423767, 0.24099776148796082, 0.13071386516094208, 0.13793858885765076], [-8.363383637614449e-40, -3.0596329020653424e-39, 2.0844048410123432e-39, 5.194484487793379e-39, 2.509641471697888e-40], [-0.01255128625780344, 0.05822339281439781, 0.004090298432856798, -0.022167230024933815, 0.1737867146730423], [-0.07230699062347412, -0.16548585891723633, -0.1475960910320282, 0.040616173297166824, -0.07658121734857559], [-0.16743513941764832, -0.23737558722496033, 0.009018871001899242, 0.04424935579299927, 0.034328658133745193], [-0.14523497223854065, -0.049785058945417404, -0.1156177744269371, -0.046207815408706665, -0.09354255348443985], [0.11993111670017242, 0.07902876287698746, 0.04625815898180008, 0.20140066742897034, 0.14790745079517365], [0.12243583053350449, -0.0525704100728035, -0.10069889575242996, -0.21950238943099976, 0.09836632758378983], [-0.18231479823589325, -0.0770629420876503, -0.08025577664375305, 0.09066078811883926, 0.0010315150720998645], [-0.10753902792930603, 0.046568311750888824, 0.17793817818164825, -0.06354103982448578, -0.1557406783103943], [-0.08892597258090973, 0.07243239879608154, -0.25033414363861084, 0.21254707872867584, 0.1880922168493271], [-0.045117612928152084, -0.08294827491044998, 0.05751538276672363, -0.10542779415845871, -0.09061037003993988]], [[-0.0035675344988703728, 0.11930591613054276, 0.0881284549832344, 0.09590166807174683, 0.11832328885793686], [0.0366535484790802, 0.07752885669469833, 0.05387670546770096, 0.16947080194950104, 0.007016882766038179], [-0.13791850209236145, 0.03051608055830002, -0.06324344128370285, -0.03831034153699875, 0.039463404566049576], [0.17709334194660187, 0.11026982963085175, 0.21267077326774597, -0.06692969053983688, -0.024348830804228783], [0.09688027948141098, 0.010293829254806042, 0.18849556148052216, -0.0609099380671978, 0.09464161098003387], [-5.2944447124475255e-39, 5.6899107572584894e-39, -2.1380955916729486e-39, 4.744091747076275e-39, 2.352211194424852e-38], [-5.621637253999041e-38, -4.131336158491712e-39, 4.684994786940305e-39, -2.9211075423745126e-39, 2.6144389786508837e-39], [0.1330988109111786, -0.03119138441979885, 0.10069061070680618, -0.05283891782164574, 0.0741940587759018], [-7.233992006268448e-38, -1.2760307894049644e-39, 6.21929048851419e-39, 2.661106421408293e-39, -6.372162341882777e-39], [0.12354284524917603, -0.0034016913268715143, 0.006438981741666794, -0.23363475501537323, 0.07740562409162521], [-0.16344523429870605, -0.09285935014486313, -0.15124952793121338, 0.011403130367398262, 0.02559303306043148], [0.10251092910766602, 0.0007605503778904676, 0.11090967059135437, -0.11221274733543396, -0.05426300689578056], [-0.11263512820005417, -0.16962465643882751, -0.041452664881944656, -0.1597483605146408, -0.19244205951690674], [0.0597914457321167, 0.05835488811135292, 0.19509239494800568, 0.15597359836101532, 0.18456314504146576], [0.0772339478135109, 0.03654194995760918, 0.03565973788499832, 0.08415235579013824, 0.0392385832965374], [-0.086097352206707, -0.14373819530010223, 0.01882709003984928, -0.10222705453634262, -0.0020463308319449425], [-0.1667030155658722, 0.21088634431362152, -0.06846975535154343, -0.0973459854722023, 0.0025201765820384026], [0.06573683023452759, -0.12517181038856506, 0.08854956924915314, -0.006182278972119093, 0.10765696316957474], [-0.10344289988279343, -0.1228325292468071, -0.08699022978544235, -0.02444179728627205, 0.06314399838447571]], [[-0.10341348499059677, 0.005662537179887295, -0.02654493786394596, -0.08790323883295059, -0.06329376995563507], [-0.245693638920784, -0.043227799236774445, -0.1139257624745369, -0.1794087141752243, -0.09699608385562897], [-0.11501232534646988, -0.00043163311784155667, -0.18881423771381378, -0.09087298065423965, -0.13565127551555634], [0.08981890231370926, -0.2140544056892395, 0.09548117220401764, -0.2252943217754364, 0.0390179269015789], [-0.1089465543627739, -0.28523266315460205, -0.334425151348114, -0.05947301164269447, 0.0856228917837143], [-6.424720843384208e-39, -2.700985974404513e-39, -7.197096938741547e-40, -4.9709115217057474e-39, -4.736388809417882e-41], [5.062752623057596e-39, 5.5054662481902e-39, -3.515930714511111e-39, -5.663391183821142e-39, -5.489428387266002e-39], [-0.13204756379127502, -0.1445494294166565, -0.10236021876335144, -0.025750551372766495, -0.1686987727880478], [-5.94285213656144e-39, -2.8533401881203787e-38, -5.51899718616172e-39, 2.2213383256477e-41, 4.892728876485673e-39], [0.10020338743925095, 0.2464779019355774, 0.0131228631362319, 0.09740004688501358, -0.15562282502651215], [-0.13601717352867126, -0.3011780083179474, -0.08187028020620346, -0.20189595222473145, -0.15004871785640717], [0.07337883114814758, 0.056635454297065735, 0.08627215027809143, -0.16127759218215942, -0.1986030638217926], [0.06735682487487793, 0.08167915791273117, -0.21366536617279053, -0.09097503125667572, -0.024879340082406998], [0.1958000212907791, 0.15772995352745056, 0.19429878890514374, 0.1671178787946701, 0.22770848870277405], [-0.007635797839611769, 0.0764794573187828, 0.16119986772537231, 0.2624257206916809, -0.21868763864040375], [-0.17578108608722687, -0.06831783801317215, -0.1354985237121582, 0.05388117581605911, 0.008835185319185257], [-0.1323339343070984, 0.13559958338737488, -0.061906252056360245, 0.12646251916885376, -0.15431389212608337], [-0.05985553190112114, -0.19820193946361542, 0.10701848566532135, 0.09228920936584473, 0.0756901204586029], [-0.13967423141002655, 0.10358966886997223, -0.15728600323200226, -0.09353974461555481, 0.015490843914449215]], [[-0.06743641942739487, 0.18223798274993896, -0.014307515695691109, 0.01873142085969448, -0.10078558325767517], [0.08140058815479279, 0.06103530526161194, 0.06432628631591797, -0.01637605018913746, -0.0022489989642053843], [0.07429587841033936, 0.1596454232931137, 0.00092648109421134, -0.11232458055019379, -0.23128612339496613], [0.04318123683333397, 0.03276067227125168, 0.09142586588859558, 0.20776839554309845, 0.0980396419763565], [-0.3134641647338867, -0.1781540811061859, -0.340122252702713, -0.19136463105678558, -0.30639782547950745], [-6.609504466680865e-40, 5.316943960590725e-39, -1.0203134378441858e-40, 3.718119866033146e-39, 1.023343045124056e-39], [1.1881693756917983e-39, -2.15488314727556e-39, 6.811431575390071e-40, 4.505373547186221e-39, -2.3268084558635717e-39], [0.2381313592195511, 0.20154602825641632, -0.007706599775701761, 0.08517501503229141, 0.10146511346101761], [2.2746325088429015e-39, 3.701325303938213e-39, -1.4967423040284447e-38, 3.7297576497793634e-39, -4.405886961413016e-39], [-0.1740131825208664, -0.11308728903532028, 0.11407218128442764, -0.03392515704035759, 0.0839357078075409], [0.18936648964881897, 0.20944897830486298, 0.24887089431285858, 0.33588194847106934, 0.06938809901475906], [-0.001889150240458548, 0.17769679427146912, 0.03821141645312309, 0.020517488941550255, 0.08665625005960464], [0.25463008880615234, -0.06078935042023659, -0.02692662924528122, 0.027910832315683365, 0.038279686123132706], [-0.06694815307855606, -0.07215748727321625, -0.10293776541948318, 0.088304303586483, -0.07454724609851837], [-0.22127380967140198, 0.002665919018909335, -0.062269631773233414, 0.04720284417271614, -0.11958730220794678], [0.10293369740247726, -0.04817744344472885, 0.07635404914617538, 0.1207752451300621, 0.2075190544128418], [-0.026803014799952507, 0.14907072484493256, -0.0998959019780159, 0.13643255829811096, 0.013861228711903095], [0.06639007478952408, -0.14046689867973328, -0.003361221170052886, 0.12317526340484619, -0.001676380168646574], [0.080063097178936, -0.06747177988290787, 0.06748037785291672, -0.026019522920250893, -0.12983064353466034]]], "conv5.bias": [-0.057753510773181915, -0.1951608955860138, 0.1266355812549591, 0.09383540600538254, 0.14149263501167297, -0.026906723156571388, -0.0710720494389534, -0.09910155832767487, -0.07276598364114761, -0.04422517120838165, 0.11575383692979813, -0.16159777343273163, 0.23125043511390686, 0.012224541045725346, -0.05539536476135254, -0.04872910678386688], "fc1.weight": [[-0.08998679369688034, 0.02763344720005989, 0.11779487878084183, 0.06523167341947556, 0.019136711955070496, 0.0683697909116745, 0.07320323586463928, 0.0821358785033226, -0.208627387881279, -0.021206161007285118, -0.09941841661930084, -0.31087133288383484, -0.003124305047094822, 0.12570251524448395, -0.25759902596473694, 0.08257404714822769, 0.08604839444160461, 0.24587057530879974, 0.03587038069963455, -0.3300588130950928, -0.08536557108163834, 0.09947794675827026, 0.12340161949396133, -0.26657411456108093, -0.034950535744428635, 0.259629487991333, -0.1441558599472046, 0.20101070404052734, -0.01991613581776619, -0.12466181814670563, -0.07128401100635529, 0.13433144986629486, 0.114799864590168, 0.10960207879543304, 0.07396484911441803, 0.11262359470129013, 0.16612595319747925, -0.20883935689926147], [-0.06145985424518585, 0.05822286009788513, 0.1943686306476593, 0.27798011898994446, -0.15838348865509033, -0.18070831894874573, 0.10042814910411835, -0.02108282595872879, -0.013667644932866096, 0.00955696776509285, 0.01094194408506155, -0.13639703392982483, 0.09039981663227081, 0.24609597027301788, -0.08909973502159119, 0.15341390669345856, 0.12101207673549652, 0.20756135880947113, -0.10366830229759216, -0.23903591930866241, -0.18522082269191742, 0.2283741980791092, 0.23840086162090302, -0.236901193857193, 0.22947485744953156, 0.19776551425457, -0.0809057429432869, 0.18690939247608185, -0.12846751511096954, -0.02890881709754467, -0.0770634114742279, 0.07909400016069412, 0.0317070372402668, -0.05971413105726242, -0.13096609711647034, -0.14720721542835236, -0.05986415222287178, -0.2644002437591553], [-0.08057387918233871, 0.15740983188152313, 0.13691669702529907, 0.11589187383651733, -0.10469461977481842, -0.05970228090882301, 0.1193016842007637, -0.03654681146144867, -0.07836118340492249, -0.1725163757801056, -0.11156380921602249, -0.26539450883865356, -0.0684003084897995, 0.33259615302085876, -0.35937270522117615, -0.013032498769462109, 0.14252331852912903, 0.25869855284690857, 0.10868380218744278, -0.3372168242931366, -0.22702832520008087, 0.01347869262099266, 0.16370408236980438, -0.07531764358282089, 0.1277027577161789, 0.20846407115459442, -0.067904531955719, 0.17783938348293304, -0.05186018347740173, -0.1559341996908188, -0.01564246416091919, 0.13765190541744232, 0.09275967627763748, -0.01887761428952217, -0.15525799989700317, 0.16428843140602112, -0.01143254991620779, -0.21283553540706635], [0.11224678158760071, 0.15579576790332794, 0.09903987497091293, 0.22166584432125092, -0.12017479538917542, -0.034042902290821075, -0.04285445064306259, 0.05833879113197327, -0.10199297219514847, -0.14236503839492798, -0.1750791370868683, -0.18128575384616852, 0.014061720110476017, 0.09376786649227142, -0.3254460394382477, -0.006496078800410032, 0.1009153351187706, 0.26128000020980835, 0.0052184006199240685, -0.13295498490333557, -0.005775780882686377, 0.07532969117164612, 0.07355734705924988, -0.12171337008476257, 0.0339123010635376, 0.18585743010044098, -0.03270290046930313, 0.12675899267196655, -0.09920494258403778, -0.04342957213521004, -0.22796234488487244, 0.27200213074684143, 0.15047019720077515, -0.0328923836350441, 0.006000100169330835, -0.06269730627536774, 0.14087748527526855, -0.25713998079299927], [0.021997632458806038, 0.14792464673519135, -0.03177795186638832, 0.22643478214740753, -0.09724065661430359, -0.17773516476154327, 0.08451198041439056, 0.15172076225280762, -0.0417560376226902, -0.18536317348480225, -0.22665347158908844, -0.1951487958431244, 0.08531899005174637, 0.2725844085216522, -0.1755124181509018, 0.09695158153772354, 0.12487258017063141, 0.2421145737171173, -0.12916792929172516, -0.1986725926399231, -0.28405290842056274, 0.14102505147457123, 0.06967295706272125, -0.05567285791039467, 0.11717084795236588, 0.1320633888244629, 0.09309252351522446, 0.22101126611232758, -0.2931808531284332, -0.19273827970027924, 0.1715429723262787, 0.18411223590373993, -0.03805472329258919, -0.0526692159473896, -0.07006189972162247, -0.09912130981683731, 0.11175277829170227, -0.04140966013073921], [0.01956564001739025, -0.010216922499239445, 0.10222627222537994, 0.1821616291999817, 0.013777049258351326, 0.06052014231681824, 0.16431380808353424, 0.0329749770462513, -0.24416343867778778, -0.33101367950439453, -0.09779103100299835, -0.20458945631980896, -0.046781983226537704, 0.30715757608413696, -0.3006839156150818, -0.008034491911530495, 0.09969742596149445, 0.07530485838651657, 0.005904520861804485, -0.35092541575431824, -0.10286843776702881, 0.14234192669391632, 0.18550904095172882, -0.1808246672153473, 0.19277773797512054, 0.14247120916843414, -0.13928845524787903, 0.09396699070930481, -0.21969671547412872, -0.09784351289272308, 0.29128992557525635, 0.2562476396560669, 0.08380451053380966, 0.09709290415048599, 0.03616772219538689, -0.006618357729166746, 0.1151224747300148, -0.11250694841146469], [-0.014207057654857635, 0.2561727464199066, 0.08062782138586044, 0.15753473341464996, -0.18073824048042297, -0.04494994878768921, 0.08386936038732529, 0.008308534510433674, -0.16484186053276062, -0.2588736116886139, -0.21198506653308868, -0.14280083775520325, -0.09785585105419159, 0.23050038516521454, -0.1834571659564972, 0.0747460275888443, 0.1859455555677414, 0.23354212939739227, -0.05185655504465103, -0.36603841185569763, -0.2521531879901886, 0.07488080114126205, 0.07647188007831573, -0.005360577255487442, 0.19678755104541779, 0.1462504118680954, 0.06072154641151428, 0.23366078734397888, -0.18303272128105164, -0.08676421642303467, 0.21340231597423553, 0.19677488505840302, 0.17643500864505768, -0.13834939897060394, -0.11104917526245117, -0.055320270359516144, 0.1439792811870575, -0.12260323762893677], [-0.08091043680906296, 0.13122475147247314, 0.2456551045179367, 0.017900312319397926, -0.13109999895095825, 0.02104940451681614, -0.0070127747021615505, 0.126844584941864, -0.07325388491153717, 0.01578432321548462, 0.029987934976816177, -0.27712488174438477, -0.02103903703391552, 0.3946310877799988, -0.31330907344818115, 0.05334165692329407, 0.21051426231861115, 0.2922230064868927, -0.09288357943296432, -0.28134220838546753, -0.07481640577316284, -0.002316591329872608, 0.054294779896736145, -0.23768550157546997, -0.048535365611314774, 0.07774411141872406, -0.003305180696770549, 0.12090457230806351, -0.26848673820495605, -0.1596251279115677, 0.09485340118408203, 0.12166617810726166, 0.13487689197063446, 0.004114563576877117, 0.14201313257217407, 0.1251104474067688, 0.1482163667678833, -0.08782649785280228], [-2.3756155378830423e-35, -1.9578909077767187e-14, -7.468933269147341e-29, 5.267813834198707e-31, -4.024825805970522e-09, -6.752302391660063e-31, 1.5329812836143488e-39, -1.6058522289696953e-09, -9.299127579076583e-10, -3.7844767691854137e-16, -3.1334518313386184e-11, -1.4292580366181354e-21, -6.465628726859407e-11, 2.1213988402108255e-38, -7.873449669966667e-23, -3.186509422764242e-20, -1.1989223480668443e-07, 4.254505734016972e-34, -2.692282052629914e-21, -4.6803203606021575e-15, -5.7407647524598815e-09, 1.916170552579363e-39, -4.379413948134043e-22, -1.5708996770058548e-08, -8.253817185277512e-09, 4.6349151824222644e-39, -9.71927306636644e-07, -2.6997978505582942e-12, -1.8998227470368168e-12, -2.3070687582560367e-09, -2.883666758901122e-17, -7.832807197470215e-38, -5.917410161643159e-39, -1.1311053005683136e-12, -1.144780234149656e-12, -7.215383883700986e-40, 2.1066182242688202e-39, -4.738052398339798e-13], [-0.048635393381118774, 0.15017834305763245, 0.006390575785189867, 0.309053510427475, -0.18844695389270782, -0.037523720413446426, 0.052059587091207504, 0.12873528897762299, 0.0040503512136638165, -0.13681314885616302, -0.14619304239749908, -0.005930870771408081, -0.02333771623671055, 0.11997739225625992, -0.10883752256631851, 0.14370739459991455, 0.10428742319345474, 0.26123514771461487, -0.1028134822845459, -0.22256658971309662, -0.1794523447751999, 0.27984216809272766, 0.24649158120155334, -0.13460321724414825, 0.08789608627557755, -0.1134570762515068, -0.16173560917377472, 0.12544997036457062, -0.22153107821941376, -0.0054763564839959145, 0.3133849501609802, 0.23601850867271423, 0.18373697996139526, -0.1668194681406021, -0.030550969764590263, 0.02717501111328602, -0.023868128657341003, -0.07811558246612549], [0.0011601599399000406, 0.1276785135269165, 0.14463485777378082, 0.19932106137275696, -0.15818175673484802, -0.0830111876130104, 0.02424548752605915, 0.041419319808483124, -0.09932312369346619, -0.09437806159257889, -0.16362524032592773, -0.1014484092593193, -0.031045034527778625, 0.06860905885696411, -0.2730501890182495, 0.02703450806438923, 0.09006392955780029, 0.2972465455532074, -0.01606249250471592, -0.17129561305046082, -0.11480523645877838, 0.14250198006629944, 0.10744068771600723, -0.039427947252988815, 0.14114290475845337, 0.12981699407100677, -0.02138855867087841, 0.12790879607200623, -0.1264897882938385, -0.03393957018852234, -0.1269834190607071, 0.18167389929294586, 0.1009950339794159, 0.025818631052970886, -0.09068205207586288, -0.0967327430844307, 0.07648442685604095, -0.18996337056159973], [0.4349091649055481, -0.26688098907470703, -0.06890454143285751, -0.0761353000998497, 0.19146740436553955, 0.12994836270809174, 0.20809319615364075, -0.26411327719688416, 0.16411487758159637, 0.2677590548992157, 0.11821270734071732, 0.15969854593276978, 0.18786375224590302, -0.26624080538749695, 0.3477746546268463, -0.15244348347187042, -0.17026251554489136, -0.04926488921046257, 0.2885041832923889, 0.22942113876342773, 0.11560314893722534, -0.24191761016845703, -0.2849457561969757, 0.28985387086868286, -0.31778526306152344, -0.10996448248624802, 0.19887930154800415, -0.28161853551864624, 0.1981147974729538, 0.09551267325878143, -0.32453206181526184, -0.06769941747188568, -0.09182892739772797, 0.08047029376029968, 0.08312331140041351, -0.05094429478049278, 0.06248641386628151, 0.09220459312200546], [0.29495757818222046, -0.25697091221809387, -0.15136981010437012, -0.1790088415145874, 0.1258273869752884, 0.2593168616294861, 0.17609773576259613, -0.18786104023456573, 0.2394862174987793, 0.4197779595851898, 0.059002336114645004, 0.11195651441812515, 0.28191903233528137, -0.20863492786884308, 0.2530958354473114, -0.24677185714244843, -0.12487464398145676, -0.034418702125549316, 0.31615307927131653, 0.15034224092960358, 0.020033227279782295, -0.2611798644065857, -0.3837761878967285, 0.18183006346225739, -0.24383212625980377, -0.030049005523324013, 0.13226859271526337, -0.37705984711647034, 0.29816561937332153, 0.2598547339439392, -0.3292073607444763, 0.046126849949359894, 0.10608632862567902, 0.13151362538337708, 0.23414571583271027, -0.0588463619351387, -0.030263327062129974, 0.12157323211431503], [0.2518339455127716, -0.233424574136734, -0.046529222279787064, -0.0013383153127506375, 0.23563098907470703, 0.23638691008090973, 0.25422191619873047, -0.21714812517166138, 0.16008727252483368, 0.12681956589221954, 0.2198246717453003, 0.10282058268785477, 0.20308834314346313, -0.26008886098861694, 0.17319436371326447, -0.08913508802652359, -0.22235678136348724, -0.09445612877607346, 0.30810287594795227, 0.1610250324010849, 0.17500039935112, -0.24376672506332397, -0.23198974132537842, 0.18430668115615845, -0.3422688841819763, -0.12074020504951477, 0.18084116280078888, -0.14361713826656342, 0.11860086023807526, 0.17987196147441864, -0.35600391030311584, -0.07952117919921875, 0.06447578966617584, 0.08481311798095703, 0.11390803009271622, 0.0638476237654686, -0.15290941298007965, -0.05732325091958046], [0.0286798644810915, 0.009243187494575977, 0.09511120617389679, 0.23527748882770538, -0.10609637200832367, 0.04171023517847061, 0.015226679854094982, 0.15045450627803802, 0.01753988303244114, -0.1993153691291809, -0.10915463417768478, -0.18398761749267578, -0.08770697563886642, 0.19730199873447418, -0.19802388548851013, 0.0057219588197767735, 0.048620741814374924, 0.2689264118671417, -0.17711681127548218, -0.27079296112060547, -0.21241629123687744, 0.3264893591403961, 0.22918246686458588, -0.19082628190517426, 0.10944559425115585, -0.02413184940814972, -0.10197830945253372, 0.25200697779655457, -0.01683972403407097, -0.13987180590629578, 0.22659814357757568, 0.2771950662136078, 0.23476974666118622, -0.10472358763217926, 0.07816913723945618, 0.03193788230419159, 0.13432155549526215, -0.1600722074508667], [0.5283823609352112, -0.2261209487915039, -0.0924859419465065, -0.050766512751579285, 0.0714404433965683, 0.21026009321212769, 0.2917756140232086, -0.2431313693523407, -0.0027327309362590313, 0.3749169111251831, 0.14075851440429688, 0.163181334733963, 0.20230963826179504, -0.18076080083847046, 0.3853456974029541, -0.24428237974643707, -0.10250873118638992, -0.04364152252674103, 0.33400335907936096, 0.1825338453054428, 0.12062550336122513, -0.372513085603714, -0.3167758882045746, 0.14664335548877716, -0.3779458701610565, -0.2555760145187378, 0.281103253364563, -0.2627151608467102, 0.24567940831184387, 0.26687994599342346, -0.3402514159679413, -0.06810646504163742, -0.13001661002635956, 0.20235824584960938, 0.1330912858247757, -0.0366230309009552, -0.1537315994501114, 0.1868671476840973]], "fc1.bias": [0.11650322377681732, -0.16322746872901917, 0.009083789773285389, 0.0168907530605793, -0.053183797746896744, -0.12092635780572891, -0.005282587371766567, 0.09446562081575394, -1.346556655242026e-12, -0.06841342151165009, -0.05389098450541496, 0.08303813636302948, 0.08817646652460098, -0.06616010516881943, -0.03419536352157593, 0.0381651371717453], "fc2.weight": [[0.28908440470695496, 0.2418411523103714, 0.336078017950058, 0.3197679817676544, 0.2928535044193268, 0.30021846294403076, 0.27417343854904175, 0.3132942020893097, 9.775233879375632e-40, 0.3387053608894348, 0.3155118525028229, -0.32129329442977905, -0.30158543586730957, -0.3624684810638428, 0.3177736699581146, -0.31820669770240784]], "fc2.bias": [-0.6445360779762268], "norm_mean": [0.051656752824783325, 0.38537469506263733, 0.30312952399253845, 0.41872721910476685, 0.032821934670209885, 0.09288246184587479, 0.3876418471336365, 3.0213863849639893, 0.3421480357646942, 0.4814353585243225, 0.046676795929670334, 0.04283742234110832, 0.02528586983680725, 2.8001155853271484, 0.09242536872625351], "norm_std": [0.08941773325204849, 0.29143840074539185, 0.28139546513557434, 0.21438702940940857, 0.08703211694955826, 0.167577862739563, 0.25310033559799194, 1.2840791940689087, 0.47442907094955444, 0.264678955078125, 0.2109457552433014, 0.20249052345752716, 0.1569920927286148, 2.858853578567505, 0.1762465536594391], "feature_mask": [1.0, 0.0, 0.0, 1.0, 0.0, 1.0, 1.0, 1.0, 1.0, 1.0, 1.0, 1.0, 1.0, 1.0, 1.0]}