{"tool_embed.weight": [[1.3642514944076538, 1.5502076148986816, -0.8559792041778564, -0.7662789821624756], [-0.7675838470458984, 1.3362208604812622, 0.6238219738006592, 1.193958044052124], [0.9197279214859009, -0.9900991320610046, 0.4193994104862213, 1.2442376613616943], [-1.2744691371917725, 0.11803379654884338, 2.314509153366089, -0.2727307677268982], [-0.0030431717168539762, 0.0004988621221855283, 0.0001485215761931613, 4.7186007267117425e-39], [6.42151737058165e-14, -8.799730144877179e-23, 1.363499791295908e-06, -5.765170275064295e-17], [1.810233473777771, 0.10701832920312881, 0.2500581741333008, -1.2683242559432983]], "conv3.weight": [[[0.23346054553985596, 0.1424805223941803, -0.020035581663250923], [0.029338030144572258, -0.08753716200590134, 0.12674707174301147], [-0.27265220880508423, -0.09216006845235825, 0.08013402670621872], [-0.18361712992191315, -0.015131122432649136, -0.0787588581442833], [-0.05335693433880806, 0.011293008923530579, -0.13410033285617828], [-0.023277457803487778, -0.07663924992084503, 0.09004826843738556], [0.17045331001281738, 0.16573870182037354, 0.22322885692119598], [-0.12802942097187042, 0.2703971564769745, 0.06763025373220444], [-0.2882016897201538, 0.020820772275328636, 0.04838636890053749], [0.04282788559794426, -0.19165222346782684, -0.243528351187706], [-0.05357060208916664, 0.04484027996659279, 0.02797500230371952], [-0.17267724871635437, -0.07298513501882553, -0.03292163833975792], [-0.24794213473796844, 0.20330828428268433, -0.06284431368112564], [0.11481279879808426, -0.019602613523602486, 0.12594442069530487], [-0.03669600933790207, -0.09234746545553207, -0.057459522038698196], [0.08178824186325073, 0.022019922733306885, -0.020545106381177902], [-0.033158544450998306, 0.05792168900370598, 0.12496080994606018], [-0.05287948250770569, -0.10222386568784714, -0.01337996032088995], [0.006687356159090996, -0.06467839330434799, 0.0852891206741333]], [[-0.00790030974894762, -0.12159853428602219, 0.08696626126766205], [-0.09533023089170456, 0.17102646827697754, -0.04048161208629608], [0.06527356803417206, 0.1348152458667755, 0.19849370419979095], [-0.026740580797195435, -0.04188848286867142, -0.1374828964471817], [0.22322918474674225, -0.09748267382383347, 0.052065685391426086], [-0.22652791440486908, 0.02146494947373867, -0.12979446351528168], [0.13416887819766998, 0.017066366970539093, 0.29228758811950684], [-0.29248490929603577, 0.05976928770542145, -0.08642562478780746], [0.007757860701531172, 0.1488799750804901, 0.044848110526800156], [-0.1988399773836136, -0.08505963534116745, -0.4440630376338959], [0.007253414019942284, 0.04801519960165024, 0.1673651784658432], [0.26146259903907776, 0.06629646569490433, -0.15498101711273193], [-0.2511475086212158, -0.5250310897827148, -0.20530249178409576], [-0.1927046775817871, -0.07779090851545334, 0.04603980481624603], [-0.03864041343331337, -0.0390717051923275, 0.06570117175579071], [-0.005409805569797754, -0.04780595004558563, -0.09760843217372894], [0.009150518104434013, 0.00910288654267788, -0.0398806631565094], [0.08505662530660629, 0.10043656826019287, -0.04042810946702957], [0.014860155060887337, -0.15633484721183777, -0.015086716040968895]], [[-0.22925211489200592, -0.15221674740314484, -0.06553022563457489], [0.259682834148407, 0.13127058744430542, 0.12122096121311188], [-0.09442353248596191, 0.08019770681858063, 0.03816688433289528], [0.3476366102695465, -0.06578121334314346, -0.028651705011725426], [0.09259830415248871, 0.17286960780620575, -0.009554910473525524], [-0.14583177864551544, 0.12492168694734573, -0.4136095345020294], [-0.18534031510353088, -0.010922731831669807, -0.13304565846920013], [0.216703400015831, -0.08733183890581131, 0.048985160887241364], [-0.13816267251968384, -0.044330280274152756, 0.2250899374485016], [0.2349817007780075, -0.0015046718763187528, 0.20405496656894684], [0.5214115381240845, 0.21167193353176117, 0.25032415986061096], [-0.21386395394802094, -0.03788553550839424, -0.1520078033208847], [-0.06296250224113464, 0.13726839423179626, 0.14051960408687592], [0.03734518215060234, 0.057055551558732986, -0.021207088604569435], [0.0585508868098259, 0.006148192100226879, -0.019613614305853844], [-0.11803404241800308, 0.14387036859989166, -0.012910459190607071], [-0.05254336819052696, 0.059355564415454865, -0.10113971680402756], [-0.09245096892118454, 0.055663615465164185, 0.006205291952937841], [-0.07773807644844055, 0.05875253304839134, 0.01570710353553295]], [[-0.04984574764966965, 0.055327408015728, -0.07983953505754471], [0.11296652257442474, -0.19956007599830627, -0.04402726888656616], [-0.1594376266002655, 0.045902471989393234, -0.112059585750103], [0.054353270679712296, -0.009998297318816185, 0.039736248552799225], [-0.0829930528998375, -0.08878400921821594, 0.07852441817522049], [0.020563192665576935, -0.2251039743423462, -0.2716691792011261], [0.09498126804828644, -0.11943181604146957, -0.1375405490398407], [-0.13984054327011108, -0.17944873869419098, 0.16286668181419373], [0.003299515228718519, -0.12957873940467834, -0.139657124876976], [0.1680573970079422, -0.07985139638185501, -0.02918592095375061], [-0.11203085631132126, -0.10986100882291794, -0.0014743914362043142], [0.08236100524663925, -0.30113187432289124, 0.049026068300008774], [-0.15819747745990753, -0.08781592547893524, -0.3117019534111023], [0.07792815566062927, -0.2866223156452179, -0.35554492473602295], [-0.03221363201737404, -0.09210322797298431, 0.10807155072689056], [0.1677747368812561, -0.024277370423078537, -0.014796316623687744], [0.06339719146490097, 0.011659033596515656, -0.04791756719350815], [-0.12400349974632263, -0.11207861453294754, -0.007003991398960352], [-0.0025990663561969995, -0.02977249026298523, 0.010056216269731522]], [[0.06970930099487305, 0.07389401644468307, -0.07847531884908676], [0.0786387026309967, 0.014311026781797409, -0.09793703258037567], [-0.03358321264386177, 0.029797831550240517, 0.1099119782447815], [-0.32343828678131104, -0.13200101256370544, -0.14439180493354797], [0.09461857378482819, -0.12014064937829971, 0.06319758296012878], [0.0424983873963356, 0.14240258932113647, 0.07985607534646988], [0.19627779722213745, 0.1300497055053711, 0.053879816085100174], [0.018313124775886536, -0.12619465589523315, 0.034880686551332474], [-0.22314327955245972, -0.04880131408572197, 0.14680828154087067], [0.11872517317533493, 0.015592432580888271, -0.07850118726491928], [0.06103631481528282, -0.037299953401088715, 0.11969421058893204], [0.05936231464147568, 0.016369113698601723, -0.02955438196659088], [-0.14133071899414062, -0.1272321343421936, 0.10166379064321518], [-0.030268236994743347, -0.11695430427789688, -0.1292256861925125], [0.07199551165103912, -0.03466800972819328, -0.022348327562212944], [-0.10486321151256561, 0.20206259191036224, 0.030198222026228905], [0.06911567598581314, 0.03858030587434769, 0.15645329654216766], [-0.15245458483695984, -0.12953044474124908, 0.024156667292118073], [-0.03201223537325859, -0.05645529553294182, 0.042157288640737534]], [[0.14008046686649323, -0.10770050436258316, 0.04465404897928238], [-0.2785913646221161, -0.003245722036808729, 0.1991577446460724], [0.18262356519699097, 0.19566799700260162, 0.09664728492498398], [0.06584598869085312, 0.12989301979541779, -0.015846099704504013], [-0.0828888863325119, 0.06956034898757935, -0.20361770689487457], [0.04758407920598984, -0.11402443051338196, 0.061857763677835464], [0.17558598518371582, 0.10359320789575577, 0.04944946616888046], [0.11731632053852081, 0.06724705547094345, -0.19272375106811523], [0.13449908792972565, -0.1252254843711853, 0.17368336021900177], [-0.2348828762769699, -0.1835092455148697, 0.28103557229042053], [0.05128283053636551, 0.02605169080197811, -0.10426121205091476], [-0.012887964956462383, -0.09234628081321716, 0.2284853458404541], [-0.3884705603122711, 0.060040175914764404, -0.39799368381500244], [0.054700128734111786, 0.03031545877456665, -0.03836053982377052], [0.08179745823144913, -0.08311253786087036, -0.12316476553678513], [-0.0749390497803688, -0.07292880862951279, 0.11265147477388382], [-0.049220338463783264, 0.06158939749002457, -0.0621366910636425], [0.041471075266599655, 0.10696303099393845, 0.03321181237697601], [-0.10169658809900284, 0.023578573018312454, 0.048534929752349854]], [[-0.16744458675384521, 0.07975634932518005, -0.03934198245406151], [0.07496658712625504, 0.10484970360994339, 0.24558894336223602], [-0.014565383084118366, 0.07061184197664261, 0.17182478308677673], [0.1606682687997818, 0.013831381686031818, -0.19520744681358337], [0.08851765841245651, -0.29159319400787354, -0.19212542474269867], [-0.13101303577423096, 0.06759684532880783, -0.16195978224277496], [-0.062274254858493805, -0.1935800015926361, -0.09299512952566147], [-0.2818254232406616, 0.161830872297287, 0.21477332711219788], [0.0005820137448608875, 0.10751131176948547, 0.12569980323314667], [-0.02799399010837078, -0.12968191504478455, 0.03775862604379654], [-0.03803545609116554, -0.08434116095304489, -0.20574192702770233], [-0.22483386099338531, -0.09737028181552887, -0.07496979832649231], [0.03784804418683052, -0.43494299054145813, -0.2919333875179291], [-0.14947856962680817, -0.34215831756591797, -0.15137135982513428], [-0.008501067757606506, -0.1186976358294487, -0.11484748125076294], [-0.14808493852615356, 0.02742168679833412, 0.032099634408950806], [0.0661633238196373, -0.0020327556412667036, 0.07509805262088776], [-0.0700249895453453, -0.15975011885166168, 0.1147972047328949], [0.01845870353281498, 0.05964124947786331, -0.1122291088104248]], [[-0.08796194195747375, -0.024417990818619728, -0.00046386339818127453], [-0.05269748345017433, -0.035186219960451126, 0.018307138234376907], [0.13178710639476776, -0.01914030686020851, -0.13436488807201385], [0.09028053283691406, 0.17697177827358246, 0.14192964136600494], [0.02914832904934883, -0.31462904810905457, -0.035036105662584305], [0.1077149510383606, -0.21772122383117676, 0.0755481868982315], [0.24372176826000214, -0.04500521719455719, 0.3922475278377533], [-0.05761743709445, -0.1682768166065216, -0.08818747103214264], [-0.07182270288467407, -0.23390597105026245, -0.057835470885038376], [-0.21719665825366974, -0.12343822419643402, -0.1088542491197586], [0.18972419202327728, -0.10613550245761871, 0.1146598532795906], [0.2067682296037674, 0.02672746405005455, -0.07649274170398712], [-0.012645311653614044, 0.20012140274047852, -0.1870727837085724], [0.04218132793903351, -0.01449489127844572, 0.2188781350851059], [0.05156129226088524, 0.0969349667429924, 0.08520877361297607], [0.1651509404182434, -0.18891239166259766, 0.04781249165534973], [-0.006943747401237488, 0.11129766702651978, -0.05331159383058548], [-0.04327455908060074, 0.04568459838628769, -0.09286203980445862], [-0.06229064241051674, 0.07298272103071213, 0.00240688631311059]], [[-0.012521855533123016, 0.09041758626699448, 0.11721387505531311], [0.25240054726600647, 0.19812679290771484, -0.11518892645835876], [-0.10757933557033539, -0.08411993831396103, -0.03183440864086151], [0.21644282341003418, -0.11562840640544891, 0.23378509283065796], [0.039389461278915405, -0.19059351086616516, -0.32307925820350647], [0.1315363049507141, 0.03128831088542938, -0.01979091204702854], [0.08471087366342545, 0.3262445628643036, 0.34356024861335754], [-0.1676049828529358, -0.06512030959129333, 0.09364426881074905], [0.18588301539421082, 0.027866533026099205, 0.03180312737822533], [0.13311293721199036, 0.16795890033245087, -0.0820193812251091], [-0.06101608648896217, -0.21508632600307465, -0.06024665758013725], [-0.18948884308338165, -0.3114064335823059, 0.04701641574501991], [-0.119252048432827, -0.2234545797109604, 0.2882705628871918], [0.29785725474357605, 0.18206487596035004, 0.3241126835346222], [0.14359024167060852, -0.03451104089617729, 0.05252082273364067], [0.1135122999548912, 0.10208955407142639, -0.06756900250911713], [0.03286409750580788, -0.017418112605810165, -0.007155499421060085], [-0.11345286667346954, -0.13343268632888794, 0.12971089780330658], [0.056417763233184814, 0.03232254832983017, -0.05242206156253815]], [[-0.09787274152040482, -0.1376880556344986, -0.17915958166122437], [-0.00854259543120861, -0.18042723834514618, 0.35348960757255554], [0.19348792731761932, 0.21945668756961823, 0.1935948133468628], [-0.01792187988758087, 0.22205166518688202, -0.07778317481279373], [-0.13226306438446045, -0.016682730987668037, -0.08640284836292267], [-0.06261523813009262, 0.10167783498764038, 0.20317259430885315], [0.40728047490119934, -0.005016261711716652, 0.2363259643316269], [0.04396986961364746, -0.04772885516285896, -0.2041504681110382], [0.021634506061673164, 0.138423889875412, -0.12023168802261353], [-0.43699410557746887, -0.010748626664280891, -0.004482045769691467], [0.01630866341292858, -0.15595127642154694, -0.0698767602443695], [-0.050052620470523834, -0.10527858883142471, 0.02650519087910652], [-0.15830841660499573, -0.17245368659496307, 0.0023900794330984354], [-0.02372262440621853, 0.11490055173635483, 0.23120158910751343], [-2.9910370358265936e-05, -0.19728019833564758, 0.031578660011291504], [0.012924007140100002, -0.03306268900632858, 0.057901594787836075], [0.060622066259384155, -0.04001263901591301, -0.07078056782484055], [-0.08584770560264587, 0.1471756547689438, -0.06569542735815048], [0.1282486468553543, -0.08602195978164673, 0.051858026534318924]], [[0.05863450467586517, -0.05061647295951843, 0.02779383584856987], [-0.01853707991540432, 0.14010187983512878, 0.08985342085361481], [0.08541982620954514, -0.06571843475103378, -0.014999670907855034], [-0.23801741003990173, 0.20014865696430206, 0.07012788951396942], [0.07753759622573853, 0.017259174957871437, -0.13853396475315094], [0.055944498628377914, -0.06698451191186905, -0.08903487771749496], [-0.03396013006567955, -0.09373306483030319, -0.28718966245651245], [0.10023628175258636, -0.0554087795317173, 0.0023085270076990128], [-0.09477869421243668, 0.008315488696098328, -0.07366901636123657], [0.002939353697001934, -0.04957440122961998, 0.10316194593906403], [-0.1923675835132599, -0.17421138286590576, 0.5842185616493225], [-0.14422641694545746, 0.032674770802259445, -0.29839447140693665], [0.1322324275970459, 0.04586334526538849, 0.06895105540752411], [0.19358016550540924, 0.21497014164924622, 0.25098708271980286], [0.07886482030153275, -0.09960910677909851, -0.09409920126199722], [-0.00922590121626854, -0.10309521853923798, -0.10664758831262589], [0.11409765481948853, -0.01684621162712574, 0.05341702699661255], [0.13087782263755798, -0.07349783182144165, 0.049954529851675034], [0.040395237505435944, 0.023628221824765205, 0.06420879065990448]], [[-0.27147457003593445, -0.056239478290081024, 0.28266826272010803], [0.03370970860123634, -0.2625599503517151, 0.06964122503995895], [0.1867014318704605, -0.042489904910326004, -0.1393686980009079], [-0.028698118403553963, 0.10311436653137207, -0.15043668448925018], [-0.0835195928812027, -0.16061528027057648, 0.17199480533599854], [0.10222327709197998, -0.18569740653038025, 0.18621332943439484], [0.2516888678073883, 0.22909539937973022, 0.1876014620065689], [0.24092908203601837, 0.18777255713939667, -0.1059308648109436], [-0.03514247387647629, 0.010764112696051598, 0.06978283822536469], [0.27105942368507385, -0.3076252043247223, -0.031528253108263016], [0.030491698533296585, -0.09609650820493698, 0.12571343779563904], [-0.0284088384360075, -0.31660300493240356, 0.1461983174085617], [0.002371674170717597, 0.10057804733514786, -0.1392790675163269], [0.08413245528936386, 0.06956114619970322, 0.06776022166013718], [-0.07799547910690308, 0.05728258565068245, 0.0005641115712933242], [-0.03600279986858368, 0.010056805796921253, 0.11317325383424759], [0.03619137778878212, 0.058747950941324234, -0.12086668610572815], [-0.02796315960586071, -0.09561066329479218, -0.16074229776859283], [0.038860954344272614, -0.01155399065464735, -0.13687124848365784]], [[-0.022527597844600677, -0.11263029277324677, 0.12374230474233627], [0.14190170168876648, -0.07357613742351532, -0.1520760953426361], [-0.2195775955915451, -0.08070975542068481, 0.05436352640390396], [-0.16314642131328583, -0.018089961260557175, -0.0955980196595192], [0.1295364946126938, 0.09394131600856781, -0.034966759383678436], [0.2833333909511566, 0.010065385140478611, 0.1355074793100357], [0.3453536331653595, 0.24554304778575897, 0.2121693342924118], [0.11989706009626389, 0.2093036025762558, 0.01084716897457838], [-0.25398698449134827, -0.12081161141395569, -0.11660889536142349], [0.10185883194208145, 0.15953263640403748, -0.3502516448497772], [0.11369650065898895, 0.014678293839097023, 0.02901136502623558], [0.03723974898457527, -0.18411920964717865, -0.10733816772699356], [-0.016088668256998062, -0.2042357176542282, 0.031585369259119034], [0.21678824722766876, -0.05611834302544594, 0.07077953964471817], [-0.002375497715547681, -0.02365601807832718, 0.03852162882685661], [0.06727895140647888, 0.02791210450232029, 0.06711826473474503], [-0.01954985223710537, -0.06418493390083313, -0.06963033229112625], [-0.06648105382919312, -0.07808366417884827, 0.07298668473958969], [-0.03632177785038948, 0.04020753502845764, -0.05515090003609657]], [[0.03176143020391464, -0.05374244228005409, 0.003311069216579199], [-0.0876767709851265, -0.14688187837600708, 0.020097864791750908], [-0.07409881800413132, 0.029147781431674957, -0.09212607890367508], [-0.019662490114569664, 0.05495782569050789, -0.03461841866374016], [0.02598945051431656, -0.053741004317998886, 0.060691699385643005], [0.07069806009531021, 0.0005328439292497933, 0.03850610554218292], [-0.07922737300395966, -0.014486223459243774, 0.07392976433038712], [0.02261292189359665, 0.031472235918045044, -0.07442563772201538], [-0.0045639146119356155, -0.011565512977540493, 0.016766605898737907], [-0.0006243111565709114, -0.058859873563051224, -0.06612277030944824], [0.03494102135300636, -0.0071758548729121685, -0.03103097528219223], [0.02603784389793873, 0.0998733714222908, 0.002662172308191657], [-0.08631827682256699, -0.017346302047371864, -0.14448145031929016], [0.05284365639090538, 0.09412562102079391, -0.06731364130973816], [0.04859490320086479, -0.06841614842414856, -0.006280030123889446], [-0.0003911745734512806, -0.042212046682834625, 0.12742792069911957], [-0.022359536960721016, -0.023914361372590065, -0.023368529975414276], [0.1731090545654297, -0.018742425367236137, 0.03457379341125488], [-0.08795861154794693, -0.13783566653728485, -0.10357241332530975]], [[-0.19505183398723602, 0.0861072689294815, 0.1362476646900177], [0.14753428101539612, -0.07443466782569885, -0.10029511898756027], [-0.03628765046596527, -0.22337119281291962, -0.12857586145401], [-0.026173146441578865, 0.031007809564471245, -0.12338203191757202], [-0.048213813453912735, -0.06810935586690903, 0.09771566838026047], [0.10010260343551636, 0.03530771657824516, 0.0769057348370552], [0.18776559829711914, 0.10352649539709091, 0.08962538838386536], [0.006597049999982119, -0.1228599026799202, -0.10961312055587769], [0.0033765474800020456, -0.06492948532104492, -0.19488999247550964], [0.14923416078090668, 0.03242962062358856, -0.021421946585178375], [-0.12563732266426086, -0.15524981915950775, 0.07308772951364517], [0.08896739035844803, 0.002562597393989563, -0.05039083957672119], [-0.0006331036565825343, 0.04482753947377205, -0.17499710619449615], [0.20407333970069885, 0.21917736530303955, 0.18131056427955627], [0.012700902298092842, 0.04657656326889992, 0.028163501992821693], [0.100316621363163, 0.01975877210497856, 0.027806628495454788], [-0.04147258773446083, 0.15333881974220276, -0.0007137635839171708], [0.06395973265171051, -0.0656915232539177, 0.05337922275066376], [0.011777011677622795, -0.14584112167358398, 0.053019873797893524]], [[-0.1810847669839859, -0.12396512180566788, 0.06315182894468307], [0.05279573053121567, 0.12278573215007782, 0.19874124228954315], [-0.05538091063499451, -0.06669306010007858, -0.19467811286449432], [0.03723640367388725, 0.1363930106163025, -0.20117151737213135], [-0.048341304063797, 0.016175642609596252, 0.030087854713201523], [-0.07621889561414719, 0.08006783574819565, -0.016411246731877327], [-0.14895369112491608, -0.17889857292175293, -0.0675133690237999], [0.12603557109832764, -0.06659234315156937, -0.06860794126987457], [0.1012476310133934, -0.12382354587316513, 0.088589146733284], [0.19603003561496735, 0.02722511813044548, 0.03941676765680313], [-0.1592525988817215, 0.3936113715171814, 0.31897443532943726], [-0.1233416348695755, -0.009612522087991238, -0.06502607464790344], [-0.10908961296081543, 0.07054080069065094, 0.14701800048351288], [0.15256638824939728, 0.033413633704185486, -0.08161809295415878], [-0.18468977510929108, -0.07396133989095688, -0.0802513137459755], [0.05787788704037666, -0.09379421174526215, 0.002112939953804016], [0.06209758296608925, -0.0034418124705553055, 0.055715885013341904], [-0.10059249401092529, 0.00868577603250742, 0.01827036589384079], [-0.042004529386758804, -0.021467041224241257, 0.04310484230518341]]], "conv3.bias": [-0.001912249019369483, -0.023970497772097588, 0.11349829286336899, -0.145895317196846, -0.06172528117895126, 0.1639503389596939, -0.05852783843874931, -0.06415659934282303, -0.08042776584625244, 0.014383289963006973, 0.08792007714509964, -0.04571225121617317, -0.08184491842985153, -0.010907111689448357, -0.15288081765174866, -0.0567951537668705], "conv5.weight": [[[0.043827660381793976, 0.20073777437210083, -0.04294096305966377, 0.0372956357896328, 0.07885024696588516], [-0.11662156879901886, 0.059334851801395416, 0.10708901286125183, 0.02661561593413353, 0.05954841524362564], [0.08967945724725723, -0.17893649637699127, -0.13270998001098633, -0.005533784627914429, -0.23644815385341644], [0.24393826723098755, 0.09127392619848251, -0.04155200347304344, -0.17866401374340057, -0.10626395046710968], [0.06147920712828636, -0.028949158266186714, -0.08892660588026047, -0.025247199460864067, -0.020948201417922974], [-0.2161896526813507, -0.01046277116984129, 0.012755293399095535, 0.14167818427085876, 0.15502363443374634], [-0.2149858921766281, -0.17943179607391357, 0.08950277417898178, -0.08073344081640244, 0.008520624600350857], [0.010768421925604343, -0.08260436356067657, 0.0977083146572113, 0.04267490282654762, 0.006578218191862106], [0.05949079245328903, -0.13699251413345337, -0.013675264082849026, -0.1784990280866623, 0.089045949280262], [0.14144039154052734, -0.025198811665177345, -0.019806360825896263, -0.1368235945701599, 0.07816368341445923], [0.3171917200088501, -0.23888082802295685, 0.3128539025783539, 0.3049081265926361, 0.08868473023176193], [-0.101438008248806, 0.1663072556257248, -0.06875105947256088, -0.07596200704574585, 0.10677436739206314], [0.008015644736588001, 0.07813148945569992, 0.17913849651813507, 0.0975940003991127, 0.08349188417196274], [0.15458856523036957, 0.18336211144924164, 0.12713466584682465, 0.10525453090667725, 0.0473962277173996], [-0.016126394271850586, -0.002810926176607609, 0.11010132730007172, 0.03958646208047867, 0.053182248026132584], [-0.024716222658753395, -0.17707476019859314, 0.16311345994472504, 0.075968436896801, 0.09367614984512329], [0.028449606150388718, -0.0712965577840805, 0.16850680112838745, 0.04180742800235748, 0.0637066438794136], [-0.03194449841976166, 0.0858546793460846, 0.12686295807361603, 0.03906675800681114, -0.011448347009718418], [-0.029715238139033318, -0.07377113401889801, -0.09829191118478775, -0.08422069251537323, -0.07662864774465561]], [[-0.10752644389867783, -0.12207085639238358, -0.0761171206831932, -0.14655999839305878, -0.004764935001730919], [-0.07908234745264053, -0.13180355727672577, 0.07664909958839417, -0.013637727126479149, 0.117086261510849], [0.09495677798986435, -0.09538200497627258, -0.0999734029173851, -0.08540505915880203, -0.07966472953557968], [0.10499278455972672, 0.05167866498231888, 0.09362787753343582, 0.11268443614244461, 0.031222419813275337], [0.027833832427859306, -0.21510258316993713, 0.1114371195435524, -0.1670069694519043, -0.18814802169799805], [0.30001720786094666, 0.13497638702392578, -0.011782891117036343, 0.21346886456012726, 0.19546577334403992], [0.4451870918273926, 0.30804958939552307, 0.24387940764427185, 0.2264649122953415, 0.33140793442726135], [0.10673871636390686, 0.09989354759454727, -0.06907270848751068, -0.14405357837677002, -0.27978330850601196], [0.15194104611873627, -0.12962420284748077, -0.007744146976619959, -0.017018333077430725, 0.1651025414466858], [-0.1598910093307495, 0.16338816285133362, -0.050411902368068695, 0.036053769290447235, -0.009672235697507858], [0.14024542272090912, 0.10520967096090317, -0.010225454345345497, 0.04222817346453667, 0.06836637109518051], [-0.00433192728087306, -0.09314694255590439, -0.13221992552280426, -0.12250901013612747, 0.08672917634248734], [-0.11043805629014969, -0.2740791141986847, 0.06022989749908447, -0.02346278540790081, 0.09753868728876114], [0.2523587644100189, 0.2616656720638275, 0.05961451306939125, 0.23357975482940674, 0.4367789924144745], [0.06280233711004257, -0.07563440501689911, -0.012616836465895176, -0.029199767857789993, -0.07466906309127808], [-0.07212639600038528, -0.12680435180664062, -0.07055126875638962, 0.03450779616832733, 0.04621304199099541], [0.1427067667245865, 0.05249917134642601, -0.05596967041492462, -0.011454004794359207, 0.02946244180202484], [-0.09361257404088974, -0.017542723566293716, -0.16425366699695587, 0.05845792964100838, -0.07019644230604172], [0.03431916981935501, 0.04349583014845848, -0.02842632308602333, -0.1045544445514679, 0.054986149072647095]], [[0.01940874382853508, -0.017683716490864754, -0.15842290222644806, 0.18080511689186096, -0.08691700547933578], [-0.020609889179468155, 0.022413702681660652, 0.22294487059116364, -0.19523949921131134, 0.05412256717681885], [0.13069427013397217, 0.0047668758779764175, 0.11499819904565811, 0.055112872272729874, 0.08705706894397736], [-0.2947400212287903, 0.20291121304035187, -0.13205145299434662, 0.054595865309238434, 0.10879281163215637], [-0.043153878301382065, 0.10864153504371643, 0.10356177389621735, 0.16286323964595795, -0.1745019555091858], [-0.07980803400278091, -0.2847505509853363, -0.08402706682682037, 0.0003015724942088127, 0.04441109299659729], [0.035024963319301605, -0.24396353960037231, 0.06338384002447128, 0.1587734818458557, -0.02940981462597847], [-0.02764776162803173, -0.023220578208565712, 0.13811500370502472, 0.06713670492172241, 0.04246843233704567], [-0.056168220937252045, -0.14656126499176025, -0.018586937338113785, -0.01928761973977089, -0.32279887795448303], [-0.12444797158241272, -0.03616862744092941, -0.14432767033576965, -0.30998021364212036, -0.14039017260074615], [0.0936337560415268, -0.03885116055607796, -0.08059477806091309, 0.04220033437013626, -0.1469176560640335], [-0.11217755079269409, 0.0557146817445755, 0.06423786282539368, 0.16349934041500092, -0.15826182067394257], [-0.4852270483970642, -0.015279510989785194, -0.33124080300331116, -0.3097882568836212, -0.2403636872768402], [-0.127441868185997, -0.06045554205775261, 0.05938475579023361, -0.10125935077667236, -0.09378965198993683], [-0.035802628844976425, -0.08901052922010422, -0.009876230731606483, 0.10623642057180405, -0.040107518434524536], [-0.019786609336733818, -0.011332646943628788, -0.12288287281990051, 0.05821522697806358, 0.10329824686050415], [0.003569421824067831, 0.05661444365978241, -0.05570755898952484, 0.037318456918001175, -0.1720970869064331], [0.09524617344141006, -0.0729391798377037, -0.10374138504266739, -0.03599534183740616, 0.13941071927547455], [0.020350253209471703, 0.04840647056698799, -0.027149949222803116, 0.01659642532467842, 0.13914448022842407]], [[-0.051360443234443665, 0.012060366570949554, 0.053816597908735275, -0.029569922015070915, -0.10971120744943619], [-0.20254455506801605, -0.12948663532733917, -0.06284412741661072, -0.22183285653591156, -0.029393408447504044], [0.009985443204641342, 0.007011898327618837, -0.2257162630558014, 0.028843557462096214, -0.009857787750661373], [0.08648282289505005, -0.11913688480854034, 0.12096691131591797, 0.10926765948534012, 0.019411569461226463], [-0.03305499255657196, 0.014627979137003422, 0.06641332805156708, 0.061183638870716095, 0.11380024254322052], [0.08082035183906555, 0.09913970530033112, -0.04873187839984894, 0.028368737548589706, 0.12998497486114502], [-0.06650818139314651, -0.14050042629241943, 0.011003400199115276, -0.018420230597257614, 0.06164134293794632], [-0.016071319580078125, -0.0655347928404808, 0.1548437923192978, 0.3692629337310791, 0.15640711784362793], [0.008652317337691784, -0.08387283980846405, -0.17393521964550018, 0.1325594186782837, -0.10578861832618713], [-0.026234323158860207, 0.08432522416114807, 0.030582426115870476, -0.00418571662157774, -0.14264534413814545], [-0.20560726523399353, 0.25901299715042114, -0.1921161711215973, -0.21411196887493134, -0.139994278550148], [0.12214982509613037, -0.07682916522026062, -0.013665435835719109, -0.04768545925617218, 0.21563993394374847], [0.101313516497612, 0.05699875205755234, 0.024235259741544724, 0.20519386231899261, 0.1694723665714264], [0.10139583051204681, 0.16471721231937408, 0.12001606822013855, 0.17922349274158478, 0.10068365931510925], [-0.0619141161441803, 0.031955260783433914, -0.08813922852277756, 0.03270235285162926, -0.07595259696245193], [-0.07500090450048447, -0.15454910695552826, 0.04064558073878288, 0.16900748014450073, -0.03299654647707939], [-0.005293752066791058, -0.07850250601768494, 0.05680880695581436, -0.060752760618925095, 0.06504688411951065], [-0.06491802632808685, -0.05730653181672096, 0.03602662682533264, 0.07286196202039719, -0.019148513674736023], [0.060837965458631516, 0.11729498207569122, -0.07881476730108261, -0.02572365663945675, -0.1605827659368515]], [[-0.21119798719882965, -0.24108563363552094, -0.16533181071281433, -0.028467463329434395, -0.02435264177620411], [0.02276160567998886, 0.05578036978840828, 0.2605536878108978, 0.04979531094431877, 0.050279684364795685], [-0.03267994523048401, 0.020600656047463417, -0.01061206217855215, -0.06568548828363419, 0.018385468050837517], [0.03760967031121254, 0.09657720476388931, 0.19700700044631958, -0.05648984760046005, -0.05031512677669525], [-0.04044594615697861, 0.09071124345064163, -0.12440240383148193, 0.08095403760671616, 0.05443364754319191], [0.1285075843334198, 0.03836582973599434, -0.11661380529403687, -0.03244533762335777, -0.03021419048309326], [-0.10543688386678696, 0.13147927820682526, -0.2503201365470886, 0.07599782198667526, -0.046152327209711075], [0.16487936675548553, -0.17106401920318604, 0.061898451298475266, 0.11368029564619064, 0.0429956279695034], [-0.06710062175989151, 0.008469145745038986, -0.026109986007213593, -0.009573929011821747, 0.0819302648305893], [-0.12782546877861023, -0.06540808081626892, 0.2539244294166565, -0.08897995203733444, 0.02708626352250576], [0.14202600717544556, 0.02581968531012535, 0.6128799915313721, -0.026007968932390213, 0.019935956224799156], [-0.13923081755638123, 0.013171171769499779, -0.14282622933387756, -0.0008355430909432471, -0.10017263889312744], [0.16016599535942078, 0.09776388108730316, 0.1596803516149521, 0.02735195867717266, 0.2292836457490921], [0.12416515499353409, 0.07620266824960709, 0.13025251030921936, -0.014079313725233078, 0.04692777246236801], [-0.20971034467220306, 0.07868297398090363, -0.07095471769571304, -0.043035972863435745, 0.03449152782559395], [-0.1127685084939003, 0.014470412395894527, -0.18953944742679596, -0.007571231108158827, 0.008645955473184586], [-0.01548279169946909, 0.045011866837739944, -0.0510404147207737, 0.120596744120121, -0.0015757892979308963], [0.010125716216862202, -0.01891431398689747, -0.06398747116327286, 0.05236869677901268, 0.05883459001779556], [0.02053944207727909, 0.06534906476736069, -0.032810963690280914, 0.08854859322309494, -0.04461680352687836]], [[0.024521203711628914, 0.20809291303157806, -0.1167953759431839, 0.14293184876441956, 0.03307506814599037], [0.0072665223851799965, -0.1090041846036911, 0.05095929652452469, 0.02365223690867424, 0.09303134679794312], [0.15833868086338043, -0.09349886327981949, 0.21466076374053955, -0.05075570568442345, -0.10506635159254074], [-0.03337280452251434, 0.027479903772473335, 0.06693568080663681, -0.15293185412883759, 0.11848097294569016], [0.07619832456111908, -0.23841892182826996, -0.1588914692401886, 0.0891939178109169, 0.192116379737854], [-0.1175379529595375, -0.06297618895769119, -0.03934763744473457, 0.16751094162464142, 0.07596781849861145], [0.02078421600162983, -0.17496970295906067, 0.07952722162008286, 0.20108351111412048, 0.1424751877784729], [0.13191136717796326, 0.4044460952281952, 0.16825778782367706, -0.033956341445446014, -0.2125030905008316], [-0.17861293256282806, -0.10831347107887268, -0.06534125655889511, -0.3935106694698334, -0.10862668603658676], [-0.2568671703338623, 0.04066700115799904, 0.20308634638786316, 0.03581870719790459, 0.08949344605207443], [0.076349638402462, -0.10273478180170059, -0.15592196583747864, -0.1649387776851654, -0.026992330327630043], [0.08261427283287048, -0.15382343530654907, -0.09939372539520264, -0.1401502639055252, 0.22969558835029602], [-0.1411110758781433, 0.08196801692247391, -0.27463868260383606, 0.039160359650850296, -0.2944614291191101], [-0.15000762045383453, -0.04121311753988266, -0.01298542134463787, -0.055020563304424286, 0.03626648336648941], [-0.029658744111657143, 0.022904422134160995, -0.025709113106131554, 0.08333603292703629, -0.027843065559864044], [-0.04577886313199997, -0.07248235493898392, -0.01996809057891369, 0.06475630402565002, -0.04959544539451599], [0.06805742532014847, -0.0663730576634407, 0.04514496773481369, -0.052360594272613525, 0.07773032784461975], [0.15440362691879272, -0.023216810077428818, -0.05672115460038185, -0.04692801833152771, -0.07740091532468796], [0.05610339343547821, -0.11103279143571854, -0.08380793035030365, 0.026981765404343605, 0.04339239001274109]], [[0.03177675977349281, 0.10798754543066025, -0.05213048309087753, 0.23320218920707703, -0.08640497922897339], [0.11214049905538559, 0.11091876775026321, 0.22355212271213531, -0.2238689810037613, 0.23250062763690948], [-0.06702861934900284, -0.14890095591545105, 0.10941610485315323, 0.170375257730484, -0.04815780371427536], [-0.07944565266370773, 0.09879487752914429, -0.00746935373172164, 0.19779425859451294, 0.022595446556806564], [0.28975850343704224, 0.1575564593076706, -0.200070321559906, 0.12408223003149033, -0.019550560042262077], [0.01003093458712101, -0.09542282670736313, -0.051768265664577484, -0.15350531041622162, 0.1671597808599472], [-0.015862558037042618, 0.06785585731267929, 0.14410151541233063, -0.06012529507279396, 0.11470476537942886], [0.01860850676894188, -0.02324332669377327, -0.26860639452934265, 0.12000124156475067, -0.07346481084823608], [-0.07471802830696106, 0.15517224371433258, -0.08037102967500687, 0.08525676280260086, -0.020407557487487793], [0.01761728525161743, 0.06716334074735641, -0.05538301542401314, 0.1435484141111374, 0.08649719506502151], [-0.09320023655891418, -0.10612774640321732, 0.012214980088174343, -0.11459816992282867, -0.012625607661902905], [0.015181177295744419, 0.014195797964930534, 0.0013692663051187992, 0.22677738964557648, 0.04556233808398247], [-0.18088220059871674, 0.24637039005756378, 0.12280698865652084, 0.21343249082565308, -0.25351592898368835], [-0.14147184789180756, -0.07801341265439987, 0.04003963619470596, -0.04843784123659134, 0.006000516936182976], [-0.028938602656126022, 0.08695384860038757, 0.0014970387564972043, -0.06188773736357689, 0.07916592806577682], [-0.0027654555160552263, -0.027701174840331078, 0.07500170171260834, -0.11706525087356567, -0.010747397318482399], [-0.013173770159482956, -0.06438635289669037, -0.0069287666119635105, 0.0767502635717392, 0.10261375457048416], [-0.114076629281044, -0.13246102631092072, 0.11396780610084534, -0.03538478910923004, 0.047828394919633865], [-0.026342540979385376, -0.1409214586019516, 0.00936136581003666, -0.008995014242827892, 0.013903943821787834]], [[0.05377804860472679, -0.14962391555309296, -0.08092039823532104, -0.1285717487335205, 0.08169920742511749], [0.0649636760354042, 0.10089065134525299, -0.05267169699072838, 0.06569472700357437, -0.05947823077440262], [-0.12613646686077118, -0.12381734699010849, 0.08104760199785233, 0.09949745982885361, -0.04039786756038666], [-0.11667501926422119, 0.12250460684299469, -0.11806298792362213, 0.10763970762491226, 0.013079040683805943], [0.05890065059065819, -0.13305118680000305, -0.05149685591459274, -0.11924830079078674, -0.11404316872358322], [0.16145263612270355, 0.010729493573307991, 0.21202492713928223, 0.07184149324893951, 0.042873602360486984], [0.3682864010334015, 0.30715468525886536, 0.31757792830467224, 0.33284977078437805, 0.167973592877388], [0.10738525539636612, 0.08577088266611099, -0.03359932824969292, -0.0604114755988121, -0.014266857877373695], [0.012028018943965435, 0.0949924886226654, 0.17183369398117065, 0.009391646832227707, 0.18051236867904663], [0.024248309433460236, -0.05273061990737915, -0.05899724364280701, -0.16134648025035858, -0.06047565117478371], [-0.1486503928899765, -0.005840947385877371, 0.04878716915845871, -0.11255539208650589, -0.20574136078357697], [0.008983753621578217, -0.23700179159641266, -0.04873120039701462, 0.03130943328142166, 0.014315876178443432], [-0.12196029722690582, -0.010751255787909031, 0.020516030490398407, 0.042217917740345, -0.27326175570487976], [0.40470394492149353, 0.295795202255249, 0.1006217747926712, 0.3015407919883728, 0.3271940350532532], [0.06773994863033295, -0.10244238376617432, -0.011451151221990585, 0.0820339173078537, 0.008814387023448944], [-0.024337200447916985, -0.06453564018011093, 0.030879227444529533, 0.10634110867977142, -0.03191686421632767], [0.08210860937833786, 0.1079285591840744, 0.018349139019846916, 0.13748623430728912, 0.0020796610042452812], [0.09764617681503296, -0.030530085787177086, -0.08561389893293381, -0.008440484292805195, 0.03189198300242424], [0.01177273690700531, 0.05307722091674805, -0.061216436326503754, -0.09291214495897293, 0.058697886765003204]], [[-0.13435205817222595, -0.0633106529712677, 0.040692515671253204, 0.1090501993894577, 0.08483127504587173], [0.15781857073307037, -0.1460600197315216, -0.16178275644779205, -0.2506512403488159, 0.19236382842063904], [0.09978771209716797, 0.02952354960143566, 0.0772179514169693, 0.016373751685023308, -0.11594797670841217], [-0.07866688072681427, 0.10604611784219742, 0.1604454219341278, -0.04223945364356041, -0.11852961033582687], [0.1247050017118454, 0.07677850127220154, -0.1609088033437729, -0.15201549232006073, 0.07054581493139267], [-0.08122528344392776, -0.010419628582894802, -0.14916905760765076, 0.1939147710800171, 0.06040625274181366], [-0.17647314071655273, 0.07652240991592407, -0.11461908370256424, -0.06321428716182709, -0.03389934077858925], [-0.13524118065834045, -0.013591636903584003, 0.09470486640930176, 0.10004135221242905, -0.03168100118637085], [-0.02983294613659382, 0.05289401486515999, 0.06942744553089142, -0.12961725890636444, -0.03354569524526596], [-0.005458694417029619, 0.03291747719049454, 0.07254670560359955, 0.018319403752684593, -0.10916178673505783], [0.48444464802742004, 0.017196644097566605, 0.32273563742637634, 0.16011779010295868, -0.08151756972074509], [-0.10929983854293823, -0.04157619550824165, -0.18745295703411102, 0.031148619949817657, 0.023261651396751404], [0.23167948424816132, 0.0940132886171341, 0.17923031747341156, 0.18841727077960968, 0.18803147971630096], [0.12978245317935944, 0.08461160957813263, 0.2195460945367813, 0.11377011984586716, 0.07703714072704315], [-0.18060238659381866, -0.026539897546172142, 0.09013549983501434, 0.049696534872055054, -0.044524699449539185], [-0.04997393861413002, 0.04025508090853691, 0.031243590638041496, 0.04207682982087135, -0.0555385984480381], [-0.009693974629044533, 0.06913747638463974, 0.05828496813774109, -0.030905190855264664, 0.02772206813097], [0.03258338198065758, -0.08503542095422745, -0.10223591327667236, -0.0025596332270652056, 0.06926951557397842], [-0.04505172371864319, 0.03168895095586777, 0.005922696087509394, 0.02975267544388771, -0.13827215135097504]], [[-0.027055546641349792, 0.002146367682144046, 0.1378062516450882, 0.021666862070560455, 0.12017520517110825], [-0.19058646261692047, -0.13916002213954926, 0.02763192541897297, 0.1793833076953888, 0.07417145371437073], [-0.12127889692783356, -0.05997157096862793, -0.2663128972053528, -0.02719389833509922, -0.2176319658756256], [0.1256580501794815, 0.32313981652259827, 0.12666161358356476, 0.13806983828544617, 0.05113886669278145], [0.15010404586791992, -0.060084741562604904, 0.1357160061597824, 0.03581676632165909, 0.0029750093817710876], [-0.03393053263425827, -0.18539288640022278, -0.09296315163373947, -0.004626200534403324, 0.03966164588928223], [-0.1501772701740265, -0.3652893602848053, -0.05559840798377991, -0.01928374171257019, -0.13588330149650574], [-0.12485185265541077, 0.09082620590925217, -0.024927999824285507, -0.012745718471705914, -0.18970279395580292], [0.18612758815288544, 0.08392957597970963, 0.11419372260570526, 0.03097844496369362, -0.09842617064714432], [0.14959388971328735, 0.19912952184677124, 0.07669638097286224, -0.08551821112632751, -0.0952114686369896], [-0.05260033160448074, 0.31787869334220886, -0.10835445672273636, -0.03323451802134514, 0.21748517453670502], [-0.0014323389623314142, 0.03866671770811081, -0.05722806230187416, -0.12213806807994843, -0.04266537353396416], [0.15334375202655792, -0.007568066474050283, 0.060181889683008194, 0.23460693657398224, 0.14390726387500763], [0.06614193320274353, -0.06319974362850189, 0.05035047233104706, -0.08578935265541077, 0.020676035434007645], [0.09639457613229752, 0.09490083903074265, 0.08682437241077423, -0.1956043690443039, 0.031874869018793106], [0.04767679050564766, -0.030731646344065666, -0.027149757370352745, 0.040025968104600906, 0.015341440215706825], [0.12225210666656494, -0.13146817684173584, -0.0665985643863678, 0.11232931911945343, 0.006369921378791332], [0.03130701929330826, -0.01740964688360691, 0.09532643109560013, -0.09278011322021484, 0.003932659048587084], [0.059737447649240494, 0.0022447588853538036, -0.0978170707821846, -0.11444956064224243, 0.07590124011039734]], [[0.038080934435129166, 0.22383610904216766, 0.02814360335469246, 0.086509108543396, 0.07172417640686035], [0.15313555300235748, 0.02285815216600895, 0.04441779479384422, -0.11938874423503876, -0.2330273538827896], [0.13767065107822418, -0.18474642932415009, 0.011838837526738644, 0.003851671237498522, 0.12629088759422302], [-0.2381080836057663, 0.1203555017709732, 0.08622729033231735, -0.10384157299995422, 0.04307892173528671], [-0.18744274973869324, 0.0861058160662651, 0.07189629971981049, -0.019683903083205223, -0.20771360397338867], [0.015866130590438843, -0.012572326697409153, 0.05570201948285103, 0.026905575767159462, 0.2249240279197693], [0.08982378989458084, 0.04953125864267349, 0.27850717306137085, 0.2174600511789322, 0.16027531027793884], [0.2349802553653717, -0.04905007407069206, -0.06941621750593185, 0.07629606872797012, 0.12299579381942749], [-0.02343623712658882, 0.03507744148373604, 0.1847396045923233, 0.22288383543491364, -0.14430928230285645], [0.3292705714702606, 0.12186036258935928, 0.1506493240594864, -0.15612578392028809, 0.12437774986028671], [-0.010601416230201721, 0.02730705216526985, -0.04599500820040703, 0.06006569415330887, -0.1277572065591812], [0.20942053198814392, 0.11542166769504547, 0.088166244328022, -0.15163375437259674, 0.2829456329345703], [-0.2617603838443756, -0.18005330860614777, -0.39469850063323975, -0.23611463606357574, -0.16658438742160797], [-0.07621915638446808, -0.1408262848854065, -0.11312762647867203, 0.06714232265949249, 0.08155298233032227], [-0.04320577532052994, 0.08178483694791794, -0.12940934300422668, 0.05561225861310959, 0.11573264747858047], [0.08701248466968536, -0.03456756845116615, -0.08960667252540588, 0.07680395245552063, 0.05718535929918289], [-0.14278775453567505, 0.16795140504837036, -0.008489361964166164, -0.15691004693508148, 0.023493262007832527], [0.024278899654746056, -0.001279662363231182, -0.1213965117931366, 0.01069866493344307, 0.1463586986064911], [0.13051022589206696, 0.009715375490486622, -0.13180740177631378, 0.1499304324388504, -0.01338058803230524]], [[-0.18517273664474487, -0.30130133032798767, -0.2343546599149704, 0.11649329215288162, 0.10774455964565277], [0.08791781961917877, 0.08754958212375641, 0.020892074331641197, -0.20821106433868408, 0.10892230272293091], [0.041228264570236206, 0.0861254557967186, 0.03179715946316719, -0.18574561178684235, -0.2102527767419815], [0.027807757258415222, 0.10512708872556686, 0.05334313213825226, 0.043247003108263016, 0.026608893647789955], [-0.049554649740457535, 0.001922557596117258, 0.14734956622123718, 0.023682504892349243, -0.03336469456553459], [0.00542741222307086, 0.07472746074199677, -0.20166057348251343, -0.08148135244846344, 0.1253766268491745], [-0.13950768113136292, -0.04312971979379654, -0.24715568125247955, -0.18053004145622253, -0.09828361123800278], [0.019072560593485832, 0.1373172402381897, -0.04414783790707588, 0.20939411222934723, 0.07735805213451385], [-0.09828949719667435, -0.0033293950837105513, 0.14046131074428558, -0.00033187679946422577, -0.013848382979631424], [0.12992878258228302, 0.24623186886310577, 0.04152229055762291, 0.0944536104798317, -0.0009557738085277379], [0.3217228651046753, 0.05567630007863045, 0.5259169340133667, -0.12912124395370483, -0.07021904736757278], [-0.03919430822134018, -0.07220086455345154, 0.016122067347168922, -0.01406637579202652, 0.05632364749908447], [0.07594482600688934, 0.112131766974926, 0.01862744800746441, -0.05070146545767784, 0.12902715802192688], [0.11315221339464188, -0.01766086183488369, 0.24325042963027954, 0.003980386536568403, -0.057499952614307404], [0.1182817593216896, -0.03544328734278679, -0.21871881186962128, 0.019879192113876343, 0.11273195594549179], [-0.02583366446197033, 0.05804315581917763, -0.10563255846500397, 0.043004944920539856, -0.07753363996744156], [-0.08196787536144257, 0.0610819086432457, -0.010715448297560215, 0.05713222548365593, -0.09880232065916061], [0.10571116954088211, 0.019773853942751884, -0.03200581669807434, 0.016288630664348602, -0.05895860120654106], [0.1340116560459137, -0.03190484642982483, 0.003252755617722869, -0.011328785680234432, -0.06892333179712296]], [[-0.012017904780805111, -0.13477855920791626, 0.022876013070344925, 0.04280037432909012, 0.13787247240543365], [0.25370848178863525, -0.08424272388219833, -0.002971427980810404, 0.26109328866004944, -0.07119115442037582], [-0.03987322747707367, -0.14702504873275757, -0.02079697884619236, -0.10249127447605133, -0.07789524644613266], [-0.21955382823944092, 0.07520453631877899, 0.18547557294368744, -0.1654106229543686, -0.0409652404487133], [-0.22758477926254272, 0.011018750257790089, -0.043836336582899094, -0.2389308363199234, -0.12004750967025757], [0.10684308409690857, 0.2685818672180176, 0.04460328072309494, 0.07726740092039108, 0.2648593783378601], [0.04064187780022621, 0.4331539273262024, 0.08109626919031143, 0.5869350433349609, 0.37051236629486084], [0.19967199862003326, 0.01105413492769003, -0.21792720258235931, -0.06404193490743637, -0.2173776775598526], [-0.12326753884553909, -0.013817278668284416, 0.06430333107709885, -0.010058583691716194, -0.03833320364356041], [0.08570796996355057, -0.1320182830095291, -0.01451896782964468, -0.26429682970046997, 0.0315546952188015], [0.12928877770900726, 0.16317042708396912, -0.08761005103588104, -0.06248641386628151, -0.2044246643781662], [-0.06563565135002136, 0.0915827602148056, -0.04140134155750275, -0.04520260915160179, 0.2630141079425812], [0.006329412572085857, -0.031958673149347305, -0.08810547739267349, -0.2368852198123932, -0.13302159309387207], [0.3020927309989929, 0.24800822138786316, 0.10282529890537262, 0.31779226660728455, 0.4178912043571472], [0.12826678156852722, 0.01807153783738613, -0.08653156459331512, 0.00598833616822958, 0.1288808435201645], [-0.07174550741910934, -0.044265348464250565, 0.0258483849465847, 0.006408059503883123, 0.07458909600973129], [0.026609456166625023, -0.025982970371842384, 0.038806233555078506, 0.07196081429719925, -0.1349959671497345], [-0.03914313763380051, 0.0023539969697594643, -0.08733437210321426, -0.023591337725520134, -0.11725524067878723], [-0.132791668176651, -0.0005028524319641292, -0.11688265204429626, 0.08461266756057739, -0.10874679684638977]], [[0.217555433511734, -0.006531085353344679, -0.08129239827394485, 0.06715790927410126, 0.12914007902145386], [0.2922188341617584, 0.027077550068497658, -0.17750002443790436, -0.01470869965851307, -0.14420640468597412], [0.04069956764578819, 0.07015302777290344, 0.03107014298439026, 0.057273879647254944, -0.08315512537956238], [-0.18575458228588104, 0.11989156156778336, 0.07655675709247589, 0.2191416323184967, -0.2198217362165451], [0.2764625549316406, -0.13266970217227936, -0.2260100245475769, 0.02729775942862034, -0.11767354607582092], [0.0014861308736726642, -0.11841561645269394, -0.010189460590481758, -0.06495414674282074, 0.16962149739265442], [0.020810211077332497, -0.08311659097671509, 0.14638552069664001, 0.2232074737548828, 0.3516874611377716], [0.10766050219535828, 0.29924842715263367, -0.0032865151297301054, -0.02163722552359104, -0.031129222363233566], [-0.05832045525312424, -0.11397001147270203, -0.11082466691732407, 0.035908833146095276, -0.16391021013259888], [0.06623126566410065, 0.027342339977622032, 0.03100736439228058, 0.24053947627544403, -0.09717655926942825], [-0.18761560320854187, 0.015033194795250893, 0.060961414128541946, -0.10133086889982224, -0.014999128878116608], [0.1357468068599701, -0.08327867090702057, -0.061435043811798096, 0.014185287058353424, -0.07220558077096939], [-0.28280553221702576, -0.4190709888935089, -0.032136864960193634, 0.1652911901473999, -0.10283583402633667], [0.024898473173379898, -0.1542520523071289, -0.041122741997241974, 0.10638148337602615, 0.07129652798175812], [0.030495744198560715, 0.025129998102784157, 0.03891326114535332, 0.0225464329123497, 0.06831366568803787], [-0.04760093614459038, 0.05941692367196083, -0.036449942737817764, 0.008857700042426586, -0.031958553940057755], [-0.0013314676471054554, 0.04794715717434883, 0.014942049980163574, -0.053869228810071945, 0.0947030559182167], [0.23598286509513855, -0.07993210107088089, -0.17083770036697388, -0.049587544053792953, -0.0041218409314751625], [0.0943002998828888, 0.021800052374601364, -0.08500168472528458, 0.02259361371397972, 0.0419980064034462]], [[-0.04392990842461586, -0.033580947667360306, 0.1167728379368782, 0.11700146645307541, 0.09985795617103577], [0.28329265117645264, -0.15819409489631653, -0.025917697697877884, 0.11639992892742157, 0.09494371712207794], [0.08644748479127884, 0.10344528406858444, -0.08686234056949615, -0.021324874833226204, 0.052636612206697464], [-0.09019319713115692, 0.16405780613422394, -0.02815074846148491, -0.009934861212968826, -0.027470747008919716], [-0.04021603614091873, -0.038447458297014236, -0.001426790957339108, -0.12367767840623856, 0.01797199621796608], [-0.026063185185194016, 0.010517733171582222, -0.03954186663031578, -0.13060739636421204, -0.0866180956363678], [0.10812892019748688, 0.09607457369565964, 0.09592742472887039, 0.1744387447834015, -0.20248301327228546], [-0.12409775704145432, 0.10781247913837433, 0.17904463410377502, 0.18742376565933228, 0.1238279938697815], [-0.021730495616793633, -0.05744995176792145, -0.016035689041018486, -0.23679764568805695, -0.10614680498838425], [-0.16913899779319763, 0.08597490191459656, -0.042775124311447144, -0.25542083382606506, 0.1039469912648201], [-0.016994010657072067, -0.028777863830327988, 0.17787514626979828, -0.1581876128911972, -0.1605478674173355], [-0.1076052188873291, -0.0220077745616436, 0.11247807741165161, 0.10002639144659042, 0.004770997911691666], [-0.23026955127716064, -0.14457380771636963, 0.2012348771095276, -0.3390739858150482, -0.03564545512199402], [-0.07013801485300064, -0.14586615562438965, 0.028159936890006065, -0.10782527178525925, -0.2058170586824417], [0.014687243849039078, 0.047276731580495834, -0.0652969479560852, -0.05402595177292824, 0.002521538408473134], [0.051099080592393875, -0.12628766894340515, 0.03542198985815048, 0.05684412270784378, -0.00041914251050911844], [0.003497724886983633, -0.0737467110157013, -0.010276157408952713, -0.012141069397330284, -0.012817908078432083], [-0.0787399634718895, 0.07513239979743958, 0.02961278334259987, -0.10387871414422989, -0.07240047305822372], [-0.03488638252019882, -0.04066193476319313, -0.021588431671261787, -0.07159199565649033, 0.016723891720175743]], [[-0.09987325221300125, -0.043762706220149994, 0.10708770900964737, 0.049098603427410126, 0.14209102094173431], [-0.11417340487241745, -0.07412993162870407, 0.011587943881750107, -0.0023665204644203186, -0.043565332889556885], [-0.035830799490213394, -0.035426173359155655, -0.194129079580307, -0.08216211199760437, -0.09254611283540726], [0.22652272880077362, 0.24027161300182343, -0.03475813567638397, 0.05063121020793915, -0.07101837545633316], [0.156991645693779, -0.24139825999736786, 0.14336852729320526, 0.07914342731237411, 0.050302524119615555], [-0.09126866608858109, -0.22998009622097015, 0.02970048226416111, 0.13462908565998077, -0.015744363889098167], [-0.09162666648626328, -0.3109726011753082, -0.09590006619691849, 0.017320340499281883, -0.02739410102367401], [-0.08800463378429413, -0.023572374135255814, -0.0853932723402977, -0.017837828025221825, -0.08069686591625214], [0.04259965196251869, 0.00046890947851352394, 0.050393979996442795, -0.019922297447919846, -0.023454494774341583], [-0.05758722126483917, 0.15913702547550201, 0.06116100773215294, -0.025885043665766716, -0.0649346187710762], [-0.1378547102212906, 0.3792288601398468, -0.016474224627017975, -0.035002004355192184, 0.14239998161792755], [0.06146308779716492, 0.022565143182873726, 0.033975131809711456, -0.1370680332183838, -0.03463924676179886], [0.052656155079603195, -0.10411758720874786, 0.050880566239356995, 0.1609153002500534, 0.1400238424539566], [-0.005775352008640766, -0.04963637515902519, 0.023733191192150116, 0.0010710650822147727, -0.11519170552492142], [0.03114193119108677, -0.006935982499271631, 0.02519480511546135, -0.04416029527783394, 0.03728775680065155], [-0.011115246452391148, -0.05466999486088753, -0.13013656437397003, -0.049059703946113586, 0.1621839553117752], [0.14944449067115784, -0.13065598905086517, -0.10588399320840836, -0.006976190023124218, -0.19834618270397186], [0.08953676372766495, 0.03599373623728752, 0.006961421575397253, -0.10014937072992325, 0.09128103405237198], [0.07950329780578613, 0.0691450759768486, 0.06700792163610458, 0.042182695120573044, -0.12186810374259949]]], "conv5.bias": [0.033684927970170975, -0.06700492650270462, 0.10496564209461212, -0.1490945965051651, -0.0711192861199379, 0.1330714076757431, 0.00781068904325366, -0.08546389639377594, -0.06882871687412262, 0.016877727583050728, 0.0574684776365757, 0.015579808503389359, -0.1278814971446991, 0.0731709897518158, 0.05995520204305649, -0.15169627964496613], "fc1.weight": [[0.048805177211761475, 0.08675294369459152, -0.23582594096660614, 0.16827914118766785, -0.10225984454154968, 0.19042104482650757, 0.11460096389055252, 0.09847094863653183, 0.16869786381721497, 0.12338563799858093, -0.35917532444000244, 0.19460371136665344, -0.02702401392161846, 0.14107151329517365, -0.004374994896352291, -0.09139861911535263, -0.24726398289203644, 0.08089394867420197, 0.2133459597826004, -0.1772788017988205, -0.15636010468006134, 0.1961602121591568, 0.23851816356182098, 0.14874358475208282, -0.15107783675193787, -0.14352233707904816, 0.13267061114311218, -0.01078307069838047, 0.29455599188804626, 0.10339613258838654, 0.020751429721713066, -0.16113881766796112, 0.05970248579978943, 0.15708602964878082, 0.0946938693523407, -0.13427335023880005, -0.1376616358757019, 0.1275985836982727], [0.07793599367141724, 0.13861867785453796, -0.09067938476800919, 0.24764350056648254, 0.05289462208747864, 0.16604521870613098, 0.00693965470418334, 0.02977689355611801, 0.15781842172145844, 0.24104462563991547, -0.3324180245399475, 0.14328397810459137, 0.15123377740383148, -0.05083446949720383, 0.1281415820121765, -0.10864139348268509, -0.24246181547641754, 0.2257196009159088, 0.21134981513023376, -0.1598433554172516, -0.3447304964065552, 0.2562981843948364, 0.22148355841636658, 0.048996422439813614, -0.044999342411756516, -0.15641002357006073, 0.23666024208068848, -0.10690193623304367, 0.1466837078332901, 0.1996312439441681, 0.12305513769388199, -0.1916036605834961, 0.14126259088516235, -0.04041314497590065, 0.04845714196562767, -0.05970197916030884, -0.023181239143013954, 0.03590121865272522], [0.03329373896121979, 0.015558485873043537, -0.014949689619243145, -0.009456051513552666, 0.19818775355815887, -0.0018617043970152736, -0.15240530669689178, 0.07603123784065247, 0.19573059678077698, 0.0926782563328743, 0.029386071488261223, -0.047191865742206573, 0.1942707598209381, -0.10470505803823471, 0.09294839948415756, -0.15741252899169922, 0.01361549086868763, 0.11472127586603165, 0.009832858107984066, -0.03616098314523697, 0.022479064762592316, -0.03702069818973541, -0.0036129821091890335, -0.10836417973041534, 0.10048661381006241, -0.16240456700325012, 0.055425580590963364, -0.26043573021888733, 0.19308942556381226, -0.031314510852098465, -0.032703109085559845, -0.12832410633563995, 0.031785089522600174, -0.009437372907996178, 0.12409794330596924, -0.016809267923235893, -0.026727993041276932, -0.07140336185693741], [0.15911169350147247, 0.2561676502227783, -0.2766540050506592, 0.02699480950832367, 0.019127367064356804, 0.005087743047624826, 0.24377170205116272, 0.0018601033370941877, 0.2328333854675293, 0.20209760963916779, -0.14564721286296844, 0.15575163066387177, 0.1862787902355194, -0.12005287408828735, -0.024459106847643852, -0.05928463116288185, -0.30230292677879333, 0.1098230630159378, 0.11980203539133072, -0.10000504553318024, -0.276889443397522, 0.27758604288101196, 0.1405886858701706, 0.12395156174898148, -0.04681454598903656, -0.10820603370666504, 0.23896795511245728, -0.2586090862751007, 0.16707058250904083, 0.17089076340198517, 0.1141030564904213, -0.10030016303062439, -0.00974600575864315, 0.0290939062833786, 0.006510504987090826, 0.0741923525929451, -0.0051353611052036285, 0.16102057695388794], [0.01011123787611723, 0.16226454079151154, -0.1657535284757614, 0.1219913437962532, 0.1603463739156723, 0.03328078240156174, 0.11568968743085861, -0.032115962356328964, 0.10203177481889725, 0.14140300452709198, -0.07996208220720291, 0.14075738191604614, -0.0037308100145310163, -0.14678427577018738, -0.0008815185283310711, -0.21548695862293243, -0.1637452393770218, 0.21888868510723114, 0.10012352466583252, -0.07449047267436981, -0.2282678484916687, 0.21814849972724915, 0.09035226702690125, 0.1279613971710205, -0.07411244511604309, -0.07479902356863022, 0.22594250738620758, -0.23118621110916138, 0.29537808895111084, 0.11080630868673325, 0.1861945390701294, -0.1700042188167572, 0.17421528697013855, 0.045423999428749084, 0.1598462611436844, 0.08450902998447418, 0.11817100644111633, 0.19483694434165955], [0.14655129611492157, 0.1554758995771408, -0.14917276799678802, 0.1991644948720932, 0.200431227684021, 0.2056192308664322, 0.17124298214912415, 0.029059940949082375, 0.17874036729335785, 0.14745429158210754, -0.25046464800834656, 0.1890101432800293, 0.09178605675697327, 0.04425164684653282, 0.10288513451814651, -0.2383071482181549, -0.27150431275367737, 0.2542846202850342, 0.2154778391122818, -0.029659930616617203, -0.3308779299259186, 0.2987990379333496, 0.17969386279582977, 0.13058938086032867, -0.2273918092250824, -0.06785386800765991, 0.14728350937366486, -0.2462492138147354, 0.3418712019920349, 0.12039288878440857, 0.1648503839969635, -0.2676587700843811, 0.11281205713748932, 0.05071928724646568, 0.15315192937850952, -0.14041514694690704, 0.11406489461660385, 0.06955470144748688], [-0.023246269673109055, 0.19234991073608398, -0.13616397976875305, 0.18100227415561676, -0.010608931072056293, 0.1763530969619751, 0.07087259739637375, -0.06508544832468033, 0.19540593028068542, 0.12666986882686615, -0.31730541586875916, 0.14214050769805908, 0.16599339246749878, 0.12313227355480194, -0.10723017156124115, -0.02356010116636753, -0.18814612925052643, 0.07039425522089005, 0.08780208230018616, -0.10068618506193161, -0.18352583050727844, 0.27302807569503784, 0.18519897758960724, -0.015146717429161072, -0.19331274926662445, -0.13391028344631195, 0.25080257654190063, -0.11299902200698853, 0.13329601287841797, 0.19261085987091064, 0.07089316099882126, -0.1422344148159027, 0.08217539638280869, -0.022971369326114655, 0.11994802951812744, 0.12169432640075684, 0.06163426488637924, 0.2636682987213135], [-0.002125910483300686, -0.0016933557344600558, 0.04533887282013893, -0.005066764075309038, -0.008404233492910862, -0.021674280986189842, 0.015382198616862297, 0.0037417421117424965, -0.0023853483144193888, -0.010523895733058453, -0.007240401580929756, 0.0025489903055131435, -0.0007518472848460078, 0.0017969509353861213, 0.0005766849499195814, -0.017861878499388695, -0.005166127346456051, -0.017310507595539093, -0.0019801470916718245, -0.0019651681650429964, -0.005769554525613785, 0.006068041548132896, 0.0005180369480513036, -0.0112809669226408, -0.017711177468299866, -0.015007494948804379, -0.006533512379974127, -0.02360745333135128, -0.0024607600644230843, -0.011116771958768368, 0.022018464282155037, 0.016541678458452225, -0.000238948137848638, 0.007345716003328562, -0.04230838641524315, -0.001123686321079731, -0.009541654027998447, 0.0030557645950466394], [0.1651114970445633, 0.23594778776168823, -0.20164848864078522, 0.12285361438989639, -0.07944434136152267, 0.16379937529563904, 0.005726960022002459, 0.060079604387283325, 0.1935352385044098, 0.22450676560401917, -0.2136615365743637, 0.06773131340742111, 0.1029573455452919, 0.06830813735723495, -0.04371079057455063, -0.059738244861364365, -0.0650247111916542, 0.08475256711244583, 0.19020085036754608, -0.058592718094587326, -0.25208550691604614, 0.18918851017951965, 0.16146734356880188, 0.08984782546758652, -0.13312223553657532, -0.12308802455663681, 0.02157706581056118, -0.1069302037358284, 0.17732255160808563, 0.026676222681999207, 0.07097548991441727, -0.018863795325160027, 0.18125317990779877, -0.045940835028886795, -0.0459047332406044, -0.03023330308496952, 0.1199905276298523, -0.025751281529664993], [0.13873545825481415, 0.1487312912940979, -0.14714473485946655, 0.1451200544834137, 0.14682763814926147, 0.15223300457000732, -0.00018878350965678692, -0.030462920665740967, 0.1484180986881256, 0.15787425637245178, -0.18112993240356445, 0.09101861715316772, 0.07044246792793274, -0.0818142518401146, 0.11394651979207993, -0.026734957471489906, -0.18375341594219208, 0.16281747817993164, 0.19739025831222534, -0.07095035165548325, -0.3378390669822693, 0.14616426825523376, 0.1894700825214386, 0.1150703951716423, -0.012258552014827728, -0.12574908137321472, 0.19325299561023712, -0.06575001776218414, 0.13403336703777313, -0.05870693176984787, 0.14983372390270233, -0.20125840604305267, -0.04675322026014328, 0.0679917261004448, 0.12437696754932404, -0.1318158358335495, 0.056421566754579544, 0.007238307502120733], [-0.07062230259180069, -0.4106387197971344, 0.3952098786830902, -0.07941175252199173, -0.050681717693805695, -0.2874460220336914, -0.2422230988740921, -0.3754945695400238, -0.4226993918418884, -0.24357786774635315, 0.28143057227134705, -0.3143438994884491, -0.19483259320259094, -0.06326393038034439, -0.19894233345985413, 0.3442866802215576, 0.24905861914157867, -0.4501782953739166, -0.4163946211338043, 0.3826218843460083, 0.48796117305755615, -0.2926921248435974, -0.1773310899734497, -0.2614741623401642, 0.38332998752593994, 0.3602135479450226, -0.4328286647796631, 0.4179335832595825, -0.3827962279319763, -0.35175850987434387, -0.22377638518810272, 0.2119833528995514, 0.04633104056119919, 0.07510651648044586, 0.19795241951942444, 0.2081679403781891, 0.1453605443239212, -0.037606026977300644], [0.11533274501562119, 0.18186166882514954, -0.2252175360918045, 0.06821151077747345, -0.026696834713220596, 0.13377881050109863, 0.17194809019565582, 0.1276262253522873, 0.30330002307891846, 0.18360263109207153, -0.2504305839538574, 0.23363853991031647, 0.10949578136205673, -0.015538914129137993, -0.09368272870779037, -0.18962562084197998, -0.20258179306983948, 0.11100616306066513, 0.19182009994983673, -0.11573737859725952, -0.36609575152397156, 0.27434927225112915, 0.16192466020584106, 0.17052651941776276, -0.0687282532453537, -0.14909391105175018, 0.23919855058193207, -0.11614753305912018, 0.2508777976036072, 0.12972205877304077, 0.17122885584831238, -0.09991920739412308, 0.14987727999687195, 0.008239170536398888, 0.07897540181875229, -0.1708385944366455, 0.16546528041362762, 0.12055795639753342], [0.04289207607507706, 0.18745170533657074, -0.33464404940605164, 0.20787546038627625, -0.03604620695114136, 0.13054312765598297, 0.150778129696846, -0.030825821682810783, 0.3362668752670288, 0.2889421582221985, -0.218486025929451, 0.24257397651672363, 0.1463240683078766, 0.08360159397125244, -0.014471296221017838, -0.018777193501591682, -0.15081723034381866, 0.0515492744743824, 0.13312982022762299, -0.16598094999790192, -0.33855897188186646, 0.27374160289764404, 0.10507100075483322, 0.030718162655830383, -0.0408288836479187, -0.028238598257303238, 0.21426263451576233, -0.28394633531570435, 0.24383333325386047, 0.181115061044693, 0.18750302493572235, -0.2725529372692108, 0.05824245139956474, 0.2621493339538574, 0.0197928287088871, -0.10910952091217041, -0.04130323976278305, -0.04205138608813286], [0.05390200763940811, 0.15811242163181305, -0.3295974135398865, 0.17631839215755463, -0.033824171870946884, 0.052065517753362656, 0.09147743880748749, -0.012588052079081535, 0.2118537575006485, 0.2213042825460434, -0.22170625627040863, 0.17691218852996826, 0.06966497004032135, -0.036422595381736755, 0.03510640934109688, -0.16501595079898834, -0.24523240327835083, 0.09174571931362152, 0.15253926813602448, -0.10927990823984146, -0.1667473018169403, 0.19473186135292053, 0.13206221163272858, 0.17085623741149902, -0.05554623156785965, -0.1473553329706192, 0.10230577737092972, -0.11869363486766815, 0.2362738847732544, 0.17401474714279175, 0.19942127168178558, -0.12225769460201263, 0.18603038787841797, 0.15119630098342896, 0.1643463373184204, -0.07476768642663956, 0.13768793642520905, 0.010973839089274406], [0.23124350607395172, 0.15115392208099365, -0.18231599032878876, 0.05358240753412247, 0.04000948742032051, 0.1452265977859497, 0.07236839830875397, 0.186348095536232, 0.14634297788143158, 0.26694798469543457, -0.11448030918836594, 0.15568439662456512, 0.1473889797925949, -0.0986645519733429, 0.11159458011388779, -0.20192092657089233, -0.11863505840301514, 0.1827174872159958, 0.15594223141670227, -0.11524033546447754, -0.12954621016979218, -0.014953051693737507, 0.05110451579093933, -0.05045076459646225, -0.0676240622997284, -0.16181150078773499, 0.1311042606830597, -0.23197561502456665, 0.2325720191001892, 0.14276768267154694, -0.0015192556893453002, -0.07314634323120117, 0.027289310470223427, 0.19664382934570312, 0.02765108086168766, -0.13748754560947418, -0.07975981384515762, 0.2189219444990158], [-0.0002827648422680795, -0.0001834777503972873, -0.00011578924750210717, -0.0003138305328320712, -0.00018212046416010708, -0.00011496367369545624, -0.00044899669592268765, -7.195423677330837e-06, -0.0004387595981825143, 1.466773255742737e-06, -7.470917626051232e-05, -7.791084499331191e-05, -7.316580740734935e-05, -6.2336871451407205e-06, -0.0015830593183636665, -5.787064219475724e-05, -0.00012282839452382177, -4.384975454740925e-06, -0.0004422917263582349, -1.076231274055317e-05, -9.152443817583844e-05, 0.0020722781773656607, -8.723282371647656e-05, -0.00011825786350527778, -0.00016610632883384824, -3.883430326823145e-05, -0.0002721417404245585, -0.00014488428132608533, -9.01840758160688e-06, 8.203705510823056e-05, -0.0003849328204523772, -0.00025976786855608225, -2.479583417880349e-05, -0.0003426635230425745, -0.0003824334417004138, -2.6260906338393397e-08, -0.00012661285290960222, -7.13252738933079e-05]], "fc1.bias": [0.18916966021060944, 0.19419316947460175, -0.07944604754447937, 0.1923345923423767, -0.04795399308204651, 0.10917871445417404, 0.031559135764837265, -0.01972389593720436, -0.03693779930472374, 0.12165365368127823, 0.11669225245714188, -0.08281198143959045, 0.16308817267417908, 0.07735612243413925, 0.004529640078544617, -0.00035147243761457503], "fc2.weight": [[-0.879930317401886, -0.4049670100212097, -0.18965063989162445, -0.9069859385490417, -0.683779239654541, -0.7840689420700073, -0.8472656011581421, -0.002097951015457511, -0.34541136026382446, -0.6215043067932129, 0.785064697265625, -0.38450995087623596, -0.8236333727836609, -0.527187705039978, -0.622039258480072, 0.0005529014160856605]], "fc2.bias": [2.00339937210083], "norm_mean": [0.07265399396419525, 0.3804696500301361, 0.39187145233154297, 0.4114798903465271, 0.041467927396297455, 0.027432916685938835, 0.42771583795547485, 2.479201316833496, 0.19573883712291718, 0.47850215435028076, 0.001694307429715991, 0.0009308232693001628, 0.0002166442573070526, 0.03257296234369278, 0.0004931277362629771], "norm_std": [0.11861486732959747, 0.2833503782749176, 0.27610287070274353, 0.2639046311378479, 0.10973375290632248, 0.07991235703229904, 0.18520668148994446, 1.8363301753997803, 0.3967686593532562, 0.2621874511241913, 0.04112711176276207, 0.030495215207338333, 0.014717256650328636, 0.46674418449401855, 0.012104371562600136]}