{"tool_embed.weight": [[1.9175219535827637, 2.439152240753174, 0.44810453057289124, 0.009180421009659767], [0.19260703027248383, 0.77037513256073, -0.7348818182945251, 1.6734108924865723], [1.626534104347229, -1.9198873043060303, 0.5615129470825195, 0.9689500331878662], [0.7083415389060974, 0.3636823892593384, 1.6221535205841064, -0.09201794117689133], [1.5734409741747992e-39, 2.2846209642966088e-40, 6.739741145955213e-40, -4.816935445147272e-40], [-0.14558690786361694, 0.21845491230487823, -0.6049382090568542, 0.27709975838661194], [-2.2751314640045166, 0.9698055386543274, 1.489546775817871, -1.1949567794799805]], "conv3.weight": [[[0.01963428594172001, 0.009870653040707111, -0.0713229551911354], [-0.05816609039902687, 0.005484131630510092, -0.05609119310975075], [-0.3605096936225891, 0.06990838050842285, 0.0021665063686668873], [0.18462017178535461, -0.023034196346998215, -0.07450340688228607], [0.030565494671463966, -0.17971554398536682, -0.03996463865041733], [-0.11888302862644196, -0.24175478518009186, -0.12719076871871948], [0.23001524806022644, -0.24522975087165833, 0.14119283854961395], [0.32568204402923584, -0.2101413905620575, 0.18059931695461273], [0.16333220899105072, -0.26789188385009766, -0.25889572501182556], [0.1739284098148346, 0.12792529165744781, 0.14361155033111572], [0.1496979147195816, -0.10734724998474121, -0.04639079421758652], [-0.033450786024332047, 0.03978637978434563, -0.04644593223929405], [0.046879835426807404, -0.16566534340381622, 0.22036516666412354], [-0.07255777716636658, -0.1709885448217392, -0.027785561978816986], [0.010332642123103142, 0.261568546295166, 0.20887643098831177], [0.05830366909503937, -0.12612834572792053, 0.02459564059972763], [0.20655226707458496, 0.13203559815883636, -0.10294521600008011], [-0.02659916877746582, 0.01801341585814953, -0.10395697504281998], [-0.050908591598272324, 0.06389357894659042, -0.13534757494926453]], [[0.05621694028377533, -0.08851069957017899, 0.020783061161637306], [0.03528028726577759, 0.014703442342579365, 0.02659766376018524], [0.07727301120758057, -0.02216373197734356, -0.10327564179897308], [-0.028221527114510536, -0.004931794945150614, -0.10988868027925491], [0.030570102855563164, -0.08097528666257858, 0.15393537282943726], [0.020226694643497467, -0.04996668919920921, 0.17352285981178284], [0.021316755563020706, 0.05566113069653511, 0.22545044124126434], [0.1216738224029541, -0.04771057143807411, 0.21377576887607574], [0.07710831612348557, 0.11716485768556595, 0.28077420592308044], [0.4104413092136383, -0.16293533146381378, -0.07461118698120117], [0.13982553780078888, 0.22020041942596436, 0.17184872925281525], [0.2712234556674957, 0.004629503469914198, -0.08601804822683334], [0.012150926515460014, 0.1521734595298767, 0.05219251289963722], [-0.11225230991840363, -0.23691196739673615, -0.08824381977319717], [-0.16507673263549805, 0.1320207715034485, -0.10565415024757385], [0.043856386095285416, 0.06418418139219284, 0.021252932026982307], [0.02425413578748703, -0.024738859385252, 0.10008032619953156], [-0.047760143876075745, -0.09916592389345169, 0.2742057740688324], [0.23571039736270905, 0.16905459761619568, 0.06615445017814636]], [[-0.12178044021129608, -0.021180178970098495, 0.23569010198116302], [-0.030979571864008904, 0.03821302205324173, 0.17379344999790192], [0.014328815042972565, -0.3574562668800354, 0.13060417771339417], [-0.10979773104190826, 0.20818005502223969, -0.1269688606262207], [-0.05011260136961937, -0.42179277539253235, -0.3553655445575714], [-0.07030196487903595, 0.25171488523483276, 0.02895941212773323], [0.11990135908126831, 0.02287025935947895, -0.006637446582317352], [0.20514146983623505, 0.11398779600858688, -0.15627996623516083], [-0.02197609655559063, -0.05414273589849472, -0.05430778115987778], [0.051401615142822266, 0.11999453604221344, -0.12098843604326248], [-0.022470450028777122, 0.09870623797178268, 0.30996668338775635], [0.009329963475465775, -0.29046088457107544, 0.18708457052707672], [0.0428190641105175, -0.059484388679265976, 0.1236991286277771], [0.13166247308254242, 0.0126309460029006, 0.05808104947209358], [0.06054079160094261, 0.25921177864074707, -0.2676425278186798], [0.09820695966482162, -0.008663449436426163, -0.25254562497138977], [0.13096947968006134, -0.2243785560131073, 0.023661792278289795], [0.07359254360198975, 0.11200802773237228, -0.0505949929356575], [-0.13090047240257263, 0.3162888288497925, 0.20611077547073364]], [[-0.11840051412582397, -0.08770912885665894, -0.044820211827754974], [0.05132899805903435, 0.061564475297927856, -0.055264584720134735], [0.017381135374307632, 0.10199318081140518, -0.15604168176651], [-0.06509675830602646, -0.28399205207824707, 0.08951977640390396], [0.036659955978393555, 0.037386342883110046, 0.0015456214314326644], [-0.10220696032047272, 0.2284589409828186, 0.2907005250453949], [-0.08583533763885498, -0.05896236374974251, 0.13384343683719635], [0.23024435341358185, 0.34490761160850525, 0.12442360818386078], [-0.2945358455181122, -0.26022785902023315, 0.14198677241802216], [-0.18570281565189362, -0.25309303402900696, -0.05361518636345863], [0.2433420717716217, 0.15393298864364624, 0.03739002346992493], [-0.006602673325687647, -0.024119777604937553, -0.0863518938422203], [-0.16200673580169678, -0.10696389526128769, 0.3425954580307007], [0.08048765361309052, 0.05209719017148018, -0.06541360914707184], [-0.038239166140556335, 0.10975103825330734, 0.12957663834095], [0.13137699663639069, -0.12057863175868988, -0.07029273360967636], [-0.019361251965165138, -0.12732882797718048, 0.23267371952533722], [0.4418874979019165, -0.004519753158092499, 0.18971820175647736], [-0.1155620738863945, -0.027915358543395996, -0.09401029348373413]], [[0.05077637732028961, -0.11711803078651428, 0.24961240589618683], [0.14118042588233948, -0.027950169518589973, -0.07627897709608078], [0.13377435505390167, 0.018578294664621353, 0.07586554437875748], [-0.210234597325325, -0.07709547132253647, -0.10884754359722137], [-0.1638980507850647, -0.24800318479537964, 0.07656362652778625], [-0.014191340655088425, -0.3138083219528198, -0.008238999173045158], [0.10206234455108643, -0.04482930526137352, -0.18273970484733582], [-0.09418591111898422, 0.11303967982530594, -0.2111756056547165], [0.07813873887062073, 0.2099054902791977, 0.05706231668591499], [-0.04108557850122452, -0.14020514488220215, 0.12006847560405731], [-0.04892038181424141, 0.1243419274687767, -0.006913217715919018], [0.17141671478748322, 0.050702158361673355, 0.2677678167819977], [-0.027573049068450928, -0.17923219501972198, 0.06890057772397995], [0.03830668330192566, -0.046315133571624756, 0.022846974432468414], [-0.030157513916492462, 0.03792195022106171, -0.19586196541786194], [-0.15861472487449646, 0.055593881756067276, -0.20550143718719482], [-0.1557430922985077, -0.020591475069522858, -0.1131647601723671], [-0.0856526717543602, 0.07434546947479248, -0.3052883744239807], [-0.08256575465202332, -0.0154702914878726, -0.10053562372922897]], [[-0.10430232435464859, -0.10710221529006958, 0.21263697743415833], [0.02267690747976303, 0.14337201416492462, -0.011298907920718193], [-0.1725911945104599, -0.11953596770763397, -0.09842069447040558], [-0.013243529014289379, 0.03174795210361481, 0.05066234990954399], [0.11071319878101349, 0.025515209883451462, -0.1211211159825325], [0.20025776326656342, 0.16646568477153778, 0.14485515654087067], [-0.08177140355110168, 0.15161505341529846, 0.005785497836768627], [0.15267273783683777, -0.28186821937561035, 0.0925183892250061], [0.07904666662216187, -0.16112321615219116, 0.1836656630039215], [-0.05673966184258461, -0.25768131017684937, -0.06964224576950073], [0.14339056611061096, -0.10832196474075317, 0.07674551010131836], [-0.0866602286696434, 0.037507012486457825, 0.03215494751930237], [-0.022314373403787613, -0.21480907499790192, 0.19932110607624054], [0.25334709882736206, 0.11748988181352615, 0.08692802488803864], [-0.07546951621770859, 0.06251940876245499, 0.10971694439649582], [0.06756526976823807, 0.15721289813518524, 0.2453491985797882], [0.0670965313911438, 0.11415677517652512, 0.3383497893810272], [0.42191508412361145, 0.14338408410549164, -0.41541746258735657], [-0.055903248488903046, -0.1709694266319275, -0.0754563957452774]], [[-0.07243920117616653, -0.026348114013671875, 0.1886982023715973], [0.060187697410583496, 0.08452358096837997, 0.045286163687705994], [0.23872174322605133, -0.1675998866558075, -0.034066155552864075], [-0.1503591239452362, -0.041525762528181076, -0.16421747207641602], [0.27001500129699707, -0.004443065728992224, -0.13899169862270355], [0.10237155109643936, 0.13530324399471283, 0.09103050827980042], [0.2711835205554962, 0.047435976564884186, 0.05673988536000252], [0.2658078968524933, -0.14669470489025116, -0.12976209819316864], [0.056362930685281754, 0.02514934539794922, 0.2355351597070694], [-0.16820725798606873, -0.16000665724277496, 0.06385216861963272], [0.03809238597750664, 0.028932303190231323, -0.06885030120611191], [-0.131961852312088, 0.10354244709014893, -0.09289707243442535], [-0.24800236523151398, -0.21854297816753387, -0.00028334654052741826], [-0.024261370301246643, 0.04129135236144066, 0.022435154765844345], [0.31111830472946167, -0.1143563985824585, 0.13514111936092377], [-0.20604032278060913, 0.09465252608060837, 0.1827562302350998], [0.12916861474514008, -0.004047780763357878, 0.006953749340027571], [0.02987673133611679, 0.19474974274635315, 0.05798232555389404], [-0.1371442675590515, -0.1553642451763153, 0.1531141847372055]], [[0.11611216515302658, 0.11995861679315567, -0.03871986269950867], [0.09203983843326569, 0.02068103849887848, -0.10813561826944351], [0.11789671331644058, -0.3099772036075592, -0.22350594401359558], [-0.18968234956264496, 0.10165802389383316, -0.0560758113861084], [0.03976035863161087, -0.11293867975473404, 0.09717384725809097], [-0.019361697137355804, 0.17614638805389404, 0.010607610456645489], [0.29540684819221497, -0.03347122296690941, 0.07280712574720383], [0.16899974644184113, 0.22242726385593414, 0.01336036715656519], [-0.09967218339443207, -0.25262564420700073, 0.015934191644191742], [-0.19856861233711243, 0.06584016233682632, 0.08342932909727097], [0.010296430438756943, -0.18099191784858704, -0.08356063812971115], [-0.043153584003448486, -0.029792116954922676, 0.15951324999332428], [-0.31013011932373047, -0.11972750723361969, 0.13245554268360138], [0.09220901131629944, 0.1800859421491623, 0.08505203574895859], [0.06812012195587158, -0.17738263309001923, 0.09237746894359589], [-0.010596211068332195, -0.13720381259918213, 0.051357608288526535], [0.08816396445035934, -0.11944463849067688, -0.15322867035865784], [-0.24226805567741394, -0.19038328528404236, 0.13980011641979218], [0.03915834799408913, 0.050095442682504654, -0.1564175933599472]], [[0.1033501997590065, -0.11810953170061111, 0.003060522023588419], [-0.07222501933574677, -0.0627727285027504, 0.0870973989367485], [-0.23630407452583313, -0.2097657024860382, -0.41660815477371216], [0.060502320528030396, 0.05691561847925186, 0.15496189892292023], [0.011860385537147522, -0.21537871658802032, -0.06259450316429138], [0.03933243826031685, -0.24737001955509186, -0.08462110906839371], [0.11608200520277023, 0.042611125856637955, -0.06853945553302765], [0.10324756056070328, -0.018567470833659172, 0.38816776871681213], [-0.02872920222580433, 0.03252308443188667, -0.007170639466494322], [0.13134615123271942, -0.0271613746881485, -0.01197604276239872], [0.07560192048549652, -0.26126793026924133, 0.11196352541446686], [0.08667856454849243, 0.24303507804870605, 0.04256775975227356], [-0.2190183699131012, 0.012384791858494282, 0.2611948847770691], [-0.11614401638507843, 0.0007180364918895066, -0.07961613684892654], [-0.03938012197613716, -0.11397963762283325, 0.32912927865982056], [-0.15359358489513397, 0.24377582967281342, -0.09950186312198639], [0.08441837877035141, 0.14817768335342407, -0.007332522422075272], [-0.07303103804588318, 0.18932193517684937, -0.06433255225419998], [-0.05964893847703934, -0.043710317462682724, 0.19392423331737518]], [[-0.03467085212469101, -0.062130484730005264, -0.19996292889118195], [0.1401999443769455, 0.21003377437591553, -0.07534116506576538], [0.16559137403964996, 0.09942907094955444, -0.0076138293370604515], [-0.03635237365961075, -0.04676239565014839, -0.013547991402447224], [0.03468465059995651, 0.029822327196598053, 0.06425152719020844], [0.08290442079305649, 0.08360800892114639, 0.24068249762058258], [0.24279595911502838, -0.08175952732563019, 0.1926524043083191], [0.0690624937415123, 0.1253981590270996, -0.11663389950990677], [0.030069466680288315, 0.06707175076007843, 0.042894475162029266], [0.05768991634249687, 0.4009094536304474, -0.16097970306873322], [-0.21591776609420776, 0.09441764652729034, -0.011180653236806393], [-0.05758879333734512, -0.06510557234287262, -0.19329619407653809], [-0.11137548834085464, -0.1255694180727005, 0.18056434392929077], [0.004933946765959263, -0.03368855640292168, 0.2670876979827881], [0.026140401139855385, -0.1512451320886612, -0.025741873309016228], [-0.11962739378213882, 0.08638839423656464, 0.024017026647925377], [0.01705290377140045, 0.0037575233727693558, -0.1650601029396057], [-0.07417557388544083, -0.2446054071187973, 0.03605565056204796], [-0.17340022325515747, 0.026718467473983765, 0.02552655152976513]], [[0.005365931428968906, 0.05836419016122818, -0.16616620123386383], [-0.030684465542435646, -0.02861928381025791, 0.13429522514343262], [-0.24969983100891113, 0.033706922084093094, 0.22999781370162964], [0.06861414015293121, -0.09045900404453278, -0.22730113565921783], [0.17172423005104065, 0.20945857465267181, 0.11807432025671005], [0.17148204147815704, 0.00838612299412489, -0.11186456680297852], [0.24165409803390503, 0.09024272114038467, 0.1448233425617218], [-0.25911644101142883, -0.12095550447702408, -0.1885843575000763], [-0.30134645104408264, 0.17849354445934296, -0.06434953957796097], [-0.030389340594410896, -0.1634335219860077, 0.069945327937603], [-0.17631766200065613, 0.1922125518321991, 0.17391741275787354], [-0.18196097016334534, -0.40810200572013855, 0.25283992290496826], [0.026686854660511017, -0.12162910401821136, -0.0019500043708831072], [-0.15450575947761536, 0.09020677208900452, 0.022265298292040825], [0.06957818567752838, 0.04195309057831764, 0.14129038155078888], [-0.16829249262809753, -0.06008049473166466, 0.009426053613424301], [-0.002278924686834216, -0.12607865035533905, 0.14335520565509796], [0.00470485957339406, 0.02096284180879593, 0.11736427247524261], [-0.10672862082719803, -0.3235311806201935, -0.003747324226424098]], [[-0.11723523586988449, -0.27277013659477234, -0.06102968007326126], [0.1572972685098648, -0.07671554386615753, -0.16558146476745605], [0.05514056608080864, -0.03537315875291824, -0.19723816215991974], [-0.24199147522449493, -0.22937533259391785, -0.1295490860939026], [-0.06515822559595108, 0.06362023949623108, -0.29497936367988586], [0.06393013894557953, 0.2114609181880951, -0.02641349844634533], [-0.06659521162509918, -0.2899044156074524, -0.26714208722114563], [-0.005346409976482391, 0.16108228266239166, 0.15545953810214996], [0.24118457734584808, -0.27066752314567566, 0.03594139218330383], [0.07794201374053955, 0.08321540802717209, -0.07459990680217743], [0.19897204637527466, 0.11364339292049408, 0.0008355650352314115], [-0.2902146577835083, 0.31697139143943787, -0.03596874326467514], [0.2333650290966034, 0.02959609031677246, 0.17103035748004913], [0.08075661212205887, 0.08351545035839081, 0.250357449054718], [-0.16090744733810425, 0.06735291332006454, -0.0882103219628334], [0.09257285296916962, -0.035421520471572876, -0.22030051052570343], [-0.04495243728160858, 0.08145622909069061, -0.10676515102386475], [-0.022175457328557968, 0.08470435440540314, 0.1408648043870926], [0.1839246302843094, 0.0016330095240846276, 0.22844940423965454]], [[-0.054205406457185745, -0.007965443655848503, 0.08170561492443085], [0.2135125994682312, -0.04734739288687706, 0.17011892795562744], [-0.29984810948371887, -0.07953854650259018, 0.006331188604235649], [0.126265749335289, 0.06219825893640518, 0.005489332601428032], [-0.016783731058239937, 0.01190860103815794, -0.11559335887432098], [0.10943087935447693, -0.028154579922556877, 0.08894123136997223], [-0.06382424384355545, 0.2975754141807556, -0.24518851935863495], [-0.1436261683702469, 0.22104039788246155, 0.16134032607078552], [0.18895223736763, 0.09823001176118851, -0.3723674416542053], [-0.06115681305527687, 0.12609343230724335, 0.006592404562979937], [-0.24956227838993073, -0.13402126729488373, -0.0014692881377413869], [0.005585134960711002, 0.040496133267879486, -0.007796137593686581], [0.19593042135238647, 0.16700899600982666, -0.2378062903881073], [0.08471066504716873, -0.039162527769804, 0.15246638655662537], [-0.1309383064508438, 0.04113323241472244, 0.07917775958776474], [-0.03874235972762108, 0.004492375534027815, -0.03170371055603027], [0.07193585485219955, 0.061509136110544205, -0.24065905809402466], [0.3999217450618744, -0.02269764430820942, 0.15634040534496307], [0.13538344204425812, -0.017491763457655907, 0.019637813791632652]], [[-0.07972154766321182, -0.16637669503688812, 0.029916293919086456], [-0.03799759969115257, 0.07939066737890244, -0.04786099120974541], [0.34456899762153625, -0.24005497992038727, -0.07682168483734131], [-0.2153480350971222, 0.08620262891054153, 0.021281955763697624], [0.021840544417500496, -0.09845303744077682, 0.049898963421583176], [0.1668022722005844, 0.07368346303701401, -0.14781922101974487], [0.18954651057720184, 0.23474474251270294, -0.2699618339538574], [0.1584610641002655, -0.017534583806991577, -0.3663126230239868], [0.19322022795677185, 0.06526394933462143, 0.08273597061634064], [0.09947093576192856, -0.06630979478359222, 0.03941425308585167], [-0.041293397545814514, -0.06778662651777267, -0.20005276799201965], [-0.16939561069011688, 0.06213521212339401, -0.04521724209189415], [-0.04822079464793205, 0.01662268489599228, -0.19412656128406525], [0.016826927661895752, -0.05989145115017891, -0.06174075976014137], [-0.06612062454223633, -0.34281134605407715, -0.0201643668115139], [-0.02814335562288761, 0.012094149366021156, 0.1226625069975853], [0.055258650332689285, -0.03693780303001404, -0.07517553865909576], [0.07046443969011307, 0.1917164921760559, 0.3287128806114197], [-0.16282042860984802, -0.03910422325134277, 0.17738237977027893]], [[-0.05230504646897316, -0.08344082534313202, 0.11361218243837357], [-0.0782238245010376, -0.06977961212396622, 0.1620522290468216], [-0.12373285740613937, -0.34714704751968384, -0.053444329649209976], [-0.15748634934425354, 0.19287905097007751, -0.09052827954292297], [-0.051885936409235, 0.07972172647714615, 0.036059487611055374], [0.16030749678611755, -0.09869343042373657, 0.10698533803224564], [-0.1523127555847168, 0.15783186256885529, -0.08931005746126175], [-0.30092233419418335, 0.22122536599636078, 0.08511285483837128], [-0.17363297939300537, -0.06670446693897247, -0.0495840385556221], [0.006243784446269274, 0.13157373666763306, -0.07111905515193939], [-0.05034000054001808, -0.06069447845220566, -0.018493423238396645], [-0.1368311643600464, -0.015045312233269215, -0.027839263901114464], [0.22691959142684937, -0.35173848271369934, 0.13696466386318207], [0.19300393760204315, 0.016484174877405167, 0.2670998275279999], [-0.1659521758556366, -0.12531952559947968, -0.13696585595607758], [0.012724137865006924, 0.19090521335601807, 0.026177098974585533], [-0.20717665553092957, 0.026346620172262192, 0.1473466455936432], [0.2484913468360901, -0.1772269755601883, 0.3505139946937561], [0.21837547421455383, -0.0012758425436913967, -0.15051639080047607]], [[-0.03721499815583229, 0.053864751011133194, 0.05590400472283363], [0.0018023180309683084, -0.021142804995179176, -0.09391408413648605], [-0.43840327858924866, -0.09492946416139603, -0.34870460629463196], [0.09439966827630997, -0.18162429332733154, -0.1478651612997055], [-0.22127887606620789, -0.14852333068847656, -0.022922299802303314], [-0.011254535987973213, 0.333608478307724, -0.05809008702635765], [0.15283717215061188, 0.001701106783002615, 0.026466872543096542], [0.07111871242523193, 0.0868939757347107, 0.1947350949048996], [-0.4176394045352936, 0.04980504512786865, 0.24559296667575836], [0.13479259610176086, 0.1699882298707962, -0.26820656657218933], [0.11786523461341858, -0.1535661816596985, 0.04107946902513504], [-0.20378988981246948, -0.10132884979248047, -0.2388647496700287], [0.10699913650751114, 0.06909016519784927, -0.006215044297277927], [0.0432402640581131, 0.25656262040138245, 0.314146488904953], [0.19467367231845856, -0.2233724743127823, 0.2465035617351532], [0.004891383461654186, -0.18358725309371948, 0.027278944849967957], [-0.08930207043886185, -0.07407615333795547, 0.1083550825715065], [-0.23022976517677307, -0.13600508868694305, -0.10586812347173691], [-0.34757617115974426, -0.18588493764400482, 0.08219189941883087]]], "conv3.bias": [-0.03889999911189079, -0.10004745423793793, 0.039333611726760864, -0.20298156142234802, -0.05143686383962631, -0.18508869409561157, 0.012483038939535618, 0.02768293395638466, -0.08624938875436783, -0.12871448695659637, -0.1563221663236618, -0.17891843616962433, 0.0845867246389389, -0.129304438829422, -0.163108691573143, 0.04326888546347618], "conv5.weight": [[[0.07222842425107956, -0.06434591114521027, -0.17628590762615204, -0.16007570922374725, 0.15215960144996643], [0.04372059553861618, 0.049435000866651535, -0.02371952496469021, 0.2025589793920517, 0.1417708843946457], [0.13232511281967163, -0.1856594830751419, -0.12466160207986832, -0.05231618508696556, -0.15498356521129608], [-0.257280558347702, -0.014007222838699818, 0.05458204448223114, -0.06663936376571655, -0.10021699219942093], [-0.012370483949780464, -0.16824756562709808, -0.09588371962308884, 0.07891714572906494, 0.046766772866249084], [-0.10051953047513962, 0.057508066296577454, 0.10103394091129303, -0.03556428104639053, -0.10985291004180908], [0.08453689515590668, -0.18097752332687378, 0.04242944344878197, -0.27418652176856995, -0.12267249077558517], [0.1163097620010376, -0.06995595246553421, -0.04016367346048355, -0.09969984740018845, 0.30781105160713196], [-0.054224081337451935, 0.03359485790133476, 0.06565631926059723, -0.03478124737739563, 0.21487261354923248], [0.04522062465548515, -0.025110388174653053, -0.03392435610294342, -0.17539173364639282, 0.034079693257808685], [0.3071190118789673, 0.12630480527877808, -0.04010572284460068, 0.23656721413135529, 0.4575354754924774], [0.06475353986024857, -0.17854690551757812, -0.11539828777313232, -0.12155932933092117, -0.05435696989297867], [-0.0515822097659111, -0.02329811081290245, 0.2414749413728714, 0.08178257197141647, 0.02035241574048996], [0.005185176618397236, 0.1436302661895752, -0.03722997009754181, 0.04575540870428085, 0.19535791873931885], [-0.013042720034718513, -0.20499546825885773, 0.12088481336832047, -0.12899306416511536, -0.12501206994056702], [-0.1848170906305313, -0.171370267868042, -0.2153092324733734, -0.07400241494178772, 0.18305642902851105], [-0.2502577304840088, -0.00499799195677042, 0.14084863662719727, -0.05539137125015259, 0.245870903134346], [0.10868681222200394, -0.2200540453195572, 0.4327763617038727, -0.2297436147928238, 0.05835062265396118], [-0.2553219795227051, 0.004267890006303787, 0.07035791873931885, 0.001927983365021646, 0.06418612599372864]], [[0.12238144874572754, -0.09527602791786194, -0.01822514832019806, 0.04403974488377571, 0.027253063395619392], [0.06915155053138733, 0.13310785591602325, -0.17810013890266418, 0.04946630075573921, 0.08209757506847382], [0.05389424040913582, -0.40182796120643616, -0.14165841042995453, 0.10560990869998932, -0.29454168677330017], [0.0008028222946450114, 0.11235455423593521, 0.06949639320373535, -0.1448526829481125, -0.03363649919629097], [0.05577380955219269, -0.21884582936763763, 0.07457884401082993, 0.00907815620303154, -0.07957962900400162], [-0.0393250435590744, -0.050235260277986526, -0.12081777304410934, -0.03242887556552887, 0.14137272536754608], [-0.09971875697374344, 0.1539071500301361, -0.11432163417339325, -0.027739690616726875, 0.15283754467964172], [0.1940164566040039, 0.010717337019741535, -0.10374028980731964, 0.2816438376903534, 0.10094581544399261], [-0.16339993476867676, 0.11661022156476974, -0.16858389973640442, -0.26291176676750183, -0.20563927292823792], [0.10856716334819794, -0.09722593426704407, 0.25681227445602417, -0.025547146797180176, -0.21026325225830078], [-0.04835550859570503, 0.08639636635780334, 0.1412125527858734, -0.05776519328355789, 0.11363634467124939], [-0.04988085851073265, 0.018192142248153687, 0.10302935540676117, -0.18923324346542358, 0.19527609646320343], [-0.14240910112857819, 0.13335232436656952, -0.02881701849400997, -0.018420005217194557, -0.008363200351595879], [-0.0037662070244550705, 0.09437481313943863, -0.059176813811063766, -0.015958523377776146, 0.12972964346408844], [0.17711392045021057, -0.029095778241753578, 0.260359525680542, 0.21837849915027618, 0.03305736184120178], [0.04126136377453804, -0.11409755051136017, -0.24644780158996582, 0.17390252649784088, 0.007719818968325853], [-0.210157111287117, 0.012762055732309818, -0.026783838868141174, 0.3068517744541168, 0.03121325559914112], [0.21597088873386383, -0.01305959839373827, 0.029199615120887756, -0.0627385824918747, 0.09438866376876831], [-0.08630286902189255, -0.15853853523731232, -0.040734998881816864, -0.2254074662923813, -0.20326708257198334]], [[0.14345118403434753, 0.07503405958414078, 0.03019205667078495, -0.039509791880846024, -0.20935124158859253], [-0.07132209837436676, 0.0018372928025200963, 0.02572813257575035, 0.0424441434442997, -0.12428274750709534], [-0.008630763739347458, -0.2842627763748169, -0.2581120431423187, -0.144962877035141, -0.32782796025276184], [0.08357338607311249, 0.32174524664878845, 0.23863175511360168, 0.04625736549496651, 0.2119116485118866], [-0.15622368454933167, -0.07990704476833344, -0.0027021525893360376, -0.06632786989212036, -0.19377239048480988], [-0.12428636103868484, -0.28661373257637024, -0.20488591492176056, -0.07414733618497849, -0.016390545293688774], [-0.028057442978024483, 0.08728134632110596, 0.0810805931687355, -0.15142996609210968, 0.1491076499223709], [0.0978478491306305, 0.19106411933898926, -0.08662718534469604, -0.07116745412349701, 0.23007574677467346], [-0.31046226620674133, -0.1994670182466507, -0.010143143124878407, 0.0017901711398735642, 0.07951106131076813], [0.07004347443580627, 0.03885319083929062, 0.12740255892276764, 0.13983154296875, 0.09226305037736893], [-0.13911081850528717, -0.0034021129831671715, 0.19855831563472748, -0.224163219332695, -0.12303868681192398], [0.016826463863253593, -0.0462612509727478, 0.1683080792427063, -0.010421167127788067, -0.00604808097705245], [-0.06746678054332733, 0.21919451653957367, -0.07623554766178131, -0.23435552418231964, -0.045291967689991], [-0.02604316547513008, -0.18291302025318146, -0.1157643124461174, -0.056322816759347916, -0.0749489963054657], [0.047529783099889755, 0.14517219364643097, -0.19679009914398193, -0.1473844349384308, -0.05235980823636055], [-0.13697656989097595, 0.14104318618774414, 0.00391933461651206, -0.045052867382764816, -0.036960259079933167], [0.11085043847560883, -0.14235065877437592, 0.03406329080462456, -0.11782322824001312, -0.3270939588546753], [-0.0937412902712822, -0.16769401729106903, 0.22617334127426147, -0.2036823332309723, 0.042516645044088364], [0.024591607972979546, -0.26191991567611694, -0.1983359158039093, 0.0880095511674881, 0.14850161969661713]], [[0.1467774212360382, -0.15094473958015442, -0.056087676435709, -0.04675022140145302, -0.14007878303527832], [0.05174783244729042, 0.04513510689139366, -0.04866451770067215, 0.04605872184038162, -0.14869293570518494], [0.21655434370040894, -0.046518415212631226, -0.20968958735466003, 0.07703153043985367, -0.04797090217471123], [-0.09506881982088089, -0.26233410835266113, 0.11689043045043945, -0.3144379258155823, -0.0012265961850062013], [0.10741088539361954, -0.022763259708881378, 0.057802364230155945, -0.018046751618385315, -0.09964698553085327], [-0.19086231291294098, -0.0176102127879858, -0.04509150981903076, 0.044828422367572784, -0.029344528913497925], [0.0657053217291832, -0.06298165023326874, -0.14173656702041626, 0.16888874769210815, 0.17342841625213623], [-0.008603655733168125, 0.2730907201766968, 0.04438970983028412, 0.2629556655883789, 0.12337932735681534], [0.02563617378473282, -0.26006531715393066, -0.02861787937581539, -0.08662834763526917, -0.010555272921919823], [0.013567870482802391, -0.05534191057085991, -0.05852661281824112, -0.15951156616210938, 0.11288940906524658], [0.06623809784650803, 0.22294293344020844, -0.015508400276303291, -0.05207810550928116, 0.003926926292479038], [0.18807770311832428, -0.058450065553188324, 0.04028867185115814, 0.08219677209854126, -0.04228651523590088], [-0.08188313990831375, 0.11487556248903275, -0.06200215965509415, 0.13045485317707062, 0.24655531346797943], [-0.09061381220817566, -0.07488861680030823, 0.010508124716579914, 0.08248763531446457, 0.08350030332803726], [-0.0171298086643219, -0.04816727712750435, -0.12500685453414917, 0.22668616473674774, -0.033024877309799194], [-0.29848822951316833, -0.24398751556873322, -0.021723024547100067, -0.26196029782295227, -0.010611527599394321], [0.1401844620704651, -0.03794899582862854, -0.014727192930877209, 0.2623387277126312, 0.00140098063275218], [0.41487619280815125, -0.1349002718925476, 0.1131896823644638, 0.11072409152984619, 0.03561140224337578], [-0.10737860202789307, 0.0013169718440622091, -0.005208002403378487, -0.08175057917833328, -0.14619097113609314]], [[-0.07951121032238007, 0.03496617078781128, -0.14501595497131348, -0.14825671911239624, 0.021387293934822083], [-0.14686226844787598, -0.07579555362462997, 0.11694682389497757, 0.02112061157822609, 0.020019469782710075], [-0.06054838374257088, -0.1762763261795044, -0.09954266995191574, -0.06658753007650375, -0.09550781548023224], [-0.05908733233809471, 0.07259077578783035, -0.0006112309638410807, -0.11029322445392609, -0.0676320493221283], [0.2039157748222351, -0.32125401496887207, -0.31277933716773987, -0.345553994178772, -0.28346332907676697], [0.22077421844005585, 0.017072763293981552, -0.17859508097171783, -0.13560251891613007, 0.005117181688547134], [-0.02957938052713871, -0.22109061479568481, -0.26559749245643616, -0.08314602077007294, -0.01802711933851242], [0.1057087853550911, 0.14059990644454956, 0.22491317987442017, 0.32195037603378296, 0.05230199173092842], [-0.09488760679960251, 0.03829161077737808, 0.10109734535217285, 0.038784127682447433, 0.006258824374526739], [-0.0726393461227417, -0.03740328550338745, -0.1113428920507431, 0.08080753684043884, 0.1796848624944687], [0.2401059865951538, -0.0832768976688385, -0.019173841923475266, 0.11000636965036392, 0.23846809566020966], [-0.09398551285266876, -0.10199625790119171, 0.3647168278694153, 0.11104409396648407, -0.02352474443614483], [0.021970894187688828, 0.10844625532627106, 0.038744717836380005, 0.014683233574032784, 0.17188061773777008], [0.07015980780124664, -0.054327234625816345, 0.05807347223162651, 0.08272451907396317, -0.0024276338517665863], [-0.28266623616218567, 0.19162000715732574, 0.172546848654747, -0.21301056444644928, -0.11725690960884094], [0.08870259672403336, -0.13151179254055023, 0.07750985771417618, -0.27772068977355957, 0.07067050784826279], [-0.14912119507789612, -0.09318161755800247, 0.17975734174251556, -0.030381426215171814, 0.036180272698402405], [0.31896349787712097, 0.18467342853546143, 0.30841392278671265, 0.2537803649902344, 0.21765796840190887], [0.09413214027881622, 0.009369345381855965, -0.028133617714047432, 0.05481975898146629, 0.09413609653711319]], [[0.05701152980327606, 0.001181632629595697, -0.08736850321292877, -0.009116459637880325, -0.09374100714921951], [0.16211175918579102, 0.05522242560982704, 0.11694391071796417, -0.08166257292032242, -0.03435896337032318], [0.04006831347942352, -0.05246962979435921, -0.044451113790273666, -0.4062829613685608, -0.2376195192337036], [-0.25418293476104736, 0.01945415511727333, -0.14938293397426605, 0.07572700083255768, 0.0829467624425888], [0.21514932811260223, 0.14319787919521332, -0.04016805812716484, -0.1271148920059204, -0.020429566502571106], [0.09696242213249207, -0.15848034620285034, 0.06091050058603287, 0.005044438876211643, 0.05665084347128868], [0.16472101211547852, 0.11086021363735199, 0.133015438914299, 0.09634625166654587, 0.11243125796318054], [0.1748047024011612, 0.022356728091835976, 0.21212702989578247, 0.14185848832130432, 0.17536406219005585], [-0.03757348284125328, 0.02258267067372799, -0.07395767420530319, 0.03326345980167389, -0.0880962461233139], [-0.0949564054608345, -0.04519161581993103, -0.01684163510799408, -0.22770440578460693, -0.018457887694239616], [-0.21358142793178558, 0.21563509106636047, -0.07840390503406525, -0.038720302283763885, -0.042672961950302124], [-0.2685356140136719, 0.06176547706127167, -0.11524630337953568, 0.009565630927681923, 0.012261422351002693], [0.09986551851034164, -0.00848656427115202, -0.1026996597647667, -0.32904747128486633, -0.23274730145931244], [0.07167625427246094, -0.11271709203720093, 0.06817485392093658, -0.050067078322172165, 0.09735573828220367], [0.005346114281564951, 0.018120184540748596, -0.12523707747459412, 0.018831102177500725, -0.14660164713859558], [-0.0945948138833046, -0.16687317192554474, -0.021584924310445786, 0.031331270933151245, 0.025239769369363785], [0.2312474250793457, -0.19972354173660278, 0.04777730628848076, -0.13479286432266235, 0.195463165640831], [0.022739093750715256, 0.4851168394088745, 0.04299537464976311, 0.09959999471902847, 0.21037264168262482], [-0.06261149793863297, -0.030279764905571938, 0.17840394377708435, 0.2665126919746399, 0.022262901067733765]], [[0.10405878722667694, -0.200414776802063, -0.19881664216518402, -0.008906165137887001, -0.223305344581604], [-0.0031102460343390703, -0.017597133293747902, -0.03295765817165375, 0.0009113553678616881, 0.17346706986427307], [0.0746152400970459, -0.23299582302570343, 0.05663447827100754, -0.23150889575481415, -0.28589338064193726], [-0.17235057055950165, 0.12749594449996948, -0.06951101124286652, -0.0034193298779428005, 0.03230598568916321], [-0.4143775701522827, -0.7178625464439392, -0.272529274225235, -0.48694154620170593, -0.21324174106121063], [-0.03746887668967247, 0.027179023250937462, -0.013692262582480907, 0.1683400422334671, -0.14774419367313385], [-0.10747730731964111, -0.3262273073196411, -0.027606716379523277, 0.029219966381788254, -0.1885271817445755], [0.10266825556755066, 0.30152231454849243, 0.17994752526283264, 0.06150856614112854, -0.010841760784387589], [0.17497648298740387, -0.040377918630838394, 0.05007857829332352, 0.11585713922977448, 0.22087207436561584], [-0.042667027562856674, -0.02306540310382843, -0.155037984251976, 0.052611205726861954, -0.22864528000354767], [0.12946926057338715, -0.0927116870880127, 0.17578212916851044, -0.019050035625696182, -0.04126053303480148], [-0.2507787048816681, -0.03618351370096207, 0.022633979097008705, -0.2263503074645996, -0.2831786274909973], [0.06188536807894707, -0.10787288844585419, 0.10506495833396912, 0.12224888801574707, 0.09062608331441879], [0.09185156971216202, 0.004509454593062401, 0.077375628054142, -0.0940011739730835, -0.056922245770692825], [-0.17774644494056702, 0.06581210345029831, 0.06044277921319008, 0.0637170672416687, 0.13191315531730652], [-0.10639079660177231, 0.17787687480449677, 0.1883685439825058, 0.16491135954856873, -0.07772822678089142], [0.10030712932348251, 0.13818714022636414, 0.00560693209990859, 0.2860470414161682, -0.12154102325439453], [0.04986013099551201, 0.21571268141269684, 0.27860310673713684, 0.1938755065202713, 0.07635750621557236], [0.09908413141965866, 0.005546607542783022, 0.16926808655261993, 0.0028750980272889137, 0.027803629636764526]], [[0.06890853494405746, 0.11343564838171005, 0.10148133337497711, 0.24407675862312317, -0.09339391440153122], [0.0225838590413332, 0.055526405572891235, -0.05697416141629219, 0.18563495576381683, 0.019680874422192574], [-0.06029946357011795, -0.044036801904439926, 0.17753416299819946, -0.12433938682079315, 0.04482810199260712], [0.10732503235340118, -0.010562335141003132, -0.1675594002008438, 0.009205546230077744, -0.13775448501110077], [-0.28618696331977844, 0.01710299588739872, -0.09562737494707108, -0.06363074481487274, -0.34329333901405334], [-0.005050756502896547, 0.03132115304470062, -0.037853091955184937, -0.15547262132167816, -0.017142953351140022], [0.31452158093452454, -0.045004814863204956, 0.050244394689798355, 0.1243603527545929, -0.3062393069267273], [0.05627765133976936, 0.06842780113220215, 0.08998584002256393, -0.06755641102790833, -0.013532347977161407], [0.004755277652293444, -0.029042040929198265, -0.027061069384217262, -0.10037046670913696, 0.01616133376955986], [0.13872507214546204, 0.10651278495788574, 0.11044442653656006, 0.1855386346578598, 0.19016802310943604], [0.16523803770542145, 0.008120669052004814, 0.08114149421453476, 0.2494211047887802, -0.008098558522760868], [0.18439851701259613, 0.05158444494009018, 0.07359430938959122, -0.47920164465904236, 0.47934481501579285], [-0.020646309480071068, -0.174210786819458, -0.03225334733724594, 0.17749309539794922, 0.16065487265586853], [0.13119566440582275, 0.11163735389709473, 0.22399725019931793, 0.10623733699321747, 0.23197779059410095], [-0.3031567931175232, -0.28052279353141785, -0.08595234900712967, 0.029825659468770027, -0.17600753903388977], [0.022624915465712547, 0.03985004499554634, 0.02086828276515007, -0.08508738875389099, 0.027862733229994774], [-0.061696965247392654, -0.035430554300546646, -0.012082492001354694, -0.20695559680461884, 0.13244076073169708], [-0.07793417572975159, -0.11707558482885361, 0.10206212848424911, 0.037776581943035126, 0.2459903210401535], [0.10073278844356537, 0.04423175007104874, -0.09036392718553543, -0.07368484139442444, -0.05938735604286194]], [[-0.04851825162768364, -0.15425565838813782, -0.013786558993160725, -0.27042248845100403, 0.08581064641475677], [0.04571982100605965, -0.0036285161040723324, -0.12800516188144684, -0.1253875195980072, 0.0222560316324234], [-0.12222478538751602, -0.015085510909557343, 0.007332953624427319, 0.05437065660953522, -0.049265000969171524], [-0.09148953855037689, -0.17005974054336548, -0.1882840394973755, -0.1425212025642395, -0.25005078315734863], [-0.07765138149261475, 0.14769944548606873, 0.038696255534887314, -0.3687654435634613, -0.19467197358608246], [0.07806138694286346, 0.11901453882455826, 0.12124859541654587, 0.07656504958868027, 0.16556242108345032], [0.012358003295958042, -0.11987646669149399, -0.044625792652368546, -0.3907049298286438, 0.08633590489625931], [0.23651659488677979, -0.025230929255485535, -0.06494053453207016, 0.24091680347919464, -0.06891040503978729], [-0.10015983134508133, -0.018779020756483078, -0.17143988609313965, -0.026913845911622047, -0.14329223334789276], [-0.17652268707752228, -0.0919005274772644, 0.10462591052055359, 0.017085663974285126, 0.05651303008198738], [0.06354878097772598, 0.2500587999820709, -0.06395162642002106, 0.06042804941534996, 0.12820014357566833], [-0.08853617310523987, -0.18186825513839722, 0.08475802838802338, 0.18216738104820251, 0.14712810516357422], [0.06227653846144676, 0.07896048575639725, 0.10061071068048477, -0.09088269621133804, 0.18679596483707428], [-0.11516349762678146, 0.06209196522831917, 0.12354573607444763, 0.22295638918876648, 0.15853142738342285], [-0.1595669537782669, -0.13128136098384857, -0.009547395631670952, 0.01650560460984707, 0.02982661873102188], [0.09198491275310516, -0.023318106308579445, -0.010728484019637108, -0.08237787336111069, 0.05801361799240112], [-0.16567210853099823, 0.1318514347076416, 0.25713619589805603, 0.16242650151252747, 0.09909375756978989], [0.1341545432806015, 0.055448971688747406, 0.07893532514572144, 0.2643323242664337, 0.311149001121521], [0.06039918214082718, -0.05765359848737717, 0.0018453302327543497, 0.12872566282749176, 0.1420425921678543]], [[-0.0157418604940176, -0.023155536502599716, 0.09934846311807632, 0.20581132173538208, 0.08513375371694565], [-0.11529994010925293, -0.2549276351928711, 0.02103046514093876, -0.06405238807201385, -0.0018517420394346118], [-0.031906608492136, -0.014360404573380947, -0.01859969086945057, 0.0765354111790657, 0.09984535723924637], [-0.16004204750061035, -0.08563526719808578, -0.009598846547305584, 0.06107253581285477, 0.12098855525255203], [-0.02995208650827408, 0.1521163433790207, -0.21493692696094513, -0.30496785044670105, -0.12915106117725372], [-0.15975748002529144, -1.1894459021277726e-05, 0.011757687665522099, 0.049103327095508575, -0.09426587074995041], [0.24812772870063782, 0.25970354676246643, -0.004626641049981117, 0.03768620640039444, 0.2626749575138092], [-0.16260939836502075, -0.03267133608460426, 0.10326763242483139, 0.1467406004667282, -0.04138940945267677], [0.158678337931633, 0.02145528979599476, 0.12915556132793427, -0.023278966546058655, -0.13621264696121216], [-0.17688056826591492, -0.21289925277233124, 0.024479014798998833, 0.034514717757701874, 0.0032767802476882935], [0.055270034819841385, 0.0735912024974823, -0.040825314819812775, 0.03985312581062317, 0.18481718003749847], [-0.08932825177907944, -0.16372452676296234, -0.09119831025600433, 0.07594472914934158, -0.22694630920886993], [-0.19805651903152466, 0.1303410679101944, 0.09689861536026001, 0.04755095764994621, 0.10391069203615189], [0.11936343461275101, 0.046254150569438934, 0.027149222791194916, 0.15663787722587585, 0.041468314826488495], [-0.13363845646381378, 0.010082142427563667, -0.06092104688286781, -0.2872152328491211, -0.03923976421356201], [-0.0865212008357048, 0.10426434874534607, 0.20022287964820862, 0.017206594347953796, 0.1768101453781128], [-0.034218546003103256, 0.08405300229787827, 0.0009257487254217267, 0.10676977038383484, 0.030897926539182663], [-0.13358528912067413, -0.1814837008714676, -0.38474348187446594, -0.32074370980262756, -0.10340103507041931], [-0.3237084150314331, -0.32125118374824524, 0.06499036401510239, 0.15528416633605957, 0.26731768250465393]], [[0.026907457038760185, -0.09498298913240433, 0.13226614892482758, 0.029314817860722542, 0.029934821650385857], [-0.07076701521873474, 0.11773359775543213, 0.16472911834716797, 0.03550347313284874, 0.0018443146254867315], [-0.14116746187210083, -0.05324907600879669, -0.2041015625, -0.21593499183654785, -0.14859549701213837], [0.05610363930463791, -0.17959067225456238, -0.07599300146102905, 0.15548913180828094, 0.12189837545156479], [0.10756458342075348, -0.03071756660938263, 0.1581062227487564, -0.21398603916168213, -0.23899266123771667], [-0.10995910316705704, -0.1031215563416481, -0.028087619692087173, -0.03514622524380684, 0.0298139750957489], [0.11899839341640472, -0.10630744695663452, 0.08754249662160873, -0.45842042565345764, -0.047538913786411285], [0.14741581678390503, 0.11777286231517792, 0.0954514741897583, -0.1223626434803009, 0.018741732463240623], [0.04551508650183678, 0.07211611419916153, 0.013491583056747913, -0.10259543359279633, -0.04348234832286835], [-0.15172621607780457, -0.10289279371500015, 0.17746581137180328, -0.03948015719652176, -0.03029744327068329], [0.12275294959545135, 0.013242856599390507, 0.042516909539699554, 0.3736571669578552, -0.05278497934341431], [0.3977656066417694, 0.05630236491560936, 0.05596698820590973, 0.19075067341327667, -0.23960809409618378], [0.022299494594335556, 0.14312750101089478, -0.03770231083035469, -0.13601113855838776, -0.12459598481655121], [-0.05514201521873474, -0.0376666821539402, -0.040493473410606384, 0.07543562352657318, 0.04822634905576706], [-0.034270986914634705, 0.07277245074510574, -0.08686079829931259, 0.09116024523973465, -0.04254508018493652], [0.07930818200111389, -0.12744489312171936, 0.12607933580875397, 0.14013411104679108, -0.06042275205254555], [0.325485497713089, 0.2990572452545166, 0.07069722563028336, -0.017724530771374702, 0.14580687880516052], [0.20304368436336517, 0.13443300127983093, 0.5047738552093506, 0.24181348085403442, -0.043458595871925354], [-0.05996375530958176, 0.10211646556854248, -0.2576560378074646, 0.124732606112957, -0.035510893911123276]], [[-0.013435176573693752, -0.01595020666718483, -0.08824362605810165, 0.08247746527194977, -0.029535632580518723], [0.05003403499722481, -0.002443426987156272, 0.12193422019481659, -0.14020320773124695, 0.16903400421142578], [-0.05688183009624481, -0.20435172319412231, -0.03641724959015846, -0.08307799696922302, 0.011234729550778866], [0.1080796867609024, -0.14489756524562836, -0.048960331827402115, 0.08726786822080612, -0.26809826493263245], [0.1377350091934204, -0.05074614658951759, 0.09271849691867828, 0.02180982194840908, -0.22062066197395325], [-0.053382642567157745, -0.033358097076416016, 0.01411738432943821, -0.2680571377277374, 0.10272132605314255], [-0.11231444776058197, -0.009450762532651424, 0.037333596497774124, 0.01772681437432766, 0.1822449266910553], [-0.024513807147741318, -0.028890883550047874, 0.21165770292282104, 0.08037368208169937, 0.2469685971736908], [0.004010209813714027, 0.17575043439865112, 0.09059543162584305, 0.005392211023718119, 0.06940140575170517], [0.0724930614233017, 0.06849391758441925, 0.08555961400270462, -0.05213526263833046, -0.01383674331009388], [-0.09104421734809875, 0.17228767275810242, 0.1707981824874878, -0.02707543410360813, 0.016487203538417816], [-0.06463213264942169, 0.21344886720180511, 0.05573857203125954, 0.10681314766407013, 0.10902431607246399], [-0.11853011697530746, -0.14520315825939178, 0.3545571565628052, 0.016513949260115623, -0.08032026141881943], [-0.09470856189727783, 0.09193062037229538, -0.031264785677194595, 0.05786646902561188, -0.02461947873234749], [-0.1580660194158554, 0.05567149072885513, -0.15296240150928497, -0.06934525072574615, 0.13454948365688324], [0.21108882129192352, -0.07078901678323746, -0.16019093990325928, -0.026721011847257614, -0.03564908355474472], [-0.07299315929412842, 0.21449227631092072, 0.07144936174154282, -0.010898015461862087, 0.3677632212638855], [0.08739741146564484, 0.2792280614376068, 0.0485379621386528, 0.252648264169693, 0.152612566947937], [0.21593314409255981, -0.05608801543712616, 0.21881632506847382, 0.03615185618400574, -0.2014325112104416]], [[-0.048348452895879745, 0.11021671444177628, 0.030522802844643593, -0.0004525732365436852, -0.04166910797357559], [-0.038667771965265274, 0.10595794767141342, 0.09919937700033188, 0.13167285919189453, 0.06031183525919914], [-0.09281376004219055, -0.17853543162345886, -0.055696066468954086, 0.005804469343274832, -0.16264179348945618], [0.1411142796278, -0.07430203258991241, -0.1153961643576622, -0.029077041894197464, 0.2186485379934311], [-0.07441901415586472, 0.002427703235298395, -0.018710490316152573, 0.29831409454345703, -0.1259051114320755], [0.10673175752162933, -0.07758272439241409, 0.10192952305078506, -0.058055371046066284, -0.211912602186203], [-0.1232667937874794, -0.16086259484291077, 0.3453161418437958, 0.05344486981630325, 0.2239389568567276], [-0.07725673913955688, 0.07627661526203156, 0.2118758112192154, 0.14300261437892914, 0.06682591140270233], [0.14299297332763672, -0.09099633991718292, -0.29254767298698425, -0.02620178647339344, 0.03949799761176109], [0.003915120847523212, -0.07233022898435593, -0.1587013155221939, 0.0805392935872078, 0.04744051769375801], [0.0366700179874897, -0.027327843010425568, -0.018534572795033455, 0.02510623075067997, 0.030802708119153976], [0.06469828635454178, 0.10049416124820709, -0.10112853348255157, 0.18679417669773102, 0.07835552841424942], [-0.07689249515533447, 0.3071376085281372, -0.20844517648220062, 0.10646110773086548, -0.47582507133483887], [0.08085250109434128, 0.022755760699510574, 0.08252149820327759, 0.015612004324793816, -0.22163352370262146], [-0.13534776866436005, 0.025227710604667664, 0.2277163416147232, -0.35712191462516785, -0.06982380896806717], [0.13608799874782562, -0.16536635160446167, 0.007278276141732931, -0.15714110434055328, 0.0410015694797039], [-0.08910033851861954, 0.2917819917201996, -0.04500674456357956, 0.01776113174855709, 0.07350623607635498], [0.34207311272621155, -0.15234766900539398, 0.2780520021915436, 0.2922031283378601, -0.16897042095661163], [0.04068077355623245, 0.0010966340778395534, 0.09615130722522736, -0.12698008120059967, 0.1806495189666748]], [[-0.16782543063163757, -0.25504547357559204, -0.09315527975559235, -0.23003138601779938, -0.0205323975533247], [-0.04289920628070831, -0.05885490030050278, 0.020281484350562096, 0.17529308795928955, -0.07363563030958176], [-0.133367657661438, -0.08875417709350586, -0.14422805607318878, -0.13116863369941711, 0.005766594782471657], [0.009543728083372116, 0.008274502120912075, 0.10397019237279892, 0.04148498550057411, -0.10392757505178452], [-0.06827045232057571, -0.0750725194811821, -0.12381323426961899, -0.11219079792499542, 0.05328755080699921], [0.049136172980070114, -0.08156771957874298, -0.15136225521564484, 0.21510402858257294, 0.05962001904845238], [-0.01718256250023842, 0.46886497735977173, 0.15540213882923126, 0.011675529181957245, -0.0439596101641655], [-0.12924307584762573, 0.15066859126091003, 0.3094530701637268, -0.08399207144975662, 0.12069930136203766], [-0.04585346207022667, -0.0008472733898088336, 0.0731707513332367, -0.14777755737304688, -0.026333235204219818], [0.31627070903778076, 0.04304824396967888, 0.08186770230531693, 0.11474853754043579, 0.11157343536615372], [0.13202804327011108, -0.18351173400878906, -0.19793790578842163, -0.3405485451221466, 0.0031340867280960083], [-0.2452915906906128, -0.01796802505850792, -0.07440268993377686, 0.09156245738267899, -0.08266187459230423], [0.1643703579902649, 0.023523345589637756, 0.2189984768629074, 0.15716759860515594, -0.22437134385108948], [-0.029025807976722717, 0.08508894592523575, 0.23795324563980103, 0.31286734342575073, 0.16562750935554504], [-0.019605545327067375, -0.178912952542305, -0.10813123732805252, -0.02359708398580551, -0.08650298416614532], [0.08931779861450195, 0.03391537442803383, -0.04108615964651108, 0.010299169458448887, -0.08975857496261597], [0.011863759718835354, 0.008709202520549297, -0.10571467131376266, -0.16190290451049805, -0.1407138556241989], [0.14144793152809143, 0.28307220339775085, 0.04148564860224724, 0.3126841187477112, 0.20767241716384888], [0.10776492208242416, -0.026412371546030045, 0.1269887089729309, 0.14676983654499054, -0.12893107533454895]], [[-0.12207609415054321, -0.09267400205135345, -0.04898490756750107, -0.25787749886512756, -0.02396724373102188], [0.010547672398388386, -0.08259014040231705, 0.1892174482345581, -0.08909876644611359, 0.0090503403916955], [-0.08103851228952408, -0.08876658976078033, 0.03293318673968315, -0.10609256476163864, -0.17111705243587494], [-0.334106981754303, 0.1417851448059082, -0.039957400411367416, -0.06246962398290634, -0.08463732898235321], [0.182795450091362, -0.08655291795730591, -0.28685876727104187, 0.1845708191394806, -0.24318543076515198], [0.18617981672286987, 0.05019984021782875, -0.10345780849456787, -0.15094561874866486, 0.28460144996643066], [0.07263177633285522, -0.05772140249609947, 0.10418052226305008, 0.06121484562754631, -0.03418730944395065], [0.07882781326770782, -0.12426383048295975, -0.05995924770832062, 0.10764158517122269, -0.07419418543577194], [-0.29493284225463867, -0.04043392837047577, -0.05754653364419937, 0.1837053745985031, -0.2312655746936798], [-0.16659662127494812, -0.13739728927612305, -0.09154081344604492, 0.10666442662477493, 0.03585541248321533], [0.05651552975177765, 0.03975497931241989, 0.23313386738300323, -0.2965702414512634, 0.08375776559114456], [0.0877898558974266, -0.04485242813825607, -0.22423703968524933, 0.028783174231648445, 0.2722574472427368], [-0.13891558349132538, -0.24645698070526123, 0.062425121665000916, -0.33720529079437256, -0.018357671797275543], [-0.03148708492517471, -0.22794286906719208, -0.12263745069503784, -0.11720208823680878, -0.08796626329421997], [-0.05424317345023155, 0.011526856571435928, 0.2516758143901825, 0.08778386563062668, -0.011451437138020992], [-0.07987900823354721, -0.13643506169319153, 0.002421760465949774, 0.16093456745147705, 0.010203932411968708], [0.03612940013408661, 0.18105563521385193, -0.17508052289485931, -0.025335000827908516, 0.02834462560713291], [0.09579958766698837, 0.054082177579402924, 0.06623563170433044, -0.03598727285861969, -0.1477847844362259], [0.2180318981409073, -0.05820732191205025, -0.16956427693367004, -0.2311537265777588, 0.14858537912368774]], [[-0.1632418930530548, 0.07436078786849976, -0.10250656306743622, -0.0772404819726944, -0.16102562844753265], [0.1481061428785324, 0.1543770283460617, -0.13989628851413727, 0.04994398355484009, -0.004295919090509415], [-0.12745806574821472, -0.1829504817724228, -0.2290460616350174, -0.1793580800294876, -0.1368625909090042], [0.031457286328077316, -0.18668389320373535, -0.029779985547065735, -0.30178654193878174, 0.06281372159719467], [-0.08355143666267395, -0.18158690631389618, -0.40504249930381775, -0.2454865574836731, -0.3500586152076721], [-0.014303081668913364, -0.00512858247384429, 0.1206866130232811, -0.013620655052363873, -0.004224075470119715], [0.12670929729938507, -0.046478770673274994, -0.15385915338993073, -0.21330276131629944, -0.5221894383430481], [0.1537562906742096, 0.1724451780319214, 0.29670700430870056, -0.08428329229354858, 0.07933135330677032], [-0.3155585825443268, -0.016413958743214607, -0.02036958746612072, -0.02219397947192192, 0.061320532113313675], [0.02960205264389515, -0.01863923668861389, 0.13627490401268005, 0.07800135016441345, -0.13491688668727875], [-0.09314797073602676, 0.24633152782917023, 0.00912176351994276, 0.1563699096441269, 0.17900428175926208], [0.051177624613046646, 0.12054295837879181, 0.10346458107233047, 0.009494471363723278, 0.19344058632850647], [0.01948022097349167, 0.14410212635993958, -0.15694236755371094, 0.0707501545548439, -0.038158126175403595], [-0.20190741121768951, -0.016822805628180504, -0.04615773633122444, -0.13209731876850128, -0.17746827006340027], [-0.3476772904396057, -0.35195571184158325, 0.05819639936089516, -0.0945759192109108, -0.09958769381046295], [-0.1628660410642624, -0.13565607368946075, -0.04718071594834328, -0.07827518880367279, 0.02837652899324894], [-0.2527346611022949, -0.06485656648874283, 0.17904263734817505, 0.1199871078133583, -0.09928228706121445], [0.38273879885673523, 0.10258017480373383, 0.3492853045463562, 0.014163339510560036, 0.3583313822746277], [0.24579741060733795, 0.1013544425368309, 0.015345927327871323, -0.19865871965885162, -0.17464327812194824]]], "conv5.bias": [0.0035902350209653378, -0.14652946591377258, 0.011365637183189392, -0.02576054446399212, -0.2109140008687973, -0.04967498034238815, -0.22025102376937866, -0.018353790044784546, -0.21865177154541016, -0.015157325193285942, -0.1264757364988327, -0.022301875054836273, -0.10792345553636551, 0.10228762775659561, 0.021498221904039383, -0.13271881639957428], "fc1.weight": [[-0.17725318670272827, -0.20988795161247253, 0.2303767204284668, 0.05681884288787842, 0.17667627334594727, -0.2909536361694336, -0.14938031136989594, -0.32994168996810913, -0.05760136991739273, -0.24766582250595093, -0.050065260380506516, -0.017119992524385452, -0.038253553211688995, 0.050230905413627625, 0.09268876910209656, 0.22218692302703857, 0.12155217677354813, -0.21870841085910797, -0.0216678399592638, -0.2787170708179474, 0.13868801295757294, -0.1934075951576233, 0.15199780464172363, 0.22043095529079437, 0.15782687067985535, -0.2160043865442276, 0.2976119816303253, 0.04378248751163483, -0.17795144021511078, -0.174953430891037, 0.14857937395572662, 0.20900139212608337, 0.2915650010108948, 0.10240154713392258, -0.0758548304438591, -0.17134574055671692, 0.0007826777873560786, -0.36141276359558105], [-0.18471747636795044, -0.13155212998390198, 0.13643664121627808, -0.10039415955543518, 0.13782645761966705, -0.08384598046541214, -0.14524224400520325, -0.032186493277549744, -0.06893793493509293, -0.01219022087752819, 0.2604725658893585, 0.04132695123553276, -0.23956261575222015, -0.21866193413734436, -0.13492782413959503, 0.3564162254333496, -0.1593019813299179, -0.19332174956798553, -0.196619912981987, -0.06144285947084427, 0.29062920808792114, -0.07409146428108215, 0.22355303168296814, 0.23296774923801422, 0.14655029773712158, 0.23092065751552582, -0.006890225689858198, 0.008745343424379826, -0.09126334637403488, -0.4045017659664154, -0.014732261188328266, 0.2060001641511917, 0.19461454451084137, -0.044426001608371735, -0.12509331107139587, 0.09031667560338974, 0.1472778171300888, -0.11879712343215942], [0.13569580018520355, 0.09001857787370682, -0.15040044486522675, 0.1264025866985321, -0.13243480026721954, 0.11827009916305542, 0.08898648619651794, 0.026040615513920784, 0.1298064887523651, 0.12433366477489471, -0.2783416211605072, -0.1732962280511856, 0.17795871198177338, 0.19710616767406464, 0.30990561842918396, -0.2024058997631073, 0.16704918444156647, 0.288241982460022, 0.16226717829704285, 0.25562211871147156, -0.17647983133792877, 0.0961129292845726, -0.3963543772697449, -0.1987774819135666, -0.2947154939174652, -0.09727128595113754, 0.23584793508052826, 0.11377020925283432, 0.3055649697780609, 0.43914541602134705, -0.20887526869773865, -0.29636672139167786, -0.2876681685447693, -0.0916934609413147, -0.12971293926239014, -0.011953135021030903, 0.050909385085105896, 0.08765041083097458], [0.14981190860271454, 0.16540798544883728, -0.14955870807170868, -0.030034461989998817, 0.24334366619586945, -0.06354391574859619, 0.10942684859037399, -0.1908177137374878, -0.03662729635834694, -0.1958891749382019, 0.12330470234155655, -0.23903866112232208, -0.10487980395555496, 0.0668497309088707, 0.1952418088912964, -0.2594437897205353, -0.20888257026672363, -0.15919192135334015, 0.04424962028861046, 0.025716865435242653, -0.14476676285266876, -0.27145424485206604, 0.0664973184466362, -0.42489129304885864, -0.1759432703256607, 0.12687543034553528, -0.17460736632347107, -0.09368541836738586, -0.33874374628067017, -0.3085719347000122, 0.17687731981277466, -0.0991634652018547, 0.10294941812753677, 0.062299635261297226, 0.03532911464571953, -0.12282063066959381, 0.03759058564901352, 0.025297541171312332], [0.19355297088623047, 0.08273814618587494, -0.1273292452096939, 0.23193395137786865, -0.20584309101104736, 0.2104698121547699, 0.04145170748233795, 0.07883789390325546, 0.15942469239234924, 0.006324359215795994, -0.27478882670402527, -0.2196636199951172, 0.13008618354797363, 0.2953623831272125, 0.27310800552368164, -0.2512414753437042, 0.26692214608192444, 0.2878800928592682, 0.29053813219070435, 0.20080867409706116, -0.2415999472141266, 0.34589534997940063, -0.3343622088432312, -0.10916542261838913, -0.3199830651283264, -0.3110474646091461, 0.1500607579946518, 0.26474499702453613, 0.3353404402732849, 0.2447158247232437, -0.38760676980018616, -0.3446207046508789, -0.13298708200454712, 0.020846392959356308, -0.017040016129612923, -0.10219429433345795, -0.03266807273030281, -0.08752420544624329], [-0.07511160522699356, -0.21588043868541718, 0.2422332763671875, -0.2956119477748871, 0.14977633953094482, -0.0470803938806057, -0.17731724679470062, -0.033434756100177765, -0.19744494557380676, -0.16569937765598297, 0.07542674988508224, 0.03328370302915573, -0.18913470208644867, -0.045201625674963, -0.25670066475868225, 0.3536953330039978, -0.04481416568160057, -0.3055911958217621, -0.3335614502429962, -0.1801525354385376, 0.39860185980796814, -0.15269821882247925, 0.13707278668880463, 0.22219686210155487, 0.18741199374198914, 0.3299194574356079, 0.1149434819817543, -0.10498225688934326, -0.030865037813782692, -0.27890560030937195, 0.04152308404445648, 0.26742470264434814, 0.3519924283027649, 0.056926582008600235, 0.11820877343416214, 0.26329195499420166, -0.006549122277647257, -0.11414188146591187], [0.16196811199188232, 0.005709208082407713, -0.1930159628391266, 0.35014966130256653, -0.3040555417537689, 0.20010673999786377, 0.2781294286251068, 0.20296210050582886, 0.2756551206111908, 0.14345316588878632, -0.46297207474708557, -0.34522199630737305, 0.10444565117359161, 0.22990652918815613, 0.2502443194389343, -0.2979819178581238, 0.1978265345096588, 0.11812090128660202, 0.253464013338089, 0.3092406094074249, -0.22656124830245972, 0.1424149125814438, -0.4420757591724396, -0.07882808148860931, -0.40133875608444214, -0.29411420226097107, 0.30371472239494324, 0.22330977022647858, 0.42462557554244995, 0.3730403780937195, -0.3255971372127533, -0.275919646024704, -0.15653537213802338, 0.09834270924329758, -0.11984370648860931, 0.06502462923526764, -0.05364777147769928, 0.08077281713485718], [0.1046648770570755, 0.1827489733695984, -0.24169743061065674, 0.17541588842868805, -0.08792707324028015, 0.2962360978126526, 0.07046384364366531, 0.251619428396225, 0.21074959635734558, -0.06721719354391098, -0.3426704704761505, -0.4025498926639557, 0.12075420469045639, 0.07684198021888733, 0.26131245493888855, -0.3278122842311859, 0.2045559138059616, 0.2654210329055786, 0.05562567338347435, 0.2443850189447403, -0.11315591633319855, 0.18639694154262543, -0.40579336881637573, -0.10847437381744385, -0.4325874447822571, -0.3193756937980652, 0.144074484705925, 0.24171790480613708, 0.3346799612045288, 0.3258814215660095, -0.1977141946554184, -0.1777384728193283, -0.14956407248973846, 0.13218358159065247, -0.10952448099851608, -0.005262079648673534, -0.09248433262109756, 0.07673197239637375], [-0.2681724429130554, -0.2909948229789734, 0.2927890419960022, -0.17627762258052826, 0.1904255598783493, -0.3255798816680908, -0.06410202383995056, -0.2421657145023346, -0.2945877015590668, -0.44222429394721985, -0.04977213963866234, 0.1391855776309967, 0.1478317826986313, 0.170701801776886, 0.048409730195999146, 0.09791383147239685, 0.04562096297740936, -0.07432694733142853, -0.27358368039131165, -0.16559545695781708, 0.15929359197616577, -0.17844724655151367, 0.12382560968399048, 0.235507071018219, 0.031142111867666245, -0.12441819906234741, 0.3104691505432129, -0.0013623498380184174, 0.003260199213400483, -0.08781716972589493, -0.033099010586738586, 0.2460576444864273, 0.12149698287248611, -0.12684914469718933, 0.09360320121049881, -0.123947873711586, 0.0520734041929245, -0.26552721858024597], [-0.061955373734235764, -0.12643183767795563, 0.31914371252059937, -0.1971954107284546, 0.10381003469228745, -0.13663095235824585, -0.18616773188114166, -0.3868117034435272, -0.13052554428577423, -0.43573787808418274, -0.11318284273147583, 0.1536654680967331, -0.038861438632011414, 0.1313909888267517, -0.12186690419912338, 0.26824018359184265, 0.18890608847141266, -0.3164218068122864, -0.1891447752714157, -0.0987020805478096, 0.12128102034330368, -0.3213335871696472, 0.10644137114286423, 0.2390916794538498, 0.15649667382240295, -0.09332036226987839, 0.2425948530435562, 0.06504619121551514, 0.024058960378170013, -0.2792673707008362, -0.057343147695064545, 0.18799324333667755, 0.1906495839357376, -0.03571566566824913, 0.00735959317535162, -0.10691642016172409, 0.16758771240711212, -0.4150877296924591], [0.13770566880702972, 0.12868815660476685, -0.15587201714515686, 0.21532891690731049, -0.17672951519489288, 0.1299598067998886, 0.1369132697582245, 0.07959821820259094, 0.17181436717510223, 0.017991259694099426, -0.22721107304096222, -0.2604803144931793, 0.11824870109558105, 0.2790031433105469, 0.29099711775779724, -0.2598704695701599, 0.2527056038379669, 0.21595564484596252, 0.1881227344274521, 0.16338735818862915, -0.19552139937877655, 0.23168538510799408, -0.38143107295036316, -0.15115028619766235, -0.30334651470184326, -0.13299846649169922, 0.15827801823616028, 0.1720898598432541, 0.25289323925971985, 0.37982177734375, -0.2394193559885025, -0.293446809053421, -0.18952101469039917, -0.01772143505513668, -0.015976544469594955, -0.05468112602829933, -0.013045048341155052, -0.035670407116413116], [-9.166704375238326e-17, -9.8870444812137e-28, -1.4658352650992965e-39, -2.05562497315204e-39, 5.674342331319841e-39, -3.307054854097204e-16, -9.652830991281778e-24, -1.253225156927293e-18, -4.413387584712014e-20, 6.426182415170704e-34, -1.278404160451466e-29, -3.709541116834549e-39, -4.385029597341103e-18, 6.930345763072675e-40, 5.8214702622831606e-40, -7.900128378293308e-40, -4.3642169578097524e-27, -2.3008990335624558e-18, -4.429038811253797e-19, -1.475964572060173e-16, 4.729935829989666e-39, -1.0337880344663263e-20, 5.820500563745848e-39, -2.2652303916260583e-20, 4.122974610555086e-39, -4.399415012655951e-15, -1.7041578081744773e-18, -3.153167517106334e-19, -6.421798590979531e-20, 1.3001821684376026e-39, -4.4608066508268345e-39, 2.9099335884199865e-39, -4.155680916712427e-39, -2.345776653732577e-30, -2.4743257066729643e-30, 3.599874097718025e-39, 2.2915167540395512e-39, -2.9099770286723805e-39], [-0.12821121513843536, -0.2090274840593338, 0.10742592066526413, -0.320791631937027, -0.0455397330224514, 0.01984565518796444, -0.09844919294118881, 0.13770174980163574, -0.09548595547676086, -0.05854370817542076, 0.1584976315498352, 0.19468538463115692, -0.2477378398180008, -0.18304884433746338, -0.2717709243297577, 0.3303355872631073, -0.15640881657600403, -0.10945343226194382, -0.25560057163238525, -0.2460911124944687, 0.33999890089035034, -0.18297529220581055, 0.3185167610645294, 0.21219250559806824, 0.13181528449058533, 0.3220837116241455, -0.008113187737762928, 0.13291895389556885, -0.053725361824035645, -0.4254635274410248, -0.03172973170876503, 0.10252118855714798, 0.030484629794955254, -0.11438686400651932, 0.1405240148305893, 0.08007531613111496, 0.01399095170199871, -0.13182921707630157], [0.12379541993141174, 0.07018075883388519, -0.1248619481921196, 0.1347070336341858, -0.13329856097698212, 0.1913762241601944, 0.13023127615451813, 0.13947881758213043, 0.14865536987781525, 0.06875347346067429, -0.19691301882266998, -0.2810894846916199, 0.16382986307144165, 0.1217118352651596, 0.24453046917915344, -0.2336537390947342, 0.1529245227575302, 0.15388399362564087, 0.19140063226222992, 0.17555539309978485, -0.12347285449504852, 0.1653112769126892, -0.3318772614002228, -0.14679811894893646, -0.24710479378700256, -0.13297416269779205, 0.22700977325439453, 0.20411325991153717, 0.1980203539133072, 0.13471752405166626, -0.24468852579593658, -0.16423091292381287, -0.1335475742816925, -0.06613247096538544, -0.13630728423595428, -0.005310258362442255, -0.11474815011024475, -0.03124016709625721], [0.14870978891849518, -0.002344415755942464, -0.18307344615459442, 0.158389613032341, -0.2698972821235657, 0.2007497251033783, 0.2506198585033417, 0.02652003802359104, 0.18771125376224518, -0.021717721596360207, -0.2985129654407501, -0.3573412597179413, 0.1862688660621643, 0.26600655913352966, 0.2844363749027252, -0.07322225719690323, 0.2047741413116455, 0.10676258057355881, 0.25601157546043396, 0.23149314522743225, -0.16667701303958893, 0.26161468029022217, -0.49818962812423706, -0.04337127506732941, -0.1711455136537552, -0.15875256061553955, 0.18850870430469513, 0.22866088151931763, 0.22979439795017242, 0.05864964798092842, -0.2942836582660675, -0.2431642860174179, -0.1947144716978073, -0.12953731417655945, 0.07952544838190079, -0.01471360307186842, 0.0012719961814582348, 0.09816662222146988], [-0.11953592300415039, -0.21553045511245728, 0.22656969726085663, -0.27018672227859497, 0.05040751025080681, -0.1282203644514084, -0.18336164951324463, -0.11569917947053909, -0.16137617826461792, -0.17424526810646057, 0.2424888163805008, 0.0850600078701973, -0.12396260350942612, 0.05512605607509613, -0.2955973148345947, 0.36176052689552307, -0.2386675626039505, -0.11179129034280777, -0.23375526070594788, -0.16331391036510468, 0.19676999747753143, -0.2224043309688568, 0.13541507720947266, 0.3691599667072296, 0.1711171418428421, 0.23023925721645355, 0.11583783477544785, -0.04757663607597351, -0.11359227448701859, -0.27588948607444763, 0.03417760133743286, 0.3039705753326416, 0.3202325701713562, 0.07965543121099472, 0.13174451887607574, -0.0524422712624073, 0.018403057008981705, -0.20411162078380585]], "fc1.bias": [-0.0984886959195137, 0.10915280133485794, -0.14148171246051788, 0.02176697365939617, -0.0007831269176676869, 0.0478530116379261, -0.10279138386249542, 0.017685774713754654, -0.10203719139099121, -0.004019796382635832, -0.018568478524684906, -2.4670028470650818e-30, 0.1506109982728958, -0.07542034238576889, -0.15257617831230164, -0.047487542033195496], "fc2.weight": [[0.4405878782272339, 0.5709179639816284, -0.6230747103691101, -0.7437551021575928, -0.5951047539710999, 0.45250827074050903, -0.5986949801445007, -0.652966320514679, 0.4842166006565094, 0.3236198127269745, -0.553908109664917, 0.0019736136309802532, 0.5867747068405151, -0.5488388538360596, -0.7189574837684631, 0.5408145785331726]], "fc2.bias": [-0.19568797945976257], "norm_mean": [0.04397106543183327, 0.3924936354160309, 0.30581727623939514, 0.43301114439964294, 0.030625242739915848, 0.09848801791667938, 0.38316279649734497, 3.078681707382202, 0.3639388084411621, 0.4845782220363617, 0.05636756494641304, 0.05173107981681824, 0.03053557500243187, 3.3814592361450195, 0.11161419749259949], "norm_std": [0.07743235677480698, 0.2947060167789459, 0.28761330246925354, 0.2112436443567276, 0.08545452356338501, 0.17289789021015167, 0.2614809274673462, 1.091355800628662, 0.48113158345222473, 0.26646754145622253, 0.23063026368618011, 0.22148369252681732, 0.17205576598644257, 2.8114218711853027, 0.1880696564912796]}