{"tool_embed.weight": [[2.1048197746276855, 1.6830919981002808, 0.36389508843421936, -1.9086086750030518], [0.6455780267715454, -1.568244218826294, 0.32818517088890076, -1.7956982851028442], [-0.8080555200576782, 1.6009914875030518, 0.01939956657588482, -1.0424555540084839], [-0.8975769877433777, 0.245155930519104, -2.520665168762207, 0.039248108863830566], [3.802350515425246e-39, 2.210350744388929e-39, 6.937104225566113e-39, 2.5579137934062643e-31], [-4.4171127634107224e-39, 2.0262299352658984e-39, 1.6268038209947526e-39, -3.290650966893932e-39], [-1.9296973943710327, 1.0006203651428223, -0.7411374449729919, -1.2278658151626587]], "conv3.weight": [[[-0.0023200600408017635, -0.15460601449012756, 0.12389127910137177], [-0.004237971734255552, 0.13717907667160034, -0.34742939472198486], [-0.00428304448723793, 0.12557989358901978, -0.047967519611120224], [0.20088723301887512, 0.0776372104883194, -0.06249099597334862], [-0.2817913293838501, -0.050837792456150055, -0.1320246309041977], [-0.07672771066427231, -0.19218102097511292, -0.2548779845237732], [-0.10058127343654633, -0.05246436595916748, -0.032556239515542984], [0.22744153439998627, 0.291167289018631, -0.11690456420183182], [0.02848517894744873, -0.09737266600131989, 0.039126280695199966], [-0.158174067735672, 0.2954440712928772, -0.22631065547466278], [-0.20256151258945465, -0.05376719310879707, 0.07969517260789871], [0.05719950422644615, 0.14447155594825745, 0.016079019755125046], [-0.11522158980369568, -0.3480479121208191, 0.12273212522268295], [-0.15178892016410828, 0.12783263623714447, 0.0992000550031662], [-0.027915704995393753, -0.16264207661151886, -0.10391983389854431]], [[-0.049267902970314026, -0.015302660875022411, -0.07779436558485031], [0.2378104329109192, 0.016744494438171387, -0.1175016388297081], [-0.0543438084423542, 0.16899733245372772, -0.07496219128370285], [-0.062043312937021255, -0.1628047674894333, 0.09670113027095795], [-0.056372467428445816, 0.028892209753394127, -0.08360327780246735], [0.06722421944141388, 0.21357817947864532, -0.16559092700481415], [-0.07491026818752289, -0.002005600370466709, 0.11215444654226303], [0.2952498197555542, 0.17101500928401947, -0.005277333781123161], [-0.3129618763923645, -0.13956457376480103, 0.2205192595720291], [-0.10583395510911942, -0.04993850737810135, -0.28935950994491577], [-0.12751111388206482, 0.006590561009943485, 0.05025410279631615], [0.3435406982898712, 0.03462588042020798, -0.10533108562231064], [-0.05098378658294678, -0.12333238869905472, -0.1150788739323616], [0.21647483110427856, -0.21758213639259338, 0.3447912037372589], [0.1056724339723587, -0.019754702225327492, 0.1811552345752716]], [[-0.02678603306412697, 0.06907352805137634, -0.007128160912543535], [-0.34793245792388916, 0.09100799262523651, 0.07731221616268158], [0.2159351259469986, 0.06597623229026794, 0.02071320079267025], [-0.2862666845321655, -0.08824723213911057, 0.05604619160294533], [0.19503681361675262, -0.06011442467570305, 0.06714816391468048], [-0.1321183294057846, 0.10278118401765823, -0.28423354029655457], [-0.18909874558448792, -0.03790389373898506, 0.2184988111257553], [-0.0424051471054554, -0.0827416405081749, 0.007450953591614962], [0.13476458191871643, -0.20332379639148712, 0.2485489845275879], [0.13151070475578308, -0.029786692932248116, 0.025748785585165024], [0.22919532656669617, -0.04472078010439873, -0.444555401802063], [0.07868745177984238, -0.12823745608329773, -0.05330515280365944], [-0.18325480818748474, -0.13455533981323242, -0.2820638418197632], [0.160375714302063, -0.13324497640132904, 0.14090454578399658], [-0.08847662061452866, 0.22533273696899414, 0.19904588162899017]], [[-0.3002927899360657, 0.09522613137960434, 0.1645897477865219], [-0.13680052757263184, -0.21224196255207062, 0.1080353632569313], [-0.1488824039697647, 0.21209195256233215, 0.0942440778017044], [-0.07241981476545334, -0.06353618204593658, -0.050579506903886795], [-0.18612076342105865, 0.06731344014406204, 0.13336461782455444], [-0.1561288982629776, -0.10897186398506165, -0.05482174828648567], [-0.08224222809076309, -0.0703868418931961, -0.015874698758125305], [-0.07810084521770477, 0.0567476786673069, 0.20609335601329803], [0.21939215064048767, -0.05909142643213272, 0.27380868792533875], [-0.35324230790138245, -0.20953799784183502, 0.0779903382062912], [0.16553165018558502, -0.08468357473611832, 0.18313400447368622], [0.015966223552823067, -0.31140968203544617, 0.014108611270785332], [0.07372651249170303, 0.18009328842163086, -0.009538959711790085], [-0.059044696390628815, -0.20942620933055878, -0.25110796093940735], [-0.009409910067915916, -0.02301087975502014, -0.0004322602180764079]], [[-0.3084453046321869, 0.0576593242585659, 0.035645004361867905], [0.11646655201911926, -0.08253668993711472, -0.45456814765930176], [-0.04952382296323776, 0.34581834077835083, 0.09548844397068024], [0.12520639598369598, -0.054747823625802994, 0.0898946225643158], [0.10357971489429474, -0.105649933218956, -0.2554660737514496], [-0.03296302258968353, 0.08958879858255386, 0.05018215253949165], [0.09665088355541229, -0.11167844384908676, -0.22057418525218964], [0.045404888689517975, -0.2347204089164734, 0.14434434473514557], [0.17444422841072083, 0.05961998924612999, 0.03342199698090553], [0.11586418747901917, 0.09431421756744385, 0.018137892708182335], [-0.38890591263771057, 0.0494571179151535, 0.27125102281570435], [0.09025713056325912, 0.030333692207932472, 0.08747272193431854], [0.07612748444080353, -0.34836041927337646, -0.009192153811454773], [-0.48101818561553955, 0.0950864851474762, 0.04378781095147133], [0.05766471475362778, 0.11825746297836304, 0.049262162297964096]], [[-0.1253356635570526, 0.31134140491485596, -0.3619377017021179], [0.040169041603803635, 0.16477584838867188, 0.12128648161888123], [-0.07522188872098923, -0.13283690810203552, -0.11655522882938385], [0.18181216716766357, -0.11320149898529053, -0.04263199493288994], [-0.01232810690999031, 0.11244569718837738, -0.047974634915590286], [-0.24459746479988098, -0.186818465590477, -0.059859517961740494], [0.16607816517353058, 0.06747530400753021, 0.03936081379652023], [0.09220751374959946, 0.02759985812008381, -0.05673658847808838], [0.06794159859418869, 0.015697168186306953, 0.038612376898527145], [-0.3451961278915405, 0.20202265679836273, -0.19011379778385162], [-0.11295849829912186, 0.1127917617559433, -0.1096099466085434], [-0.06733682751655579, -0.14935414493083954, -0.35999882221221924], [0.34111520648002625, -0.21621796488761902, -0.2194744199514389], [-0.2417217195034027, 0.03494051471352577, 0.16529299318790436], [0.01900590769946575, -0.0024584743659943342, 0.21893860399723053]], [[-0.10657712072134018, 0.10208266228437424, 0.16068392992019653], [-0.09000419825315475, 0.14621827006340027, 0.10765165090560913], [-0.23660977184772491, -0.1551395058631897, 0.047456834465265274], [0.1709745079278946, -0.08191477507352829, -0.10433334112167358], [-0.16426576673984528, -0.009836574085056782, -0.019508464261889458], [0.29670199751853943, 0.2151717245578766, -0.1650749295949936], [0.020263325423002243, 0.06094672158360481, -0.1858125627040863], [-0.16051088273525238, -0.0913747102022171, 0.2323583960533142], [-0.10661035776138306, -0.1694469153881073, -0.3064550757408142], [0.21083052456378937, 0.027966175228357315, -0.01356927864253521], [-0.4489190876483917, 0.06688977777957916, 0.11440741270780563], [-0.2385331690311432, -0.19187872111797333, 0.37744396924972534], [-0.0898333266377449, -0.15134988725185394, 0.31813254952430725], [0.10572963207960129, -0.36989474296569824, 0.05311359837651253], [0.05382031574845314, 0.00037162035005167127, -0.14140544831752777]], [[-0.009746447205543518, -0.01757797785103321, -0.24169932305812836], [-0.07919735461473465, -0.09584061801433563, 0.02252519689500332], [0.27357959747314453, -0.0522175133228302, -0.17127342522144318], [-0.03760348632931709, 0.13654661178588867, 0.22815833985805511], [0.15624134242534637, -0.21329671144485474, -0.029728317633271217], [-0.128412663936615, -0.06319347769021988, 0.08721923828125], [0.09772361069917679, 0.0020275821443647146, 0.023425167426466942], [0.1729767769575119, -0.34983372688293457, 0.207650288939476], [0.1706312745809555, 0.16832996904850006, 0.09104583412408829], [-0.2838970720767975, -0.3408612906932831, -0.18039853870868683], [-0.6342304348945618, -0.003201467450708151, -0.06861264258623123], [0.29066672921180725, -0.049675922840833664, -0.1523095965385437], [-0.10066734254360199, -0.2677588164806366, 0.00499391183257103], [0.27700358629226685, -0.1981533169746399, -0.17990152537822723], [0.04598527029156685, -0.11828560382127762, -0.037546806037425995]], [[-0.07748774439096451, -0.22572726011276245, -0.3795942962169647], [-0.033653054386377335, 0.1424277126789093, 0.08072750270366669], [0.2514602541923523, -0.038632117211818695, -0.03085961751639843], [0.0726938545703888, 0.22601047158241272, 0.11149605363607407], [0.10581179708242416, -0.05044454336166382, -0.12556041777133942], [-0.08768607676029205, 0.041159261018037796, 0.09146592766046524], [0.17299072444438934, 0.20852452516555786, 0.21501347422599792], [0.21220842003822327, -0.1888606995344162, 0.13619454205036163], [0.14251314103603363, -0.005411617923527956, 0.10361120104789734], [-0.17248807847499847, -0.09914648532867432, 0.4632374942302704], [-0.4135430157184601, 0.09012126177549362, -0.15694044530391693], [-0.049890417605638504, -0.293427050113678, -0.04388350620865822], [0.08796927332878113, 0.11808406561613083, 0.2307255119085312], [0.08282355964183807, 0.27932873368263245, -0.20521916449069977], [-0.09168028086423874, 0.07578687369823456, 0.202389657497406]], [[-0.044302668422460556, 0.07539890706539154, -0.32149866223335266], [-0.21754415333271027, -0.06187143921852112, 0.10859639197587967], [0.142944797873497, 0.10676277428865433, -0.020251648500561714], [0.08945433795452118, -0.17977046966552734, 0.014220455661416054], [0.0838993713259697, 0.09670189768075943, 0.10142931342124939], [0.18044891953468323, -0.05770586431026459, -0.23567278683185577], [-0.28097003698349, 0.008980358019471169, 0.3841871917247772], [0.06343497335910797, -0.05031616613268852, 0.09598590433597565], [-0.18638747930526733, -0.22972674667835236, 0.1715003252029419], [0.15876275300979614, 0.027367031201720238, -0.06891930848360062], [0.18533653020858765, 0.14043255150318146, -0.08334393799304962], [-0.06867974996566772, 0.048575274646282196, -0.1624445766210556], [-0.29945099353790283, 0.15789560973644257, -0.001158323953859508], [0.09358610957860947, -0.04782496765255928, 0.25996512174606323], [0.013854843564331532, -0.014671401120722294, -0.007115629967302084]], [[0.012284260243177414, 0.148106649518013, -0.10580403357744217], [0.2881452739238739, -0.13509537279605865, -0.10153915733098984], [-0.083307184278965, 0.05275355651974678, 0.010872113518416882], [0.1855471432209015, 0.044197361916303635, -0.08922518789768219], [-0.3369951546192169, -0.16181133687496185, 0.07714837789535522], [0.20081907510757446, 0.11749428510665894, -0.08806996047496796], [-0.03766442835330963, -0.27592071890830994, -0.27382972836494446], [0.3199816942214966, -0.042320407927036285, -0.06886306405067444], [0.09911536425352097, -0.02201567403972149, 0.12065628170967102], [0.24583302438259125, 0.0766492709517479, 0.14826442301273346], [0.06174802780151367, -0.07705371081829071, 0.15859396755695343], [0.08608115464448929, 0.05938337370753288, -0.23686085641384125], [0.19109827280044556, -0.03899058699607849, -0.01615508273243904], [-0.052102163434028625, 0.08697327226400375, 0.2380252331495285], [-0.37675753235816956, -0.011906672269105911, -0.10647115856409073]], [[0.093455471098423, -0.2716180086135864, -0.06743602454662323], [-0.19280047714710236, -0.0981343537569046, 0.3416978716850281], [0.09239520132541656, -0.05023357644677162, 0.2336178869009018], [0.0989890918135643, 0.018794136121869087, -0.07850761711597443], [-0.07634547352790833, -0.1440986841917038, 0.1971217691898346], [-0.1031767725944519, -0.1513294279575348, 0.15609796345233917], [0.2532789707183838, 0.2225956916809082, 0.2379184514284134], [0.09178636968135834, 0.16373811662197113, -0.06410635262727737], [-0.024263683706521988, 0.004381293430924416, 0.00402072025462985], [-0.11582354456186295, -0.25037574768066406, -0.025102222338318825], [-0.039040274918079376, 0.09098581969738007, 0.05865475535392761], [-0.25760623812675476, -0.0016717943362891674, 0.034897204488515854], [-0.09135972708463669, -0.18562567234039307, 0.1880868524312973], [-0.3648362457752228, -0.2040289342403412, 0.12584617733955383], [-0.06820566952228546, 0.06836191564798355, 0.19820311665534973]], [[0.08997762948274612, 0.204298734664917, -0.3098033666610718], [-0.14660683274269104, 0.023574573919177055, -0.20278005301952362], [-0.04188891500234604, 0.09798645973205566, -0.16182339191436768], [0.06604911386966705, -0.11512264609336853, -0.019215743988752365], [-0.05924271047115326, -0.30976784229278564, 0.007390396203845739], [0.022532114759087563, 0.07683468610048294, 0.05496184527873993], [-0.2031250298023224, -0.2174569070339203, 0.049481429159641266], [0.13472579419612885, -0.118756964802742, -0.0814930647611618], [0.15852420032024384, 0.14146021008491516, 0.2730826735496521], [-0.04726151004433632, -0.07599884271621704, 0.0997503250837326], [0.28807568550109863, -0.07615493983030319, 0.23024524748325348], [-0.17458157241344452, -0.22130821645259857, 0.028204189613461494], [-0.18327775597572327, -0.1604974865913391, -0.14156517386436462], [0.008857895620167255, 0.05773318558931351, 0.0876038521528244], [0.22697816789150238, 0.1480325311422348, 0.04890669137239456]], [[-0.022723358124494553, -0.1886509507894516, -0.18646366894245148], [0.05970408394932747, 0.3398652672767639, 0.01921582967042923], [-0.219023197889328, -0.049871087074279785, -0.06761568039655685], [-0.13713161647319794, -0.0719236508011818, -0.03652200847864151], [0.001963397953659296, 0.13135485351085663, 0.246481254696846], [-0.19568566977977753, 0.23730264604091644, 0.00711307255551219], [-0.21602857112884521, -0.09219690412282944, -0.3466421067714691], [-0.03701966255903244, -0.32755857706069946, 0.2963253855705261], [0.1462591141462326, 0.10963175445795059, 0.14519649744033813], [-0.2459433227777481, -0.15503764152526855, -0.010015605017542839], [0.15451624989509583, -0.13065245747566223, 0.20557284355163574], [-0.11906567215919495, 0.22693805396556854, 0.0844058245420456], [0.1554017961025238, 0.15563127398490906, -0.1064019724726677], [0.11662404239177704, 0.020250892266631126, -0.09350834041833878], [-0.017668521031737328, 0.12231115996837616, -0.08010482043027878]], [[-0.20769506692886353, 0.2760177254676819, -0.0698455348610878], [-0.09196334332227707, -0.28189677000045776, 0.10737770050764084], [0.18610866367816925, 0.21483570337295532, -0.24075847864151], [0.08174866437911987, -0.019499951973557472, 0.2937048077583313], [-0.132900670170784, -0.185378760099411, -0.11088725179433823], [-0.11584625393152237, 0.09876549243927002, 0.017658982425928116], [0.23613370954990387, 0.17553940415382385, 0.2622028589248657], [0.3904227018356323, 0.09021370112895966, -0.0868200808763504], [0.034304093569517136, 0.17162328958511353, 0.07740777730941772], [0.05312834307551384, -0.09178062528371811, -0.016287971287965775], [0.12255530059337616, 0.031710438430309296, 0.08046798408031464], [0.1840464174747467, -0.15883521735668182, 0.11732824891805649], [-0.031829673796892166, -0.1515824794769287, 0.23569518327713013], [0.024319205433130264, -0.10443049669265747, 0.19565382599830627], [0.11618391424417496, 0.1206682100892067, 0.2672000825405121]], [[-0.1501087099313736, 0.06743232160806656, -0.16207154095172882], [0.12834978103637695, -0.09004496037960052, -0.17033052444458008], [0.1951952427625656, 0.03365758806467056, -0.2051449418067932], [-0.25792431831359863, -0.10111261159181595, 0.07628612220287323], [-0.30235588550567627, -0.09813541173934937, -0.10781055688858032], [0.16406658291816711, -0.007803099695593119, -0.1345958709716797], [0.09983758628368378, 0.1969279646873474, -0.013053388334810734], [0.12580150365829468, 0.3013395667076111, -0.19392649829387665], [0.18658322095870972, -0.1385718137025833, -0.008556877262890339], [0.15138335525989532, -0.07855679094791412, -0.1706557273864746], [0.003408184740692377, 0.05231104791164398, -0.037562694400548935], [0.006399684585630894, -0.21682843565940857, 0.2055857926607132], [-0.24440574645996094, -0.07405050098896027, 0.31725966930389404], [-0.24312004446983337, 0.3108082413673401, -0.0796707421541214], [0.08729822188615799, 0.03827761113643646, -0.1261007934808731]]], "conv3.bias": [-0.2661168873310089, 0.08374280482530594, 0.00048317015171051025, -0.15746845304965973, -0.06368750333786011, 0.11273983120918274, 0.10133025795221329, 0.018744030967354774, -0.15150240063667297, -0.05944894999265671, -0.018202882260084152, 0.014868161641061306, -0.0642031654715538, 0.03812986612319946, -0.1116827204823494, -0.021519998088479042], "conv5.weight": [[[-0.012820753268897533, -0.2604270875453949, -0.0314212366938591, 0.07613562792539597, -0.1408342868089676], [-0.07473587989807129, 0.01355373952537775, 0.1106056198477745, -0.13266749680042267, -0.031534478068351746], [-0.22203123569488525, 0.00296142790466547, 0.02289406955242157, -0.1533852219581604, 0.09655465185642242], [-0.03313438594341278, -0.012302816845476627, -0.033739034086465836, -0.16334426403045654, 0.12375982850790024], [0.029810642823576927, 0.04178920388221741, -0.3004102110862732, 0.18866674602031708, -0.37286126613616943], [0.0627126470208168, 0.04021839424967766, 0.14870907366275787, 0.03258946165442467, -0.2953339219093323], [0.11352866888046265, -0.001826358842663467, 0.05211390554904938, 0.07869642227888107, -0.03802501782774925], [0.017530135810375214, 0.290785551071167, 0.3575150668621063, 0.09500027447938919, 0.17162512242794037], [0.194877028465271, -0.01638208143413067, -0.1671937108039856, 0.02484194189310074, -0.02905438467860222], [-0.14964839816093445, -0.07877840101718903, 0.21931515634059906, 0.16185009479522705, -0.1473659873008728], [0.12317892909049988, -0.008513713255524635, -0.14062663912773132, 0.046630941331386566, -0.2671550512313843], [-0.0659293532371521, -0.31418126821517944, 0.17336015403270721, 0.006153251510113478, -0.15684756636619568], [-0.09195557236671448, -0.06361124664545059, -0.36776629090309143, -0.061156708747148514, 0.051842786371707916], [-0.4467574656009674, -0.1853792369365692, -0.09116743505001068, -0.13076679408550262, 0.05515257641673088], [0.10003073513507843, -0.09871576726436615, -0.1315450370311737, 0.09613356739282608, -0.061041392385959625]], [[0.10501660406589508, -0.05653907358646393, -0.04914972186088562, 0.05996529385447502, 0.13624581694602966], [0.025147128850221634, -0.07251311838626862, 0.2539806663990021, -0.19589447975158691, -0.13141204416751862], [0.28211238980293274, 0.05854671075940132, -0.05384862795472145, 0.11071167141199112, -0.2646785080432892], [-0.01055043563246727, 0.15007098019123077, 0.07524630427360535, -0.10019117593765259, 0.018735971301794052], [0.06111705303192139, -0.037617914378643036, 0.3225378394126892, 0.07483133673667908, 0.0995391234755516], [0.24667000770568848, -0.09528574347496033, -0.06284607201814651, 0.055199235677719116, -0.09333483129739761], [0.1815786063671112, 0.08735163509845734, 0.19530412554740906, -0.15614011883735657, 0.053713854402303696], [-0.13659563660621643, -0.19791804254055023, 0.01370109710842371, -0.19107718765735626, 0.03272533416748047], [-0.14159944653511047, -0.1616530865430832, -0.13201691210269928, -0.06020550802350044, -0.15519572794437408], [0.06542618572711945, 0.08388060331344604, 0.04595978930592537, 0.01771555468440056, -0.020248088985681534], [0.24710454046726227, -0.27858826518058777, 0.0037440394517034292, -0.12020673602819443, -0.033033423125743866], [-0.4342851936817169, 0.10557546466588974, 0.1455966979265213, 0.02741912752389908, 0.3059938848018646], [-0.051567576825618744, 0.23082321882247925, 0.024709558114409447, 0.20938363671302795, 0.20883093774318695], [0.0009005736210383475, 0.3024614751338959, 0.03297043964266777, -0.12702502310276031, 0.09653016179800034], [-0.02038697898387909, -0.021162239834666252, 0.0863913968205452, -0.04791640862822533, -0.13747769594192505]], [[0.22298167645931244, -0.17560161650180817, -0.21442753076553345, -0.0005364994867704809, -0.2701488435268402], [-0.21295110881328583, -0.2447262853384018, -0.004163909703493118, 0.10073304176330566, 0.030277883633971214], [-0.0913318321108818, 0.0577302984893322, -0.053874146193265915, -0.010792248882353306, 0.002094245282933116], [-0.008090903051197529, 0.04186183586716652, -0.1106402575969696, -0.1956925243139267, 0.10379509627819061], [0.06222989782691002, -0.12559467554092407, 0.13985545933246613, 0.12458486109972, -0.13489031791687012], [-0.10637225955724716, -0.014481802470982075, -0.11169358342885971, 0.2960977852344513, 0.23855805397033691], [0.10140544176101685, -0.015806956216692924, -0.12002529203891754, -0.40430986881256104, -0.08977368474006653], [0.3032902777194977, -0.1947244256734848, -0.247634157538414, -0.07413332909345627, -0.14662888646125793], [-0.0013716977555304766, 0.008024165406823158, 0.07935377210378647, -0.33960023522377014, 0.2687952518463135], [-0.2826496660709381, 0.03774571791291237, 0.24211560189723969, -0.09852474182844162, 0.14568908512592316], [0.1576269418001175, 0.042671531438827515, 0.2102266401052475, 0.16653913259506226, -0.31717512011528015], [0.021843791007995605, -0.13536538183689117, 0.08932173997163773, 0.20770305395126343, 0.02913452684879303], [-0.13871340453624725, 0.12023533880710602, -0.04231477528810501, 0.18486186861991882, 0.003760700346902013], [-0.29433560371398926, -0.1420551836490631, 0.17166835069656372, -0.009950390085577965, -0.001204611617140472], [0.13962578773498535, 0.16430364549160004, -0.0006234011380001903, 0.12868013978004456, -0.15106064081192017]], [[-0.09873414039611816, 0.08849445730447769, -0.02551761455833912, -0.10848026722669601, -0.035397812724113464], [0.03042733110487461, -0.12828238308429718, -0.13859246671199799, 0.0029459416400641203, -0.2938212752342224], [0.12229496985673904, 0.085228830575943, -0.12262563407421112, 0.14956046640872955, -0.07352626323699951], [0.008202055469155312, 0.08426488190889359, 0.11754890531301498, -0.06777608394622803, 0.13897643983364105], [0.08345615863800049, 0.1523992121219635, 0.03539682924747467, -0.07170941680669785, 0.16964295506477356], [0.33493709564208984, -0.13880522549152374, 0.09275775402784348, -0.18989606201648712, -0.09083477407693863], [0.27405938506126404, 0.2826145887374878, 0.036121852695941925, -0.06080735847353935, 0.0571286678314209], [-0.20187710225582123, 0.019201060757040977, -0.11360587924718857, -0.020244387909770012, -0.030057614669203758], [-0.19704724848270416, 0.15457597374916077, -0.16165967285633087, -0.07889751344919205, -0.16654780507087708], [0.15175217390060425, 0.14543575048446655, -0.02974599041044712, -0.19800561666488647, 0.0582793727517128], [0.31706002354621887, 0.14637458324432373, -0.2599276006221771, -0.3479682207107544, -0.07099609822034836], [0.04978078231215477, 0.11720892786979675, 0.150568887591362, 0.2723974585533142, -0.2666105329990387], [-0.09013938903808594, -0.1843278855085373, 0.05993633344769478, 0.061468400061130524, 0.15044282376766205], [0.10850998759269714, 0.17552168667316437, -0.26363086700439453, 0.09558205306529999, -0.1691654473543167], [0.10560827702283859, 0.08929254859685898, 0.016959287226200104, -0.09010841697454453, -0.2378501445055008]], [[0.008147763088345528, 0.005412176717072725, -0.1518978774547577, -0.14946214854717255, 0.024838607758283615], [-0.006300472654402256, 0.09000630676746368, 0.08048243075609207, -0.2374362200498581, -0.33199721574783325], [-0.047179751098155975, 0.22495794296264648, -0.143471822142601, 0.08043019473552704, 0.2558327615261078], [0.11135818064212799, -0.15549543499946594, 0.07077203691005707, 0.09933529049158096, 0.04466808959841728], [-0.15676762163639069, 0.01972135901451111, -0.11215762048959732, 0.1740664392709732, -0.2732090353965759], [0.18606255948543549, 0.006397806107997894, 0.1421702355146408, -0.25149720907211304, -0.17686477303504944], [0.1959422081708908, 0.013017727993428707, 0.003951254766434431, -0.08157394826412201, 0.020494788885116577], [0.30776870250701904, -0.11218440532684326, -0.018145758658647537, 0.37444615364074707, -0.043259941041469574], [-0.060615424066782, -0.410641074180603, -0.03724793717265129, 0.021086955443024635, 0.40899690985679626], [-0.09784762561321259, -0.0314941368997097, 0.18337756395339966, -0.06641872972249985, -0.17879366874694824], [0.04991951584815979, 0.13572439551353455, -0.07495247572660446, -0.08561386168003082, 0.07094653695821762], [0.04903888702392578, -0.05259161815047264, 0.06542745977640152, -0.09870745986700058, -0.17874181270599365], [0.07569368928670883, -0.29185861349105835, -0.05309191718697548, -0.07219188660383224, 0.13486596941947937], [-0.24620342254638672, -0.25817689299583435, -0.18570619821548462, -0.17888817191123962, -0.07499446719884872], [-0.23930875957012177, 6.328393646981567e-05, 0.0018070744117721915, 0.017597030848264694, -0.12297797203063965]], [[-0.007416697684675455, 0.0018841217970475554, 0.05264504253864288, -0.3050231337547302, 0.09262540191411972], [0.058848168700933456, 0.03782307356595993, 0.002690210472792387, 0.06028115004301071, -0.2842103838920593], [-0.004016885533928871, -0.0230498518794775, 0.13481906056404114, -0.08241849392652512, 0.1636255979537964], [0.004547106102108955, 0.14964449405670166, 0.13599884510040283, 0.10577847808599472, 0.19234226644039154], [0.1332942098379135, 0.016329212114214897, 0.0237575713545084, 0.27044394612312317, 0.17620104551315308], [0.13029542565345764, 0.14582815766334534, 0.04312494769692421, 0.059065185487270355, 0.10352668911218643], [0.1738046556711197, -0.004194043111056089, 0.20591337978839874, -0.29403916001319885, 0.21479782462120056], [0.1509404182434082, 0.17637547850608826, 0.1824675053358078, 0.2911902368068695, 0.09864135086536407], [0.029431233182549477, -0.08991293609142303, 0.07262373715639114, 0.035717934370040894, 0.017007360234856606], [0.15223291516304016, -0.08784054964780807, -0.08468727022409439, 0.08336877822875977, -0.06257795542478561], [-0.13924404978752136, 0.23814229667186737, -0.0033626442309468985, 0.28909868001937866, -0.022554971277713776], [-0.16224567592144012, -0.2158481627702713, -0.03390911966562271, 0.08927210420370102, -0.20908580720424652], [0.21673712134361267, 0.10003785043954849, 0.11185981333255768, 0.1401946246623993, 0.23229262232780457], [0.09301882237195969, 0.09344027191400528, 0.20165732502937317, 0.12908639013767242, 0.13561761379241943], [-0.061556342989206314, 0.1878589540719986, 0.10910465568304062, 0.01650601625442505, -0.2719889283180237]], [[0.06598121672868729, -0.07763607800006866, -0.04611755907535553, 0.12052351981401443, -0.03266033157706261], [0.09188772737979889, -0.04670838266611099, -0.13953380286693573, -0.032804541289806366, 0.03479556366801262], [-0.0875948965549469, -0.053247515112161636, -0.013586639426648617, -0.009806375950574875, 0.13267071545124054], [0.036517929285764694, -0.20334075391292572, -0.039940834045410156, -0.1521068960428238, -0.05915849655866623], [-0.029332594946026802, -0.48162949085235596, -0.08185452967882156, -0.18490807712078094, -0.16953490674495697], [0.1780097782611847, -0.11512130498886108, 0.03163057565689087, 0.18467040359973907, -0.3861497640609741], [0.39698168635368347, -0.08396134525537491, -0.06381087750196457, -0.09967999160289764, -0.036140985786914825], [0.151807501912117, -0.01860923506319523, 0.240565225481987, 0.08822545409202576, -0.13003262877464294], [0.010995687916874886, 0.06958946585655212, 0.053344063460826874, 0.09004673361778259, -0.0393272265791893], [-0.005418744869530201, 0.2239251285791397, -0.11127153784036636, 0.12517668306827545, 0.0324525311589241], [-0.12201148271560669, -0.10658764839172363, -0.010940314270555973, -0.0713561549782753, -0.3297235369682312], [0.1663421094417572, 0.10834502428770065, -0.07891493290662766, 0.06472978740930557, 0.004947757348418236], [0.11660601198673248, -0.03206329792737961, 0.3999122381210327, 0.08445800840854645, 0.1693354994058609], [0.2733057737350464, -0.3586866855621338, -0.4354607164859772, -0.14056606590747833, 0.11974865943193436], [0.08113030344247818, 0.03994883596897125, 0.0037687409203499556, -0.011827721260488033, -0.15954750776290894]], [[0.0907140001654625, 0.031024422496557236, -0.00503283366560936, -0.0679645910859108, -0.04241935908794403], [0.010534302331507206, 0.2911315858364105, 0.06720593571662903, -0.13046839833259583, 0.21229621767997742], [0.1820996254682541, 0.08152816444635391, 0.20675313472747803, 0.04499918222427368, -0.17328272759914398], [0.09991917759180069, 0.06586561352014542, -0.1007297933101654, -0.07921164482831955, -0.1122429296374321], [-0.1646963208913803, 0.23577967286109924, 0.27971401810646057, -0.45762109756469727, -0.3119261860847473], [-0.09343042969703674, 0.05082760751247406, 0.006423366721719503, -0.017534242942929268, 0.00899902917444706], [0.12556526064872742, -0.01829313486814499, 0.07882155478000641, 0.14756499230861664, -0.0761183351278305], [-0.03703396022319794, 0.02513679303228855, -0.12124603241682053, 0.01308909710496664, 0.052181489765644073], [0.1276678889989853, -0.1638796329498291, -0.020352397114038467, 0.011357303708791733, -0.028261208906769753], [0.10694044828414917, -0.04935622215270996, -0.01978645659983158, -0.22987480461597443, 0.26173123717308044], [-0.05994196981191635, -0.03735881671309471, 0.16391846537590027, 0.08812116086483002, -0.10452624410390854], [0.10833209753036499, 0.29984548687934875, -0.16857388615608215, -0.1695096790790558, 0.12458238750696182], [-0.021056069061160088, -0.12704826891422272, -0.2548101842403412, 0.5382270812988281, 0.0485503189265728], [-0.030748413875699043, -0.03794300928711891, -0.11140269041061401, -0.38399621844291687, 0.1409195363521576], [0.21842379868030548, 0.07789710909128189, -0.11613387614488602, 0.0069794016890227795, 0.0626387894153595]], [[0.06847462803125381, -0.01680000126361847, 0.13481293618679047, -0.15886694192886353, 0.13659602403640747], [0.055185467004776, -0.34639808535575867, -0.10232456773519516, -0.15060488879680634, -0.1133529543876648], [0.029044264927506447, 0.07854821532964706, 0.2613965570926666, 0.03471047431230545, 0.03244374319911003], [0.023825662210583687, 0.0925426259636879, -0.041106272488832474, -0.09666847437620163, 0.03076019696891308], [0.035026915371418, 0.010853365063667297, -0.030066678300499916, -0.059237170964479446, -0.18641774356365204], [0.0353836752474308, 0.19075001776218414, -0.026762748137116432, -0.11650091409683228, -0.12261857092380524], [0.06788810342550278, -0.13524742424488068, -0.1337372213602066, -0.14067216217517853, 0.09294892102479935], [0.1732860654592514, 0.20754270255565643, -0.3097531795501709, -0.044336769729852676, 0.17080403864383698], [-0.12309633195400238, -0.10522805899381638, -0.18188053369522095, -0.25858569145202637, 0.11418354511260986], [0.0802142322063446, -0.10965356975793839, -0.08410903066396713, 0.1579730361700058, 0.18721742928028107], [0.20666801929473877, 0.23523811995983124, 0.2731626033782959, 0.27645036578178406, -0.23039086163043976], [0.07766793668270111, 0.04732213541865349, -0.04779406636953354, -0.23027466237545013, -0.21072308719158173], [-0.010379977524280548, -0.2748556435108185, -0.018848108127713203, -0.32160574197769165, -0.35608139634132385], [-0.20655743777751923, 0.04838540032505989, -0.10337168723344803, -0.007021738216280937, 0.17437037825584412], [-0.020869452506303787, -0.2551312744617462, 0.02525934763252735, 0.06142226234078407, 0.19999617338180542]], [[-0.36541566252708435, 0.14278416335582733, 0.1917877346277237, 0.2652518153190613, -0.11542892456054688], [-0.15545448660850525, -0.04453660175204277, 0.09014727920293808, -0.013074192218482494, 0.08108972012996674], [-0.04631512612104416, 0.16913847625255585, -0.007639017887413502, -0.03497679904103279, 0.3221950829029083], [-0.11690644174814224, -0.019190911203622818, -0.06026866286993027, 0.13401755690574646, -0.19028209149837494], [0.1690373569726944, 0.09725391864776611, 0.11363614350557327, -0.06097056344151497, 0.058354947715997696], [-0.02963024564087391, 0.3049304783344269, -0.3818189203739166, -0.18903249502182007, -0.15800084173679352], [-0.2014000117778778, 0.09042401611804962, -0.07574525475502014, -0.04599706456065178, 0.13868732750415802], [-0.11942920833826065, -0.14230450987815857, -0.3893531560897827, 0.0074384501203894615, -0.047391194850206375], [-0.2533627450466156, -0.3718022108078003, 0.003297742223367095, 0.2099739909172058, 0.0898234099149704], [0.09919536858797073, -0.0650385171175003, -0.043449752032756805, -0.2570469081401825, 0.1000605896115303], [0.05648680031299591, 0.09677952527999878, 0.0037536416202783585, -0.07050474733114243, -0.42458269000053406], [-0.06256942451000214, 0.20807449519634247, 0.11625221371650696, 0.1947428286075592, -0.04439351707696915], [-0.022466683760285378, 0.04445803165435791, -0.05632577836513519, 0.10274209082126617, 0.06101366505026817], [0.15221598744392395, 0.007712309714406729, 0.11671412736177444, 0.25598710775375366, -0.2583402991294861], [-0.06949671357870102, 0.060644835233688354, -0.060929007828235626, -0.11266961693763733, -0.012517010793089867]], [[0.0629347413778305, 0.14512987434864044, -0.18768541514873505, 0.0927908793091774, -0.17218632996082306], [-0.1320488303899765, -0.15246056020259857, -0.10300753265619278, -0.01646503433585167, 0.10350146144628525], [-0.09106741100549698, 0.13700932264328003, -0.007174389902502298, 0.031961772590875626, -0.002764682983979583], [0.15090793371200562, 0.053379788994789124, 0.17447420954704285, -0.11045563220977783, -0.11787146329879761], [-0.31439629197120667, -0.18376117944717407, 0.07978265732526779, -0.051224227994680405, -0.03127521276473999], [0.0413471981883049, 0.0654924139380455, 0.258413165807724, -0.21685878932476044, -0.0037399069406092167], [0.33832913637161255, -0.01616426557302475, 0.3181775212287903, -0.15225401520729065, -0.04741065949201584], [0.09335161000490189, -0.04417594522237778, 0.1018252894282341, 0.0817890614271164, -0.06390991806983948], [0.0017814058810472488, 0.0924050584435463, 0.18955619633197784, -0.05734259635210037, 0.009406513534486294], [-0.0016545633552595973, -0.10949508845806122, 0.13792599737644196, -0.2119225412607193, 0.09438590705394745], [0.09851519763469696, 0.2049662321805954, -0.0589333102107048, 0.10125153511762619, -0.19429311156272888], [0.04982347413897514, -0.02666737325489521, -0.197750523686409, 0.23471155762672424, 0.20201456546783447], [-0.14761589467525482, 0.08341465890407562, -0.118502676486969, -0.13919797539710999, 0.16763438284397125], [-0.11410698294639587, -0.0995180755853653, 0.09209099411964417, 0.05385115370154381, 0.05485299229621887], [0.11801760643720627, 0.09581445902585983, -0.0630880743265152, -0.009848229587078094, 0.13495425879955292]], [[0.1828216314315796, -0.0027341244276612997, -0.008591683581471443, 0.06038805842399597, -0.0127040920779109], [-0.09719694405794144, 0.14010140299797058, 0.14221973717212677, -0.14674346148967743, 0.045853301882743835], [-0.22545787692070007, 0.15310321748256683, 0.2535063624382019, 0.10667534172534943, -0.07789792865514755], [0.3041568994522095, -0.03966039419174194, 0.029434964060783386, -0.058504778891801834, 0.0911761224269867], [0.07270222902297974, 0.10074035823345184, 0.17756353318691254, 0.0768648236989975, 0.20793963968753815], [0.1456947922706604, -0.10766371339559555, -0.04301628842949867, -0.07539007812738419, 0.13419845700263977], [0.151853546500206, -0.12520599365234375, -0.17440681159496307, -0.009367560036480427, 0.042657073587179184], [0.12559828162193298, 0.07698184996843338, 0.15814468264579773, 0.19801755249500275, -0.10415039956569672], [-0.01526674721390009, 0.021486088633537292, -0.05470191687345505, 0.1049199178814888, -0.19366663694381714], [-0.16741488873958588, 0.16724124550819397, -0.05781479552388191, -0.24536937475204468, 0.2452949732542038], [-0.1874990165233612, 0.16165342926979065, -0.30658477544784546, -0.036770664155483246, -0.4227108955383301], [-0.19505803287029266, -0.03346535563468933, 0.20824797451496124, -0.19543632864952087, -0.19951723515987396], [0.17714688181877136, -0.05486840382218361, 0.09768526256084442, -0.2500505745410919, 0.07302534580230713], [-0.06694825738668442, 0.19153301417827606, -0.10016749799251556, 0.4466724097728729, 0.2455151379108429], [-0.003340421710163355, -0.046291664242744446, -0.1785000115633011, 0.04197325184941292, -0.13223810493946075]], [[0.20264562964439392, 0.04703817144036293, -0.06285671889781952, 0.06087491288781166, 0.07155875116586685], [-0.013082124292850494, -0.18891848623752594, 0.11130177974700928, -0.1573527455329895, 0.24100036919116974], [0.03964393958449364, -0.031072936952114105, 0.005543797742575407, 0.19400307536125183, -0.0022793354000896215], [0.018102645874023438, 0.27820226550102234, 0.26677319407463074, 0.06702480465173721, -0.06202296167612076], [-0.16087855398654938, -0.24517738819122314, 0.03343775495886803, -0.3145734369754791, -0.013810370117425919], [0.15583184361457825, 0.3195857107639313, -0.10137501358985901, 0.17703062295913696, 0.35126012563705444], [0.36641925573349, 0.146548330783844, 0.3081747591495514, 0.1597011536359787, 0.284546434879303], [0.14019155502319336, -0.05517883598804474, -0.02527269721031189, -0.16821418702602386, -0.3927605450153351], [0.060896553099155426, 0.06555730104446411, 0.10141262412071228, -0.05136846750974655, 0.1059984341263771], [0.2025105059146881, 0.0462975911796093, 0.05302673950791359, 0.24971958994865417, -0.23445436358451843], [-0.03615611046552658, 0.06852735579013824, 0.09477471560239792, -0.2623193562030792, 0.24644340574741364], [-0.24715644121170044, 0.30015867948532104, -0.2181692272424698, -0.17078500986099243, 0.00047562667168676853], [0.13957951962947845, 0.2303614318370819, -0.18826398253440857, -0.02092502824962139, -0.09534765779972076], [-0.09375123679637909, -0.20069412887096405, 0.14960306882858276, 0.18011422455310822, 0.12495333701372147], [0.24233365058898926, 0.2800266444683075, 0.08198918402194977, 0.30220356583595276, 0.21884839236736298]], [[-0.10782356560230255, 0.3024754524230957, -0.015746576711535454, -0.16211119294166565, 0.07762821018695831], [-0.06717385351657867, -0.18806058168411255, -0.09841114282608032, -0.03399943932890892, -0.08080336451530457], [-0.008865740150213242, 0.04227536916732788, 0.09476456046104431, 0.08982937783002853, 0.17757456004619598], [-0.0299192164093256, 0.010032255202531815, -0.011795413680374622, 0.07051379978656769, 0.14644677937030792], [0.07984299957752228, -0.08688076585531235, -0.05461915209889412, 0.06807826459407806, 0.044599421322345734], [0.15205258131027222, 0.14576110243797302, -0.11902130395174026, -0.08191175013780594, -0.06332889944314957], [-0.05006491765379906, 0.19888298213481903, 0.1017472967505455, -0.029124803841114044, -0.0696580782532692], [-0.1064269170165062, 0.1754862666130066, -0.061604227870702744, 0.25721609592437744, 0.02311074174940586], [-0.0504288375377655, -0.16322274506092072, -0.4504256546497345, -0.015220051631331444, -0.11260194331407547], [-0.5577432513237, -0.5451357364654541, 0.12388502061367035, -0.10897078365087509, -0.006468969397246838], [0.04518976807594299, 0.16134323179721832, -0.06261588633060455, -0.04028711095452309, -0.21668320894241333], [0.1276174783706665, -0.13642658293247223, 0.028341909870505333, 0.2540627121925354, 0.19410182535648346], [0.16719768941402435, -0.007358724717050791, 0.15908494591712952, -0.26418760418891907, 0.19533520936965942], [-0.36818215250968933, 0.09585461765527725, -0.015358534641563892, -0.13871929049491882, 0.06236880272626877], [-0.1492348611354828, 0.08934547752141953, -0.1804327517747879, -0.11896507441997528, 0.060697153210639954]], [[-0.008364316076040268, 0.07203326374292374, -0.1209445372223854, -0.18057797849178314, -0.016238700598478317], [-0.1723189651966095, -0.11004269868135452, -0.27142444252967834, 0.31356433033943176, 0.10895039886236191], [0.13179609179496765, 0.04181456193327904, -0.05690135806798935, -0.1635352373123169, -0.16111280024051666], [-0.17330753803253174, -0.03531649708747864, 0.09311426430940628, -0.00442761043086648, -0.1103593111038208], [-0.03440043702721596, -0.14911413192749023, 0.30094897747039795, -0.06596224755048752, 0.017480546608567238], [-0.04899849742650986, 0.03615542873740196, -0.14456047117710114, -0.20287668704986572, 0.21669457852840424], [0.0602213516831398, -0.43775475025177, -0.05052127689123154, 0.3500833809375763, -0.2967928946018219], [0.055065032094717026, -0.38765189051628113, -0.01755635254085064, 0.17587006092071533, 0.34625861048698425], [-0.12184027582406998, -0.06384937465190887, 0.18517419695854187, 0.13734978437423706, -0.05014149844646454], [-0.01664379984140396, -0.18678966164588928, -0.34682002663612366, 0.09941374510526657, 0.016983481124043465], [-0.3562699258327484, 0.11406689882278442, 0.2742398679256439, 0.0847763940691948, -0.09444493800401688], [-0.28431418538093567, -0.1942228078842163, -0.2103825956583023, 0.04385362192988396, -0.05844802409410477], [0.05663611367344856, 0.1649056077003479, -0.1939641535282135, 0.3257480561733246, 0.2252146154642105], [0.11305787414312363, 0.0471319817006588, -0.2320806235074997, 0.03537797927856445, -0.10298812389373779], [0.1687195897102356, -0.020965129137039185, 0.009727055206894875, -0.00139172887429595, 0.00497027114033699]], [[0.04530973732471466, -0.11206408590078354, 0.07194831967353821, -0.0695766806602478, -0.08805739134550095], [-0.05165649205446243, -0.12130594998598099, -0.14196854829788208, -0.03282869979739189, -0.012288624420762062], [0.1585599035024643, 0.04359108582139015, -0.09331898391246796, 0.23517465591430664, -0.14870479702949524], [-0.10998255014419556, -0.1791819930076599, -0.01797274500131607, -0.09276343882083893, 0.10188330709934235], [0.03410109877586365, -0.13488949835300446, 0.01343546248972416, -0.009628158994019032, 0.21587540209293365], [-0.1970081478357315, -0.27486151456832886, -0.040831685066223145, 0.14437852799892426, 0.031591352075338364], [-0.09113253653049469, 0.08388608694076538, -0.03436191752552986, 0.21554502844810486, -0.029460249468684196], [0.09263957291841507, 0.09841228276491165, 0.23377501964569092, -0.03004363365471363, -0.15269184112548828], [0.013340074568986893, -0.005098708905279636, -0.009738272987306118, 0.24175535142421722, -0.018283097073435783], [-0.0799306184053421, -0.033701442182064056, -0.04729446768760681, -0.3326456546783447, -0.01545450184494257], [-0.026729825884103775, -0.2574566602706909, -0.06547915935516357, 0.12498726695775986, 0.055664725601673126], [0.23976516723632812, -0.0272590983659029, 0.017189377918839455, -0.1335097700357437, 0.07232438027858734], [-0.1753341108560562, 0.2358943372964859, -0.06764896959066391, -0.2470996081829071, 0.2606680989265442], [0.06759042292833328, -0.0385262630879879, -0.5173770189285278, -0.5304116606712341, -0.04064269736409187], [0.10026470571756363, -0.18220874667167664, -0.17290356755256653, 0.14540162682533264, 0.00800369493663311]]], "conv5.bias": [0.06992682814598083, 0.021471643820405006, 0.10181061178445816, -0.011365462094545364, 0.08112163096666336, -0.22131991386413574, -0.04875936359167099, -0.04358091950416565, -0.017314687371253967, 0.03036852553486824, -0.08315664529800415, -0.019400691613554955, -0.05498652532696724, -0.1503446251153946, -0.08626020699739456, -0.038016121834516525], "fc1.weight": [[0.20933371782302856, 0.19047902524471283, -0.25547099113464355, 0.23614853620529175, -0.23265352845191956, 0.1087944284081459, -0.14423801004886627, 0.24623554944992065, 0.3339816927909851, -0.2707059979438782, -0.11149948835372925, 0.2362259179353714, -0.17165198922157288, -0.24042533338069916, 0.3127917945384979, 0.20749421417713165, 0.2174752950668335, 0.2728920876979828, -0.2924022078514099, 0.24406956136226654, 0.3403540551662445, -0.30076199769973755, 0.24351336061954498, 0.27008920907974243, -0.3025922179222107, 0.23878969252109528, -0.1633223444223404, -0.33573612570762634, 0.40487128496170044, 0.3547106087207794, -0.2935320734977722, 0.2530793249607086, 0.1565098613500595, 0.08127579838037491, 0.16641749441623688, -0.007461093366146088, -0.23043647408485413], [-0.13811129331588745, -0.04451753944158554, 0.12020948529243469, -0.21160230040550232, 0.2070997655391693, -0.14029857516288757, 0.24012449383735657, -0.13713602721691132, -0.23119725286960602, 0.07076527923345566, 0.21477322280406952, -0.2046969085931778, 0.14065660536289215, 0.17169716954231262, -0.13652990758419037, -0.14648549258708954, -0.2050309181213379, -0.27393102645874023, 0.19919271767139435, -0.2473655641078949, -0.288051962852478, 0.14040625095367432, -0.17165854573249817, -0.08878661692142487, 0.16833113133907318, -0.28554239869117737, 0.12390195578336716, 0.2382524460554123, -0.3114861249923706, -0.18078312277793884, 0.2702881693840027, -0.13151922821998596, -0.06919921189546585, 0.15728561580181122, -0.06790583580732346, 0.15389235317707062, -0.02374545857310295], [-0.1510021686553955, 0.018207013607025146, 0.10780490934848785, -0.13033215701580048, 0.3135458528995514, -0.18963761627674103, 0.27426430583000183, -0.21713446080684662, -0.17878809571266174, 0.22223801910877228, 0.22443591058254242, -0.20600959658622742, 0.13783110678195953, 0.10634102672338486, -0.26128530502319336, -0.09048038721084595, -0.3266293406486511, -0.3455435037612915, 0.2173762172460556, -0.3562207818031311, -0.25803449749946594, 0.20680926740169525, -0.2163638174533844, -0.11504703760147095, 0.1671285331249237, -0.3087819814682007, 0.25484758615493774, 0.2927021086215973, -0.3760192096233368, -0.30570289492607117, 0.4072169363498688, -0.31314268708229065, -0.1055527999997139, -0.01340078841894865, 0.01962747424840927, 0.21739695966243744, -0.014040140435099602], [0.2520512342453003, 0.1860159933567047, -0.3004077970981598, 0.2847713232040405, -0.33690181374549866, 0.18213409185409546, -0.2083963006734848, 0.4046758711338043, 0.3300439417362213, -0.284869521856308, -0.13581763207912445, 0.30354011058807373, -0.21037450432777405, -0.2713582515716553, 0.3104553520679474, 0.3144244849681854, 0.3410804271697998, 0.42438459396362305, -0.3579614758491516, 0.3635234236717224, 0.26878654956817627, -0.3153938353061676, 0.31291067600250244, 0.4315963685512543, -0.35983192920684814, 0.2595437467098236, -0.2456492930650711, -0.37466663122177124, 0.5232620239257812, 0.4836784899234772, -0.3991681635379791, 0.3550354540348053, 0.0585649311542511, 0.13831192255020142, -0.0666254311800003, -0.11513959616422653, -0.17030052840709686], [-0.16905449330806732, 0.03492027893662453, 0.17635312676429749, -0.2938586175441742, 0.3314242959022522, -0.15989980101585388, 0.23206590116024017, -0.3190739154815674, -0.2123304158449173, 0.13306978344917297, 0.3501931130886078, -0.1850317120552063, 0.15850843489170074, 0.2312905192375183, -0.2850431799888611, -0.22081823647022247, -0.3022860586643219, -0.3762798607349396, 0.22917816042900085, -0.30153360962867737, -0.2427699863910675, 0.2676953375339508, -0.3701357841491699, -0.20253382623195648, 0.21793720126152039, -0.22531758248806, 0.2897232174873352, 0.2790336608886719, -0.4713815748691559, -0.32502299547195435, 0.40538710355758667, -0.2728886306285858, -0.04970196262001991, 0.044350575655698776, -0.05605189874768257, 0.1649024933576584, -0.022687021642923355], [-0.0012296292698010802, -0.0012991920812055469, -0.0016079596243798733, -0.0003012767410837114, -0.0013459507608786225, -0.003205046523362398, -0.002710710046812892, -0.0019985653925687075, -0.0027892899233847857, -0.002551569137722254, -0.0016355743864551187, -0.0028635342605412006, -0.0013202672125771642, -0.002424736274406314, -0.0018772395560517907, -0.0025055541191250086, -0.002628874499350786, -0.001826283405534923, -0.00017627785564400256, -0.0008273238781839609, -0.0008079776889644563, -0.001056006527505815, -0.001953303115442395, -0.001305286306887865, -0.0008442220278084278, -0.002440973185002804, -0.0007492815493606031, -0.0025596742052584887, -0.0001459743652958423, -0.0008707364904694259, -0.00247036200016737, -0.00267699989490211, -0.0014763619983568788, -0.0016594597836956382, -0.0016585778212174773, -0.0020512996707111597, -0.000911056122276932], [-0.152890145778656, 0.046380482614040375, 0.19031989574432373, -0.10412082821130753, 0.20372173190116882, -0.11482483893632889, 0.16167305409908295, -0.1512424349784851, -0.15260861814022064, 0.17597177624702454, 0.27942878007888794, -0.2821688652038574, 0.08256197720766068, 0.08172187209129333, -0.22825688123703003, -0.21982333064079285, -0.15162509679794312, -0.30047065019607544, 0.2161722481250763, -0.17484033107757568, -0.2927103042602539, 0.14512595534324646, -0.1910609006881714, -0.13928312063217163, 0.13135139644145966, -0.23678924143314362, 0.16682368516921997, 0.23088189959526062, -0.3379097282886505, -0.19441558420658112, 0.3450852334499359, -0.17403942346572876, -0.17418305575847626, -0.047982294112443924, -0.030994126573204994, -0.019273672252893448, 0.038007982075214386], [0.23138688504695892, 0.19121679663658142, -0.24333398044109344, 0.19441208243370056, -0.31689557433128357, 0.09646341949701309, -0.20769153535366058, 0.2976880371570587, 0.20828796923160553, -0.18702055513858795, -0.09456837922334671, 0.20322909951210022, -0.25843003392219543, -0.14868003129959106, 0.3650783896446228, 0.22251205146312714, 0.3084675669670105, 0.3419150710105896, -0.23278507590293884, 0.24521909654140472, 0.28322237730026245, -0.38836804032325745, 0.24076978862285614, 0.39554619789123535, -0.3484206795692444, 0.2152436226606369, -0.256540447473526, -0.3404768407344818, 0.4624987840652466, 0.44244852662086487, -0.300160676240921, 0.33700254559516907, 0.04997686669230461, -0.044764380902051926, 0.10926251858472824, -0.007952144369482994, -0.18462732434272766], [-0.07499051839113235, 0.02497900277376175, 0.13195833563804626, -0.13681985437870026, 0.25974029302597046, -0.10702013224363327, 0.23837558925151825, -0.19710205495357513, -0.19553251564502716, 0.09983170032501221, 0.23008795082569122, -0.20614148676395416, 0.08702652901411057, 0.09602566808462143, -0.12946155667304993, -0.15336130559444427, -0.21479623019695282, -0.2055787742137909, 0.129806250333786, -0.2610572278499603, -0.2186744213104248, 0.15994158387184143, -0.20910033583641052, -0.19909250736236572, 0.12163835018873215, -0.22279420495033264, 0.21188651025295258, 0.1786319464445114, -0.2979574501514435, -0.2528975307941437, 0.3025844991207123, -0.17316612601280212, -0.040513332933187485, 0.035851094871759415, 0.013052101247012615, 0.06022380664944649, 0.11626167595386505], [0.19114701449871063, 0.13696905970573425, -0.22640398144721985, 0.16508397459983826, -0.2375258505344391, 0.23937423527240753, -0.22866013646125793, 0.2702985405921936, 0.23534463346004486, -0.17588752508163452, -0.08513524383306503, 0.23199455440044403, -0.15429288148880005, -0.2533504366874695, 0.19920846819877625, 0.22202515602111816, 0.21465201675891876, 0.29973968863487244, -0.25438573956489563, 0.20328938961029053, 0.17834976315498352, -0.2876660227775574, 0.254535049200058, 0.3612707555294037, -0.19992303848266602, 0.17794346809387207, -0.23079995810985565, -0.25742751359939575, 0.31892117857933044, 0.31502896547317505, -0.24602869153022766, 0.2703515887260437, -0.03711340203881264, 0.05440046638250351, 0.013512847945094109, -0.0375668928027153, 0.05466548725962639], [0.25400108098983765, 0.3488345444202423, -0.2851228713989258, 0.2106861174106598, -0.23697802424430847, 0.14584340155124664, -0.2028982937335968, 0.30442410707473755, 0.27980390191078186, -0.1362147033214569, -0.16755878925323486, 0.2148216962814331, -0.2688329815864563, -0.21538232266902924, 0.22996841371059418, 0.24905908107757568, 0.1802188605070114, 0.2458714246749878, -0.2198857218027115, 0.3138211965560913, 0.3996866047382355, -0.32696783542633057, 0.27922412753105164, 0.3682551085948944, -0.41439688205718994, 0.20707464218139648, -0.2148328423500061, -0.2965375781059265, 0.32954105734825134, 0.3385307192802429, -0.2100735604763031, 0.27232709527015686, 0.028335511684417725, -0.03812311962246895, -0.053946640342473984, -0.14577291905879974, -0.03273102268576622], [-0.17996647953987122, -0.01587637886404991, 0.14688466489315033, -0.07634425163269043, 0.21403606235980988, -0.21651265025138855, 0.264803946018219, -0.25949159264564514, -0.1702224314212799, 0.23942771553993225, 0.18049505352973938, -0.26307809352874756, 0.16852782666683197, 0.07130088657140732, -0.24583235383033752, -0.2296956181526184, -0.22270958125591278, -0.43004927039146423, 0.10655130445957184, -0.26253217458724976, -0.22077935934066772, 0.26500558853149414, -0.19006821513175964, -0.1372351348400116, 0.15459111332893372, -0.23150691390037537, 0.24517397582530975, 0.2517409324645996, -0.40102189779281616, -0.31075185537338257, 0.4120015501976013, -0.2692808508872986, 0.06413553655147552, 0.03650856018066406, 0.05723898112773895, 0.22146698832511902, 0.03606761619448662], [-0.11027038097381592, -0.03417408466339111, 0.16148361563682556, -0.24885429441928864, 0.26635000109672546, -0.21706649661064148, 0.22605183720588684, -0.07357125729322433, -0.2267759144306183, 0.1101541742682457, 0.22499245405197144, -0.13047659397125244, 0.14099183678627014, 0.14541293680667877, -0.3234202563762665, -0.1515885889530182, -0.148462176322937, -0.17281077802181244, 0.16652263700962067, -0.37047258019447327, -0.13844263553619385, 0.15045438706874847, -0.1799633502960205, -0.08911839127540588, 0.18869251012802124, -0.24533455073833466, 0.24143142998218536, 0.23490989208221436, -0.3378819525241852, -0.2418522834777832, 0.3068627715110779, -0.287327378988266, -0.10542457550764084, 0.08529338240623474, -0.09258891642093658, -0.021280299872159958, 0.10759620368480682], [-1.523867965147474e-08, -3.273370020906441e-05, -6.7355776991462335e-06, -7.314446791306661e-12, -1.0515855392329694e-22, 3.204062522854656e-05, -1.145337932939583e-06, 1.1596539728486732e-08, -2.6924364959768354e-08, -2.266561205033213e-05, -7.331964013701509e-08, -3.5966936593467835e-06, -9.040820536654337e-09, -2.887664595618844e-05, -6.672911467831e-07, -2.5121021280938294e-06, -1.0392072908871341e-05, -7.6980996366373095e-25, -2.342213883821387e-05, -1.1702775282174116e-06, -1.2534346751635894e-05, 6.982594058513314e-09, -3.084983646317596e-08, -3.2321433536708355e-05, -5.788428625308484e-10, -5.487061499609425e-11, 1.4565954540076438e-26, -6.39484016955183e-13, -3.6355973520585394e-07, 9.567435037726819e-31, 3.732982367665727e-09, 7.436997684351354e-10, -1.2245127606302006e-21, -3.156716047669761e-05, -1.3790630873700138e-05, 7.862333204792854e-27, 3.102123949447133e-29], [-0.14829686284065247, -0.06574096530675888, 0.17233918607234955, -0.1958937644958496, 0.36534616351127625, -0.2356395274400711, 0.25012126564979553, -0.24517391622066498, -0.24329239130020142, 0.22843658924102783, 0.21853840351104736, -0.1747010052204132, 0.14771516621112823, 0.13959114253520966, -0.2613282799720764, -0.09610023349523544, -0.26262998580932617, -0.3472537100315094, 0.16138850152492523, -0.3304764926433563, -0.21799741685390472, 0.2345515787601471, -0.24098727107048035, -0.08337492495775223, 0.1348218023777008, -0.3032856285572052, 0.2985377907752991, 0.30759215354919434, -0.43154892325401306, -0.20884953439235687, 0.37370914220809937, -0.26422032713890076, -0.17841054499149323, 0.007134384009987116, -0.11912298202514648, 0.2636944353580475, 0.07050935924053192], [0.18546217679977417, 0.21226193010807037, -0.2296632081270218, 0.20158015191555023, -0.2963795065879822, 0.15199363231658936, -0.15209472179412842, 0.301975816488266, 0.27706751227378845, -0.2618968188762665, -0.0548236183822155, 0.23873628675937653, -0.16736654937267303, -0.25014257431030273, 0.28709855675697327, 0.1804761439561844, 0.27062854170799255, 0.30105581879615784, -0.24958844482898712, 0.26884469389915466, 0.2768486738204956, -0.2869771420955658, 0.2485029399394989, 0.301833838224411, -0.31675490736961365, 0.22952739894390106, -0.29186156392097473, -0.33920469880104065, 0.3771807551383972, 0.3716602027416229, -0.25746458768844604, 0.3122252821922302, -0.00683933449909091, -0.05183678865432739, -0.01067897118628025, -0.08647789061069489, -0.10574208199977875]], "fc1.bias": [0.19393415749073029, -0.02465854398906231, -0.030846010893583298, 0.043347086757421494, 0.1173911765217781, -0.001659564790315926, 0.12604013085365295, 0.025350062176585197, 0.08477826416492462, 0.14377933740615845, 0.18118329346179962, -0.0013517002807930112, -0.10994908958673477, -2.9165785235818475e-05, 0.08566044270992279, 0.12628483772277832], "fc2.weight": [[-1.4436216354370117, 0.9267171621322632, 0.7980808615684509, -1.2065125703811646, 0.6589807868003845, -0.0023793457075953484, 0.8161296248435974, -1.3265516757965088, 0.7692848443984985, -1.4386935234069824, -1.3674757480621338, 0.7657774686813354, 0.785873293876648, 0.0002378043282078579, 0.7619813680648804, -1.3673546314239502]], "fc2.bias": [0.37461915612220764], "norm_mean": [0.04631052538752556, 0.3458836078643799, 0.3424469530582428, 0.40340369939804077, 0.03721093758940697, 0.02628497965633869, 0.04709452763199806, 0.2603952884674072, 2.317261219024658, 0.17324626445770264, 0.48490697145462036], "norm_std": [0.09582448750734329, 0.3011329174041748, 0.2960350513458252, 0.26724982261657715, 0.09747609496116638, 0.07246610522270203, 0.18874730169773102, 0.4388505220413208, 1.7898304462432861, 0.37846019864082336, 0.2709380090236664]}