{"tool_embed.weight": [[2.1215314865112305, 1.4267019033432007, 0.6045332551002502, -1.9283058643341064], [0.6889311671257019, -1.4496262073516846, 0.017845891416072845, -1.5844582319259644], [-0.7363821268081665, 1.5826857089996338, -0.2524966299533844, -1.2266870737075806], [-0.8789964318275452, 0.08607330173254013, -2.318066120147705, -0.08574929088354111], [-1.3784439206894958e-30, 2.210350744388929e-39, 6.937104225566113e-39, 2.203956360903385e-18], [-4.4171127634107224e-39, 2.0262299352658984e-39, 1.6268038209947526e-39, -3.290650966893932e-39], [-1.7244127988815308, 1.0492292642593384, -0.724195659160614, -0.8560099601745605]], "conv3.weight": [[[0.1143345758318901, -0.026459017768502235, 0.20961841940879822], [0.061419930309057236, 0.13995090126991272, -0.03547336533665657], [-0.18862800300121307, 0.008917750790715218, -0.07493907958269119], [0.1042967438697815, 0.04730045795440674, 0.09491413086652756], [-0.1484614908695221, -0.09528680890798569, -0.08290795981884003], [-0.21634541451931, -0.08779866248369217, -0.11254800111055374], [-0.19588914513587952, -0.15463872253894806, -0.016910724341869354], [0.01438479870557785, 0.13382133841514587, -0.09279437363147736], [-0.13952839374542236, -0.07103894650936127, 0.12922902405261993], [-0.09756623208522797, 0.21331773698329926, -0.3023586571216583], [-0.10139468312263489, -0.06650097668170929, -0.09923604875802994], [-0.17626367509365082, -0.09002495557069778, 0.053735848516225815], [-0.14530539512634277, -0.38042914867401123, -0.05169859901070595], [-0.1358346790075302, 0.056755706667900085, -0.013316957280039787], [0.0782371237874031, -0.07369166612625122, 0.07265433669090271]], [[-0.07242389023303986, -0.08106400817632675, -0.14676672220230103], [0.012064021080732346, 0.12056763470172882, -0.2824745774269104], [-0.09519276022911072, 0.16195037961006165, -0.12078670412302017], [0.026268860325217247, -0.16660185158252716, -0.2818848192691803], [-0.19785282015800476, -0.04585300385951996, -0.35015150904655457], [0.0023094185162335634, -0.05988540127873421, -0.01051259133964777], [0.06728381663560867, -0.0673905685544014, -0.16712337732315063], [0.19573873281478882, 0.1893659383058548, 0.28458723425865173], [-0.11630838364362717, -0.1899172067642212, -0.013012159615755081], [0.15547534823417664, -0.22064803540706635, 0.03930282220244408], [0.049851857125759125, -0.11849839240312576, -0.2073565572500229], [0.04096699506044388, -0.1260722428560257, -0.34742286801338196], [-0.20351313054561615, -0.007595491595566273, -0.24890531599521637], [0.25039297342300415, 0.017682889476418495, 0.173134446144104], [0.11646115779876709, 0.0033019131515175104, -0.011929759755730629]], [[-0.00016696091915946454, -0.10691235214471817, -0.3362966775894165], [-0.1411052644252777, -0.12533074617385864, 0.0788872018456459], [0.11008657515048981, -0.16326387226581573, 0.03921584039926529], [-0.04848547652363777, 0.013351239264011383, -0.054346662014722824], [0.2629478871822357, -0.02958730049431324, 0.1704968363046646], [0.06968465447425842, 0.07085048407316208, -0.021584946662187576], [0.247050479054451, -0.047282420098781586, 0.2815725803375244], [-0.2745545506477356, 0.008899015374481678, 0.039831485599279404], [0.05371309816837311, -0.13163620233535767, -0.026721999049186707], [-0.11408104002475739, -0.04060366377234459, -0.45305702090263367], [0.06754032522439957, -0.03283170983195305, 0.012355992570519447], [0.2816559672355652, -0.025596721097826958, -0.14965055882930756], [-0.2729646861553192, -0.28669774532318115, 0.006162280682474375], [0.022653227671980858, -0.10206880420446396, -0.026297245174646378], [-0.10681012272834778, -0.11134742945432663, 0.2165231704711914]], [[-0.057698804885149, 0.17207956314086914, 0.2991269826889038], [0.053694188594818115, -0.11222387850284576, 0.03631822392344475], [0.17021094262599945, 0.07832858711481094, 0.06663937866687775], [-0.08353380113840103, 0.09191560745239258, 0.0754644051194191], [-0.07485473901033401, 0.15779253840446472, 0.027542926371097565], [-0.1827833354473114, 0.1274913251399994, -0.10781119763851166], [-0.10947923362255096, 0.1235283613204956, 0.00011280862963758409], [-0.2317524403333664, 0.088628388941288, 0.09979041665792465], [0.1403399258852005, -0.023656336590647697, 0.007822584360837936], [-0.14048075675964355, -0.38706544041633606, -0.2972635328769684], [-0.1987292617559433, 0.052895624190568924, 0.02330993302166462], [-0.36594730615615845, -0.01903589814901352, -0.0006793633219785988], [0.15818767249584198, -0.264930784702301, -0.1373162716627121], [-0.0007043373771011829, -0.10324300080537796, -0.20829711854457855], [0.21047988533973694, -0.19549137353897095, -0.2466638684272766]], [[-0.040730006992816925, 0.32215866446495056, 0.30680277943611145], [-0.1427840143442154, -0.18679529428482056, -0.04235915094614029], [-0.11090026795864105, 0.2962746322154999, 0.2903740406036377], [0.15954601764678955, 0.03260267153382301, 0.08016981929540634], [-0.02708793804049492, 0.07339087128639221, 0.044491227716207504], [-0.12089351564645767, 0.03836327791213989, 0.10032089054584503], [0.0615578293800354, 0.0441887192428112, -0.019691243767738342], [0.02990284189581871, -0.08895265311002731, 0.21373668313026428], [-0.027888253331184387, 0.19100730121135712, -0.14857511222362518], [-0.04697420820593834, -0.020822014659643173, -0.1073138564825058], [-0.11168000102043152, -0.2549557387828827, 0.11771372705698013], [-0.5151962041854858, -0.11386726796627045, -0.051866646856069565], [-0.059648506343364716, -0.12233525514602661, -0.17255349457263947], [-0.1323404461145401, 0.10007327049970627, 0.1405559778213501], [0.06206347420811653, 0.05279479920864105, 0.10572591423988342]], [[-0.22753384709358215, 0.11995872110128403, -0.13568882644176483], [0.1813620626926422, -0.11056090891361237, 0.04952096939086914], [-0.027049945667386055, -0.12354685366153717, 0.07740751653909683], [0.024577798321843147, -0.11191824078559875, 0.07343287020921707], [-0.2531372308731079, -0.0988696813583374, -0.0988665521144867], [-0.14845800399780273, -0.16710923612117767, -0.1265922635793686], [0.2587236762046814, 0.10818956047296524, 0.01670524850487709], [-0.057729240506887436, 0.25859886407852173, -0.09060008078813553], [-0.09226041287183762, -0.027667200192809105, -0.10070358961820602], [-0.29784178733825684, 0.20757928490638733, -0.22724470496177673], [0.009966786950826645, 0.12875859439373016, 0.09301435947418213], [0.05023724585771561, -0.02834809571504593, -0.26779434084892273], [0.1921658217906952, -0.4550580084323883, -0.4005349278450012], [-0.048167016357183456, 0.04755393788218498, 0.19240634143352509], [0.22433121502399445, -0.012608304619789124, 0.12023983895778656]], [[0.13976579904556274, 0.004820677451789379, 0.02687317691743374], [0.08238328993320465, -0.15145747363567352, 0.04518698900938034], [-0.09940477460622787, -0.04699844494462013, 0.14779502153396606], [0.1014895960688591, -0.07720064371824265, -0.11388902366161346], [-0.23154452443122864, -0.24956084787845612, -0.18568192422389984], [-0.08244079351425171, 0.14183524250984192, 0.020800702273845673], [-0.1976075917482376, -0.019434338435530663, 0.11668995022773743], [-0.06319376081228256, 0.06711295992136002, 0.04303531348705292], [-0.07701805233955383, -0.03241927549242973, 0.07992982864379883], [0.06553766876459122, -0.11067036539316177, -0.22495850920677185], [-0.12427864968776703, -0.1442219316959381, 0.10594771057367325], [-0.2759642004966736, -0.3342893719673157, 0.07585538923740387], [0.1648464798927307, 0.02884715609252453, 0.17898182570934296], [0.10682119429111481, -0.13999846577644348, 0.03059225156903267], [0.3480226695537567, 0.18308520317077637, -0.09013822674751282]], [[0.19363974034786224, -0.14727172255516052, -0.13959814608097076], [-0.22841203212738037, -0.10063137114048004, 0.07218506932258606], [0.0973057895898819, -0.05061344429850578, -0.12090688198804855], [-0.1637667566537857, 0.0006714639603160322, 0.00023004926333669573], [0.17075969278812408, -0.304630845785141, -0.20077022910118103], [-0.10107890516519547, -0.016985611990094185, -0.08497347682714462], [0.3292558491230011, 0.16913144290447235, -0.10210086405277252], [0.06590841710567474, -0.42633146047592163, -0.08679423481225967], [0.21294185519218445, 0.01998683623969555, 0.10543201118707657], [-0.14277207851409912, -0.1712394505739212, 0.017293186858296394], [-0.19289714097976685, 0.009250357747077942, -0.0710587427020073], [-0.04029010981321335, 0.13873931765556335, 0.10276506096124649], [-0.12721535563468933, -0.44326046109199524, -0.1925416737794876], [0.1846638023853302, -0.15766596794128418, -0.07161981612443924], [-0.1238468587398529, 0.09343091398477554, -0.05351388826966286]], [[-0.0168753731995821, -0.034556783735752106, -0.06696998327970505], [-0.0996030792593956, -0.11109387129545212, 0.004478755407035351], [-0.014644674956798553, -0.04172639921307564, 0.17382408678531647], [0.10171999037265778, 0.0496356338262558, -0.04330911859869957], [-0.11210588365793228, 0.16488692164421082, -0.03305919095873833], [-0.06439542770385742, -0.02746964618563652, -0.09746896475553513], [-0.13370230793952942, -0.2106548249721527, -0.07773677259683609], [-0.05805505812168121, 0.060762543231248856, 0.005892282817512751], [-0.07195328921079636, 0.01023003738373518, -0.07352305948734283], [-0.03234373778104782, 0.04489288106560707, 0.1361887902021408], [-0.29369544982910156, 0.5811339020729065, -0.08900052309036255], [0.009669244289398193, -0.0324818454682827, -0.06231267750263214], [0.029130853712558746, 0.09529091417789459, -0.07621611654758453], [0.12285153567790985, 0.18614979088306427, -0.11224767565727234], [-0.10168679803609848, -0.044764697551727295, 0.30739980936050415]], [[-0.13772469758987427, -0.12124969810247421, 0.022249864414334297], [-0.14497874677181244, 0.09482830762863159, 0.023951640352606773], [0.12842614948749542, 0.13411754369735718, 0.33185482025146484], [-0.01591089740395546, -0.07440543174743652, -0.030118431895971298], [-0.11052913963794708, -0.0868411660194397, -0.10845278203487396], [-0.03952767699956894, 0.10184097290039062, -0.04202286899089813], [0.1820187121629715, 0.32530805468559265, 0.16344192624092102], [0.006655353121459484, 0.053504906594753265, 0.1691615730524063], [0.04935646057128906, -0.14709234237670898, 0.09623730927705765], [-0.3751685321331024, 0.03284204378724098, -0.09100467711687088], [-0.06062406301498413, -0.0006076035788282752, -0.04540080949664116], [-0.03822096064686775, 0.09818864613771439, -0.1879800409078598], [-0.3284187316894531, -0.07084032148122787, 0.08813148736953735], [0.2418639212846756, 0.20565475523471832, 0.2370091825723648], [0.12807120382785797, -0.06928476691246033, -0.09690339863300323]], [[-0.005542732309550047, -0.017010852694511414, 0.1121380478143692], [0.09684479981660843, -0.00890140701085329, -0.055750004947185516], [-0.013671512715518475, -0.08033601939678192, -0.010653035715222359], [-0.03193791210651398, 0.027297092601656914, 0.043117962777614594], [-0.2240399569272995, 0.04867207631468773, -0.03680267930030823], [0.20970331132411957, 0.1401064693927765, -0.20506806671619415], [-0.08956999331712723, -0.03988427668809891, -0.13247521221637726], [0.035573411732912064, 0.020267315208911896, -0.06827586144208908], [-0.09294693917036057, -0.09152977168560028, -0.034396812319755554], [0.07671945542097092, 0.04014483094215393, -0.06892408430576324], [0.5405662059783936, -0.11230161786079407, 0.36299917101860046], [0.030820369720458984, 0.09765844792127609, -0.12697270512580872], [0.015722351148724556, 0.0008906840230338275, 0.04980543255805969], [0.19884905219078064, 0.19692976772785187, 0.0991462841629982], [-0.07783807814121246, 0.04067080095410347, 0.05301886051893234]], [[-0.04125317186117172, -0.21053773164749146, 0.1005808562040329], [-0.04343031346797943, 0.010371141135692596, 0.04727798327803612], [-0.024022474884986877, -0.010022860951721668, 0.07834859937429428], [0.2658731937408447, 0.005071873310953379, -0.025568410754203796], [-0.2307642549276352, -0.03360548987984657, -0.26198500394821167], [0.026868533343076706, -0.21639566123485565, 0.14634107053279877], [0.05198797583580017, -0.07959944009780884, 0.27754873037338257], [0.1343308389186859, 0.09306371957063675, -0.18469291925430298], [-0.2909177541732788, 0.0033228532411158085, -0.2833348214626312], [-0.11809606105089188, -0.05679593235254288, -0.01615709625184536], [-0.24816210567951202, -0.10356883704662323, -0.07441597431898117], [-0.21842597424983978, 0.07675230503082275, 0.21608828008174896], [-0.07438044995069504, -0.09430256485939026, 0.22309011220932007], [0.08453049510717392, -0.06494185328483582, 0.10205299407243729], [-0.014402678236365318, 0.03245570883154869, 0.40829163789749146]], [[0.031150618568062782, 0.11380141973495483, -0.09691905230283737], [-0.17055313289165497, -0.04630044475197792, 0.053107988089323044], [0.18887826800346375, 0.0991528108716011, 0.03140220046043396], [0.023368699476122856, -0.06754357367753983, -0.1824435442686081], [-0.007436014711856842, -0.1309211254119873, 0.20585975050926208], [-0.07946095615625381, -0.1429634690284729, -0.01087368093430996], [-0.3359205424785614, -0.22652214765548706, 0.1747848391532898], [-0.024332180619239807, 0.0028245265129953623, -0.08949247747659683], [0.08770593255758286, 0.13906538486480713, 0.2157951146364212], [0.09797277301549911, 0.07275453209877014, 0.03138360381126404], [0.4123592674732208, 0.20694544911384583, 0.11208786070346832], [-0.21936841309070587, 0.031783055514097214, 0.07521107792854309], [-0.011895122937858105, -0.06705858558416367, 0.029837533831596375], [0.008009855635464191, -0.010694211348891258, -0.017732806503772736], [0.281959593296051, 0.007308574393391609, -0.21073998510837555]], [[-0.03756408765912056, -0.1599569469690323, -0.06559629738330841], [0.05080648139119148, 0.21213282644748688, -0.06743626296520233], [-0.13310419023036957, -0.00914062187075615, -0.14877234399318695], [-0.14164167642593384, -0.06962767988443375, -0.07296930998563766], [-0.3284890055656433, 0.15448229014873505, 0.03254138305783272], [-0.16431860625743866, 0.07139649242162704, 0.062152910977602005], [0.018063532188534737, 0.10351373255252838, -0.12717188894748688], [-0.05758138746023178, 0.056265681982040405, 0.10073298960924149], [0.038798946887254715, -0.0186628345400095, 0.026821164414286613], [0.025085877627134323, -0.034320686012506485, 0.14200517535209656], [0.049786437302827835, -0.08839891850948334, -0.04848279803991318], [-0.2640114426612854, 0.11350275576114655, 0.02583473175764084], [-0.21523895859718323, 0.08152944594621658, -0.17890781164169312], [0.04138953983783722, -0.07346781343221664, -0.015560361556708813], [0.0647473931312561, 0.29719021916389465, 0.306795209646225]], [[-0.18398666381835938, 0.26024138927459717, -0.1403515338897705], [0.14947673678398132, -0.3891173005104065, 0.028652891516685486], [0.2423095703125, 0.14222803711891174, -0.05990670621395111], [0.02752050757408142, -0.10575495660305023, 0.10146453231573105], [-0.16060017049312592, -0.22307385504245758, -0.22231608629226685], [0.050414446741342545, -0.0187754537910223, 0.15872225165367126], [0.43484076857566833, 0.282056987285614, 0.3634747564792633], [0.04696294292807579, 0.04562898725271225, -0.14668887853622437], [-0.019584735855460167, 0.32884833216667175, 0.27286502718925476], [-0.06848952174186707, 0.10682923346757889, -0.40825843811035156], [0.05689186975359917, -0.09316448867321014, -0.19255460798740387], [0.1344589740037918, -0.18572090566158295, -0.009401092305779457], [-0.16189749538898468, -0.06281815469264984, -0.027889292687177658], [0.16121430695056915, 0.3532939553260803, 0.3191162645816803], [0.04334437474608421, -0.03995148837566376, 0.14253661036491394]], [[-0.08646747469902039, -0.14881941676139832, 0.04164166375994682], [0.14777792990207672, 0.09232775121927261, -0.1222171038389206], [0.11768247187137604, 0.031541772186756134, -0.2605535686016083], [-0.12860780954360962, -0.05159519612789154, 0.11209452152252197], [-0.12046688795089722, -0.046392619609832764, 0.06691698729991913], [0.21804024279117584, 0.20090827345848083, -0.2314774990081787], [-0.09550170600414276, 0.2571543753147125, -0.020642921328544617], [0.2519981265068054, -0.011782125569880009, -0.16079109907150269], [0.11613288521766663, -0.0432271845638752, -0.058465175330638885], [0.12724047899246216, 0.005615014582872391, -0.10643035918474197], [-0.05251677706837654, -0.08176289498806, -0.0684409886598587], [-0.31589072942733765, -0.003196868347004056, 0.28573212027549744], [-0.4097927510738373, -0.0820654034614563, 0.12747885286808014], [-0.1523509919643402, 0.12029211968183517, -0.08245432376861572], [0.009095370769500732, -0.21247276663780212, 0.09263963997364044]]], "conv3.bias": [-0.1841648370027542, 0.08827482908964157, 0.03906118497252464, -0.21060959994792938, -0.1158648431301117, 0.10249023884534836, 0.06870769709348679, 0.10865005105733871, -0.07290787249803543, -0.1354282647371292, 0.04485344514250755, -0.01209578849375248, -0.09664567559957504, 0.009604327380657196, -0.02687952108681202, -0.01870178058743477], "conv5.weight": [[[-0.08444817364215851, -0.16483181715011597, -0.021891748532652855, -0.16979148983955383, -0.10153915733098984], [-0.10923205316066742, 0.1631200909614563, -0.05319603532552719, 0.152493417263031, 0.07952806353569031], [-0.13938146829605103, -0.0863550454378128, -0.05663164332509041, -0.2212558090686798, 0.044487565755844116], [-0.12643945217132568, -0.08937802165746689, -0.05196079984307289, -0.20975057780742645, 0.14605586230754852], [-0.15939679741859436, -0.04905695095658302, -0.07500630617141724, 0.13471053540706635, -0.07416094094514847], [-0.17359153926372528, 0.07339318096637726, 0.050773985683918, 0.1322358101606369, -0.044350992888212204], [-0.08548702299594879, 0.18412581086158752, 0.06060658022761345, 0.10205855965614319, 0.33040177822113037], [-0.2507229745388031, 0.043300628662109375, 0.15616095066070557, -0.0012496167328208685, 0.11199615150690079], [0.12350170314311981, 0.1034877598285675, 0.11133085936307907, -0.04103238880634308, 0.13459721207618713], [0.021927842870354652, 0.12151135504245758, -0.1463349461555481, 0.015733368694782257, -0.2660221457481384], [-0.19647866487503052, -0.0257458183914423, -0.16446122527122498, -0.07052284479141235, 0.0617859847843647], [-0.06017860770225525, -0.1379760354757309, -0.037032224237918854, 0.17753338813781738, -0.20218351483345032], [-0.31752756237983704, -0.3239821493625641, -0.2966505289077759, -0.2626403570175171, -0.16685785353183746], [-0.1718822866678238, -0.06489290297031403, -0.06880496442317963, -0.050289932638406754, 0.16326256096363068], [0.029516026377677917, 0.028244400396943092, -0.09883914142847061, 0.07928845286369324, -0.029700031504034996]], [[0.24292230606079102, 0.12928056716918945, -0.0554494708776474, 0.19503988325595856, 0.23310433328151703], [0.12303153425455093, -0.1219712346792221, 0.1620577573776245, 0.031249890103936195, 0.017316801473498344], [0.2268664538860321, 0.012445959262549877, 0.03931431099772453, -0.00909324549138546, 0.00845263060182333], [-0.12223533540964127, 0.07201806455850601, 0.042090680450201035, -0.10748334974050522, -0.1438976675271988], [-0.13419005274772644, -0.021208668127655983, -0.08342808485031128, 0.14350169897079468, -0.14697395265102386], [0.27176880836486816, 0.128160759806633, 0.051617950201034546, 0.24575138092041016, 0.10272380709648132], [0.10106884688138962, -0.006902504712343216, -0.070817731320858, -0.1313871145248413, 0.07645538449287415], [-0.01793665625154972, -0.18097765743732452, -0.06769683957099915, 0.16538305580615997, 0.300020307302475], [-0.2300999015569687, -0.1831408590078354, -0.10475146770477295, -0.10630600154399872, -0.08332373946905136], [0.33909764885902405, 0.16721878945827484, 0.18937358260154724, -0.004764422308653593, 0.29398855566978455], [-0.03986106440424919, -0.10287594795227051, 0.019330156967043877, -0.054045435041189194, -0.1983182728290558], [-0.12094158679246902, 0.08244054019451141, 0.14565624296665192, 0.05764998495578766, 0.12170162051916122], [0.13012143969535828, -0.3612983226776123, 0.11840267479419708, -0.03579961881041527, -0.03481405973434448], [-0.09888005256652832, 0.04598560929298401, -0.005750827491283417, 0.10614104568958282, 0.19794721901416779], [-0.21341472864151, -0.12043624371290207, 0.03362172096967697, -0.045264191925525665, -0.11267459392547607]], [[0.29252392053604126, -0.0820222944021225, -0.0211456511169672, -0.03784419968724251, -0.1546226143836975], [-0.24862076342105865, -0.1542147845029831, 0.008206197060644627, 0.1309279352426529, -0.0014776515308767557], [0.02841125801205635, -0.07454250007867813, -0.0975038930773735, 0.09587789326906204, 0.05279169976711273], [0.05042087659239769, 0.08356046676635742, 0.00383973796851933, -0.15523900091648102, 0.10482338815927505], [-0.07277865707874298, -0.02378586120903492, 0.10990659147500992, 0.059089016169309616, -0.08773035556077957], [0.11673451215028763, 0.09299688041210175, -0.017009349539875984, -0.013990010134875774, -0.0451774075627327], [-0.058914508670568466, -0.02517080493271351, -0.2575802803039551, -0.27537795901298523, -0.019570985808968544], [0.22632084786891937, 0.017168892547488213, 0.01718801259994507, -0.046073902398347855, -0.2525022029876709], [-0.15975669026374817, -0.2867158055305481, 0.020917844027280807, 0.026836590841412544, 0.2297857105731964], [-0.19478720426559448, 0.11610018461942673, 0.18874268233776093, 0.17645202577114105, 0.09559257328510284], [0.22946377098560333, 0.10031215101480484, 0.3773576617240906, 0.12266208231449127, -0.08842721581459045], [-0.31559479236602783, -0.00017328342073597014, 0.11324269324541092, 0.19576285779476166, 0.010413982905447483], [-0.04191669076681137, 0.08953703194856644, -0.06924691796302795, -0.13847972452640533, 0.06762431561946869], [0.011801330372691154, -0.04704852029681206, 0.060599006712436676, 0.05396336317062378, 0.03543631732463837], [0.015329847112298012, -0.1735636442899704, -0.1552886664867401, -0.01136923860758543, -0.03711806982755661]], [[0.2039782553911209, -0.03352780640125275, -0.04413032904267311, -0.0911477729678154, -0.024784673005342484], [-0.08100330084562302, -0.1341334581375122, -0.017997534945607185, 0.012850058265030384, 0.03655625134706497], [0.185675710439682, -0.15866775810718536, 0.3934997320175171, 0.18402379751205444, 0.1225590631365776], [-0.06899911910295486, 0.20387817919254303, -0.13776792585849762, -0.07082518190145493, 0.13862434029579163], [-0.1209564283490181, 0.22188742458820343, 0.13532522320747375, -0.14406421780586243, -0.06615027040243149], [0.06647779047489166, 0.06699039041996002, 0.04378947988152504, -0.14897765219211578, 0.15816976130008698], [0.09147621691226959, 0.30563005805015564, -0.14603719115257263, 0.1392357349395752, 0.0824618712067604], [-0.14621645212173462, 0.1359722763299942, 0.16464659571647644, 0.17518088221549988, 0.29284045100212097], [-0.0584397166967392, 0.04177685081958771, -0.0318944975733757, 0.15988780558109283, 0.018567444756627083], [-0.02973230369389057, -0.15050430595874786, -0.13531441986560822, -0.06130853295326233, -0.04088466614484787], [-0.10180044174194336, -0.10249593108892441, -0.16221025586128235, -0.14822669327259064, -0.3058833181858063], [0.1699080467224121, 0.17912793159484863, 0.022946584969758987, 0.08082500100135803, -0.0031201341189444065], [0.26201003789901733, 0.15320855379104614, 0.11373772472143173, 0.15473635494709015, 0.20095194876194], [0.11823274940252304, 0.17651042342185974, 0.10281910002231598, 0.21932195127010345, 0.1791314035654068], [0.32964128255844116, -0.06761933118104935, -0.2197214663028717, -0.1263403445482254, -0.04860006272792816]], [[0.1132330447435379, -0.09166889637708664, 0.16198742389678955, -0.259921133518219, 0.0021834890358150005], [0.11263859272003174, 0.12435989826917648, 0.052908096462488174, 0.02450433559715748, -0.25025027990341187], [0.1732470840215683, -0.08801845461130142, -0.08955541998147964, -0.040774866938591, 0.12443650513887405], [0.032392531633377075, 0.026390811428427696, 0.040633317083120346, 0.05320712924003601, 0.1633942425251007], [-0.2378334105014801, -0.04850580170750618, -0.2261168360710144, 0.28291055560112, -0.24838387966156006], [-0.08557237684726715, -0.04448147490620613, -0.09986645728349686, 0.19983810186386108, 0.12075590342283249], [-0.25489965081214905, -0.11012620478868484, -0.08788719773292542, 0.27649837732315063, 0.1859053671360016], [0.0034808828495442867, 0.13886629045009613, 0.08915653824806213, 0.09223517775535583, -0.03127450868487358], [-0.18325959146022797, -0.18170078098773956, -0.026395851746201515, -0.1564539521932602, 0.15196305513381958], [-0.2529144883155823, 0.18216648697853088, -0.10862131416797638, 0.0717136338353157, -0.028260771185159683], [-0.16149094700813293, 0.0842137560248375, -0.04508620500564575, 0.034871701151132584, 0.06751376390457153], [-0.09318922460079193, -0.03258129581809044, 0.07199813425540924, 0.07653811573982239, -0.027267003431916237], [-0.01882096566259861, -0.14866939187049866, -0.044057417660951614, -0.3761798143386841, -0.20636361837387085], [-0.11923155188560486, -0.16872838139533997, -0.13395251333713531, 0.12592042982578278, 0.15609772503376007], [-0.16433052718639374, 0.13677318394184113, 0.15838614106178284, -0.04943140223622322, -0.21572642028331757]], [[0.058065805584192276, -0.05846687778830528, -0.042646829038858414, -0.17546531558036804, 0.007550430949777365], [-0.1310890018939972, 0.06061524152755737, 0.16808173060417175, 0.18352645635604858, 0.023946722969412804], [0.0320449061691761, -0.10586278885602951, 0.06130395829677582, -0.12797828018665314, 0.05007162690162659], [0.0988939180970192, -0.09578017890453339, -0.09838463366031647, -0.02503233589231968, 0.15444892644882202], [0.035975273698568344, -0.13388241827487946, 0.07765000313520432, -0.007122150156646967, -0.1565004587173462], [0.06852850317955017, -0.03875060752034187, 0.044510360807180405, -0.3445923924446106, -0.038559142500162125], [0.0051850504241883755, -0.1554797738790512, -0.08075468242168427, -0.12181686609983444, -0.01113558653742075], [-0.1034771129488945, 0.1923389881849289, 0.061258479952812195, -0.11899925768375397, 0.041849564760923386], [-0.05699003115296364, -0.023124251514673233, -0.054833605885505676, -0.2670142650604248, -0.12919001281261444], [-0.020840683951973915, -0.11188992112874985, -0.05604555830359459, -0.0045758942142128944, -0.04296179488301277], [-0.22030717134475708, 0.16169582307338715, 0.008978917263448238, 0.2886049449443817, 0.35568857192993164], [-0.01557315606623888, -0.18176525831222534, 0.1191675066947937, 0.015174771659076214, -0.0032329093664884567], [0.09495367854833603, 0.1534852385520935, -0.18041379749774933, 0.060331039130687714, 0.056074269115924835], [-0.2926079034805298, -0.0953608900308609, -0.013778889551758766, -0.08259989321231842, 0.11519761383533478], [-0.02684609778225422, 0.24035130441188812, 0.030242817476391792, 0.2837774455547333, 0.04006411135196686]], [[0.21247251331806183, -0.16051127016544342, -0.04260800778865814, 0.061799149960279465, 0.14009305834770203], [-0.022810323163866997, 0.049765948206186295, 0.06105697900056839, 0.14162521064281464, 0.08271365612745285], [0.08017090708017349, 0.15412671864032745, 0.061394814401865005, 0.018027806654572487, 0.01764782704412937], [-0.11980947852134705, -0.1095113605260849, -0.06467553973197937, -0.1500537097454071, -0.051676083356142044], [0.09174977242946625, -0.1852312535047531, -0.15263940393924713, -0.0508088581264019, -0.046741172671318054], [0.41333672404289246, 0.1733367145061493, 0.11534275114536285, 0.01693224348127842, -0.2657504975795746], [0.33881232142448425, 0.2227030247449875, 0.16501644253730774, 0.04069094732403755, 0.22648166120052338], [0.05871200188994408, -0.16276763379573822, 0.040248386561870575, 0.01292481366544962, -0.2349376231431961], [-0.06811828911304474, -0.020285656675696373, -0.252593994140625, 0.02238178439438343, -0.04670054838061333], [0.2418680191040039, 0.2899603545665741, 0.12498798221349716, -0.14649757742881775, 0.028669921681284904], [-0.026808328926563263, -0.06672365218400955, -0.10101404786109924, -0.2773619592189789, -0.01963305100798607], [0.07341337949037552, 0.10176904499530792, -0.2541910707950592, 0.18636497855186462, 0.15910428762435913], [0.1713555008172989, -0.08444250375032425, 0.10541575402021408, -0.2595442533493042, -0.0277811661362648], [0.3285271227359772, 0.09923946857452393, -0.10076797753572464, -0.011740029789507389, -0.04355354979634285], [-0.022045230492949486, 0.12889215350151062, 0.013104671612381935, 0.18462127447128296, -0.05882317200303078]], [[0.17471955716609955, 0.10043193399906158, -0.09632637351751328, -0.0029301887843757868, -0.11247320473194122], [0.10325638204813004, 0.005284154321998358, -0.017168832942843437, 0.004383414052426815, 0.07173701375722885], [-0.009565669111907482, -0.09574159979820251, 0.02268563210964203, -0.039439164102077484, 0.24919360876083374], [-0.11579959094524384, 0.13025949895381927, 0.06582025438547134, 0.05914028733968735, -0.02913025952875614], [-0.3692367970943451, -0.031629450619220734, -0.04834160953760147, 0.00958946906030178, 0.10526341199874878], [-0.14426082372665405, 0.02648097835481167, -0.0001980049128178507, -0.08295093476772308, -0.15340639650821686], [-0.06790309399366379, 0.08220822364091873, -0.28074824810028076, -0.05694311857223511, 0.001089534373022616], [0.18327265977859497, -0.20433345437049866, 0.12950271368026733, 0.011571414768695831, 0.0753890797495842], [-0.13567055761814117, -0.0718672126531601, -0.010114619508385658, -0.16723750531673431, 0.12556758522987366], [-0.06941458582878113, -0.15615825355052948, 0.11586958914995193, -0.05674973502755165, 0.052054084837436676], [0.08297491073608398, -0.0671643316745758, 0.5098106861114502, -0.20884904265403748, -0.03604771941900253], [-0.1356976330280304, 0.11071295291185379, -0.15902888774871826, -0.20876793563365936, -0.0006139801116660237], [-0.07254108041524887, -0.02895275130867958, -0.022941628471016884, 0.0929880291223526, 0.150798499584198], [-0.0020411936566233635, 0.12620027363300323, 0.046349722892045975, -0.0895535945892334, 0.10456722229719162], [0.029476167634129524, -0.018998699262738228, -0.012585166841745377, 0.0008055921061895788, 0.3558947443962097]], [[0.23989182710647583, -0.09195197373628616, 0.07758821547031403, -0.18893879652023315, 0.037238072603940964], [-0.022622505202889442, -0.07759978622198105, -0.011776555329561234, 0.1810547262430191, -0.1309332400560379], [0.09034382551908493, -0.038560789078474045, 0.028179507702589035, -0.04482189938426018, 0.2066178321838379], [-0.07154175639152527, 0.05311679095029831, 0.03677857294678688, -0.10791292041540146, -0.11558214575052261], [0.0645352378487587, -0.04661513864994049, -0.04449322074651718, 0.08290274441242218, 0.0846954733133316], [-0.03626155108213425, 0.1125408336520195, -0.20059417188167572, -0.09616398066282272, 0.17726053297519684], [-0.1047668531537056, -0.056045424193143845, 0.009844745509326458, -0.245798259973526, 0.022926628589630127], [0.026175422593951225, 0.08304159343242645, -0.08664156496524811, 0.09160806238651276, -0.011018162593245506], [0.0023320112377405167, -0.07661408931016922, 0.11872270703315735, 0.1633416712284088, -0.066855289041996], [-0.12140364199876785, 0.10999903827905655, -0.09164397418498993, -0.03767307102680206, -0.11949839442968369], [0.4251805245876312, 0.23445677757263184, 0.0498150996863842, 0.39916038513183594, -0.08484917134046555], [0.03730955347418785, -0.11193615198135376, 0.08666271716356277, -0.14083342254161835, -0.014953680336475372], [-0.16757410764694214, -0.01495745312422514, 0.1286313682794571, 0.06419221311807632, 0.04323657602071762], [0.053877100348472595, 0.21006764471530914, 0.12701575458049774, 0.08713827282190323, 0.038055844604969025], [0.09319330751895905, -0.017915410920977592, 0.0870099887251854, 0.08019150048494339, 0.06182536110281944]], [[0.07280527800321579, 0.04803185909986496, -0.09094040095806122, 0.057665590196847916, -0.27455541491508484], [-0.43283089995384216, 0.01077869813889265, 0.04566985368728638, -0.006143810227513313, -0.11461249738931656], [-0.10450828820466995, 0.05245343595743179, -0.07377179712057114, 0.1051848828792572, 0.03123830072581768], [0.12371709197759628, 0.0724366307258606, -0.01492353342473507, 0.05949396640062332, -0.06183665245771408], [0.17815184593200684, 0.12919263541698456, -0.1817961037158966, 0.02112957090139389, -0.04005970060825348], [0.07329562306404114, 0.18940311670303345, -0.274920254945755, -0.0948234498500824, 0.06869210302829742], [-0.0555446483194828, -0.07558143883943558, -0.15598009526729584, -0.07951493561267853, -0.0849529579281807], [0.10718003660440445, 0.07191582769155502, 0.07595914602279663, -0.17272496223449707, -0.16958819329738617], [-0.1598302274942398, -0.27006256580352783, 0.08017028123140335, 0.03731963038444519, -0.014760169200599194], [0.27061349153518677, -0.05789333954453468, 0.10267776995897293, -0.01841011457145214, -0.004896532744169235], [-0.08582671731710434, 0.23557132482528687, 0.32104772329330444, 0.19431215524673462, 0.25412487983703613], [-0.14625690877437592, 0.01890227571129799, -0.07949759066104889, 0.1678277999162674, -0.17129923403263092], [0.07400546967983246, 0.15961100161075592, 0.04673498496413231, -0.05381949990987778, 0.25300055742263794], [0.060186222195625305, -0.06172715127468109, 0.054209813475608826, 0.11081371456384659, 0.1235608160495758], [-0.034132130444049835, -0.031316790729761124, 0.04018055647611618, -0.05368659272789955, -0.07034288346767426]], [[0.11244236677885056, 0.14305461943149567, -0.10875239968299866, 0.16231104731559753, -0.11315511912107468], [0.03882758691906929, 0.02099086157977581, 0.07880866527557373, -0.06837689131498337, 0.0033577815629541874], [-0.14422571659088135, 0.12775062024593353, 0.04918132349848747, 0.1588248312473297, -0.031760938465595245], [-0.02156798355281353, -0.02384009025990963, 0.027743181213736534, -0.26274892687797546, -0.14778438210487366], [-0.19843313097953796, 0.1742561310529709, 0.1748267561197281, -0.017886202782392502, 0.18959692120552063], [-0.039099887013435364, 0.028903892263770103, -0.1309106945991516, -0.16516144573688507, -0.1503489464521408], [-0.0024636106099933386, 0.09997201710939407, 0.19071048498153687, 0.052511248737573624, -0.12091801315546036], [-0.14782625436782837, -0.13865622878074646, 0.012335103005170822, 0.10892757773399353, -0.03531242161989212], [0.055961724370718, -0.12611383199691772, -0.04280698671936989, -0.16199685633182526, 0.07856910675764084], [-0.06151561811566353, -0.09654659032821655, 0.12557575106620789, -0.3012003004550934, -0.0064587970264256], [-0.11494674533605576, -0.25435224175453186, 0.014029102399945259, -0.0846700519323349, -0.22860631346702576], [0.08566950261592865, 0.022608350962400436, -0.1465875506401062, 0.14557474851608276, 0.1683775931596756], [-0.04501883313059807, -0.09513409435749054, 0.03176189586520195, -0.5189026594161987, 0.06284010410308838], [-0.14017073810100555, -0.021644646301865578, -0.048458416014909744, -0.06619299203157425, 0.15321221947669983], [-0.04591067135334015, 0.22036509215831757, -0.1117711290717125, 0.12215591967105865, 0.06697141379117966]], [[0.21646472811698914, -0.11078163236379623, -0.026001201942563057, -0.001668468932621181, 0.028948195278644562], [0.10159579664468765, 0.014585889875888824, -0.04130370169878006, -0.1411992609500885, 0.11586997658014297], [-0.025992611423134804, 0.02600475214421749, 0.149811789393425, 0.1932491958141327, 0.10656619071960449], [-0.10458822548389435, -0.10989167541265488, -0.06132030859589577, 0.047337327152490616, 0.13532643020153046], [0.07019027322530746, 0.03628905862569809, 0.10076900571584702, 0.011345013976097107, 0.053218793123960495], [0.07400507479906082, -0.08446360379457474, -0.12950700521469116, -0.12070447206497192, -0.028530461713671684], [-0.19725602865219116, -0.35819023847579956, 0.017888493835926056, -0.07193299382925034, -0.021139997988939285], [-0.17810267210006714, 0.12816058099269867, -0.1923203468322754, 0.026574190706014633, -0.13405561447143555], [-0.14979423582553864, 0.043580178171396255, -0.07849309593439102, 0.15636052191257477, -0.1433848738670349], [-0.18639789521694183, 0.13097117841243744, 0.057946253567934036, 0.005625623278319836, -0.12412776798009872], [-0.30145958065986633, 0.3792290687561035, -0.06732941418886185, 0.3469204902648926, 0.0004952529561705887], [0.037589289247989655, 0.06915505975484848, 0.11177263408899307, -0.29988521337509155, -0.15528424084186554], [0.06323715299367905, -0.09259359538555145, 0.12653538584709167, 0.22069194912910461, 0.13802693784236908], [-0.08564510196447372, 0.029873598366975784, -0.054341237992048264, 0.08241356909275055, -0.03177620470523834], [0.22145482897758484, -0.14512209594249725, -0.23734235763549805, 0.15467122197151184, -0.1146927922964096]], [[0.07648569345474243, -0.07200195640325546, 0.05983957648277283, 0.07419674843549728, -0.09612482041120529], [-0.19917452335357666, -0.18253891170024872, -0.10260457545518875, -0.2780603766441345, 0.0349956750869751], [0.028022339567542076, -0.03975307568907738, 0.21207714080810547, 0.09586787223815918, -0.023703141137957573], [0.054464563727378845, 0.20543339848518372, 0.1669073849916458, -0.08047964423894882, 0.01291667390614748], [-0.22939755022525787, -0.0802001878619194, 0.2457192838191986, -0.1054336428642273, 0.11228545010089874], [0.22149217128753662, 0.07165250927209854, -0.10449004918336868, 0.16478724777698517, 0.16087201237678528], [0.4933837950229645, 0.5874680280685425, 0.16761647164821625, 0.5312137603759766, 0.2986985146999359], [-0.19723977148532867, 0.020587319508194923, -0.01818770170211792, -0.20449356734752655, -0.24844756722450256], [-0.0648152083158493, 0.10386819392442703, -0.07471539825201035, -0.0056639243848621845, -0.03576521947979927], [-0.011477876454591751, -0.03541940823197365, -0.17078366875648499, -0.20032203197479248, -0.20007193088531494], [-0.06418996304273605, 0.04673360288143158, 0.07490285485982895, -0.05098377540707588, 0.04141036048531532], [-0.06711447983980179, 0.05639667436480522, 0.11644358932971954, -0.11205346882343292, 0.05335260182619095], [-0.014289814047515392, 0.0617038793861866, -0.1387527883052826, -0.046676650643348694, 0.13933581113815308], [0.4781411290168762, 0.268196702003479, 0.22175166010856628, 0.410357803106308, 0.32952550053596497], [-0.03386661410331726, 0.1725185215473175, -0.15379446744918823, -0.02896694652736187, 0.13224317133426666]], [[-0.07059787958860397, 0.050923388451337814, -0.10374361276626587, -0.052740756422281265, 0.21701321005821228], [-0.07988835126161575, 0.09734669327735901, 0.008992742747068405, -0.07651505619287491, -0.36570289731025696], [-0.03662744536995888, -0.002037386642768979, 0.1500401794910431, 0.12831129133701324, 0.17224055528640747], [-0.029969243332743645, -0.04568445309996605, -0.051895853132009506, 0.22374123334884644, 0.42965349555015564], [0.08241836726665497, 0.24168843030929565, -0.37673231959342957, 0.1402485966682434, -0.00418427400290966], [0.1884593963623047, 0.21822980046272278, -0.20433256030082703, 0.15225934982299805, 0.12211723625659943], [0.09075750410556793, 0.12951335310935974, -0.12672199308872223, -0.3394361138343811, 0.013171068392693996], [-0.02947891131043434, -0.3469471037387848, 0.0005964779411442578, 0.24268504977226257, 0.08216433972120285], [-0.1599690169095993, -0.15199247002601624, -0.09997376054525375, -0.044109441339969635, 0.035347796976566315], [-0.1778091937303543, -0.09438208490610123, 0.08149132132530212, 0.049642425030469894, -0.16656364500522614], [-0.05308281257748604, -0.22201286256313324, 0.3250266909599304, 0.43309009075164795, 0.15782685577869415], [-0.2297840714454651, -0.14792634546756744, -0.23129987716674805, 0.14753077924251556, 0.00974143948405981], [-0.11210302263498306, 0.04941219463944435, -0.2887313961982727, -0.3100277781486511, -0.19604794681072235], [-0.12360452115535736, 0.09805957227945328, 0.14578406512737274, 0.008432481437921524, 0.011568653397262096], [0.10433180630207062, 0.25653618574142456, 0.00840107910335064, 0.10863858461380005, 0.15404976904392242]], [[0.10294792801141739, -0.03975220397114754, -0.05058230459690094, -0.1183963268995285, 0.0972638949751854], [0.10639607161283493, 0.017749307677149773, -0.11567029356956482, 0.13780179619789124, -0.024472767487168312], [-0.06891298294067383, 0.06036863476037979, 0.09349822998046875, -0.06284885108470917, 0.14522738754749298], [0.02992911823093891, 0.037285856902599335, -0.06672146916389465, -0.014522984623908997, -0.07431522756814957], [0.002562177600339055, -0.06771588325500488, 0.1689249575138092, -0.004422427155077457, -0.1108366921544075], [0.2356163114309311, 0.05576107278466225, -0.1741439253091812, -0.11302980780601501, 0.047840893268585205], [-0.1048138290643692, -0.010166888125240803, -0.00743279280140996, 0.005806882865726948, -0.2371511608362198], [0.34092792868614197, 0.17635202407836914, 0.0924205556511879, 0.1530745029449463, 0.026566600427031517], [-0.02759622037410736, 0.18911944329738617, 0.11292295157909393, -0.009413945488631725, -0.17027665674686432], [0.013888615183532238, -0.04494836926460266, 0.007456459570676088, 0.11564919352531433, 0.02730308100581169], [-0.35935282707214355, -0.2524246275424957, 0.09911447763442993, -0.029084384441375732, 0.17184999585151672], [-0.23356476426124573, 0.25286439061164856, 0.04409710690379143, 0.06258388608694077, -0.24097861349582672], [0.16796927154064178, 0.1098298653960228, -0.024490758776664734, -0.04362292215228081, -0.1598207801580429], [-0.031195394694805145, 0.08153010904788971, 0.09043062478303909, 0.2964854836463928, -0.056886859238147736], [-0.10240442305803299, -0.05216827243566513, -0.10771617293357849, -0.25469815731048584, 0.26959750056266785]], [[0.03499052673578262, -0.006515898276120424, 0.06293420493602753, -0.1491042673587799, 0.0059534767642617226], [0.10573706030845642, -0.18456898629665375, 0.10434222221374512, -0.13970574736595154, -0.13602547347545624], [0.07200245559215546, -0.05543550103902817, 0.00015710807929281145, -0.013140251860022545, 0.038048915565013885], [-0.09218927472829819, -0.04547286033630371, -0.07984311878681183, 0.026653608307242393, 0.05375745892524719], [0.12029900401830673, -0.03253888338804245, -0.17097385227680206, 0.1370542198419571, 0.08562101423740387], [-0.1561194360256195, -0.14175713062286377, -0.3808557689189911, 0.18199945986270905, -0.2351732850074768], [0.039207376539707184, 0.12814384698867798, -0.2217063158750534, 0.25502583384513855, 0.1171686127781868], [0.04700382798910141, 0.22151580452919006, 0.24883560836315155, 0.006920774932950735, -0.0946924164891243], [-0.02820149064064026, -0.2463786005973816, -0.3269021511077881, -0.041870176792144775, 0.08961672335863113], [-0.2388559728860855, -0.0678962916135788, -0.18319442868232727, -0.2282494306564331, -0.1380218118429184], [-0.0712926909327507, -0.02666824869811535, -0.13472500443458557, 0.0935162678360939, 0.04108350723981857], [0.1651999056339264, 0.048857081681489944, -0.046964894980192184, 0.060762517154216766, -0.0919148251414299], [-0.21186424791812897, -0.3062690198421478, 0.34960123896598816, -0.17838148772716522, -0.041734643280506134], [0.11368002742528915, -0.028339141979813576, -0.0690370425581932, 0.04053620621562004, 0.11755793541669846], [0.35113534331321716, -0.10976672172546387, 0.044192250818014145, 0.2481786161661148, 0.2288513481616974]]], "conv5.bias": [0.10647707432508469, 0.02275560237467289, 0.030101602897047997, -0.0387854240834713, 0.05005984008312225, 0.005750835873186588, -0.05599656701087952, -0.06495961546897888, -0.011647731065750122, 0.050398603081703186, -0.017337162047624588, 0.07199186086654663, -0.09184692054986954, -0.09837419539690018, -0.07593481242656708, -0.02397470362484455], "fc1.weight": [[0.11724521219730377, 0.2733832001686096, 0.1799774467945099, 0.16664473712444305, -0.010184465907514095, 0.1349397450685501, 0.1583385020494461, 0.246279776096344, -0.3093758225440979, 0.25581032037734985, -0.2682010531425476, 0.24586033821105957, -0.16178442537784576, 0.12418942898511887, 0.3896918296813965, 0.18179035186767578, 0.2565523087978363, 0.22024577856063843, -0.21325162053108215, -0.23335205018520355, 0.2949899137020111, -0.07997479289770126, 0.30011630058288574, -0.21901144087314606, -0.24482983350753784, -0.22427596151828766, 0.26150214672088623, -0.3140261173248291, 0.33469197154045105, -0.44484663009643555, -0.22967901825904846, 0.3423401415348053, -0.06213938444852829, 0.0577009916305542, 0.10753963142633438, 0.00368674099445343, -0.04573989287018776, 0.057460542768239975], [0.10219872742891312, 0.11437934637069702, 0.20058086514472961, 0.10210054367780685, 0.013523067347705364, 0.2302124947309494, 0.14659656584262848, 0.1832210272550583, -0.3559255003929138, 0.23392146825790405, -0.20485131442546844, 0.20552662014961243, -0.16643476486206055, 0.21394430100917816, 0.33215460181236267, 0.14078974723815918, 0.2354269176721573, 0.21369868516921997, -0.15198387205600739, -0.3220262825489044, 0.17064973711967468, -0.04848891869187355, 0.2530253231525421, -0.17776809632778168, -0.2895509898662567, -0.28558704257011414, 0.17372773587703705, -0.2719809114933014, 0.3419005274772644, -0.37227538228034973, -0.11587563902139664, 0.3039243519306183, 0.07847156375646591, -0.057139258831739426, 0.11266641318798065, -0.09915950894355774, -0.08051299303770065, 0.13808952271938324], [0.02328881435096264, 0.23045845329761505, 0.18161851167678833, 0.21142297983169556, 0.028833596035838127, 0.1312435418367386, 0.1373208910226822, 0.26271340250968933, -0.34375840425491333, 0.21300318837165833, -0.27175259590148926, 0.22703199088573456, -0.11486881226301193, 0.15267014503479004, 0.2934107482433319, 0.07966259121894836, 0.3078691065311432, 0.22241082787513733, -0.155328169465065, -0.23629416525363922, 0.22633366286754608, 0.027512801811099052, 0.24247859418392181, -0.2425236999988556, -0.15778590738773346, -0.22136111557483673, 0.2889922559261322, -0.3423279821872711, 0.3669489622116089, -0.3969419002532959, -0.17964042723178864, 0.2785681486129761, -0.06572957336902618, 0.0942581444978714, 0.015476055443286896, 0.028920531272888184, -0.05736551061272621, 0.058509912341833115], [-0.17212693393230438, -0.13160674273967743, -0.26576560735702515, -0.35567885637283325, 0.36324653029441833, -0.2409241497516632, 0.09633531421422958, -0.2419876754283905, 0.19289441406726837, -0.12415070086717606, 0.2571471631526947, -0.22370028495788574, 0.2438383251428604, 0.023807339370250702, -0.471917986869812, -0.30087462067604065, -0.2875009775161743, -0.30975496768951416, 0.27978017926216125, 0.38306623697280884, -0.21239250898361206, 0.18932463228702545, -0.29439544677734375, 0.27140986919403076, 0.20473727583885193, 0.3262265622615814, -0.29104921221733093, 0.18401597440242767, -0.56986403465271, 0.42272889614105225, 0.29249024391174316, -0.4426637589931488, 0.03581414744257927, 0.07664566487073898, 0.06591961532831192, 0.32355159521102905, 0.05788249149918556, -0.2555150091648102], [0.15854880213737488, 0.18811847269535065, 0.23368440568447113, 0.07676183432340622, 0.017633121460676193, 0.05911044776439667, 0.25808367133140564, 0.3256542682647705, -0.19326651096343994, 0.302374929189682, -0.36898159980773926, 0.14318545162677765, -0.2212318778038025, 0.04772784560918808, 0.4098069369792938, 0.2100466787815094, 0.28811535239219666, 0.2771819233894348, -0.2886512279510498, -0.13431482017040253, 0.2771678864955902, 0.021562054753303528, 0.2830478847026825, -0.2515299320220947, -0.33242741227149963, -0.2659989297389984, 0.2620297074317932, -0.29272130131721497, 0.28219079971313477, -0.326791912317276, -0.23522575199604034, 0.3874322772026062, -0.08375626057386398, 0.05841478332877159, 0.004961327183991671, -0.14615868031978607, 0.029517123475670815, 0.1092640683054924], [-0.19105291366577148, 0.03200122341513634, -0.24096234142780304, -0.4103340208530426, 0.16109827160835266, -0.21694086492061615, -0.021715637296438217, -0.16523964703083038, 0.14582133293151855, -0.22017326951026917, 0.14524246752262115, -0.20285414159297943, 0.16029641032218933, 0.09763147681951523, -0.22565844655036926, -0.19700893759727478, -0.2740662693977356, -0.25775468349456787, 0.1249798834323883, 0.3046795725822449, -0.1530703902244568, 0.270937979221344, -0.148411825299263, 0.1635216623544693, 0.19007182121276855, 0.2302323430776596, -0.32787203788757324, 0.28007230162620544, -0.526154100894928, 0.42702627182006836, 0.129322811961174, -0.3641517162322998, -0.013108155690133572, 0.10785108059644699, 0.14178527891635895, 0.15374673902988434, 0.04301448166370392, -0.1028713583946228], [0.036404065787792206, 0.007180660497397184, -0.0043035936541855335, 0.10116061568260193, 0.016671301797032356, -0.06307479739189148, -0.024052545428276062, -0.005715280771255493, -0.0793251246213913, -0.00011630247900029644, -0.07077673822641373, 0.009179393760859966, 0.0977679118514061, 0.06351765990257263, 0.08413681387901306, -0.03749861940741539, 0.05754147842526436, -0.08634930849075317, 0.04393995180726051, -0.042504362761974335, -0.009272499941289425, -0.060169365257024765, -0.0723494365811348, -0.07690181583166122, -0.026096908375620842, -0.039661429822444916, -0.03001556359231472, -0.09593860805034637, 0.005996354389935732, -0.09705843776464462, 0.028609465807676315, -0.03346306085586548, -0.008794859051704407, -0.029117299243807793, -0.013853222131729126, -0.013470209203660488, -0.023547574877738953, -0.019557099789381027], [-0.03323832526803017, -0.03845101594924927, -0.14704473316669464, -0.4215574264526367, 0.2383040189743042, -0.2933310866355896, 0.12737995386123657, -0.11483795940876007, 0.13796591758728027, -0.12293492257595062, 0.24328024685382843, -0.11769331246614456, 0.25911644101142883, -0.13284695148468018, -0.559040904045105, -0.28802892565727234, -0.1984652429819107, -0.256867378950119, 0.12525515258312225, 0.282595694065094, -0.319416344165802, 0.1864139586687088, -0.12547725439071655, 0.12889441847801208, 0.27535152435302734, 0.18749617040157318, -0.3325178921222687, 0.3469834327697754, -0.4538818895816803, 0.39310380816459656, 0.21228615939617157, -0.3527714014053345, 0.023119496181607246, 0.14248855412006378, 0.12895908951759338, 0.12773261964321136, -0.06031190603971481, -0.22714781761169434], [-0.16226424276828766, -0.053467296063899994, -0.18511326611042023, -0.36365485191345215, 0.23830077052116394, -0.2640443742275238, -0.0512513741850853, -0.2571121156215668, 0.08394580334424973, -0.03265795111656189, 0.19005370140075684, -0.17024372518062592, 0.19558553397655487, 0.031526219099760056, -0.3658159375190735, -0.2636113464832306, -0.3306735157966614, -0.3062722384929657, 0.17031054198741913, 0.22265571355819702, -0.2638609707355499, 0.1481354683637619, -0.024859048426151276, 0.2614373564720154, 0.24359606206417084, 0.21147148311138153, -0.34168174862861633, 0.2483932077884674, -0.5578026175498962, 0.2959795892238617, 0.19687655568122864, -0.3091643452644348, -0.09021134674549103, 0.10574676841497421, 0.17137591540813446, 0.10720112174749374, 0.09343801438808441, -0.06410433351993561], [0.15377527475357056, 0.24333679676055908, 0.2428661435842514, 0.1355075240135193, -0.12724588811397552, 0.11505552381277084, 0.20246490836143494, 0.20522180199623108, -0.25648078322410583, 0.2386222630739212, -0.2888791859149933, 0.19786502420902252, -0.24216656386852264, 0.11888355761766434, 0.3874052166938782, 0.24697673320770264, 0.21846292912960052, 0.2506003975868225, -0.1285959780216217, -0.13707071542739868, 0.23852898180484772, -0.03555681183934212, 0.22813630104064941, -0.2609213590621948, -0.21977876126766205, -0.2650914788246155, 0.2536207437515259, -0.16466934978961945, 0.2566944658756256, -0.31256774067878723, -0.20250140130519867, 0.3678572475910187, 0.005950205028057098, 0.02027430757880211, -0.0983210951089859, -0.11396210640668869, -0.07417020946741104, 0.045093633234500885], [8.075003631250635e-23, -2.1193627009810898e-23, -4.314554419818278e-24, 1.668025255239344e-21, -2.517381524077265e-23, -2.237697180329512e-11, 7.406796792672643e-23, 9.986813462416785e-22, -2.1753700051160493e-14, 3.0668797847766947e-23, -7.398791579404929e-10, -2.0439838923544885e-21, -3.548620425286586e-11, -1.0855106067784408e-17, -1.2834026976416765e-23, -2.1062048521816416e-14, 3.192268548975327e-15, -8.071632251471783e-09, -8.326240738543156e-12, -1.1774008545661419e-23, -7.790231786441816e-24, -1.2137475025042477e-08, 5.005417538297711e-18, -2.3230746493130283e-10, -4.747192222653851e-11, -5.8587700663137454e-12, -7.22242488038205e-10, -2.767461069197452e-07, -1.7220207205415942e-23, 2.4583386136834037e-20, -3.444146214433176e-21, -5.2569596387856774e-15, -1.4810390178981364e-23, -5.118929672601985e-19, -5.12589970323851e-19, 1.1702792549720782e-23, -6.916734783560547e-24, -4.28256942320115e-19], [0.07480261474847794, 0.2365819364786148, 0.12992797791957855, 0.2339724600315094, 0.02487681247293949, 0.1990988850593567, 0.024915356189012527, 0.2123069167137146, -0.30690404772758484, 0.24907970428466797, -0.25244835019111633, 0.31546449661254883, -0.1853923499584198, 0.09474702179431915, 0.3864949345588684, 0.17115236818790436, 0.31658411026000977, 0.16105441749095917, -0.3008713722229004, -0.1796591430902481, 0.2408500760793686, -0.012236113660037518, 0.3247251510620117, -0.20734195411205292, -0.18213768303394318, -0.31053587794303894, 0.2676568925380707, -0.30182114243507385, 0.4445827007293701, -0.5076964497566223, -0.19905732572078705, 0.31432244181632996, -0.012952142395079136, 0.14360836148262024, 0.024962712079286575, -0.12357663363218307, -0.049905091524124146, 0.18097448348999023], [-0.028270289301872253, -0.07622797042131424, -0.2127137929201126, -0.3750641345977783, 0.3431258797645569, -0.13512058556079865, 0.06114301085472107, -0.27902787923812866, 0.19330589473247528, -0.14648456871509552, 0.19424982368946075, -0.1595611870288849, 0.18356658518314362, -0.09044672548770905, -0.32464125752449036, -0.27584153413772583, -0.20613455772399902, -0.2830955386161804, 0.16937263309955597, 0.23538629710674286, -0.2934352457523346, 0.24676105380058289, -0.21436984837055206, 0.08018078655004501, 0.3000481426715851, 0.26777923107147217, -0.2474781721830368, 0.16577790677547455, -0.5497512817382812, 0.3438011407852173, 0.2524934709072113, -0.33381038904190063, -0.013679287396371365, -0.07447626441717148, -0.037894729524850845, 0.24889566004276276, 0.14849649369716644, -0.06078333035111427], [-0.14956852793693542, 0.055505093187093735, -0.09850945323705673, -0.33606013655662537, 0.24254655838012695, -0.21267829835414886, 0.0420953594148159, -0.10906173288822174, 0.19832143187522888, -0.22043158113956451, 0.1926904171705246, -0.24436728656291962, 0.13238239288330078, -0.044984299689531326, -0.4347843825817108, -0.24867242574691772, -0.2894941568374634, -0.2724230885505676, 0.19385330379009247, 0.1835043728351593, -0.24837718904018402, 0.2310679703950882, -0.2040567845106125, 0.20215162634849548, 0.22974207997322083, 0.13392798602581024, -0.27420368790626526, 0.2785951495170593, -0.3064039647579193, 0.36804458498954773, 0.24609282612800598, -0.3458165228366852, -0.10021224617958069, 0.1333603709936142, -0.008785508573055267, 0.23523487150669098, 0.036106497049331665, -0.16388042271137238], [0.20989061892032623, 0.233031764626503, 0.25859156250953674, 0.1376921385526657, -0.07767091691493988, 0.06211582571268082, 0.16184009611606598, 0.2359703779220581, -0.2849603593349457, 0.28763720393180847, -0.29307320713996887, 0.17632481455802917, -0.11291785538196564, 0.16275064647197723, 0.34235119819641113, 0.22078950703144073, 0.28828611969947815, 0.2052437663078308, -0.3044610321521759, -0.25020477175712585, 0.13710179924964905, -0.02086316980421543, 0.2975906431674957, -0.28584620356559753, -0.16092319786548615, -0.2760803997516632, 0.2340904325246811, -0.3625222444534302, 0.39046093821525574, -0.40557971596717834, -0.15465176105499268, 0.33713483810424805, -0.0956512838602066, 0.14978763461112976, 0.14413931965827942, 0.016384201124310493, -0.10598669946193695, 0.10948916524648666], [0.1078350618481636, 0.2907148599624634, 0.19817127287387848, 0.15174075961112976, 0.004507359117269516, 0.20928379893302917, 0.15422159433364868, 0.29595330357551575, -0.25100499391555786, 0.20786815881729126, -0.26938396692276, 0.15774241089820862, -0.2673126459121704, 0.11770917475223541, 0.362582802772522, 0.15660326182842255, 0.29260751605033875, 0.2299138903617859, -0.23255757987499237, -0.1969778686761856, 0.20470701158046722, -0.059035949409008026, 0.37575265765190125, -0.2692906856536865, -0.3049420416355133, -0.2048957645893097, 0.23062679171562195, -0.24968993663787842, 0.3798181116580963, -0.4045165479183197, -0.14715489745140076, 0.41589605808258057, 0.023612380027770996, 0.027173886075615883, -0.0795145034790039, -0.05247725546360016, 0.04980473220348358, 0.17700673639774323]], "fc1.bias": [0.047733649611473083, 0.1788606494665146, 0.04127843305468559, -0.015843158587813377, 0.06951560825109482, 0.005085110664367676, 0.02286524884402752, 0.05937066301703453, 0.1388697475194931, -0.10476140677928925, -5.124194677200885e-19, 0.05737752094864845, 0.15733709931373596, 0.07968898862600327, 0.07200770825147629, -0.10415398329496384], "fc2.weight": [[-1.139378309249878, -0.9749107956886292, -1.032285213470459, 0.62790447473526, -0.9416379928588867, 0.8840562701225281, -0.1320830136537552, 0.8157885074615479, 0.8034322261810303, -1.0217077732086182, -0.008512718603014946, -0.8984541296958923, 0.7905911803245544, 0.8291170597076416, -0.9426559805870056, -0.9154694676399231]], "fc2.bias": [0.848450243473053], "norm_mean": [0.06140404939651489, 0.3683006167411804, 0.3715008795261383, 0.415983647108078, 0.03862974792718887, 0.02890964224934578, 0.4184662103652954, 2.476278781890869, 0.1857404112815857, 0.48036623001098633, 0.3379416763782501], "norm_std": [0.11001304537057877, 0.290955126285553, 0.28593701124191284, 0.2693025469779968, 0.10315830260515213, 0.0800456628203392, 0.20923593640327454, 1.809883952140808, 0.38889726996421814, 0.2660447657108307, 1.4454213380813599]}