{"fc1.weight": [[0.2801116108894348, 0.08824041485786438, -0.2615792453289032, -0.017883850261569023, 0.11954302340745926, 0.17772281169891357, -0.15644073486328125, 0.0025576381012797356, 0.17698590457439423, -0.1358097493648529, -0.09411095082759857, 0.051429565995931625, 0.20411470532417297, -0.07721015810966492, 0.006608218420296907, -0.06933436542749405, 0.182485431432724, 0.20090731978416443, -0.022938331589102745, 0.10014434158802032, -0.13801375031471252, -0.22663921117782593, -0.17048360407352448, 0.03277377411723137, -0.10491926223039627, -0.1484483927488327, -0.1216350868344307, -0.14048291742801666, 0.09705214947462082, -0.333329975605011, 0.2521965205669403, -0.13001857697963715, 0.10317270457744598, -0.05291120707988739, 0.019075967371463776, 0.15667741000652313, -0.007918182760477066, 0.0539923794567585, -0.16860905289649963, -0.05714544653892517, 0.14884629845619202, 0.05864167585968971, 0.21730589866638184, -0.008340831845998764, -0.10965784639120102, 0.09561047703027725, 0.17342260479927063, 0.011524295434355736, -0.024904362857341766, 0.11773260682821274, -0.39000874757766724, 0.02167324163019657, -0.021320916712284088], [-0.002074325457215309, 0.14449912309646606, 0.1915237158536911, -0.13897116482257843, -0.18803855776786804, 0.0004050653369631618, 0.00037392228841781616, 0.00589819485321641, -0.21452446281909943, -0.06502245366573334, -0.3565380573272705, 0.08743599057197571, 0.1009146049618721, 0.14979282021522522, -0.0454271137714386, -0.05824457108974457, -0.06248874217271805, 0.057785626500844955, 0.0256216898560524, 0.2632470726966858, -0.06201041489839554, -0.35720255970954895, -0.1304016411304474, -0.06384801864624023, -0.004085355903953314, 0.059338271617889404, 0.0007028924883343279, -0.3377004861831665, -0.2787629961967468, 0.18856067955493927, 0.07163629680871964, 0.07284262776374817, -0.07789381593465805, -0.15846195816993713, -0.24992114305496216, -0.06604186445474625, 0.030696241185069084, 0.10610546171665192, -0.01669877953827381, 0.07833661139011383, 0.03105742856860161, -0.11144004762172699, -0.09012109786272049, 0.24764776229858398, -0.16294358670711517, -0.2886795699596405, -0.07342621684074402, -0.041738640516996384, -0.0880659967660904, -0.16046036779880524, 0.23154498636722565, -0.25412073731422424, 0.01236045453697443], [-0.0756767988204956, 0.003299455624073744, -0.1367991715669632, -0.141145721077919, -0.028157692402601242, 0.1302509307861328, -0.15145893394947052, -0.19829118251800537, 0.04325282201170921, -0.06683491915464401, -0.003626709571108222, 0.03287864848971367, -0.35705944895744324, -0.16134968400001526, -0.14129343628883362, -0.13831916451454163, 0.013962279073894024, -0.04143715649843216, -0.12819106876850128, -0.36377647519111633, -0.07711628079414368, -0.11543373763561249, 0.15927018225193024, -0.12341377884149551, 0.18390515446662903, -0.0014484607381746173, -0.4137534499168396, 0.01697300374507904, -0.18219919502735138, -0.10696187615394592, 0.045050229877233505, -0.2112097293138504, 0.14896903932094574, -0.25250527262687683, -0.06567404419183731, 0.018143057823181152, 0.13987688720226288, -0.29871705174446106, -0.014845233410596848, -0.07317709177732468, 0.20303896069526672, 0.07974185794591904, 0.10730702430009842, -0.03507973626255989, -0.0729454904794693, 0.13670794665813446, -0.04198786988854408, -0.17100615799427032, -0.2740218937397003, -0.29162439703941345, 0.24152767658233643, -0.11292107403278351, -0.0792308896780014], [-0.13715969026088715, 0.16545100510120392, -0.03155718371272087, -0.24105726182460785, -0.1846938580274582, 0.23666301369667053, -0.36447620391845703, -0.1034318283200264, 0.08174306154251099, -0.015166555531322956, -0.03625776618719101, -0.14639300107955933, 0.04863705486059189, 0.2495221197605133, -0.04282312095165253, -0.10419726371765137, -0.13744637370109558, 0.010704579763114452, 0.011764970608055592, 0.018276996910572052, -0.07018522173166275, -0.24635736644268036, 0.20323516428470612, -0.012376341968774796, 0.015779053792357445, -0.06561988592147827, -0.05218718945980072, -0.020442407578229904, 0.12772376835346222, -0.07362697273492813, -0.057503025978803635, -0.038704950362443924, -0.05291378125548363, 0.15191523730754852, 0.24614720046520233, -0.0977211445569992, -0.04510742425918579, 0.06671220809221268, -0.24900400638580322, 0.020016852766275406, -0.08872627466917038, -0.12500260770320892, 0.17083421349525452, 0.18420588970184326, 0.06458692252635956, -0.05352983623743057, -0.23645618557929993, -0.05755196139216423, -0.22879165410995483, 0.08121088147163391, -0.0344507060945034, -0.21933604776859283, -0.06204327940940857], [0.06467237323522568, -0.19865120947360992, 0.12727729976177216, 0.027119774371385574, 0.16079376637935638, -0.06210560351610184, -0.08891838788986206, -0.12878239154815674, -0.15029260516166687, -0.15449370443820953, -0.17976360023021698, 0.04738849401473999, -0.38241639733314514, 0.13324786722660065, 0.16607283055782318, -0.021537436172366142, -0.25305891036987305, -0.0822087973356247, -0.152827188372612, 0.0038154253270477057, 0.11877381056547165, 0.011008468456566334, 0.08230459690093994, -0.011366021819412708, -0.021504707634449005, 0.14193449914455414, -0.20944981276988983, -0.22141894698143005, 0.013033540919423103, -0.12417875975370407, -0.017536142840981483, -0.07750371843576431, -0.23281772434711456, -0.23120509088039398, -0.20557226240634918, -0.051677629351615906, -0.03157087787985802, 0.07472134381532669, -0.08033023029565811, -0.0664549320936203, 0.1581176221370697, -0.07420030981302261, -0.17138686776161194, -0.17281270027160645, 0.1871737688779831, 0.07981043308973312, 0.1421239674091339, 0.09879951924085617, -0.1536005288362503, 0.0054903714917600155, -0.13731573522090912, -0.08817432075738907, 0.025490853935480118], [0.13762111961841583, 0.006841306574642658, -0.24832506477832794, -0.29008641839027405, -0.014714200049638748, -0.08616821467876434, -0.1282891035079956, 0.04864412918686867, 0.2677152752876282, 0.02515503019094467, 0.06299306452274323, -0.045959558337926865, -0.05600619688630104, -0.1426718533039093, -0.43504783511161804, -0.043740659952163696, 0.019397307187318802, 0.02329411171376705, -0.2037990838289261, -0.34533318877220154, -0.17076611518859863, -0.1720733642578125, 0.20154377818107605, 0.06891882419586182, 0.05700378492474556, -0.22780480980873108, -0.027401069179177284, -0.2258153259754181, -0.2070585936307907, 0.06670159846544266, -0.23058533668518066, -0.09228642284870148, 0.0752897709608078, -0.19414912164211273, 0.10246486216783524, -0.27657580375671387, -0.09319936484098434, -0.18500415980815887, 0.0034745975863188505, -0.11106676608324051, 0.2840711772441864, -0.0031446735374629498, 0.015854863449931145, -0.19934549927711487, 0.1442549228668213, 0.07186703383922577, -0.08933605253696442, -0.12418174743652344, 0.1319662630558014, 0.02856934256851673, -0.148058220744133, 0.03777744993567467, -0.013719354756176472], [0.01516424398869276, -0.160910964012146, -0.21953462064266205, -0.13021644949913025, 0.09602798521518707, 0.05030694603919983, -0.10559964179992676, -0.0584321953356266, 0.0009734992636367679, -0.2742173969745636, -0.160259410738945, 0.005257695913314819, 0.3668317496776581, 0.03876305744051933, -0.23813961446285248, -0.057513896375894547, -0.005609740503132343, -0.04359441250562668, -0.26429200172424316, 0.10983430594205856, -0.0883401557803154, -0.23060493171215057, 0.0481376089155674, 0.00727852201089263, -0.1516280621290207, -0.06288296729326248, -0.1787843406200409, -0.02209477685391903, 0.10118153691291809, -0.006161232013255358, -0.06644243746995926, 0.06486061960458755, -0.08066738396883011, 0.054413363337516785, 0.19045305252075195, 0.27839264273643494, -0.1683129221200943, -0.043709732592105865, 0.09250708669424057, 0.03107387013733387, -0.17840594053268433, 0.02346762642264366, -0.1184869110584259, -0.06773463636636734, -0.11793229728937149, -0.18702101707458496, -0.04606401175260544, 0.0820375457406044, -0.5192943215370178, -0.24331891536712646, -0.016112757846713066, 0.16123320162296295, -0.06576673686504364], [0.1654653400182724, -0.1682949960231781, -0.08709340542554855, -0.14212936162948608, -0.21448412537574768, 0.05004802346229553, 0.10119888186454773, 0.07173970341682434, -0.17189636826515198, 0.1442282795906067, -0.36072632670402527, -0.028255341574549675, 0.20407219231128693, -0.0121632544323802, 0.07573869079351425, -0.08794800192117691, -0.055061131715774536, 0.14058899879455566, -0.09818993508815765, -0.00093227403704077, -0.1386103481054306, 0.022410623729228973, 0.10602198541164398, 0.062043990939855576, -0.260367214679718, -0.01598869450390339, -0.1650880128145218, 0.08330419659614563, 0.13545259833335876, 0.1835494488477707, 0.13223598897457123, 0.06197342649102211, -0.05721106752753258, -0.25821545720100403, -0.2206060141324997, -0.2741020619869232, 0.03753507882356644, -0.06886962801218033, -0.03774024918675423, 0.04700564593076706, -0.20792457461357117, 0.06172867864370346, 0.17098866403102875, 0.08196665346622467, 0.21435461938381195, 0.17879338562488556, -0.03989051282405853, 0.03728910908102989, -0.3638438880443573, -0.07130953669548035, 0.06787977367639542, 0.08483912795782089, 0.1678895652294159], [0.23420144617557526, -0.10915762931108475, -0.17209492623806, -0.20220613479614258, -0.0017988282488659024, -0.0691574439406395, -0.11072051525115967, -0.0013159440131857991, 0.04706885665655136, 0.2829025387763977, 0.03745347633957863, 0.0661073848605156, -0.08859800547361374, -0.04101666435599327, -0.18333952128887177, 0.0256847832351923, -0.21754710376262665, 0.044707633554935455, -0.18957658112049103, 0.14831863343715668, -0.05026113614439964, -0.18542973697185516, -0.16019313037395477, 0.09992019832134247, 0.18778562545776367, -0.14949652552604675, -0.16124173998832703, -0.08074337244033813, -0.14225739240646362, 0.00012723480176646262, 0.019178984686732292, 0.03399638831615448, -0.19787245988845825, 0.2031557708978653, 0.008229654282331467, -0.2539031207561493, 0.07446671277284622, -0.014243309386074543, 0.012537652626633644, -0.06730792671442032, -0.07889100909233093, -0.11712950468063354, -0.05839081108570099, 0.12461972236633301, 0.16185300052165985, -0.029094086959958076, 0.11258474737405777, 0.07067979872226715, 0.11672106385231018, 0.0854441300034523, -0.12546393275260925, 0.24861496686935425, -0.21734975278377533], [-0.06721699982881546, 0.021767523139715195, 0.1706017553806305, -0.1679447591304779, -0.21124565601348877, -0.15687473118305206, 0.12158385664224625, -0.13698731362819672, -0.1358301043510437, 0.04911566525697708, -0.20356541872024536, 0.1030636578798294, 0.08331906050443649, -0.09611213952302933, 0.11973033100366592, -0.014256921596825123, 0.02355850674211979, -0.035728853195905685, -0.3242442309856415, 0.09691739827394485, -0.018326744437217712, 0.039676327258348465, 0.01888391375541687, -0.026754723861813545, 0.18041007220745087, 0.14067569375038147, 0.2305913120508194, 0.17056521773338318, -0.07544472813606262, -0.07747782766819, -0.19689106941223145, 0.013636707328259945, 0.016121268272399902, -0.0986737459897995, -0.1956789642572403, 0.1876710057258606, -0.14347060024738312, 0.13533253967761993, -0.28091275691986084, 0.17050190269947052, -0.06823508441448212, 0.1726183295249939, -0.04867185279726982, -0.002326696179807186, -0.07924214750528336, -0.12328935414552689, -0.13191722333431244, 0.19727268815040588, -0.3990180194377899, -0.16788466274738312, -0.32021307945251465, 0.0458315908908844, -0.15048255026340485], [0.11607592552900314, -0.1768997460603714, 0.04077993705868721, 0.08772239089012146, 0.029687343165278435, -0.06479934602975845, 0.04377445578575134, -0.0740833431482315, -0.09851991385221481, 0.18954022228717804, -0.27357950806617737, 0.03193170204758644, 0.03531588613986969, 0.09432530403137207, 0.026436947286128998, -0.06648615002632141, 0.15233121812343597, -0.11006008833646774, -0.09395352751016617, -0.17617419362068176, 0.03793686628341675, -0.18719294667243958, -0.06757470965385437, -0.024658389389514923, -0.1076473817229271, -0.16487595438957214, 0.08496348559856415, -0.24362868070602417, 0.12717264890670776, -0.07208181917667389, -0.007574654649943113, 0.021249014884233475, 0.17493192851543427, -0.20782534778118134, 0.1351253241300583, -0.04085123538970947, -0.1975127011537552, -0.32128095626831055, -0.10159661620855331, -0.16748180985450745, -0.23128437995910645, -0.25603681802749634, -0.008797479793429375, 0.11669667810201645, 0.07109054923057556, -0.23113667964935303, -0.07071059942245483, -0.01913405768573284, 0.026537029072642326, -0.21602416038513184, -0.05466102808713913, -0.024231893941760063, 0.06661087274551392], [0.28213241696357727, -0.09455659985542297, 0.15413148701190948, -0.2666754722595215, -0.04259616136550903, -0.030412204563617706, 0.12199197709560394, -0.00781293399631977, -0.047807227820158005, 0.13770747184753418, 0.04610864445567131, -0.10761399567127228, -0.12296395748853683, -0.11505751311779022, 0.025432350113987923, 0.029912803322076797, -0.057020802050828934, -0.2650914788246155, -0.05062469467520714, -0.11006952822208405, -0.19410035014152527, 0.009972479194402695, -0.09795502573251724, -0.12008317559957504, 0.0010057168547064066, 0.048187073320150375, 0.2186269313097, -0.09137939661741257, -0.22053362429141998, -0.17146849632263184, 0.07390020787715912, -0.0028468994423747063, -0.09269947558641434, 0.2544257640838623, -0.2710915207862854, -0.0025106584653258324, 0.18897362053394318, -0.021621549502015114, 0.05223159119486809, -0.12909488379955292, -0.04692421481013298, -0.06161461025476456, -0.2645833194255829, -0.07008592784404755, 0.2539975941181183, -0.4068102240562439, 0.027552686631679535, -0.10270784050226212, 0.12066522240638733, 0.04715827479958534, 0.0005902133998461068, -0.13373281061649323, -0.04631062224507332], [-0.3697325587272644, -0.07099538296461105, -0.05929497256875038, -0.07171423733234406, 0.08931971341371536, -0.06396346539258957, 0.11529500037431717, -0.037121038883924484, 0.006396108772605658, -0.2994753420352936, 0.06885773688554764, 0.009115546010434628, 0.02876741997897625, -0.1927080750465393, 0.14816206693649292, -0.14282956719398499, 0.1102028340101242, -0.18674887716770172, 0.22141997516155243, -0.023763462901115417, -0.09520219266414642, -0.25485843420028687, 0.1921357661485672, 0.0065378290601074696, 0.1402340829372406, -0.12093625962734222, -0.1400851309299469, 0.03795443847775459, 0.06559403985738754, -0.4290212392807007, 0.24805380403995514, -0.06564992666244507, -0.020805584266781807, -0.347660630941391, -0.12674805521965027, 0.0020814656745642424, 0.17330797016620636, -0.1856168657541275, -0.2636198401451111, 0.01831587590277195, 0.013287277892231941, -0.218689426779747, 0.021281041204929352, 0.009552348405122757, 0.051010314375162125, 0.06432731449604034, -0.06519623100757599, -0.018588371574878693, -0.0736767128109932, 0.10044335573911667, 0.06635300070047379, -0.053378015756607056, -0.14272691309452057], [-0.1501331478357315, 0.14813631772994995, -0.25235021114349365, 0.16836228966712952, 0.11267108470201492, 0.020763300359249115, 0.15223611891269684, -0.10550133138895035, 0.20299433171749115, 0.11240261793136597, 0.20587214827537537, 0.2497183382511139, -0.18162697553634644, -0.12161363661289215, 0.024142036214470863, -0.1445946842432022, -0.12133731693029404, 0.0816768929362297, -0.0422329418361187, -0.0018956795101985335, 0.05415598675608635, 0.09752707183361053, 0.17192815244197845, -0.10197702050209045, -0.05309649556875229, 0.33828553557395935, 0.08544006198644638, -0.07556130737066269, -0.23501963913440704, -0.11831945180892944, 0.03613641485571861, -0.17003339529037476, 0.1919170618057251, 0.3721945285797119, -0.12794536352157593, -0.16999007761478424, 0.19831247627735138, 0.03194306790828705, -0.1358744204044342, -0.22600583732128143, 0.10713737457990646, 0.0997314378619194, 0.16033300757408142, -0.3032808005809784, 0.05897968262434006, -0.11544708907604218, 0.051148708909749985, -0.1956843137741089, -0.5658260583877563, -0.0254594087600708, 0.17848306894302368, -0.24471186101436615, 0.14226508140563965], [0.008435084484517574, 0.07425519824028015, -0.3104315996170044, -0.6210000514984131, 0.13398192822933197, 0.17750222980976105, -0.01778617687523365, 0.0080378707498312, 0.028845516964793205, -0.0915033146739006, 0.06250554323196411, -0.16504481434822083, 0.15791253745555878, -0.2995357811450958, -0.1437123417854309, -0.01843258924782276, -0.09403819590806961, 0.09907934069633484, -0.10122327506542206, -0.0036659480538219213, 0.11087417602539062, -0.36568138003349304, -0.08635836839675903, -0.007179207634180784, -0.16359815001487732, -0.24556082487106323, 0.05478798970580101, -0.03641125559806824, 0.15650999546051025, -0.08449184149503708, 0.084248848259449, -0.11144068092107773, -0.09229535609483719, -0.1355687528848648, -0.07632265239953995, 0.041895925998687744, 0.17246994376182556, -0.10530824959278107, -0.025447137653827667, -0.10187921673059464, 0.045810773968696594, 0.1303061842918396, -0.1859741508960724, -0.15767639875411987, 0.099319227039814, -0.08163012564182281, -0.25650346279144287, 0.04455772787332535, -0.06120732054114342, 0.09673801064491272, 0.07725442945957184, -0.12707899510860443, -0.006299780216068029], [-0.07886528223752975, -0.3176327049732208, 0.12098591774702072, -0.2600788176059723, 0.13176240026950836, 0.11625774204730988, -0.07294224202632904, -0.16128180921077728, 0.021461913362145424, -0.07694877684116364, -0.45124536752700806, -0.041055213660001755, 0.15162444114685059, -0.28650930523872375, -0.18415366113185883, -0.11867332458496094, 0.09958051145076752, 0.23173397779464722, 0.05063081532716751, -0.14716112613677979, 0.16615676879882812, -0.039267648011446, 0.05395655333995819, -0.0964541807770729, 0.11775209754705429, -0.08920828998088837, 0.1571701020002365, -0.015389644540846348, -0.20460590720176697, -0.0358339324593544, 0.03948887065052986, 0.0005768521805293858, 0.0801754891872406, -0.04926321282982826, -0.17076805233955383, -0.040341608226299286, 0.03410238400101662, -0.15391956269741058, -0.22578752040863037, -0.15827640891075134, -0.05192172899842262, -0.1852198988199234, 0.1816844791173935, 0.13725942373275757, -0.18798768520355225, -0.07931491732597351, -0.16071489453315735, -0.16577880084514618, -0.023444799706339836, -0.414704829454422, 0.1772747039794922, 0.19333302974700928, 0.12769442796707153], [-0.045508865267038345, 0.06660380959510803, -0.2145921140909195, -0.06952356547117233, 0.08138778060674667, -0.007865486666560173, 0.009348039515316486, 0.03725811094045639, 0.28268951177597046, -0.09519951045513153, 0.15981106460094452, 0.18643787503242493, -0.14057399332523346, -0.2192896008491516, -0.038851961493492126, -0.044041555374860764, -0.1239200010895729, -0.08911770582199097, 0.043351080268621445, -0.043192144483327866, -0.05274379625916481, -0.055202897638082504, 0.04859516769647598, 0.13741005957126617, 0.04093961790204048, 0.11119060218334198, -0.2529955506324768, -0.18495339155197144, 0.18578645586967468, -0.3622162938117981, 0.11943721026182175, 0.04069863259792328, 0.06313721090555191, -0.0664251297712326, -0.15929971635341644, 0.15710808336734772, 0.2714509665966034, 0.22146864235401154, -0.02567870356142521, 0.059488534927368164, 0.17444293200969696, 0.021520301699638367, -0.11113028973340988, -0.13248389959335327, -0.19681446254253387, 0.06474101543426514, 0.042705852538347244, 0.15050430595874786, -0.3016241788864136, 0.08660400658845901, 0.09022433310747147, -0.12062198668718338, -0.005818219855427742], [0.28867435455322266, 0.22374798357486725, -0.18219655752182007, -0.14075234532356262, 0.06523901969194412, -0.08806066960096359, 0.08906140923500061, -0.04155775532126427, -0.08562055230140686, -0.05186654254794121, 0.025825506076216698, 0.03549574688076973, 0.145687535405159, 0.041346292942762375, -0.16037198901176453, -0.031136278063058853, 0.030177442356944084, 0.1066155955195427, 0.05573732405900955, -0.149673730134964, 0.03129801154136658, -0.1942996233701706, -0.059661030769348145, 0.11778902262449265, 0.03205476328730583, -0.1593647599220276, 0.1803305596113205, -0.1983276903629303, -0.10307558625936508, 0.4058462083339691, 0.1623729020357132, -0.043792471289634705, -0.26485300064086914, 0.0264604352414608, -0.08651361614465714, -0.06684533506631851, -0.12299343943595886, 0.018627017736434937, -0.015849441289901733, -0.026996750384569168, -0.0682007372379303, 0.009371891617774963, 0.06204924359917641, -0.16063740849494934, -0.028048226609826088, -0.051844194531440735, -0.1093885600566864, -0.006167495157569647, -0.037130825221538544, -0.2844058871269226, -0.2956538498401642, -0.12994739413261414, -0.09271539002656937], [0.08491837233304977, 0.0627971738576889, -0.16044360399246216, -0.17262664437294006, -0.0151119539514184, 0.05618667230010033, -0.14778181910514832, -0.06597951054573059, -0.14888808131217957, -0.036193009465932846, 0.00575698958709836, 0.2194964736700058, 0.21761536598205566, -0.08280530571937561, -0.0073583838529884815, -0.10239265859127045, 0.26144149899482727, 0.06919828057289124, 0.15448398888111115, 0.17443707585334778, 0.1767226755619049, -0.03691117465496063, -0.058780260384082794, -0.0020691249519586563, -0.06032072380185127, 0.09102485328912735, 0.004369588103145361, -0.14223717153072357, 0.05908684805035591, 0.09986603260040283, -0.220228910446167, -0.08756562322378159, 0.036205027252435684, 0.04610419645905495, 0.17826728522777557, -0.2479824721813202, -0.19502873718738556, 0.11763454973697662, 0.085172139108181, -0.16775281727313995, 0.02535177208483219, -0.206239253282547, -0.12590040266513824, -0.1541898399591446, -0.10040254890918732, -0.14728525280952454, -0.09807685762643814, -0.11903967708349228, -0.18576784431934357, 0.16459150612354279, -0.020185522735118866, -0.2755354642868042, -0.4285135865211487], [-0.11216768622398376, -0.2244083285331726, -0.16501162946224213, 0.11228056997060776, 0.24882641434669495, -0.03980955109000206, 0.1469726264476776, -0.024149836972355843, 0.3179819881916046, -0.09876829385757446, 0.07445966452360153, -0.04321877658367157, 0.05904027819633484, -0.41597211360931396, -0.23637418448925018, -0.088517926633358, -0.05869431793689728, -0.11622646450996399, 0.0071125878021121025, 0.19793972373008728, 0.0996401458978653, -0.16333021223545074, -0.23699761927127838, 0.053862422704696655, 0.053940389305353165, -0.24063196778297424, -0.09160548448562622, 0.1798427551984787, 0.11235339194536209, -0.019959380850195885, -0.19523030519485474, 0.03326861187815666, 0.12243867665529251, -0.2102830410003662, -0.09024073928594589, -0.12964659929275513, 0.22188988327980042, 0.00938944797962904, -0.02198268100619316, 0.07381052523851395, -0.10987616330385208, 0.03133421391248703, -0.13039182126522064, -0.02170841209590435, 0.08929109573364258, -0.32164672017097473, -0.1131734773516655, 0.17470411956310272, -0.11561409384012222, 0.3517420291900635, -0.07392195612192154, 0.2833601236343384, 0.172559455037117], [-0.06266026198863983, -0.0018491533119231462, 0.11085489392280579, 0.09572265297174454, -0.03651667758822441, -0.2421424686908722, -0.2200412154197693, 0.14430946111679077, 0.055894821882247925, 0.1765221655368805, 0.018749255686998367, 0.13447751104831696, -0.06550154834985733, 0.08114874362945557, 0.025524457916617393, 0.1342492401599884, 0.048756133764982224, -0.04144786670804024, -0.12170211970806122, -0.16040877997875214, -0.2045963555574417, -0.03661683201789856, 0.02000114880502224, 0.0048683020286262035, 0.015031592920422554, 0.2504890263080597, -0.3639233112335205, 0.022535618394613266, 0.01642996445298195, -0.4321993291378021, -0.06534358859062195, 0.15846192836761475, -0.038739416748285294, 0.12833812832832336, 0.07465418428182602, 0.08824039995670319, -0.11422251909971237, 0.24552349746227264, -0.04562356323003769, 0.1745307445526123, -0.05119030550122261, 0.18040701746940613, -0.2654483914375305, 0.09407714754343033, -0.004889436066150665, -0.07508525997400284, 0.011749283410608768, 0.13645672798156738, -0.06846904754638672, 0.10941056907176971, -0.03717201203107834, -0.579594075679779, -0.15058010816574097], [0.10072215646505356, -0.0934842973947525, 0.03895863890647888, -0.1748153418302536, -0.03681395202875137, 0.09669331461191177, -0.012310660444200039, -0.06961693614721298, -0.3176920711994171, -0.03910960257053375, -0.0671129897236824, 0.07018875330686569, -0.008853129111230373, 0.10781561583280563, 0.01454091165214777, 0.03125827759504318, 0.07462393492460251, -0.4020020365715027, -0.2726460099220276, -0.04021633043885231, -0.09259086847305298, -0.11503182351589203, -0.0772455632686615, -0.02852761000394821, 0.3363972306251526, -0.01032959297299385, -0.1243523433804512, -0.06202326714992523, 0.12036332488059998, -0.2400895208120346, 0.1342281550168991, -0.02050074376165867, -0.26539355516433716, -0.13881239295005798, -0.057572878897190094, 0.00391294015571475, 0.07001345604658127, -0.09278790652751923, 0.02905127964913845, -0.0006088532973080873, 0.13885237276554108, -0.05572265014052391, 0.018314331769943237, 0.1711888164281845, -0.044332049787044525, -0.1521107703447342, 0.19222015142440796, -0.032009538263082504, -0.04391875118017197, -0.0017467372817918658, 0.28981542587280273, -0.2670208215713501, -0.07558755576610565], [-0.025319533422589302, -0.1049269586801529, -0.35597556829452515, -0.31857800483703613, -0.035488080233335495, 0.01743391528725624, -0.010941251181066036, -0.05559534952044487, 0.3048601746559143, -0.03462882339954376, -0.08893165737390518, -0.25300443172454834, 0.15157735347747803, -0.299995481967926, 0.14861387014389038, -0.04307366907596588, -0.23520714044570923, -0.07229916751384735, 0.017263861373066902, -0.29821017384529114, -0.0828264057636261, 0.08100179582834244, 0.05797193944454193, 0.006092367693781853, -0.16256621479988098, -0.09650841355323792, -0.025433354079723358, -0.36208927631378174, -0.06004435196518898, -0.25657495856285095, -0.25266388058662415, -0.10655584186315536, -0.1315619796514511, -0.03874974325299263, -0.08328375220298767, -0.17498372495174408, -0.06843475252389908, -0.15727819502353668, -0.142804354429245, -0.14319247007369995, -0.017998943105340004, -0.1905939280986786, -0.08493377268314362, -0.03518081083893776, 0.07727327942848206, -0.08636820316314697, 0.06936965882778168, 0.017575720325112343, 0.09890139102935791, 0.030598057433962822, 0.0693943053483963, 0.006742672063410282, -0.10920248180627823], [-0.08748200535774231, -0.05380084738135338, 0.004655681550502777, -0.029732149094343185, -0.1374424248933792, -0.08363677561283112, -0.12626293301582336, -0.01026347279548645, 0.17044730484485626, 0.15083444118499756, -0.13810542225837708, 0.011299854144454002, -0.03944316878914833, 0.01203575823456049, -0.019632084295153618, 0.012175493873655796, 0.14319518208503723, -0.3887355625629425, 0.07591158896684647, 0.041563477367162704, 0.010789521038532257, -0.166762113571167, -0.24091477692127228, -0.019716909155249596, -0.026673294603824615, -0.0988079383969307, 0.18094396591186523, -0.18867143988609314, 0.10407625883817673, -0.2904201149940491, 0.01668042317032814, -0.01803283579647541, -0.13249950110912323, -0.23287995159626007, -0.04593146964907646, -0.141619011759758, 0.05191928148269653, -0.050807975232601166, 0.17697985470294952, 0.06392160803079605, 0.09630102664232254, -0.40532800555229187, 0.07758130133152008, -0.5516504645347595, -0.07514870166778564, 0.11786454170942307, 0.11153056472539902, 0.012935168109834194, -0.14659248292446136, 0.04130155220627785, -0.26062989234924316, 0.13390329480171204, -0.055877212435007095], [0.018312154337763786, -0.13785448670387268, -0.20737168192863464, 0.028783483430743217, -0.1586524397134781, 0.16898509860038757, 0.0649958923459053, 0.03263664245605469, 0.0396648570895195, -0.28271496295928955, -0.2519535720348358, -0.03405126556754112, -0.204156756401062, 0.17637576162815094, 0.12285132706165314, -0.08403663337230682, 0.16267627477645874, -0.13719527423381805, 0.17339129745960236, -0.23748134076595306, 0.11460559815168381, 0.008068462833762169, 0.02936933934688568, 0.11373178660869598, -0.0863511860370636, -0.02541934698820114, -0.05716422572731972, -0.06931652128696442, 0.07430858910083771, 0.03452811390161514, 0.005186737049371004, 0.07077530026435852, -0.021130861714482307, -0.014901959337294102, 0.08793545514345169, -0.011359056457877159, -0.08730246871709824, -0.06513349711894989, -0.4890880882740021, 0.16272097826004028, 0.06678733974695206, -0.05931810662150383, -0.10030531138181686, -0.1801721155643463, -0.20655764639377594, 0.1819397658109665, -0.2778100371360779, 0.09561368823051453, -0.22138717770576477, -0.209568589925766, -0.07080745697021484, -0.14915044605731964, -0.07276057451963425], [-0.1315075159072876, -0.06619909405708313, 0.116771399974823, -0.33082881569862366, -0.06048719957470894, 0.02059386670589447, -0.09740854054689407, 0.030908355489373207, 0.025428667664527893, 0.05513356998562813, 0.07180839776992798, -0.024353643879294395, -0.02685239538550377, 0.0551733560860157, -0.10595493018627167, -0.06643950194120407, 0.0030309672001749277, 0.17849257588386536, -0.15770626068115234, -0.16764073073863983, -0.11077238619327545, 0.1057000458240509, 0.02341187559068203, -0.10782019793987274, -0.07064830511808395, 0.06450766324996948, -0.17176924645900726, 0.06333540380001068, -0.026389291509985924, 0.1622098684310913, -0.10971812158823013, -0.05330870300531387, -0.17892365157604218, 0.10958578437566757, -0.1590985506772995, -0.14014042913913727, -0.27737322449684143, -0.09896669536828995, 0.11384172737598419, 0.0966641902923584, -0.26357144117355347, -0.36890438199043274, -0.19196662306785583, 0.2331184297800064, 0.09115993976593018, -0.1594061553478241, 0.17413140833377838, 0.04313289746642113, -0.3706877529621124, -0.03859534114599228, -0.024479422718286514, -0.07884705066680908, -0.1821998953819275], [0.1635242998600006, 0.048872146755456924, 0.25542905926704407, -0.27085819840431213, 0.128187894821167, 0.09304210543632507, 0.28233277797698975, 0.0014291438274085522, -0.09828745573759079, -0.013135422952473164, -0.17492535710334778, -0.3013196289539337, 0.06733003258705139, 0.1420748233795166, -0.058461304754018784, -0.038157571107149124, 0.20442086458206177, 0.10392989218235016, -0.17828483879566193, -0.16638904809951782, -0.224575012922287, -0.2846032977104187, 0.07535447925329208, -0.11883778870105743, -0.04227462783455849, 0.0065567647106945515, -0.05949285626411438, 0.17240922152996063, -0.07569561898708344, -0.12858286499977112, -0.12988384068012238, -0.013624646700918674, 0.2143421471118927, -0.00452254107221961, -0.11100582778453827, -0.23119130730628967, -0.07306874543428421, -0.04624228924512863, -0.18063314259052277, -0.014894491992890835, 0.3540612757205963, -0.2090541571378708, -0.08150738477706909, -0.040098369121551514, -0.1181502416729927, -0.20250165462493896, 0.20222613215446472, -0.11032453179359436, 0.0751877874135971, -0.01320149376988411, 0.09776090085506439, -0.02442624233663082, -0.006072551012039185], [0.19805434346199036, 0.01744156703352928, 0.11519864201545715, -0.08132928609848022, 0.023984132334589958, 0.05540100485086441, 0.09015341103076935, -0.15798966586589813, 0.19708506762981415, -0.21636436879634857, -0.1897609680891037, -0.07266129553318024, -0.11029085516929626, -0.16058415174484253, -0.0007234879885800183, -0.02351357974112034, 0.3250744044780731, -0.3880917727947235, 0.05504164844751358, 0.044733770191669464, -0.10207393765449524, -0.006238845642656088, 0.07119384407997131, -0.055978938937187195, -0.3298383355140686, -0.028033550828695297, -0.06841888278722763, 0.06866099685430527, -0.002599079394713044, -0.03037899360060692, 0.11912567168474197, -0.07166510075330734, 0.0030663362704217434, 0.023626454174518585, -0.13259278237819672, 0.12098336964845657, 0.14883416891098022, 0.33921676874160767, 0.045010048896074295, -0.0718935877084732, -0.11473506689071655, -0.04907979816198349, -0.05048000440001488, -0.264851450920105, 0.01069459319114685, 0.05742863938212395, 0.19844914972782135, -0.09338201582431793, -0.00650925375521183, -0.0718463584780693, 0.029577935114502907, -0.009906517341732979, 0.012199369259178638], [0.12092766165733337, 0.033094003796577454, -0.016625745221972466, 0.15474532544612885, -0.05513494089245796, 0.09061180055141449, -0.08489251136779785, -0.17259351909160614, 0.05731947720050812, -0.3798142671585083, -0.17128875851631165, -0.17406581342220306, 0.08593462407588959, 0.16199783980846405, -0.08137152343988419, 0.0025301051791757345, 0.34424448013305664, 0.027924472466111183, 0.22685874998569489, -0.1560358703136444, 0.08654775470495224, -0.1074923574924469, -0.017642466351389885, -0.06286992132663727, 0.19307726621627808, 0.07542809098958969, -0.12283821403980255, 0.15300223231315613, 0.14327295124530792, 0.04056268557906151, 0.024148037657141685, -0.0009098974987864494, 0.4279213547706604, -0.013696336187422276, -0.007252747658640146, -0.22913463413715363, 0.12208850681781769, -0.05947127193212509, 0.10878857225179672, 0.04593910276889801, 0.038077931851148605, 0.012764748185873032, -0.04754152521491051, -0.06026724353432655, 0.16894236207008362, -0.10321032255887985, -0.09970541298389435, 0.01365660224109888, -0.11822035908699036, -0.03138943389058113, 0.14486345648765564, 0.14405617117881775, 0.12750695645809174], [-0.21346335113048553, -0.28398215770721436, -0.1385706663131714, 0.004703721031546593, 0.056105390191078186, 0.15307626128196716, 0.10249213874340057, -0.06382206827402115, 0.08258528262376785, -0.06596378237009048, -0.2774289548397064, -0.0750543400645256, -0.336731880903244, 0.09761936962604523, 0.1270260512828827, -0.04024257883429527, 0.057287685573101044, -0.0003750154282897711, -0.12975949048995972, -0.2443024218082428, -0.10111493617296219, -0.13645514845848083, -0.13959366083145142, -0.033963460475206375, 0.12655609846115112, -0.29316461086273193, -0.07982936501502991, 0.10819351673126221, -0.021020449697971344, -0.002452962566167116, -0.2600997984409332, -0.058964889496564865, -0.007948789745569229, -0.12806196510791779, -0.07657908648252487, -0.0836910754442215, -0.11302610486745834, -0.18669484555721283, -0.1351384073495865, -0.0956038311123848, 0.03631329908967018, 0.09679596871137619, -0.09076499193906784, 0.0008962176507338881, -0.3054667115211487, -0.0691080316901207, -0.02628454752266407, -0.03785743564367294, 0.08354225009679794, 0.04597438871860504, -0.01527328323572874, -0.12263888865709305, 0.3907649517059326], [0.16595537960529327, 0.04261104017496109, -0.059828564524650574, -0.07237964868545532, -0.17192520201206207, 0.02051674947142601, -0.15446069836616516, -0.0816115289926529, 0.0925683006644249, 0.10649330168962479, -0.30277127027511597, -0.0533081479370594, -0.4898883104324341, -0.06039557605981827, -0.17987990379333496, 0.05745583772659302, 0.013024148531258106, -0.03954074904322624, -0.09798265248537064, 0.1730639785528183, -0.09867678582668304, -0.13987810909748077, 0.0888102576136589, -0.08442403376102448, 0.09636058658361435, -0.31026318669319153, -0.15654657781124115, 0.056917447596788406, 0.0930367112159729, -0.1327037364244461, -0.04916778951883316, -0.026390811428427696, 0.2847871482372284, -0.06081885099411011, 0.07073841243982315, -0.022305576130747795, -0.003490826115012169, -0.2577357292175293, -0.032870639115571976, 0.05933966487646103, 0.0374969020485878, -0.13498781621456146, -0.23006676137447357, -0.35372376441955566, -0.11841648817062378, -0.01114944089204073, -0.20649169385433197, 0.031395819038152695, 0.11137259006500244, 0.2991231083869934, 0.09529616683721542, 0.13462023437023163, -0.039716724306344986], [-0.03278050944209099, -0.018559033051133156, 0.044080138206481934, -0.08888283371925354, -0.10925056040287018, -0.34215813875198364, -0.05704430490732193, -0.00943159032613039, 0.16899597644805908, -0.004576597362756729, -0.27837392687797546, 0.10796814411878586, -0.02676812745630741, 0.21361544728279114, -0.10037993639707565, 0.050309307873249054, 0.2258601039648056, -0.1114635095000267, -0.27043595910072327, 0.10073796659708023, 0.02296631969511509, -0.11880077421665192, -0.010332079604268074, -0.05705353617668152, 0.2574269473552704, 0.13098077476024628, -0.03823100030422211, -0.024040011689066887, 0.013573369942605495, -0.27628350257873535, -0.04739542677998543, 0.06486828625202179, 0.27990061044692993, 0.038665980100631714, -0.33004409074783325, 0.05718878656625748, -0.1384645402431488, -0.05095840245485306, -0.18081630766391754, 0.08659018576145172, 0.22498422861099243, -0.1103644073009491, -0.09802974760532379, 0.17126452922821045, -0.03974980488419533, -0.1345861554145813, -0.13484057784080505, -0.04494088515639305, 0.019893037155270576, 0.27951937913894653, 0.05594155192375183, 0.05849038064479828, -0.05666251480579376], [-0.1631210446357727, -0.03784535825252533, -0.06425129622220993, -0.04605422914028168, -0.298006147146225, 0.2318459451198578, -0.03820449113845825, -0.027488619089126587, -0.10712824761867523, 0.16311754286289215, 0.14588625729084015, -0.052458446472883224, 0.1482197344303131, 0.13518159091472626, -0.11300957947969437, 0.1097407191991806, 0.017378846183419228, -0.057021379470825195, 0.12273366004228592, -0.0697152391076088, 0.04882834106683731, 0.04359038174152374, 0.19500422477722168, -0.039652034640312195, 0.07680726796388626, -0.08885762095451355, -0.2630288600921631, -0.21369242668151855, -0.020500577986240387, -0.11582180112600327, 0.05938476696610451, -0.0716191902756691, 0.013693226501345634, -0.14631769061088562, -0.07369152456521988, 0.18752996623516083, 0.08638705313205719, -0.07537132501602173, 0.010405441746115685, 0.005364133510738611, -0.08458135277032852, -0.2665835916996002, -0.140708789229393, 0.13452813029289246, 0.10820773988962173, 0.06966768205165863, 0.06407301127910614, 0.01952117681503296, -0.08214300870895386, 0.04118430241942406, 0.19117023050785065, 0.3164953887462616, -0.13162164390087128], [0.052494604140520096, 0.14000514149665833, 0.21023505926132202, -0.07696226984262466, -0.00872479472309351, -0.05026130750775337, 0.08010875433683395, 0.0088789789006114, -0.17234133183956146, -0.12538224458694458, 0.09370850771665573, -0.16832388937473297, 0.09951085597276688, -0.18159404397010803, -0.11536316573619843, -0.13979551196098328, -0.2626189887523651, -0.07663587480783463, -0.02367187850177288, 0.18734991550445557, 0.11795635521411896, 0.24633115530014038, -0.09968897700309753, -0.0933191105723381, -0.017439700663089752, 0.07103598117828369, -0.15814220905303955, -0.023613613098859787, -0.27619317173957825, 0.04492028430104256, -0.046420931816101074, 0.10698769241571426, -0.25280046463012695, -0.017371175810694695, 0.15812553465366364, 0.02940010093152523, 0.09509111940860748, 0.0223154965788126, -0.09229931235313416, -0.03815443813800812, 0.13301987946033478, -0.007429859600961208, -0.21976366639137268, -0.15682654082775116, 0.2503207325935364, -0.028444407507777214, 0.08900386840105057, 0.06011797860264778, -0.3029267489910126, -0.24087511003017426, -0.08620918542146683, -0.45135498046875, 0.30372902750968933], [0.17641288042068481, -0.5229924321174622, 0.1413099616765976, -0.09757822751998901, -0.0034750723280012608, 0.20016969740390778, 0.07114619761705399, -0.04725540801882744, 0.1540917307138443, 0.02305157668888569, -0.01567617617547512, 0.09227444976568222, -0.037399064749479294, 0.20432595908641815, -0.08961262553930283, -0.0398334376513958, 0.01905040815472603, -0.09644066542387009, -0.056099772453308105, -0.08494798839092255, 0.06823784112930298, 0.017291441559791565, -0.012508261017501354, -0.004299374297261238, 0.11486579477787018, 0.04117828235030174, 0.11885128170251846, 0.12414807081222534, 0.12783904373645782, -0.03900892660021782, 0.12166179716587067, -0.03814605250954628, 0.23136723041534424, -0.1914834976196289, -0.23437827825546265, -0.12426380813121796, 0.2420109659433365, -0.12422466278076172, -0.18222321569919586, 0.1017172634601593, 0.17254431545734406, -0.09545381367206573, -0.298343300819397, 0.06008308008313179, 0.21647422015666962, -0.0001414032158209011, 0.06735637784004211, -0.05709381401538849, 0.25548461079597473, 0.14145131409168243, -0.02258407138288021, 0.08590801805257797, -0.06096557155251503], [0.13064001500606537, -0.27337419986724854, -0.19851788878440857, -0.24777255952358246, 0.01947731152176857, -0.039164524525403976, -0.06441664695739746, 0.0018449757480993867, 0.2699486017227173, -0.3626069128513336, -0.19207768142223358, 0.0005044735735282302, 0.16212429106235504, 0.16118186712265015, 0.14599785208702087, 0.023507168516516685, 0.27343204617500305, -0.058439671993255615, 0.03534536063671112, -0.30631083250045776, 0.11928962916135788, -0.026827769353985786, 0.03875467926263809, 0.026800358667969704, -0.043789081275463104, -0.1180398017168045, -0.08888331055641174, -0.06857758015394211, 0.15721654891967773, 0.08963552117347717, -0.18723474442958832, 0.018557673320174217, -0.009899967350065708, 0.07588469237089157, 0.12749852240085602, 0.07788654416799545, 0.05757153034210205, -0.2776211202144623, -0.012320893816649914, 0.04796843230724335, -0.1226159855723381, 0.027389539405703545, 0.032895416021347046, 0.017970984801650047, 0.010549372993409634, 0.11101523041725159, -0.03780326619744301, 0.04564570263028145, 0.15861719846725464, -0.1253305971622467, -0.018348677083849907, -0.06669256836175919, 0.10088402777910233], [0.16146591305732727, -0.14186124503612518, 0.20019732415676117, -0.16422267258167267, 0.1164713054895401, -0.5154844522476196, -0.14057108759880066, -0.09523679316043854, -0.11860942095518112, 0.19485898315906525, -0.09328573942184448, -0.050506219267845154, -0.03422151133418083, -0.4257323741912842, -0.21532170474529266, -0.12858492136001587, 0.04415920749306679, -0.0765659287571907, -0.11387966573238373, -0.16619330644607544, 0.07896657288074493, -0.13998006284236908, -0.08182816207408905, -0.11219502985477448, -0.11683647334575653, 0.07708079367876053, -0.26981207728385925, -0.08960471302270889, -0.038634125143289566, -0.23723068833351135, 0.12718573212623596, -0.06394703686237335, 0.05549895390868187, -0.13406039774417877, -0.10752090811729431, 0.13892358541488647, 0.06430961191654205, 0.05876992642879486, -0.05015129595994949, -0.15243904292583466, 0.01652590185403824, -0.3420891761779785, -0.1795991063117981, -0.11355680972337723, -0.032887544482946396, -0.07837303727865219, -0.010298477485775948, -0.013120286166667938, 0.07474736869335175, -0.013957508839666843, -0.07785080373287201, 0.12593144178390503, 0.05216096341609955], [-0.07871358841657639, -0.06860706210136414, 0.051424507051706314, -0.037110477685928345, 0.011607132852077484, -0.009083351120352745, 0.2694597840309143, -0.04001336917281151, 0.1513582020998001, 0.0691709965467453, 0.2595018744468689, 0.06439204514026642, -0.20536088943481445, 0.08241016417741776, 0.060281090438365936, -0.10516466945409775, 0.1805092841386795, -0.10662083327770233, 0.10066379606723785, -0.03232000395655632, 0.12751701474189758, 0.1179407611489296, -0.0023034405894577503, 0.030200384557247162, 0.1718703657388687, -0.2708325684070587, 0.04878649488091469, -0.11542275547981262, 0.13729062676429749, -0.04724374786019325, 0.12877914309501648, 0.07971201092004776, 0.23535093665122986, -0.485705703496933, -0.1837768256664276, 0.1439957618713379, 0.170282781124115, -0.3219555914402008, -0.06922103464603424, -0.0011322296923026443, 0.03495621681213379, -0.0325336754322052, -0.06231085956096649, 0.07438842952251434, -0.022756727412343025, -0.18942992389202118, -0.050500158220529556, 0.023756401613354683, -0.24990028142929077, 0.25276434421539307, -0.27208077907562256, -0.19225864112377167, -0.3408232033252716], [-0.08193349838256836, -0.22723038494586945, 0.24390944838523865, -0.2251770943403244, -0.09789398312568665, -0.0039160605520009995, 0.028474703431129456, -0.12118194252252579, 0.025014283135533333, -0.009567257948219776, 0.05064976215362549, -0.10621733218431473, -0.31454676389694214, 0.058602407574653625, 0.0805542841553688, -0.05815322324633598, 0.02881242148578167, 0.11155053973197937, -0.03333623707294464, -0.08576281368732452, -0.03255574777722359, -0.13123805820941925, -0.044268783181905746, -0.1427880823612213, -0.13556264340877533, 0.1808398962020874, -0.051308773458004, -0.14435891807079315, 0.008260970003902912, -0.11381092667579651, 0.0017296809237450361, -0.014658765867352486, 0.04705272614955902, 0.11962009221315384, 0.16214443743228912, 0.015142226591706276, 0.12478570640087128, 0.08562013506889343, 0.025804240256547928, -0.08545102179050446, -0.14022965729236603, 0.07521166652441025, 0.09413885325193405, 0.023153239861130714, -0.24790425598621368, -0.18168699741363525, -0.011758952401578426, 0.03976823017001152, -0.12321659177541733, 0.05080962926149368, -0.23762038350105286, 0.36345168948173523, 0.2585112750530243], [-0.11391450464725494, 0.1015128567814827, 0.06589309126138687, -0.2561190128326416, -0.12022318691015244, -0.2932281792163849, -0.028922123834490776, 0.02878332883119583, -0.33378198742866516, 0.26901522278785706, -0.08810015022754669, -0.04000592976808548, 0.11595674604177475, -0.13047049939632416, 0.3275900185108185, -0.01588207297027111, 0.020009906962513924, -0.10110533237457275, 0.029191860929131508, 0.048849496990442276, -0.004703955724835396, -0.1546669900417328, -0.006682358216494322, 0.018026001751422882, 0.02678133174777031, 0.09733016043901443, 0.09220767766237259, -0.005976391956210136, 0.014095562510192394, 0.10976020991802216, -0.03762941062450409, -0.05568839982151985, -0.07517331093549728, 0.07026190310716629, -0.01162236649543047, 0.007962854579091072, -0.10290827602148056, -0.046635039150714874, -0.10029684752225876, -0.06948889791965485, 0.012714292854070663, -0.09370743483304977, -0.09695383906364441, 0.024984829127788544, -0.048511210829019547, -0.0381082259118557, -0.03774210438132286, 0.0012890083016827703, 0.1992717832326889, 0.19476903975009918, 0.49630579352378845, 0.23147523403167725, 0.013777854852378368], [0.012247629463672638, -0.17557208240032196, -0.04439316689968109, 0.12099973112344742, -0.12165307998657227, 0.14221537113189697, 0.039836335927248, -0.13208049535751343, 0.07241365313529968, 0.13261748850345612, 0.10690481215715408, -0.1860973984003067, -0.17009501159191132, -0.1119968444108963, -0.07785330712795258, -0.030772173777222633, -0.1765596866607666, -0.18363459408283234, -0.05841364338994026, -0.08153627067804337, 0.3007323145866394, -0.17266422510147095, 0.1960393637418747, 0.010071580298244953, -0.03142092004418373, -0.033647049218416214, -0.11598020792007446, -0.282634437084198, 0.06778641045093536, -0.21301181614398956, -0.09759143739938736, -0.11230233311653137, -0.13690926134586334, 0.10764952749013901, 0.10241647064685822, 0.11995282769203186, 0.10081403702497482, 0.0991850271821022, -0.2177528589963913, -0.050795167684555054, -0.03872315585613251, -0.18014197051525116, 0.13238425552845, 0.1353321224451065, 0.05109132081270218, -0.2078189253807068, -0.15906789898872375, -0.019083213061094284, 0.1706610471010208, -0.017711106687784195, -0.25107115507125854, -0.29696616530418396, -0.21326354146003723], [-0.09936606884002686, 0.19487732648849487, -0.41133594512939453, 0.002712559886276722, 0.04920925945043564, -0.3280337452888489, 0.0059454236179590225, -0.08397253602743149, -0.06648830324411392, 0.00010433977877255529, -0.005121400114148855, -0.0048360079526901245, 0.2882159352302551, -0.21902579069137573, 0.16729307174682617, -0.1489706188440323, 0.0773010328412056, -0.028966279700398445, -0.056049201637506485, -0.11788319796323776, 0.07214875519275665, -0.049287017434835434, -0.15378308296203613, -0.029268942773342133, 0.03983147442340851, 0.14411208033561707, 0.17893007397651672, 0.0055434866808354855, -0.03887743130326271, -0.3775520920753479, -0.03113509714603424, -0.09755443781614304, -0.1361244171857834, -0.18520121276378632, -0.06469710916280746, 0.03200618922710419, 0.057777442038059235, -0.20861385762691498, -0.20748919248580933, -0.04874993860721588, 0.17611734569072723, -0.10909588634967804, -0.11043362319469452, -0.03161900117993355, -0.1680525839328766, -0.07434974610805511, 0.15891002118587494, 0.04971335455775261, 0.13390624523162842, 0.08928202092647552, 0.1641308218240738, 0.10987794399261475, 0.15860551595687866], [-0.015569588169455528, -0.10585401207208633, 0.003245403990149498, -0.020405029878020287, -0.3154662549495697, -0.0032440340146422386, 0.1518951803445816, -0.11918284744024277, 0.27489587664604187, -0.022310713306069374, 0.11479002982378006, 0.06830652803182602, 0.0027399915270507336, 0.04533839598298073, -0.05244629085063934, -0.054937779903411865, 0.01944234035909176, -0.19706454873085022, 0.02017582207918167, -0.24813739955425262, -0.10371489077806473, -0.14933694899082184, 0.31775861978530884, -0.022332651540637016, -0.3795938789844513, -0.494293212890625, -0.31025230884552, -0.1411207616329193, 0.19047540426254272, -0.17194323241710663, -0.002822143491357565, -0.05522054061293602, 0.031195756047964096, -0.20219896733760834, -0.07752101123332977, 0.024817947298288345, -0.030914518982172012, -0.06445976346731186, 0.09590211510658264, -0.03642454743385315, 0.05191994830965996, -0.3327721655368805, 0.05190229043364525, 0.10047109425067902, -0.01932699605822563, -0.12638446688652039, 0.13368134200572968, 0.09317569434642792, -0.02921987883746624, -0.6419591307640076, -0.055867914110422134, -0.33401793241500854, 0.03146466985344887], [-0.3013361692428589, -0.2709449231624603, -0.29896098375320435, -0.25899237394332886, 0.14486609399318695, -0.14596016705036163, -0.32790473103523254, 0.025886254385113716, -0.14420165121555328, -0.10775387287139893, -0.10270488262176514, 0.13798555731773376, 0.06827123463153839, 0.0031861395109444857, 0.06579406559467316, -0.009553750045597553, 0.07062510401010513, -0.037171874195337296, 0.01940039172768593, -0.2234479784965515, -0.19060850143432617, 0.015826823189854622, -0.1359247863292694, -0.05075949802994728, -0.08885109424591064, -0.253694087266922, -0.19785204529762268, -0.08080653846263885, -0.08882491290569305, -0.1283285766839981, 0.24254876375198364, 0.06824404746294022, 0.0301679614931345, -0.08239715546369553, 0.05805235356092453, -0.00975474901497364, 0.01731940545141697, -0.29329797625541687, -0.15064483880996704, 0.054904766380786896, -0.318423330783844, -0.1238434761762619, -0.025590626522898674, 0.05483575165271759, 0.2307637482881546, -0.01865300163626671, -0.274988055229187, 0.06018125265836716, -0.28138694167137146, -0.2281673699617386, 0.0273895300924778, -0.2745862305164337, 0.1061045378446579], [-0.22253981232643127, -0.03191562369465828, -0.025536417961120605, -0.348283052444458, 0.054303694516420364, 0.18308024108409882, -0.21053889393806458, -0.05172109231352806, 0.18704620003700256, 0.19108182191848755, -0.18941658735275269, -0.24816837906837463, 0.2445259988307953, 0.07206475734710693, 0.052541978657245636, -0.030708273872733116, 0.008344769477844238, -0.02204233407974243, -0.1521642655134201, -0.059075791388750076, 0.059369467198848724, 0.0037462501786649227, -0.025198716670274734, 0.035841550678014755, 0.17313259840011597, 0.10185377299785614, -0.07264427095651627, 0.1738286167383194, 0.1411411464214325, -0.012407355941832066, 0.054997749626636505, 0.049551937729120255, 0.1104125827550888, 0.35295188426971436, 0.07225930690765381, 0.18609872460365295, 0.08004460483789444, 0.18217457830905914, 0.0016886764205992222, 0.11719974875450134, -0.041445791721343994, 0.09644301235675812, -0.13149002194404602, 0.03133874386548996, -0.09888669848442078, 0.09182171523571014, 0.0065980339422822, 0.14209800958633423, -0.45668840408325195, -0.2902413606643677, 0.1682356595993042, -0.02705441042780876, -0.10816699266433716], [0.23744243383407593, 0.036556426435709, -0.08541779220104218, -0.1379874348640442, -0.11615685373544693, -0.14967434108257294, -0.2120439112186432, -0.0917687639594078, 0.21413519978523254, -0.039490096271038055, -0.27676090598106384, 0.10370324552059174, 0.19386790692806244, 0.20346172153949738, -0.26789340376853943, -0.09946504980325699, 0.09505154937505722, -0.10077271610498428, 0.06795831769704819, 0.028532622382044792, -0.18187452852725983, 0.14356334507465363, 0.07346921414136887, -0.090795136988163, 0.1472257375717163, -0.26253771781921387, -0.1529003083705902, 0.07912503182888031, -0.06493046134710312, 0.11872758716344833, 0.20126134157180786, -0.08644551783800125, 0.23515143990516663, 0.12241668254137039, 0.039901454001665115, -0.14257627725601196, -0.20698252320289612, -0.15329328179359436, -0.0261063352227211, 0.0958821102976799, 0.01663428358733654, 0.07234766334295273, -0.013954546302556992, 0.06648501753807068, -0.11467544734477997, -0.054016634821891785, -0.43989333510398865, -0.054987791925668716, 0.06718704104423523, -0.07191474735736847, -0.03776709735393524, 0.14579516649246216, -0.30176371335983276], [0.18695057928562164, -0.01559329591691494, -0.13175249099731445, -0.2234647274017334, -0.1357998549938202, -0.07434304058551788, -0.32783547043800354, -0.10127551108598709, 0.09961006790399551, 0.2821204662322998, 0.017762817442417145, -0.02552819438278675, -0.08829959481954575, 0.012062544003129005, -0.07101982831954956, -0.004304792732000351, -0.22186805307865143, -0.16161203384399414, 0.03550438582897186, 0.20786987245082855, -0.07790009677410126, 0.016228636726737022, 0.19194194674491882, -0.0132331857457757, -0.04322037845849991, 0.07401002198457718, 0.09235139191150665, -0.05540214851498604, 0.23425093293190002, -0.2731364369392395, 0.14498426020145416, -0.08156700432300568, 0.09199364483356476, -0.06843113154172897, -0.05548347160220146, 0.013849050737917423, -0.08443912863731384, 0.18647266924381256, 0.09866299480199814, 0.09179303050041199, -0.03150279447436333, -0.09584826976060867, -0.3140007257461548, -0.06592274457216263, 0.12798485159873962, -0.11642008274793625, -0.20115482807159424, -0.014302984811365604, -0.13258379697799683, 0.03515762835741043, 0.27359113097190857, -0.18695420026779175, -0.10620789974927902], [0.14099955558776855, -0.00652916869148612, -0.11472316831350327, -0.21683968603610992, -0.05822446942329407, 0.37855565547943115, 0.06195179000496864, -0.02949131280183792, 0.02231290377676487, 0.33901336789131165, -0.03940221294760704, -0.3862757980823517, 0.11144968867301941, -0.10937553644180298, 0.05358848348259926, -0.16804201900959015, 0.03837548568844795, 0.16839392483234406, 0.16830748319625854, -0.10485851019620895, 0.07750018686056137, -0.09368488937616348, -0.09499385207891464, 0.02391655370593071, 0.0914837121963501, 0.030224420130252838, 0.05147814750671387, 0.17782627046108246, 0.09747537970542908, 0.07211487740278244, -0.24114172160625458, -0.08304793387651443, -0.09077325463294983, -0.0549209788441658, 0.1671886444091797, 0.08319550007581711, -0.07449263334274292, -0.02257687784731388, 0.1629582941532135, 0.022363848984241486, -0.021193768829107285, 0.17924846708774567, 0.12954096496105194, 0.2039806842803955, 0.14126233756542206, -0.048443686217069626, 0.15303441882133484, 0.07942621409893036, -0.08033639192581177, 0.18871641159057617, 0.07977063953876495, 0.018536977469921112, -0.24793308973312378], [0.17664673924446106, 0.05527951568365097, -0.04137983173131943, -0.19913432002067566, -0.14303961396217346, 0.0754992812871933, -0.14960820972919464, -0.04835933446884155, 0.3881717920303345, -0.010958632454276085, -0.021343005821108818, -0.0005087112076580524, -0.34077638387680054, 0.10086691379547119, 0.019683530554175377, -0.019692437723279, 0.1181403324007988, 0.0023497543297708035, 0.0771498903632164, -0.10552530735731125, 0.022391311824321747, -0.2842814326286316, -0.04187555983662605, 0.0884968712925911, -0.0488874651491642, 0.06428767740726471, 0.20267069339752197, 0.08180683106184006, -0.0544673427939415, -0.07881759107112885, -0.07350289821624756, -0.09930293262004852, -0.18282213807106018, -0.09565958380699158, -0.2828240394592285, 0.08762454986572266, 0.15456219017505646, -0.025864841416478157, 0.16811776161193848, -0.07249489426612854, 0.14723801612854004, -0.039973918348550797, -0.23063914477825165, -0.009547592140734196, 0.10078786313533783, -0.19111818075180054, -0.016770014539361, -0.002247166819870472, 0.0432557538151741, -0.04276856407523155, 0.20631727576255798, 0.16051669418811798, 0.1257866621017456], [0.2365894913673401, 0.26133614778518677, -0.07334679365158081, -0.24406655132770538, 0.1209888607263565, 0.3704076409339905, 0.1009824275970459, -0.13517160713672638, 0.19784940779209137, -0.014384022913873196, -0.18764972686767578, 0.015819387510418892, -0.24355964362621307, 0.25791800022125244, -0.052782393991947174, -0.010080590844154358, -0.05416791886091232, 0.016972215846180916, -0.090238057076931, -0.01173932570964098, 0.11042159795761108, 0.21094153821468353, -0.09655828028917313, -0.058448437601327896, -0.2763364613056183, -0.10458169132471085, 0.11313527077436447, -0.05642614886164665, 0.10099697858095169, 0.017857970669865608, 0.04352492839097977, 0.02265239506959915, -0.42109376192092896, 0.0024647803511470556, -0.37072911858558655, 0.22763803601264954, 0.02818414755165577, -0.014518870040774345, -0.23682235181331635, 0.06816808879375458, 0.1193884089589119, 0.08204952627420425, -0.13419213891029358, -0.06718391180038452, -0.034972719848155975, 0.11892484873533249, -0.03749993443489075, -0.06185199320316315, -0.19197526574134827, -0.30683842301368713, 0.08045119792222977, -0.10183020681142807, -0.15926682949066162], [0.10670545697212219, -0.14345185458660126, 0.2875596880912781, -0.1717562973499298, -0.20476576685905457, 0.13489165902137756, -0.031073089689016342, -0.03899826109409332, 0.15321213006973267, -0.18230172991752625, -0.27598702907562256, -0.030824491754174232, -0.3843229115009308, -0.038519296795129776, -0.0701146125793457, -0.06320738792419434, -0.1935143619775772, 0.1858745664358139, 0.04723598435521126, 0.026368675753474236, 0.21414901316165924, 0.2308030128479004, -0.07570851594209671, -0.025818657130002975, -0.0770791694521904, -0.1511133313179016, -0.2708356976509094, -0.19157148897647858, 0.15315568447113037, -0.09624166786670685, 0.19978205859661102, -0.04371670261025429, 0.12649784982204437, 0.004581714980304241, 0.1618041843175888, 0.04363210126757622, -0.14635427296161652, 0.02632231079041958, -0.1857563853263855, 0.06642458587884903, 0.08243487775325775, -0.07609229534864426, -0.1750536561012268, -0.08262766152620316, 0.028814278542995453, -0.13832852244377136, -0.04846667870879173, -0.01939200423657894, -0.2876271903514862, -0.23109088838100433, 0.11312448978424072, -0.19051676988601685, -0.20331580936908722], [0.3633803129196167, -0.12421753257513046, 0.10413867980241776, -0.019320737570524216, -0.09783102571964264, 0.24401427805423737, -0.0819811224937439, -0.003851373214274645, 0.19361388683319092, -0.02946275845170021, 0.14728491008281708, 0.16594891250133514, 0.15143245458602905, 0.020043980330228806, 0.09639650583267212, 0.020377065986394882, 0.2285790890455246, 0.0024908448103815317, 0.1489318162202835, 0.08028074353933334, 0.12818531692028046, -0.0022764871828258038, 0.11166266351938248, 0.044047340750694275, 0.09022171050310135, 0.10662095248699188, -0.12517736852169037, 0.019950950518250465, 0.049287788569927216, -0.10761421173810959, 0.02261899784207344, 0.06796744465827942, 0.11999092996120453, 0.15167103707790375, 0.10714831203222275, 0.02659517340362072, 0.1464240700006485, -0.11465916037559509, -0.16378624737262726, 0.01484324224293232, 0.15534444153308868, -0.15713857114315033, 0.030476603657007217, -0.11378693580627441, 0.3154641091823578, -0.07172469049692154, 0.1693597286939621, 0.14193162322044373, 0.03682823106646538, 0.07370791584253311, 0.22646503150463104, -0.04192115738987923, 0.024868866428732872], [0.022906800732016563, 0.02488156594336033, -0.08656775206327438, -0.12304969131946564, 0.14377424120903015, 0.14700724184513092, -0.17489930987358093, 0.0792328342795372, -0.23699286580085754, -0.19272778928279877, 0.01233127061277628, -0.11266563832759857, -0.0006039723521098495, -0.21238844096660614, -0.031564366072416306, 0.022620560601353645, -0.1897454708814621, 0.002151690423488617, 0.06572000682353973, -0.18535734713077545, 0.08712077140808105, 0.13391342759132385, -0.1828785389661789, -0.09696546196937561, -0.12018109858036041, -0.2940289080142975, 0.11952155828475952, -0.17119820415973663, 0.06481776386499405, 0.17623752355575562, -0.19417592883110046, 0.09331616014242172, -0.200290247797966, -0.10370125621557236, -0.1172281801700592, 0.06550150364637375, -0.056438080966472626, -0.20955751836299896, 0.15228763222694397, 0.019008776172995567, 0.1729377955198288, 0.09774236381053925, 0.32063722610473633, -0.07223476469516754, 0.15164946019649506, 0.10665576905012131, 0.018105152994394302, -0.05281055346131325, -0.14393001794815063, -0.17269554734230042, -0.19513222575187683, -0.09701389074325562, -0.16763420403003693], [0.13364066183567047, -0.039314400404691696, 0.05115891993045807, -0.1262713074684143, -0.0347880981862545, -0.25270935893058777, -0.06137131154537201, 0.012443405576050282, -0.004490873776376247, -0.006085673347115517, 0.26255252957344055, 0.008457419462502003, 0.057599470019340515, 0.002715053502470255, 0.09997142106294632, -0.13417720794677734, 0.3118124306201935, 0.12712673842906952, -0.10840722173452377, 0.09044182300567627, -0.05870889499783516, 0.08896753191947937, 0.02331550233066082, -0.11084353923797607, 0.18111295998096466, 0.05357896536588669, 0.04744746536016464, -0.007167691830545664, -0.12319950759410858, -0.0979524627327919, 0.22390983998775482, 0.08893800526857376, 0.06161456182599068, 0.08696962893009186, 0.13948281109333038, -0.13910642266273499, -0.17269736528396606, 0.24987943470478058, 0.10038713365793228, 0.03368097543716431, -0.022139132022857666, -0.06981382519006729, -0.17658115923404694, -0.04398106038570404, 0.16169634461402893, 0.2072930932044983, 0.14503172039985657, 0.05907995253801346, -0.22441400587558746, -0.49004679918289185, 0.17645122110843658, -0.08931978046894073, 0.10011983662843704], [0.49070996046066284, -0.04532969743013382, -0.044695112854242325, -0.07477884739637375, 0.10345282405614853, -0.15587368607521057, 0.08491898328065872, -0.10688010603189468, 0.04779307171702385, 0.06703179329633713, 0.03379790857434273, 0.0620516836643219, -0.22280018031597137, 0.15370377898216248, -0.18570150434970856, 0.006144259590655565, 0.1677289456129074, 0.14948982000350952, -0.2197393923997879, -0.07225014269351959, -0.1796768307685852, -0.06047267094254494, -0.1688280701637268, 0.09995123744010925, 0.1247236505150795, -0.30674004554748535, -0.0009545916691422462, 0.03896785154938698, -0.3541349470615387, -0.011320265009999275, -0.2154325544834137, -0.017726723104715347, 0.00658055255189538, -0.21336232125759125, 0.05517125874757767, -0.030357612296938896, 0.17303656041622162, -0.06758219748735428, 0.0038955658674240112, 0.027660680934786797, -0.007487517781555653, 0.13924089074134827, -0.13839396834373474, -0.026922276243567467, -0.11873257905244827, 0.035113152116537094, 0.01791340857744217, 0.14509336650371552, 0.1703343689441681, 0.13280150294303894, -0.08624065667390823, 0.21036545932292938, 0.04281478375196457], [-0.09863901138305664, -0.09365648031234741, -0.22117522358894348, -0.011379729025065899, 0.22125832736492157, 0.13498595356941223, 0.10093618184328079, -0.015288416296243668, 0.14747989177703857, 0.10724672675132751, -0.11413998156785965, -0.11347617954015732, 0.255349725484848, 0.18335887789726257, 0.08006389439105988, -0.09661669284105301, 0.1356675773859024, 0.0683896392583847, 0.2140764594078064, -0.14108988642692566, -0.2210761159658432, 0.14028359949588776, 0.060915302485227585, -0.1127244085073471, 0.021011874079704285, -0.10053261369466782, 0.23941634595394135, -0.07696587592363358, 0.22295737266540527, 0.11198938637971878, -0.023032296448946, -0.07832439243793488, 0.0014738040044903755, -0.09270313382148743, 0.015028008259832859, 0.11107995361089706, -0.13794724643230438, 0.17280466854572296, 0.03918319568037987, -0.1408064365386963, 0.0010974309407174587, -0.13840581476688385, -0.23417742550373077, -0.267341673374176, 0.07525526732206345, 0.06001877039670944, -0.038610395044088364, -0.002145203994587064, 0.3322516083717346, -0.09108629077672958, -0.06704854965209961, -0.279114305973053, -0.1647680699825287], [-0.14748932421207428, -0.2337244302034378, 0.10577570647001266, -0.08833704888820648, -0.02040904574096203, -0.10531221330165863, -0.42581045627593994, -0.050225045531988144, 0.27554333209991455, 0.04644807055592537, 0.06298099458217621, -0.10877784341573715, -0.005719820037484169, 0.15114054083824158, -0.05153247341513634, 0.035172052681446075, 0.02349897287786007, -0.14284956455230713, -0.001655509346164763, 0.058649688959121704, -0.005071084015071392, -0.20151492953300476, 0.01817234233021736, -0.014200262725353241, 0.1704232543706894, -0.23435088992118835, -0.09685758501291275, -0.00834069587290287, -0.05560758337378502, 0.14811180531978607, -0.21383382380008698, 0.00915919803082943, 0.22982053458690643, 0.11965979635715485, -0.10892439633607864, -0.0013762004673480988, -0.19098302721977234, 0.01941869594156742, -0.46183905005455017, 0.08280133455991745, 0.10108809918165207, -0.1373542994260788, -0.13291236758232117, 0.16258974373340607, -0.033543892204761505, 0.17137567698955536, 0.0391443632543087, -0.08153607696294785, 0.16861553490161896, 0.18537600338459015, -0.019225409254431725, 0.17013435065746307, 0.05062752589583397], [-0.04442262277007103, 0.18611674010753632, -0.10296928882598877, 0.024980146437883377, 0.0475449338555336, -0.001369902747683227, -0.06060021370649338, -0.1715683490037918, -0.02280011959373951, 0.14072160422801971, 0.06815716624259949, 0.06774488836526871, -0.20004470646381378, -0.08213399350643158, 0.027271026745438576, -0.1155494749546051, -0.03500036895275116, -0.0066449325531721115, 0.14934752881526947, -0.3283216059207916, -0.3330954909324646, -0.0714535340666771, 0.07909596711397171, -0.17250211536884308, -0.044864553958177567, 0.08935457468032837, -0.05432179570198059, -0.21898970007896423, -0.4594704210758209, -0.02351084165275097, 0.05783966928720474, 0.036032307893037796, -0.16100454330444336, 0.12196718901395798, 0.06366317719221115, -0.17358413338661194, -0.3096490204334259, -0.2253703624010086, 0.12844224274158478, 0.002232092199847102, 0.19499056041240692, 0.009350741282105446, 0.140681654214859, -0.042935580015182495, -0.1902879923582077, 0.07543160021305084, 0.11494089663028717, 0.054985493421554565, 0.03255225718021393, 0.00209504715166986, -0.23056204617023468, 0.11956685781478882, -0.2721696197986603], [0.12387889623641968, -0.20211808383464813, -0.17161814868450165, 0.10086281597614288, 0.04574272409081459, -0.10841243714094162, 0.12733912467956543, -0.002361543010920286, -0.0020777734462171793, -0.25214529037475586, -0.10875334590673447, -0.05935395136475563, 0.012885226868093014, -0.10902243852615356, 0.07461722940206528, 0.03162148594856262, 0.1363660842180252, -0.11199161410331726, -0.17613892257213593, 0.11677061021327972, -0.053283922374248505, 0.0198895875364542, -0.09917096048593521, 0.07130004465579987, -0.0844794362783432, -0.027704283595085144, -0.0029726901557296515, 0.01923651620745659, -0.15842381119728088, -0.026223381981253624, -0.10996591299772263, 0.10520896315574646, 0.01934835873544216, 0.17819181084632874, -0.1866464912891388, 0.04714598134160042, 0.07843666523694992, -0.026031050831079483, 0.3171961009502411, 0.08777207881212234, -0.04602475464344025, -0.08593465387821198, -0.16620926558971405, -0.005750179756432772, -0.2750357687473297, -0.22946791350841522, -0.03942340612411499, 0.04744842275977135, -0.018144048750400543, 0.04347464069724083, 0.1311352401971817, -0.026212558150291443, 0.10490034520626068], [-0.07699217647314072, -0.09379098564386368, 0.07741715759038925, -0.07790682464838028, 0.0462324284017086, 0.20064054429531097, -0.05221981555223465, -0.10357121378183365, 0.10174189507961273, 0.1916036605834961, 0.08495474606752396, 0.054993752390146255, 0.008464728482067585, -0.11116515100002289, 0.13201184570789337, -0.16876159608364105, -0.036606643348932266, -0.14095762372016907, -0.2889656126499176, -0.041283249855041504, -0.12519583106040955, -0.04231255128979683, -0.0021081240847706795, -0.04154949262738228, 0.133887380361557, -0.3163447380065918, 0.28929758071899414, 0.09998206049203873, 0.12316299974918365, 0.21158058941364288, 0.3007884621620178, 0.08381645381450653, -0.1070072278380394, -0.023010695353150368, 0.004324722569435835, -0.04521571099758148, -0.02688307873904705, -0.05468253791332245, 0.008253318257629871, -0.044265639036893845, -0.30267903208732605, 0.023276565596461296, -0.08769840002059937, 0.027943458408117294, -0.1413765400648117, 0.14505286514759064, -0.2311302125453949, 0.05347496643662453, -0.14411771297454834, -0.015917828306555748, 0.0062977224588394165, -0.021379156038165092, -0.11602188646793365], [0.17740772664546967, -0.18088124692440033, -0.12402743101119995, -0.11798123270273209, 0.18436786532402039, 0.13298004865646362, -0.07866000384092331, 0.030373644083738327, -0.1286793351173401, -0.11200806498527527, -0.09601567685604095, 0.1556660681962967, -0.06307675689458847, 0.21531517803668976, -0.18322548270225525, 0.10401054471731186, 0.04113471880555153, -0.1608188897371292, 0.13621562719345093, 0.08912426978349686, -0.022534707561135292, 0.018367378041148186, 0.0847519114613533, 0.12680400907993317, -0.1579534113407135, 0.21764801442623138, -0.11338287591934204, 0.10536734759807587, 0.08666913956403732, -0.16559481620788574, 0.028023775666952133, 0.12878690659999847, -0.15701207518577576, -0.028371915221214294, 0.03358795493841171, 0.1876237541437149, 0.03947799280285835, 0.27651768922805786, -0.41588953137397766, 0.02681153453886509, 0.07745467126369476, -0.10280652344226837, -0.09573735296726227, -0.22050181031227112, 0.1682838648557663, -0.12543827295303345, -0.1864938735961914, 0.12197104841470718, -0.06263714283704758, 0.022914621978998184, -0.20207750797271729, -0.18575671315193176, 0.022712577134370804], [0.10770241171121597, 0.10257203876972198, 0.2112584114074707, -0.09842490404844284, 0.07888166606426239, 0.0025656858924776316, -0.04187919571995735, -0.1547471433877945, -0.29565027356147766, 0.07002534717321396, 0.0064858864061534405, 0.0693599283695221, -0.003109516343101859, 0.14228399097919464, -0.20137850940227509, -0.0018726871348917484, -0.09136073291301727, 0.045224353671073914, -0.021516915410757065, 0.08292507380247116, -0.16766515374183655, -0.1399412900209427, 0.10245978087186813, -0.050738442689180374, -0.03180143982172012, -0.1522509604692459, -0.03736058622598648, -0.10677133500576019, -0.12661324441432953, 0.06425110995769501, -0.2042887955904007, -0.19282865524291992, -0.07829268276691437, -0.03812824562191963, -0.0852012038230896, -0.07492401450872421, -0.25127750635147095, -0.19086506962776184, 0.18886400759220123, -0.2135390043258667, 0.010039396584033966, -0.1515580266714096, -0.2713603377342224, -0.001834472524933517, -0.11198320239782333, -0.3368850648403168, 0.11903957277536392, -0.23259183764457703, -0.3890232741832733, -0.2216927409172058, -0.08997493982315063, 0.07311135530471802, 0.08010119199752808], [0.05618688091635704, 0.024545785039663315, 0.10074150562286377, -0.019096875563263893, -0.09490874409675598, 0.1880859136581421, 0.10932718962430954, 0.10572921484708786, 0.1839062124490738, 0.16864924132823944, -0.11288250982761383, 0.10464470833539963, -0.2200428694486618, -0.13919158279895782, -0.24472962319850922, -0.051879480481147766, 0.171287402510643, -0.1674683839082718, -0.1857723444700241, -0.08010701835155487, -0.2184569090604782, -0.19808173179626465, 0.14483846724033356, 0.05276905745267868, -0.11931243538856506, -0.3909330666065216, 0.11051980406045914, 0.0397566519677639, -0.0524284653365612, 0.09667053073644638, 0.003467138856649399, 0.023428279906511307, 0.17369461059570312, -0.2243921458721161, 0.10597682744264603, -0.14780215919017792, -0.09458507597446442, 0.11957404762506485, -0.2696203589439392, -0.060154836624860764, -0.09338607639074326, -0.11995059251785278, -0.04759636148810387, -0.038842346519231796, -0.06994795054197311, 0.018726475536823273, -0.00985921174287796, -0.0713181123137474, -0.18901202082633972, -0.09815531969070435, 0.11170743405818939, 0.28953859210014343, 0.28525733947753906], [0.11522097140550613, -0.31818538904190063, -0.11754559725522995, 0.026150336489081383, -0.05064312368631363, 0.19078940153121948, 0.13667412102222443, -0.16580668091773987, 0.21128427982330322, -0.1939377784729004, -0.133833110332489, 0.10604864358901978, -0.015875471755862236, -0.19917108118534088, 0.025568995624780655, -0.18476921319961548, 0.2578538954257965, -0.0015014108503237367, -0.2592662572860718, 0.11247660964727402, -0.27528974413871765, -0.16684572398662567, -0.26178157329559326, -0.06088123470544815, -4.042097134515643e-05, -0.19715096056461334, 0.08136100322008133, 0.05269281938672066, 0.12664330005645752, 0.00012170244008302689, 0.22983568906784058, -0.06268122047185898, 0.09797403961420059, -0.17556510865688324, 0.028788523748517036, 0.0538194365799427, 0.019352631643414497, -0.18772459030151367, -0.06775513291358948, -0.026197928935289383, -0.11626571416854858, 0.16627496480941772, -0.026691915467381477, 0.04270467162132263, 0.3112814128398895, -0.016474708914756775, 0.09759142994880676, -0.07427312433719635, 0.3015960156917572, 0.13487809896469116, -0.26381391286849976, 0.0444863960146904, -0.0838644802570343]], "fc1.bias": [-0.023781780153512955, 0.06915059685707092, -0.08046844601631165, -0.09394336491823196, -0.004884734749794006, 0.08871399611234665, 0.024936750531196594, 0.0819929763674736, 0.003301561577245593, -0.041374627500772476, -0.1571488231420517, -0.1324101835489273, 0.15961697697639465, 0.25680798292160034, -0.16933776438236237, -0.08573447912931442, -0.025699254125356674, -0.2587822377681732, -0.01975107565522194, 0.2818268835544586, -0.1753198653459549, -0.2183075249195099, -0.12384167313575745, 0.003939065150916576, 0.06849725544452667, -0.24506251513957977, -0.01618146523833275, 0.012870012782514095, 0.23498164117336273, 0.12373588979244232, 0.09648959338665009, 0.006722694728523493, 0.05486364662647247, -0.17109380662441254, 0.10551346093416214, -0.33723214268684387, 0.08487392216920853, -0.16505339741706848, -0.08739080280065536, -0.07353376597166061, -0.09702645242214203, 0.11172710359096527, 0.13810643553733826, -0.16265708208084106, 0.13293515145778656, -0.046257343143224716, -0.17377738654613495, 0.12090449780225754, -0.26216551661491394, -0.17788198590278625, -0.2408890277147293, -0.05615364387631416, 0.17169836163520813, 0.10244785994291306, 0.30488938093185425, -0.06026965752243996, -0.027646025642752647, -0.1803266406059265, -0.11119024455547333, -0.06763989478349686, -0.05723267421126366, 0.04896469786763191, -0.17624980211257935, 0.12932874262332916], "fc2.weight": [[-0.0894162654876709, 0.08897452056407928, 0.1725996881723404, 0.05679168179631233, 0.0773005336523056, -0.06851956993341446, 0.05454924330115318, 0.08752618730068207, 0.0632689893245697, -0.020602529868483543, -0.10115756839513779, 0.022685158997774124, -0.06969144940376282, 0.12117493897676468, -0.10034256428480148, 0.1338103860616684, -0.042866285890340805, 0.08131915330886841, 0.22448767721652985, 0.09285739064216614, -0.06228933855891228, -0.12094655632972717, -0.1464429497718811, 0.16593477129936218, 0.27258414030075073, 0.038702886551618576, 0.1005033478140831, -0.08044543117284775, 0.21770761907100677, -0.05146866291761398, 0.21818897128105164, -0.12461608648300171, -0.18879468739032745, 0.052129536867141724, -0.060673270374536514, -0.08493190258741379, -0.019913312047719955, 0.01959948055446148, 0.006149875000119209, -0.3247392475605011, 0.07974104583263397, 0.13236846029758453, 0.1546725034713745, 0.2281288206577301, 0.0456354059278965, -0.10129664093255997, 0.06756088882684708, 0.1526593714952469, -0.22257757186889648, 0.05527658015489578, 0.020385902374982834, 0.07614118605852127, 0.1298380047082901, 0.06831137090921402, 0.1748979538679123, 0.10489421337842941, 0.16038665175437927, 0.18759889900684357, 0.06662158668041229, -0.00474348571151495, -0.04706484451889992, -0.029336268082261086, -0.0893297791481018, 0.1362922042608261], [0.06487079709768295, 0.17630228400230408, -0.06616343557834625, -0.3032815754413605, -0.15928591787815094, 0.1185600683093071, 0.17286522686481476, 0.027315767481923103, 0.21492867171764374, -0.0822078064084053, 0.2603982388973236, -0.35709038376808167, 0.08612388372421265, 0.41012895107269287, 0.27403777837753296, 0.05795182287693024, -0.23630036413669586, 0.19079817831516266, -0.21814830601215363, -0.6918728351593018, 0.3407415449619293, -0.07755627483129501, 0.36418792605400085, -0.4597383439540863, -0.020262381061911583, -0.10695353150367737, 0.04843480512499809, 0.05975643917918205, -0.3345925807952881, 0.47090762853622437, -0.1349972039461136, 0.28428134322166443, 0.04282495379447937, -0.09601204097270966, -0.268055260181427, 0.050421927124261856, -0.2269149124622345, -0.31378039717674255, -0.14840742945671082, 0.0712718814611435, -0.48558422923088074, 0.13783904910087585, -0.18466144800186157, 0.09915369749069214, -0.48595288395881653, 0.00024179455067496747, -0.07392577826976776, -0.14398929476737976, 0.12993283569812775, -0.014699648134410381, -0.16211360692977905, -0.20824797451496124, 0.1518867462873459, -0.2554333508014679, -0.43228140473365784, -0.18558408319950104, -0.5127855539321899, -0.14581967890262604, -0.06283514201641083, 0.10351376980543137, -0.002091703936457634, 0.12675069272518158, 0.26454582810401917, -0.07505742460489273], [0.28600677847862244, -0.1900264471769333, -0.26220887899398804, 0.19761505722999573, -0.09092643111944199, 0.31437739729881287, -0.19059376418590546, -0.47692984342575073, 0.2715972661972046, -0.3673030734062195, 0.08152446895837784, -0.099818654358387, 0.29401394724845886, 0.2582447826862335, -0.3972238302230835, -0.6907423138618469, -0.11694834381341934, -0.4943779408931732, -0.0379103422164917, -0.22902992367744446, -0.25753775238990784, -0.01920483261346817, -0.07414272427558899, -0.0021303885150700808, -0.21880969405174255, -0.4514968991279602, -0.4225771427154541, 0.1285686045885086, 0.015381629578769207, 0.09407607465982437, -0.1971147358417511, 0.3469366133213043, 0.06720772385597229, -0.006219461094588041, 0.2541053891181946, 0.12379641085863113, 0.1491076946258545, -0.11482258886098862, 0.04434452950954437, 0.07088825851678848, 0.08820772916078568, -0.2525748014450073, -0.3617412745952606, -0.700883150100708, 0.02759048342704773, 0.17735987901687622, 0.10133378952741623, 0.09963174164295197, 0.1466110348701477, -0.2285550832748413, 0.4066072702407837, -0.2314319610595703, 0.0706934705376625, -0.1700054258108139, 0.08409914374351501, -0.2713797092437744, -0.01252796407788992, -0.26728355884552, 0.07614186406135559, -0.36576637625694275, 0.2862701714038849, 0.3913950026035309, 0.2173694223165512, -0.14805205166339874], [-0.03439965471625328, 0.138533353805542, 0.23684152960777283, 0.0857212245464325, 0.1499614119529724, -0.1891033798456192, 0.18502523005008698, 0.02605404146015644, -0.0629226490855217, -0.026748446747660637, -0.024843499064445496, 0.039067406207323074, -0.0655117779970169, 0.08834797888994217, -0.3054184019565582, 0.10435892641544342, -0.0006377286626957357, 0.11535817384719849, 0.18095776438713074, 0.01338925026357174, 0.10368628799915314, -0.07973746955394745, -0.2928479015827179, 0.17031553387641907, 0.20368066430091858, 0.037844639271497726, 0.04167066141963005, -0.07044512778520584, 0.18377572298049927, -0.1609247475862503, 0.1764703094959259, -0.22834621369838715, 0.008127656765282154, 0.11965148895978928, -0.0038638992700725794, -0.06056550517678261, -0.15904414653778076, 0.07252860814332962, 0.14813876152038574, -0.03447284549474716, 0.05376924201846123, 0.07735989987850189, 0.18998810648918152, 0.25321027636528015, 0.04754336550831795, -0.14944106340408325, 0.09399348497390747, 0.20880083739757538, -0.2895527780056, -0.01590595580637455, -0.019861742854118347, 0.09344162791967392, 0.088426373898983, 0.08576546609401703, 0.28884097933769226, 0.043810926377773285, 0.1581348329782486, 0.06667312234640121, 0.033282987773418427, 0.032618448138237, -0.14338819682598114, 0.014066291972994804, -0.08054222166538239, 0.25138789415359497], [-0.10890741646289825, 0.09114248305559158, 0.23636330664157867, 0.06448838114738464, 0.07727619260549545, -0.069709911942482, 0.07347087562084198, -0.018709542229771614, -0.05231166258454323, 0.008065596222877502, -0.03376814350485802, 0.06245413050055504, -0.01844061352312565, 0.16555514931678772, -0.07777818292379379, 0.1380682736635208, -0.016616711392998695, 0.11252113431692123, 0.22056671977043152, 0.05016492307186127, -0.09247511625289917, -0.1827976554632187, -0.11261514574289322, 0.19035965204238892, 0.20890559256076813, 0.026646321639418602, 0.09717735648155212, 0.0033900239504873753, 0.19478999078273773, -0.10337458550930023, 0.21659201383590698, -0.20738482475280762, -0.13618743419647217, 0.10841767489910126, -0.13144642114639282, -0.05021319538354874, -0.056808680295944214, 0.07001284509897232, 0.12487539649009705, -0.23130148649215698, -0.016780544072389603, 0.14088569581508636, 0.0966900885105133, 0.2128632515668869, 0.10704557597637177, -0.19308219850063324, 0.11365395039319992, 0.14922937750816345, -0.11793815344572067, 0.0016853694105520844, -0.052092693746089935, 0.15142077207565308, 0.14106424152851105, -0.03426405414938927, 0.24043896794319153, 0.05267798900604248, 0.20215758681297302, 0.04586304351687431, -0.048893705010414124, 0.100244902074337, -0.030431080609560013, 0.05203130096197128, -0.11611669510602951, 0.24972347915172577], [0.1483619511127472, -0.0709993839263916, -0.0698651522397995, -0.2790053188800812, -0.07822117954492569, 0.12181877344846725, 0.21812818944454193, -0.06521157920360565, 0.1385168880224228, -0.10996676236391068, 0.12344705313444138, 0.09916031360626221, -0.3112153708934784, -0.19373109936714172, 0.19130544364452362, 0.19619129598140717, 0.017362412065267563, -0.054180409759283066, -0.0312621146440506, -0.09023432433605194, 0.25712651014328003, 0.20055048167705536, 0.18989211320877075, -0.09663840383291245, -0.3736579716205597, -0.25920310616493225, 0.004659316968172789, -0.3224688172340393, -0.01500877644866705, -0.07818709313869476, -0.30115196108818054, -0.006384406238794327, -0.028478479012846947, 0.27207696437835693, 0.021475108340382576, 0.05849822610616684, -0.18490281701087952, -0.18194395303726196, -0.2206156998872757, 0.16382750868797302, -0.18454775214195251, -0.09782218933105469, 0.20370760560035706, 0.14789468050003052, -0.1990492194890976, -0.2025120109319687, -0.1036825180053711, 0.105219267308712, 0.09903622418642044, 0.40144920349121094, -0.09759394079446793, -0.0008107651956379414, 0.24863184988498688, 0.3633509874343872, 0.12034889310598373, 0.03064541332423687, -0.06953618675470352, 0.07501178979873657, 0.13118135929107666, -0.19805045425891876, -0.025940587744116783, 0.12089051306247711, 0.15904629230499268, 0.1233518123626709], [-0.060581762343645096, 0.19131721556186676, 0.217106893658638, -0.025977717712521553, 0.03912252187728882, -0.000689840002451092, 0.05111057311296463, 0.035060904920101166, -0.1494895964860916, -0.055821359157562256, 0.04026740789413452, 0.15464074909687042, -0.05636875331401825, 0.20359906554222107, -0.19820739328861237, 0.10130736231803894, -0.01196772139519453, -0.01323745772242546, 0.10271921753883362, 0.12207137048244476, -0.031101377680897713, -0.038383323699235916, -0.008577573113143444, 0.17324770987033844, 0.20710431039333344, 0.1493428349494934, -0.0011569104390218854, 0.027336999773979187, 0.15582941472530365, -0.1338779330253601, 0.2173922061920166, -0.1673736274242401, -0.3591573238372803, 0.14903627336025238, -0.10084373503923416, -0.06768511235713959, -0.022428026422858238, 0.05805026367306709, 0.10788631439208984, -0.3713034689426422, 0.10917388647794724, 0.05293852835893631, 0.18124839663505554, 0.35501036047935486, 0.11651530861854553, -0.09062036871910095, -0.017544500529766083, 0.05654122680425644, -0.04947952181100845, -0.02978535369038582, 0.01716475933790207, -0.00016469026741106063, 0.057666849344968796, 0.008184757083654404, 0.29712527990341187, -0.021879633888602257, 0.05143018811941147, 0.11121318489313126, -0.09030096977949142, 0.08373171091079712, 0.0852009728550911, 0.010996511206030846, -0.034725505858659744, 0.15121251344680786], [0.053469810634851456, -0.2208893895149231, -0.14923621714115143, -0.061114754527807236, -0.056694503873586655, 0.056559015065431595, 0.000554495258256793, -0.15240232646465302, 0.006870484445244074, -0.1481107771396637, 0.16855405271053314, -0.30610841512680054, 0.17515340447425842, -0.053828541189432144, 0.010573112405836582, -0.04299599677324295, -0.11601095646619797, -0.3373633027076721, 0.18859301507472992, 0.12607282400131226, -0.17419253289699554, -0.0011551937786862254, 0.02921157516539097, 0.01228018756955862, -0.13283298909664154, -0.25315824151039124, -0.19435875117778778, 0.268044650554657, -0.00036994455149397254, 0.07324336469173431, 0.048921871930360794, 0.045071281492710114, -0.04415598884224892, 0.05375899747014046, 0.07614884525537491, 0.14083443582057953, 0.11562597751617432, -0.025404755026102066, 0.11743435263633728, -0.11408240348100662, 0.07245653122663498, -0.20413817465305328, 0.05286348611116409, -0.033236514776945114, 0.10132356733083725, 0.007133490405976772, 0.11915525048971176, -0.1871182918548584, 0.033743489533662796, -0.3627729117870331, 0.25379860401153564, 0.10948922485113144, -0.09943851083517075, -0.22417369484901428, 0.0933726355433464, -0.09728165715932846, 0.06419561803340912, 0.08792337030172348, 0.0890410915017128, -0.1770344376564026, -0.08157403022050858, 0.08044299483299255, 0.06656661629676819, 0.1397688388824463], [0.13980016112327576, 0.16018342971801758, -0.07327774167060852, -0.02864792011678219, -0.01917649246752262, 0.15542930364608765, -0.00919592846184969, 0.247365802526474, -0.06644941866397858, -0.34247517585754395, 0.2806447744369507, -0.10989926010370255, 0.1423732191324234, 0.24750414490699768, 0.21736346185207367, -0.0984487533569336, -0.27122989296913147, -0.049752701073884964, -0.25299540162086487, -0.07890177518129349, -0.3664160668849945, 0.19403430819511414, 0.23382219672203064, -0.22432841360569, -0.07142762094736099, 0.02099037356674671, -0.2377413958311081, 0.054886993020772934, -0.028283994644880295, 0.3061155378818512, -0.15941394865512848, 0.013069557957351208, 0.30635541677474976, -0.2818262279033661, -0.06082732975482941, 0.2110433578491211, 0.1646055281162262, -0.4475657641887665, -0.010486986488103867, 0.08820182830095291, -0.1860186755657196, -0.1705951690673828, -0.09014884382486343, -0.290862500667572, -0.2262955904006958, 0.2750566005706787, -0.24995766580104828, -0.0661069005727768, 0.28690123558044434, -0.17816154658794403, 0.16057023406028748, 0.0025189430452883244, -0.14026008546352386, -0.0796971321105957, -0.4009774327278137, -0.09976937621831894, -0.1841195970773697, 0.004969583824276924, 0.034175775945186615, 0.1118805855512619, 0.11198019981384277, 0.1708730012178421, 0.08856485784053802, -0.04363261163234711], [0.33438339829444885, -0.1894199252128601, -0.07316617667675018, -0.13497281074523926, -0.06717754155397415, 0.10033486038446426, -0.19527696073055267, -0.02980247139930725, 0.086880162358284, 0.17367736995220184, 0.19962890446186066, 0.03723937273025513, 0.24710416793823242, 0.2925040125846863, 0.051063526421785355, -0.11952926218509674, -0.16407573223114014, -0.07744242250919342, -0.15930454432964325, 0.05609818175435066, -0.1755649894475937, 0.21548600494861603, 0.07780887186527252, -0.09878894686698914, 0.025266209617257118, -0.11695707589387894, -0.35526084899902344, 0.30395469069480896, -0.017599325627088547, 0.2215065360069275, 0.07793315500020981, 0.19942697882652283, 0.10288453847169876, -0.3149702847003937, 0.18978403508663177, 0.19986911118030548, 0.15165913105010986, 0.00017046750872395933, -0.12247733771800995, -0.00222571543417871, -0.4119277000427246, -0.11910969018936157, -0.38004070520401, -0.31300780177116394, 0.03721462935209274, 0.10625073313713074, -0.23721393942832947, -0.0548192597925663, 0.1496259570121765, -0.22650659084320068, 0.15291370451450348, -0.13864198327064514, 0.13540811836719513, -0.2119285613298416, -0.018519505858421326, -0.3885042071342468, 0.08742223680019379, -0.07069577276706696, 0.00896183680742979, 0.04343597590923309, -0.10288003832101822, 0.15803398191928864, -0.004331930074840784, -0.003978145774453878], [0.08109230548143387, 0.13237765431404114, 0.020189519971609116, 0.2756478786468506, -0.29664021730422974, 0.18496496975421906, -0.15376299619674683, 0.0986442118883133, 0.022041622549295425, -0.3970479369163513, 0.056612979620695114, -0.35112833976745605, 0.19482338428497314, -0.05116448923945427, -0.0103598115965724, -0.22551198303699493, -0.15430866181850433, -0.20130516588687897, -0.16273337602615356, 0.3088923394680023, -0.09541306644678116, 0.13691896200180054, 0.10815535485744476, 0.03569260239601135, -0.06311040371656418, 0.0017934545176103711, -0.3006215989589691, 0.12419199198484421, -0.03377736732363701, 0.09831395000219345, 0.003313806839287281, -0.01612793281674385, 0.09473257511854172, -0.2305041253566742, -0.026857810094952583, 0.12591718137264252, 0.16695648431777954, -0.2264615148305893, -0.007534887176007032, -0.0011626421473920345, -0.16271373629570007, -0.29992616176605225, -0.48132607340812683, -0.30947139859199524, 0.30908310413360596, -0.021307913586497307, -0.12979699671268463, 0.10124078392982483, 0.09856891632080078, -0.2910931408405304, 0.40251731872558594, -0.1141311302781105, -0.38813722133636475, -0.17944888770580292, 0.0006253240280784667, 0.10920936614274979, -0.004823616240173578, 0.047384873032569885, 0.035124849528074265, -0.1940399706363678, -0.19632387161254883, 0.17109337449073792, 0.12795695662498474, 0.10092263668775558], [0.2556235194206238, -0.22113259136676788, -0.06746592372655869, -0.2391750067472458, -0.1708429753780365, 0.10596373677253723, -0.016206057742238045, -0.14459635317325592, 0.09101524204015732, -0.14383235573768616, 0.10172557830810547, 0.07844312489032745, 0.09390861541032791, -0.01655002124607563, 0.06610742211341858, 0.053655415773391724, -0.0495433546602726, -0.11674344539642334, -0.09330353140830994, 0.22092421352863312, -0.1554350107908249, 0.04896421357989311, 0.1109822541475296, -0.1961466670036316, -0.01875203847885132, -0.0038933544419705868, -0.22925148904323578, 0.05980685353279114, -0.014642016030848026, -0.01687758043408394, 0.05079636350274086, 0.07156780362129211, 0.10301542282104492, 0.025610176846385002, 0.0059983390383422375, 0.10130832344293594, 0.026398012414574623, -0.14942291378974915, -0.0774957537651062, -0.13565923273563385, -0.10164538770914078, 0.02533828653395176, -0.01630563847720623, -0.050942495465278625, -0.023368073627352715, 0.009932148270308971, -0.21459949016571045, -0.1967531144618988, -0.0065223355777561665, -0.19225257635116577, -0.03866758942604065, 0.021687837317585945, -0.1136089637875557, 0.16624689102172852, 0.18650782108306885, 0.04806886613368988, 0.03760601207613945, -0.003725717542693019, 0.1625804901123047, -0.014341169036924839, -0.1987331062555313, -0.13564540445804596, 0.020827583968639374, 0.20646974444389343], [0.12403928488492966, -0.3754902780056, -0.059902630746364594, -0.006430161651223898, -0.14070425927639008, -0.12318816781044006, -0.05035712569952011, -0.2054930031299591, 0.16858544945716858, 0.05970810353755951, 0.19086986780166626, -0.4733668863773346, 0.0413052998483181, 0.09002850204706192, 0.16005665063858032, -0.2596743702888489, 0.044501494616270065, -0.17837810516357422, -0.2526896595954895, 0.08434684574604034, -0.09204599261283875, 0.2185237556695938, 0.3227851986885071, -0.11511046439409256, 0.14061421155929565, -0.08006240427494049, -0.21801628172397614, 0.27269500494003296, 0.06362457573413849, 0.07225765287876129, -0.08102910965681076, -0.10298453271389008, 0.07193529605865479, 0.24493560194969177, 0.24666672945022583, 0.4498991072177887, 0.16377142071723938, 0.23316547274589539, -0.1958198845386505, 0.06974203139543533, -0.3617900311946869, 0.019536567851901054, -0.5090043544769287, 0.15573866665363312, -0.30862855911254883, 0.1584036648273468, -0.16553285717964172, 0.03484014794230461, -0.030226141214370728, -0.8593205809593201, -0.08649025112390518, -0.026006249710917473, 0.2628868818283081, -0.34568169713020325, 0.04003691300749779, 0.032808925956487656, -0.22432252764701843, -0.1282149851322174, 0.348097562789917, 0.15993329882621765, 0.12354082614183426, 0.2816791236400604, 0.08417259156703949, 0.1281103491783142], [-0.0455455519258976, 0.13485217094421387, 0.17554238438606262, 0.09720510244369507, 0.13571587204933167, -0.18273107707500458, 0.08797769993543625, -0.1011897474527359, -0.007447481621056795, 0.11835966259241104, -0.10093275457620621, -0.14535078406333923, -0.008909848518669605, 0.10993646830320358, -0.11424536257982254, 0.10244718939065933, 0.022834591567516327, 0.12233029305934906, 0.13451801240444183, 0.0022250055335462093, 0.07226520031690598, -0.12029822170734406, -0.17047752439975739, 0.17132043838500977, 0.10133693367242813, 0.12542234361171722, 0.005955060478299856, -0.155308797955513, 0.142696812748909, 0.03544016182422638, 0.2250918447971344, -0.21219557523727417, 0.11537980288267136, 0.1024869903922081, 0.0446486696600914, -0.06960809230804443, -0.1618143916130066, 0.07287270575761795, 0.004561308305710554, -0.11354736983776093, 0.05492444336414337, 0.20810365676879883, 0.17221347987651825, 0.14751337468624115, 0.07856201380491257, -0.09204984456300735, 0.06027017906308174, -0.01670771837234497, -0.33341896533966064, -0.043562307953834534, 0.028982702642679214, 0.08823686838150024, 0.04908476397395134, 0.08415254950523376, 0.31941279768943787, 0.03874700888991356, 0.1705305427312851, 0.17098820209503174, -0.0027663211803883314, 0.10472574084997177, -0.2606669068336487, 0.12034983932971954, -0.08281529694795609, 0.16727222502231598], [0.17745400965213776, -0.007129771169275045, -0.04927750676870346, 0.131755068898201, -0.038180332630872726, 0.2426844984292984, -0.3676697909832001, -0.11809425055980682, -0.10238240659236908, -0.47322025895118713, 0.17708469927310944, -0.18652662634849548, 0.23227520287036896, -0.0437287874519825, 0.21018928289413452, -0.2938663959503174, -0.3370130658149719, -0.09639063477516174, 0.2684866786003113, 0.06396837532520294, -0.2843102514743805, 0.1669055074453354, 0.07172223925590515, -0.08505914360284805, -0.2089310586452484, -0.13134299218654633, -0.5631000995635986, 0.03750412538647652, -0.10215882956981659, 0.22860035300254822, -0.0017977474490180612, 0.07436160743236542, 0.22809112071990967, -0.33150583505630493, 0.18173864483833313, 0.047408100217580795, 0.10415266454219818, -0.3418733477592468, -0.03986131772398949, 0.008776219561696053, 0.03316802531480789, -0.0783526748418808, -0.3373553454875946, -0.19100554287433624, 0.15221840143203735, 0.32337141036987305, -0.18665093183517456, -0.03085964173078537, 0.12563839554786682, -0.11668972671031952, 0.2678670585155487, -0.007318469230085611, -0.4513765573501587, 0.16361524164676666, -0.11428306251764297, 0.011006808839738369, 0.05237918347120285, 0.2144789844751358, -0.15799713134765625, -0.08663206547498703, 0.06725330650806427, 0.2510673999786377, 0.23245099186897278, 0.007812309544533491], [-0.017493393272161484, 0.05572503060102463, 0.2348596304655075, 0.1401601880788803, 0.0830748900771141, -0.17640988528728485, 0.09311540424823761, 0.10840712487697601, -0.04106347635388374, 0.06594451516866684, -0.07428889721632004, 0.011515469290316105, -0.09689967334270477, 0.08724509924650192, -0.13626497983932495, 0.23590487241744995, 0.11288059502840042, 0.09384622424840927, 0.15961040556430817, 0.11615189164876938, 0.060159724205732346, -0.22283804416656494, -0.08101507276296616, 0.30998843908309937, 0.2190735787153244, 0.11200624704360962, 0.06711927801370621, -0.011274854652583599, 0.2557680010795593, -0.10376695543527603, 0.29316678643226624, -0.1507936418056488, -0.06046510860323906, 0.09801728278398514, -0.13719342648983002, -0.0560784637928009, -0.12980344891548157, 0.06043783575296402, 0.06667253375053406, -0.20157530903816223, 0.0615466833114624, 0.2728043794631958, 0.26611045002937317, 0.3033139109611511, 0.1388622522354126, -0.1580604761838913, 0.14701634645462036, 0.1498340368270874, -0.2168254852294922, 0.09862063080072403, -0.05841892585158348, 0.19093099236488342, 0.2187556028366089, 0.03082962892949581, 0.29868215322494507, 0.08589723706245422, 0.17980515956878662, 0.13360369205474854, -0.028541022911667824, 0.06698253750801086, -0.06581041216850281, -0.004228209611028433, -0.1340731382369995, 0.241526797413826], [-0.004191273357719183, 0.023680707439780235, 0.2225102037191391, 0.14984086155891418, -0.0048102145083248615, -0.07113804668188095, 0.13392317295074463, -0.06320373713970184, -0.09611546248197556, 0.09722571074962616, -0.10216962546110153, 0.0005224411142989993, -0.2205130159854889, 0.15375490486621857, -0.04387674108147621, 0.08715254068374634, 0.05592998489737511, 0.018194304779171944, 0.14220649003982544, 0.09715817868709564, -0.07995673269033432, -0.13239158689975739, -0.07196736335754395, 0.11902115494012833, 0.10043869912624359, 0.05649344623088837, -0.05161986127495766, 0.0033909056801348925, 0.1282254308462143, -0.06121698394417763, 0.14279881119728088, -0.18704083561897278, -0.041668035089969635, 0.15882273018360138, -0.11692208796739578, -0.0527007021009922, -0.16285096108913422, -0.014054027386009693, 0.03264019638299942, -0.043232839554548264, -0.04043258726596832, 0.05365154147148132, 0.10067339986562729, 0.11773573607206345, 0.12644973397254944, -0.13971203565597534, 0.11116287857294083, 0.14479993283748627, -0.14400562644004822, 0.05788527429103851, 0.012841585092246532, 0.19725988805294037, 0.09933426231145859, 0.08311843872070312, 0.24250143766403198, 0.13298384845256805, 0.17479069530963898, 0.06953155249357224, -0.12211643904447556, 0.09376015514135361, 0.006275179795920849, 0.10512387752532959, -0.08991844952106476, 0.17589780688285828], [0.116095632314682, -0.13713859021663666, -0.13311395049095154, -0.3788163959980011, -0.044765595346689224, 0.3726118505001068, -0.332294762134552, -0.4973028600215912, 0.11841005086898804, -0.20845945179462433, 0.1842091679573059, -0.3164955973625183, 0.19924168288707733, 0.07392264157533646, 0.1369384378194809, -0.3721604347229004, -0.13684041798114777, 0.0746353343129158, 0.1862344890832901, -0.5630500316619873, 0.16618555784225464, 0.03149472922086716, -0.045078132301568985, -0.026458073407411575, -0.25222525000572205, -0.7024819850921631, 0.044430747628211975, 0.15528379380702972, -0.46441659331321716, 0.23514612019062042, -0.37281763553619385, 0.1582595407962799, -0.2091718465089798, -0.15669675171375275, 0.35840246081352234, 0.02118486724793911, -0.00934944860637188, -0.5793425440788269, -0.14320118725299835, 0.19769589602947235, 0.16154620051383972, -0.09261775761842728, 0.024358514696359634, -0.030089160427451134, 0.14565597474575043, -0.19708381593227386, -0.12574200332164764, 0.3836807608604431, 0.13804703950881958, 0.1397075355052948, 0.20817652344703674, -0.20338548719882965, 0.10738691687583923, 0.16396093368530273, -0.33337655663490295, 0.2412116974592209, -0.21969307959079742, -0.17461448907852173, 0.026416292414069176, 0.05308092013001442, 0.03393826633691788, 0.2952119708061218, 0.5077008605003357, -0.41010385751724243], [-0.03181566298007965, 0.09592138230800629, 0.20387254655361176, 0.08991571515798569, 0.15476886928081512, -0.1510363668203354, 0.09821983426809311, -0.13425105810165405, -0.13972705602645874, 0.016917385160923004, 0.012610930018126965, -0.06002314016222954, -0.10993071645498276, 0.22698383033275604, -0.13161656260490417, 0.15951114892959595, 0.13972550630569458, 0.13868547976016998, 0.14052744209766388, -0.06360743939876556, -0.11183762550354004, -0.32530835270881653, -0.1483054906129837, 0.10999175906181335, 0.008605869486927986, -0.05304780602455139, 0.04728394374251366, 0.09015539288520813, 0.25443291664123535, 0.01429384108632803, 