{"fc1.weight": [[0.15700528025627136, 0.11377205699682236, 0.08653227984905243, 0.27038607001304626, -0.21098117530345917, -0.053495556116104126, 0.018108604475855827, 0.2469036728143692, 0.01499462965875864, -0.08519255369901657, 0.15619589388370514, 0.2475867122411728, -0.051961760967969894, 0.004044435918331146, 0.061524730175733566, -0.04293356090784073, 0.15825225412845612, 0.07306225597858429, 0.11295904964208603, -0.06188156083226204, -0.05506724491715431, -0.05476688593626022, -0.01045730710029602, 0.15265624225139618, 0.007793642580509186, 0.091570183634758, 0.005363001953810453, -0.08211825788021088, -0.014521750621497631, -0.24389274418354034, 0.2095276117324829, -0.1421554535627365, 0.25880131125450134, -0.05401567369699478, 0.08117907494306564, 0.38326534628868103, 0.1327647715806961, 0.12217193096876144, -0.15784166753292084, -0.09734918177127838, 0.05330435186624527, -0.06045234203338623], [-0.18154187500476837, 0.20948824286460876, 0.1983707696199417, -0.11853024363517761, 0.048688746988773346, 0.047824677079916, 0.231709823012352, -0.0006392556242644787, -0.2045164406299591, -0.06559593230485916, -0.2000538408756256, 0.11059793084859848, -0.02478381246328354, 0.2687300741672516, 0.10554937273263931, 0.09529606252908707, 0.13563042879104614, -0.25689369440078735, -0.10892165452241898, -0.35209304094314575, 0.10184598714113235, -0.22578547894954681, 0.05745336785912514, -0.10380275547504425, -0.06926987320184708, -0.1918601393699646, -0.02186277136206627, -0.1641930341720581, 0.15897664427757263, 0.2218901515007019, 0.016813920810818672, -0.07597645372152328, -0.3533295691013336, -0.22990135848522186, -0.12906953692436218, 0.22783762216567993, 0.019654352217912674, 0.20475028455257416, -0.24952302873134613, -0.1591465175151825, -0.032857827842235565, 0.017778931185603142], [0.21275712549686432, 0.017943276092410088, 0.1621410995721817, -0.5459153056144714, -0.1971386820077896, 0.056982964277267456, 0.12706692516803741, 0.013541648164391518, -0.28166744112968445, 0.14465437829494476, -0.13092783093452454, -0.20869378745555878, 0.22539912164211273, 0.008034019730985165, 0.10573195666074753, -0.28076374530792236, -0.12892480194568634, 0.08667855709791183, 0.02374361641705036, -0.10167085379362106, -0.1028921976685524, -0.20677199959754944, -0.28308090567588806, -0.15306568145751953, -0.4608723223209381, -0.01971961185336113, 0.21753957867622375, 0.3119514286518097, -0.0025494180154055357, -0.21114838123321533, -0.3690989017486572, -0.27412113547325134, 0.0361822135746479, -0.12124857306480408, 0.0016412788536399603, -0.12660335004329681, -0.3607918620109558, -0.13197113573551178, 0.1509282886981964, -0.13652177155017853, -0.13097678124904633, -0.046530626714229584], [0.0945742279291153, -0.3033314645290375, 0.30560311675071716, 0.020380372181534767, -0.2627926468849182, 0.14692486822605133, -0.13447214663028717, 0.19034931063652039, -0.14176025986671448, -0.023047951981425285, -0.14972829818725586, -0.24503415822982788, 0.2462112158536911, -0.2552005648612976, -0.21994119882583618, -0.18757373094558716, 0.027484433725476265, -0.25735318660736084, -0.04142942652106285, 0.2708160877227783, -0.18649421632289886, 0.14184372127056122, 0.02591412514448166, -0.17425373196601868, 0.1590660959482193, -0.11723436415195465, -0.10999791324138641, -0.18084457516670227, 0.11786852031946182, -0.10416676849126816, -0.10306277871131897, 0.013568350113928318, 0.06202951446175575, 0.07012656331062317, -0.02175295539200306, -0.040712155401706696, -0.0668330192565918, -0.08437173068523407, 0.13856686651706696, 0.01400550827383995, -0.31749871373176575, -0.046107217669487], [0.13221760094165802, -0.041824787855148315, -0.15417352318763733, -0.13620248436927795, 0.058410465717315674, 0.1387169063091278, -0.384890615940094, -0.11929742246866226, -0.3375307619571686, 0.28260987997055054, 0.031279969960451126, -0.2612757682800293, 0.2376023828983307, 0.030370797961950302, -0.034137558192014694, -0.23533643782138824, 0.015252652578055859, 0.032289065420627594, 0.05706377699971199, -0.13281314074993134, -0.0620054192841053, 0.1807921975851059, 0.09539726376533508, -0.1994173228740692, 0.23659950494766235, 0.11649420112371445, 0.0150366872549057, -0.1749058961868286, -0.10958578437566757, 0.04926677793264389, -0.09993098676204681, -0.018310757353901863, -0.13305820524692535, -0.17483609914779663, 0.10882183909416199, -0.0076207867823541164, -0.016196588054299355, -0.12440099567174911, -0.06252110004425049, -0.14536046981811523, 0.09612886607646942, -0.09777196496725082], [0.2726985216140747, 0.0041365292854607105, -0.05930718034505844, -0.22840848565101624, -0.2032345086336136, 0.17579913139343262, -0.06425793468952179, -0.12767450511455536, 0.016746103763580322, -0.015939731150865555, -0.12744568288326263, 0.2760794162750244, -0.19031526148319244, -0.03500725328922272, -0.11932958662509918, 0.16149429976940155, 0.030059099197387695, 0.15953727066516876, -0.13158565759658813, -0.1222764253616333, -0.018905315548181534, 0.2157520055770874, 0.14037774503231049, 0.043506648391485214, 0.20919735729694366, 0.019997747614979744, -0.14653101563453674, 0.012434832751750946, 0.021778393536806107, -0.019221918657422066, 0.07342611998319626, -0.053278978914022446, -0.6072399616241455, -0.1139630451798439, -0.13682682812213898, -0.17727011442184448, -0.13974566757678986, 0.024819407612085342, -0.04337463155388832, 0.0139328483492136, -0.4463169574737549, -0.11267604678869247], [-0.07735221087932587, -0.15218782424926758, -0.04245476797223091, -0.05860869958996773, 0.16043749451637268, -0.20717522501945496, 0.06198258325457573, -0.04975206404924393, -0.24481534957885742, -0.1598087102174759, -0.1849392205476761, -0.22469957172870636, 0.10693588107824326, -0.0035534887574613094, 0.007099566049873829, 0.3191010355949402, -0.2007180005311966, -0.013112577609717846, 0.13476689159870148, -0.31369033455848694, 0.10357389599084854, 0.20663900673389435, 0.37429285049438477, -0.1914805918931961, -0.1227768287062645, -0.23070533573627472, 0.23113907873630524, -0.18132677674293518, -0.0827101618051529, -0.127736434340477, 0.05190984532237053, 0.04395703226327896, -0.02796144224703312, 0.05487605929374695, -0.1703735738992691, -0.043281178921461105, 0.0894557535648346, -0.04560946300625801, -0.14692921936511993, -0.21752291917800903, -0.15045775473117828, -0.17761461436748505], [0.014217653311789036, 0.0761241465806961, -0.169288769364357, -0.018725212663412094, -0.2840102016925812, 0.437918096780777, -0.0926738902926445, -0.22755931317806244, -0.03861422836780548, 0.08471573144197464, -0.3678959608078003, 0.3700580894947052, -0.04315091297030449, 0.13161756098270416, -0.17760063707828522, -0.08520271629095078, -0.003271697321906686, -0.032384682446718216, -0.10018324106931686, 0.013952474109828472, 0.16434650123119354, 0.1006796583533287, -0.07995016127824783, 0.2792007625102997, -0.1297919601202011, 0.026999497786164284, -0.010102353990077972, 0.021596232429146767, 0.23488543927669525, 0.22839505970478058, -0.45628973841667175, -0.011391480453312397, -0.0895468071103096, -0.03951132297515869, 0.1333879977464676, -0.08749046176671982, 0.03240407258272171, 0.16117273271083832, -0.03977727144956589, -0.18199816346168518, 0.011008151806890965, -0.28945302963256836], [0.15414288640022278, -0.14451341331005096, -0.5164327621459961, 0.023013874888420105, 0.03458511829376221, -0.07406721264123917, 0.09839917719364166, 0.02898351661860943, 0.08246573060750961, -0.029861830174922943, 0.11963813751935959, -0.08010268956422806, -0.03124356083571911, -0.2662336230278015, 0.1666382998228073, -0.04250868782401085, 0.2281046062707901, -0.007507543545216322, -0.4027450680732727, 0.05449240282177925, -0.17817647755146027, -0.14146696031093597, 0.09932543337345123, 0.13440220057964325, -0.1598741114139557, -0.12033040821552277, -0.12587562203407288, 0.063682921230793, 0.02809876762330532, -0.04828666150569916, 0.04189181327819824, -0.12136539816856384, -0.367279976606369, 0.0823344737291336, 0.10648513585329056, 0.35727694630622864, -0.01230793446302414, -0.06293937563896179, -0.10702656209468842, -0.020472735166549683, -0.01329597644507885, 0.16911381483078003], [0.10856206715106964, 0.03768680989742279, 0.09525769203901291, -0.15195614099502563, 0.006114469841122627, -0.009259193204343319, -0.04328056052327156, 0.639131486415863, -0.21841832995414734, -0.1797432154417038, -0.11541113257408142, -0.2627997100353241, 0.018662262707948685, -0.2799902558326721, 0.19530732929706573, 0.16887597739696503, -0.04673760011792183, -0.17066408693790436, -0.046540237963199615, 0.031879961490631104, -0.07106559723615646, -0.1736861914396286, 0.07006005942821503, 0.011391769163310528, -0.048775382339954376, -0.021610470488667488, 0.1195252388715744, -0.26675087213516235, -0.10933028161525726, 0.07261084765195847, -0.030793873593211174, 0.08573564887046814, -0.006429056636989117, 0.04110519960522652, 0.1386433243751526, 0.07371185719966888, 0.2523117661476135, -0.17447176575660706, -0.026200711727142334, 0.013219635933637619, 0.03488486632704735, -0.14981873333454132], [0.14966563880443573, 0.21893297135829926, -0.33414047956466675, 0.15985959768295288, 0.03469807282090187, 0.18988238275051117, -0.027272582054138184, 0.20177911221981049, -0.1631937175989151, 0.00035442630178295076, 0.23383396863937378, -0.027789682149887085, -0.020667003467679024, -0.0008652496035210788, -0.1867789477109909, 0.07644118368625641, -0.03917831927537918, -0.06120779737830162, 0.13784822821617126, 0.006302293390035629, -0.05275872349739075, 0.3569205105304718, -0.19371098279953003, 0.12347444891929626, 0.14446067810058594, -0.23392616212368011, -0.04976747930049896, 0.0034680021926760674, -0.048788007348775864, 0.010387453250586987, 0.09891600906848907, -0.07001647353172302, -0.3944093883037567, -0.0759054496884346, -0.16564854979515076, 0.15784300863742828, -0.21495339274406433, -0.053343627601861954, 0.13514649868011475, 0.014065904542803764, -0.2287285178899765, -0.15711669623851776], [-0.28472065925598145, -0.10554765164852142, 0.10553000867366791, -0.2161753624677658, -0.20349611341953278, -0.003422481007874012, 0.10847339779138565, -0.0550510473549366, 0.11492907255887985, 0.06900553405284882, 0.2186351865530014, -0.06163448095321655, -0.13782720267772675, -0.007004878018051386, -0.17898765206336975, -0.08487319946289062, 0.039135418832302094, 0.060387544333934784, 0.2203208953142166, 0.07750040292739868, -0.19079217314720154, 0.10425147414207458, -0.09262225776910782, -0.09439226239919662, -0.0032857111655175686, -0.010241416282951832, 0.31971803307533264, 0.26995667815208435, 0.013390260748565197, 0.14685849845409393, 0.035521917045116425, 0.10264784842729568, -0.03451889380812645, 0.2050188034772873, -0.026194417849183083, 0.03255472332239151, 0.06974383443593979, -0.19708386063575745, -0.000596774450968951, -0.021129386499524117, 0.0987783893942833, 0.3631894886493683], [0.11557608842849731, 0.09761486947536469, -0.1394040882587433, -0.16149768233299255, -0.20987439155578613, -0.11326004564762115, -0.019197534769773483, -0.33776766061782837, 0.0899558737874031, -0.04501354694366455, -0.11356301605701447, -0.06573911756277084, 0.20843002200126648, -0.2392093390226364, 0.12454638630151749, -0.1704736202955246, -0.3196702301502228, 0.10201676189899445, -0.029946593567728996, 0.17891116440296173, 0.07099158316850662, -0.08256648480892181, 0.07190582156181335, -0.04315995052456856, -0.038344964385032654, 0.10006406158208847, -0.05113430321216583, -0.2351679652929306, 0.02822914347052574, 0.21137094497680664, -0.15855731070041656, 0.011936713941395283, -0.10628330707550049, 0.09532853960990906, -0.45273739099502563, -0.19855482876300812, 0.0563553087413311, -0.3715493381023407, -0.061448294669389725, 0.18681444227695465, 0.1483529955148697, -0.16463936865329742], [0.06087880581617355, 0.18038806319236755, -0.11951756477355957, -0.10857121646404266, 0.09509009122848511, 0.18499086797237396, -0.21050581336021423, 0.12035416066646576, -0.15374164283275604, -0.14972485601902008, 0.03397519141435623, 0.07630738615989685, -0.05048711970448494, 0.17743593454360962, 0.09896161407232285, 0.13106854259967804, 0.012865106575191021, -0.1966254562139511, -0.23152266442775726, -0.0134904058650136, -0.3973824679851532, -0.061933089047670364, -0.3520154654979706, -0.3737504184246063, 0.0007002498023211956, -0.106257364153862, -0.27936890721321106, 0.0932231917977333, 0.22424806654453278, 0.1284618079662323, -0.10707797110080719, 0.15356279909610748, -0.023005664348602295, 0.024654829874634743, -0.04848319664597511, -0.02175351232290268, -0.012233374640345573, 0.1289106011390686, -0.12808774411678314, -0.10421781986951828, -0.042019620537757874, 0.1811167597770691], [0.10173534601926804, -0.022206304594874382, 0.3091376721858978, 0.027563583105802536, -0.13223271071910858, 0.07921909540891647, -0.1538872867822647, -0.0797988697886467, -0.024166006594896317, -0.13040730357170105, -0.1570274978876114, -0.05521636828780174, -0.23332905769348145, 0.21542054414749146, -0.22400806844234467, -0.04426281899213791, -0.30268263816833496, -0.13550448417663574, -0.2701370120048523, 0.01876290701329708, 0.07365109771490097, 0.1013459861278534, 0.21254315972328186, -0.012321029789745808, -0.13558155298233032, -0.17273373901844025, -0.20771847665309906, 0.017142586410045624, 0.3141585886478424, -0.11273972690105438, -0.09995279461145401, 0.06246722489595413, 0.047168388962745667, 0.1264725625514984, -0.162250354886055, 0.23726792633533478, 0.26649758219718933, -0.059565283358097076, -0.035105831921100616, 0.16658030450344086, -0.4015030264854431, 0.026905830949544907], [-0.08856943994760513, -0.3719314634799957, 0.13113310933113098, -0.18643906712532043, -0.049628883600234985, 0.03518679365515709, -0.4546731114387512, -0.030372601002454758, -0.1572105437517166, -0.10111553221940994, -0.2395792156457901, -0.22120040655136108, 0.31526875495910645, -0.12155365198850632, -0.05217260122299194, -0.11271579563617706, -0.04792007803916931, -0.14647111296653748, -0.10701372474431992, -0.15848089754581451, 0.08265199512243271, -0.11270199716091156, 0.021112650632858276, -0.16691477596759796, 0.11600128561258316, 0.02988666668534279, 0.15485379099845886, -0.379461407661438, -0.08788343518972397, 0.21366502344608307, -0.27284300327301025, 0.012079796753823757, -0.335926353931427, -0.002855125116184354, 0.04332783818244934, -0.04108539968729019, 0.05551031231880188, -0.01362517662346363, 0.23708681762218475, -0.2227320820093155, -0.010249375365674496, 0.07760883867740631], [0.05650322511792183, -0.12731213867664337, 0.027882179245352745, -0.039400432258844376, 0.025502966716885567, -0.10592751204967499, 0.0682879388332367, -0.0021932809613645077, 0.09768322110176086, 0.024049382656812668, -0.20531508326530457, 0.019407108426094055, -0.0509612075984478, 0.07582152634859085, -0.06858506798744202, -0.24869056046009064, -0.18212024867534637, -0.00442883837968111, -0.08291330188512802, -0.05272189900279045, 0.13030847907066345, 0.19810329377651215, 0.2025437355041504, 0.05707893520593643, 0.10486488044261932, 0.18874041736125946, -0.28578007221221924, 0.34243619441986084, 0.12306130677461624, -0.19873198866844177, -0.25457799434661865, -0.008638587780296803, -0.10896030813455582, -0.3319719433784485, 0.09088651090860367, 0.029918069019913673, -0.3298551142215729, -0.16935263574123383, 0.10896893590688705, 0.17626826465129852, -0.1378002166748047, -0.1487388014793396], [0.15613774955272675, 0.11553071439266205, 0.009871969930827618, 0.0940050259232521, 0.1503811925649643, 0.03039039485156536, 0.0079995421692729, 0.057814858853816986, -0.12473736703395844, 0.21166768670082092, -0.18899448215961456, -0.20468918979167938, 0.27014636993408203, -0.32536953687667847, -0.15145309269428253, 0.20922988653182983, 0.06888589262962341, -0.35303375124931335, 0.15912654995918274, 0.2306588590145111, 0.12275051325559616, 0.17831701040267944, -0.07772202789783478, -0.17618675529956818, -0.07578456401824951, 0.04588865116238594, -0.0904916375875473, 0.026670100167393684, 0.03253934532403946, 0.24330630898475647, -0.1061813086271286, 0.08225919306278229, 0.16813240945339203, -0.27641063928604126, -0.12735100090503693, 0.17937345802783966, 0.07635074108839035, 0.238402858376503, -0.02361747808754444, 0.1752651035785675, 0.1586584746837616, -0.0502362884581089], [0.033258017152547836, 0.08549568802118301, -0.29370126128196716, -0.039771582931280136, -0.25338903069496155, 0.16042828559875488, 0.003719936590641737, -0.14414525032043457, -0.04137001186609268, 0.04703422635793686, 0.02454662136733532, -0.3027219772338867, 0.05811686813831329, 0.08341778069734573, 0.14824075996875763, -0.18557676672935486, -0.19541308283805847, -0.3668210804462433, -0.00604975875467062, -0.1683182716369629, 0.05591549351811409, -0.053124915808439255, -0.09859955310821533, -0.13919492065906525, -0.11574643105268478, -0.17726582288742065, 0.12373912334442139, -0.2146073281764984, -0.21059396862983704, -0.2850712239742279, -0.05834605172276497, 0.1340365707874298, -0.1478143185377121, 0.28340986371040344, -0.03808177262544632, 0.024397501721978188, 0.03802064061164856, -0.3050277829170227, -0.15112057328224182, -0.30128732323646545, -0.27359938621520996, -0.010304615832865238], [-0.16255491971969604, 0.13098445534706116, -0.25886568427085876, -0.06608124822378159, -0.3997565805912018, 0.19367581605911255, -0.179744154214859, -0.15446501970291138, -0.190286323428154, 0.1545550674200058, 0.12538771331310272, 0.005037696100771427, -0.13060379028320312, 0.10095976293087006, -0.033334702253341675, 0.046350959688425064, -0.01509119477123022, -0.09657977521419525, -0.015725310891866684, 0.10354067385196686, -0.07534056901931763, 0.11506818979978561, 0.33702507615089417, 0.11749424785375595, -0.25403308868408203, -0.019753551110625267, -0.2041451781988144, 0.04117431491613388, -0.19706831872463226, 0.053858350962400436, -0.09646175801753998, -0.14540402591228485, -0.09687185287475586, -0.18612438440322876, -0.2905462980270386, 0.005695568397641182, -0.23235026001930237, -0.0018098014406859875, -0.025996573269367218, -0.17377173900604248, 0.15783683955669403, 0.050896286964416504], [0.14016498625278473, -0.22447751462459564, -0.2755386531352997, -0.29455673694610596, 0.0024783832486718893, 0.02707592211663723, 0.002703570295125246, -0.03496874123811722, 0.1660822480916977, 0.25143080949783325, 0.15572215616703033, -0.024346059188246727, -0.16050328314304352, -0.02703709714114666, -0.010151752270758152, 0.008441559039056301, 0.2038876712322235, 0.16693110764026642, 0.09839130938053131, 0.26912838220596313, -0.22049592435359955, -0.00032974121859297156, 0.09538668394088745, -0.0926937684416771, -0.2908683121204376, 0.009519846178591251, 0.06479145586490631, 0.04237646237015724, -0.003639361122623086, -0.3133174777030945, -0.16213439404964447, 0.10906153172254562, -0.07961049675941467, 0.21512669324874878, -0.046289678663015366, -0.10297936946153641, 0.18362051248550415, 0.013182471506297588, 0.12809620797634125, 0.039416514337062836, 0.18423551321029663, 0.22857823967933655], [-0.01065345760434866, 0.2236398160457611, 0.1272188276052475, 0.04190481826663017, -0.221281036734581, -0.08275867253541946, -0.18114686012268066, -0.2689366042613983, -0.024472059682011604, -0.06636877357959747, -0.12895677983760834, 0.07758387923240662, -0.01742411218583584, 0.1635296642780304, -0.1483359932899475, 0.09987571835517883, -0.004456065129488707, -0.11719624698162079, 0.13417117297649384, -0.11291954666376114, -0.14291010797023773, -0.2634682357311249, 0.09184679388999939, 0.10593782365322113, -0.15406493842601776, 0.09732943773269653, -0.25687915086746216, -0.20582595467567444, -0.08550117909908295, 0.3551475405693054, -0.018209271132946014, 0.05575535446405411, -0.13760441541671753, -0.3643818497657776, -0.029061034321784973, 0.007081284653395414, -0.17705437541007996, -0.0761302262544632, -0.04175586998462677, -0.29943788051605225, -0.28285473585128784, -0.1290520280599594], [0.1879609227180481, -0.15873000025749207, -0.1339242309331894, 0.10200516879558563, 0.10428960621356964, 0.128954216837883, 0.07920315861701965, -0.00737007986754179, -0.259605348110199, 0.09385698288679123, 0.1472243070602417, -0.17277006804943085, -0.09207447618246078, -0.277597039937973, -0.0020035558845847845, 0.0960441529750824, -0.33997222781181335, -0.011138906702399254, -0.2655251920223236, 0.0018879302078858018, -0.4168279469013214, 0.17420198023319244, -0.2852689325809479, -0.02115434966981411, -0.16215035319328308, 0.045686908066272736, -0.19881001114845276, -0.07170185446739197, 0.23335905373096466, 0.26234951615333557, -0.005250037182122469, -0.12672433257102966, 0.19382934272289276, -0.061178065836429596, 0.057153649628162384, 0.12590934336185455, -0.023342665284872055, -0.1141323521733284, 0.002080784412100911, -0.09591526538133621, -0.027996184304356575, 0.15242332220077515], [-0.027359822764992714, -0.062022726982831955, 0.057210199534893036, -0.1971205621957779, -0.09334003180265427, 0.0026086540892720222, 0.10355735570192337, 0.0001039713533828035, 0.2891610860824585, 0.04244328290224075, -0.07691742479801178, -0.0808982327580452, 0.17631535232067108, 0.0947294756770134, 0.033418480306863785, -0.2896488606929779, -0.0955541655421257, 0.18031679093837738, -0.4044027030467987, 0.0963943600654602, 0.03546664118766785, -0.028750527650117874, 0.014769455417990685, -0.04013420641422272, -0.14941272139549255, 0.09369654953479767, -0.04737057164311409, -0.2175438106060028, 0.06161268427968025, -0.05894738435745239, -0.20538875460624695, 0.012334487400949001, 0.1298990100622177, -0.07278215140104294, 0.2251175194978714, -0.14621414244174957, -0.4435443878173828, -0.021637197583913803, 0.04203835502266884, 0.02924562618136406, -0.24257180094718933, -0.1417398303747177], [0.06883255392313004, -0.10293763875961304, -0.10518453270196915, -0.04048047959804535, -0.11640653014183044, 0.1709531545639038, 0.06661032140254974, 0.19612663984298706, -0.2864198684692383, 0.20305725932121277, -0.08324552327394485, 0.1035684123635292, -0.09833545982837677, -0.19781629741191864, -0.23449192941188812, -0.027797551825642586, 0.11632450670003891, 0.0766327977180481, -0.06306402385234833, -0.14242514967918396, 0.027902990579605103, -0.06900204718112946, -0.24069423973560333, -0.09305442869663239, -0.06547535210847855, -0.06879045069217682, -0.11349601298570633, 0.2691692113876343, 0.02651955746114254, -0.2074763923883438, 0.044138334691524506, -0.3075729310512543, 0.18121342360973358, -0.027583036571741104, -0.11233358830213547, 0.05411112681031227, -0.13945427536964417, 0.06273075938224792, -0.2190392017364502, 0.02750352956354618, -0.0014813430607318878, -0.2705868184566498], [0.11335209757089615, 0.16752678155899048, -0.3705543279647827, 0.1121249571442604, 0.1741960048675537, -0.19542373716831207, -0.24227361381053925, 8.47552073537372e-05, 0.010470153763890266, -0.24510528147220612, 0.0946720540523529, 0.1124071478843689, 0.06878023594617844, 0.35567140579223633, 0.1721663624048233, 0.11761167645454407, -0.25149840116500854, -0.12612426280975342, 0.2218327820301056, -0.10446812957525253, 0.07379485666751862, 0.01660064421594143, -0.07334316521883011, 0.02784075401723385, 0.05756567046046257, -0.09382934868335724, -0.09689030796289444, 0.024790924042463303, -0.13814717531204224, -0.012607184238731861, -0.2458348125219345, 0.021735437214374542, -0.03272277116775513, 0.006867859046906233, -0.2976788282394409, 0.23377662897109985, 0.0680495873093605, -0.002722283126786351, -0.18393974006175995, -0.05232521891593933, 0.03300873562693596, 0.15571631491184235], [0.2905241549015045, -0.1416335105895996, 0.20844589173793793, -0.10051403939723969, -0.07700533419847488, 0.08685985952615738, 0.10537326335906982, 0.2529566287994385, -0.2822173237800598, -0.3545142114162445, -0.05316324904561043, 0.3289312422275543, -0.229889377951622, 0.0948653295636177, 0.14459821581840515, -0.05896984040737152, -0.1453620046377182, 0.18371163308620453, -0.038767922669649124, -0.22254884243011475, -0.2502535879611969, 0.0664256364107132, -0.17225410044193268, -0.06089484319090843, 0.10834395885467529, 0.1544666737318039, -0.015032609924674034, 0.14560727775096893, -0.08112170547246933, 0.073008693754673, 0.0377529002726078, 0.045616623014211655, 0.3781689703464508, -0.14412544667720795, 0.044863808900117874, -0.0090258764103055, 0.09997925162315369, 0.11271941661834717, -0.03966636210680008, 0.4177166521549225, -0.12101418524980545, -0.07549231499433517], [0.1704893261194229, -0.06920036673545837, -0.280577152967453, -0.017801012843847275, -0.03584728017449379, 0.05707632377743721, -0.3603966534137726, 0.06776729971170425, 0.03551898151636124, -0.032793231308460236, -0.06259898841381073, -0.10437989234924316, -0.1988782286643982, -0.2873407006263733, 0.04217120632529259, 0.1487773060798645, -0.16958492994308472, 0.09744127094745636, 0.12886810302734375, -0.008255713619291782, -0.3874986469745636, 0.17112112045288086, 0.09418391436338425, -0.005692083388566971, -0.18188656866550446, 0.031848158687353134, 0.01361691765487194, 0.19423486292362213, 0.214707612991333, 0.058377113193273544, -0.008199633099138737, 0.13282912969589233, 0.08544721454381943, 0.07946965843439102, -0.16654057800769806, -0.0866309180855751, -0.06376051902770996, -0.23357969522476196, -0.13951937854290009, 0.20511364936828613, -0.02077859826385975, 0.24112507700920105], [-0.19382236897945404, -0.023634755983948708, 0.11403156071901321, -0.3407755196094513, -0.033232204616069794, 0.2071416974067688, -0.25105026364326477, -0.11953229457139969, 0.13598603010177612, 0.019516967236995697, 0.12134798616170883, -0.06315215677022934, -0.13006505370140076, -0.07877086848020554, 0.08057387918233871, 0.19300337135791779, 0.18371236324310303, -0.5085126757621765, -0.24783360958099365, -0.3006823658943176, -0.053168874233961105, -0.02485482580959797, -0.018883652985095978, 0.04539018124341965, -0.2431500107049942, -0.3688841164112091, -0.14868517220020294, 0.22338652610778809, -0.0918620228767395, -0.22573763132095337, 0.04761466383934021, 0.01291716005653143, 0.0632174089550972, -0.12733964622020721, 0.07383111119270325, -0.06098659336566925, 0.1359948366880417, 0.05701272562146187, -0.0016600623494014144, 0.2073189914226532, -0.21183709800243378, -0.029995044693350792], [0.045730456709861755, 0.1146177351474762, -0.029938198626041412, -0.09638608992099762, -0.015163414180278778, -0.049309127032756805, -0.013803855516016483, -0.044723737984895706, -0.0595390610396862, 0.3195057809352875, -0.024875810369849205, -0.1083211600780487, 0.09045831114053726, 0.1114092469215393, 0.03686573728919029, 0.22402848303318024, 0.08209164440631866, -0.24502520263195038, -0.06096137687563896, 0.18633310496807098, 0.12707026302814484, -0.03049526922404766, -0.3834846317768097, 0.06798703968524933, -0.15445302426815033, -0.2158522754907608, 0.20482103526592255, 0.2156411111354828, 0.045810386538505554, -0.0017755308654159307, -0.14663659036159515, -0.008486933074891567, -0.09461155533790588, -0.447151243686676, -0.19550031423568726, -0.21818922460079193, -0.2572985887527466, 0.017248259857296944, -0.15499664843082428, 0.2533191442489624, -0.019792107865214348, -0.2460826337337494], [0.08032764494419098, 0.29730576276779175, -0.24464990198612213, -0.19637268781661987, 0.28283292055130005, 0.25264620780944824, -0.1187329962849617, 0.24679024517536163, 0.12329082936048508, -0.08258028328418732, -0.1464972198009491, -0.04387970641255379, 0.13708585500717163, 0.12388090789318085, 0.050709228962659836, 0.2902633547782898, 0.1539999544620514, 0.02679562009871006, 0.008634079247713089, 0.12863145768642426, -0.3139593303203583, -0.1502692997455597, -0.0819661095738411, -0.20410485565662384, -0.1335407942533493, 0.04106371849775314, 0.06732267141342163, -0.008421679958701134, 0.0025098936166614294, -0.04014454409480095, 0.27511683106422424, 0.13903051614761353, 0.010827106423676014, -0.13453444838523865, 0.000150847525219433, 0.25278806686401367, 0.10154398530721664, -0.27689889073371887, 0.0036061240825802088, -0.02915390394628048, -0.02015339955687523, 0.19297118484973907], [-0.07909300923347473, 0.17292919754981995, -0.3428811728954315, 0.24079005420207977, 0.02535201609134674, -0.5299784541130066, 0.09020833671092987, -0.05921277031302452, 0.06146844103932381, -0.053567640483379364, -0.12147602438926697, -0.2772136628627777, 0.24269737303256989, -0.08562657237052917, -0.036476846784353256, 0.004136045463383198, -0.265798419713974, 0.08333413302898407, -0.17701876163482666, 0.017016826197504997, -0.24971507489681244, 0.1384858638048172, -0.15036936104297638, -0.17965379357337952, 0.056154001504182816, 0.142783060669899, -0.15083381533622742, 0.02615007571876049, 0.05408027023077011, -0.18687738478183746, 0.26287490129470825, 0.07346142828464508, -0.04131228104233742, 0.10391916334629059, -0.04883390665054321, -0.12577594816684723, 0.27538445591926575, -0.30090221762657166, -0.08716212213039398, -0.11735768616199493, 0.1168898269534111, -0.0934053510427475], [0.1979515701532364, -0.1590532660484314, -0.2894529700279236, -0.03255748748779297, -0.28453510999679565, 0.2185775339603424, -0.13464385271072388, 0.3114432096481323, -0.13498897850513458, 0.07779461145401001, 0.09229552000761032, -0.13244712352752686, -0.0572146512567997, -0.02601834014058113, 0.1713562309741974, 0.004642758052796125, -0.05784515663981438, -0.11980216205120087, -0.30501967668533325, 0.04803939536213875, -0.020679229870438576, -0.04358652979135513, -0.29710784554481506, -0.34243133664131165, 0.16836777329444885, 0.080176442861557, -0.009224466048181057, -0.1678939312696457, 0.2376779317855835, -0.2926419675350189, 0.07384868711233139, 0.13324256241321564, 0.2596043050289154, -0.10384239256381989, 0.14917762577533722, -0.12643307447433472, -0.027896396815776825, -0.10716505348682404, 0.14999906718730927, -0.13469180464744568, -0.11498026549816132, -0.32215920090675354], [0.023481208831071854, 0.08192089200019836, -0.05268777906894684, 0.028844274580478668, 0.010516850277781487, -0.07035505771636963, -0.0019247661111876369, 0.15711134672164917, -0.08707332611083984, 0.018174665048718452, -0.14729991555213928, -0.13064077496528625, -0.12285492569208145, -0.24133634567260742, 0.045072853565216064, -0.28503403067588806, -0.019180258736014366, -0.01241336390376091, 0.10953845828771591, -0.017381755635142326, -0.056188855320215225, -0.05739589408040047, -0.005070452578365803, -0.23196513950824738, -0.07753416150808334, -0.04683079943060875, 0.0017400783253833652, -0.37749919295310974, -0.016996324062347412, -0.3428533971309662, -0.3098186254501343, -0.3342931568622589, -0.11058817058801651, 0.12902770936489105, 0.16217930614948273, 0.20132820308208466, -0.16724097728729248, 0.10995027422904968, 0.06536400318145752, -0.16313302516937256, -0.04538491368293762, -0.1687757670879364], [-0.12818504869937897, 0.008035841397941113, 0.17741604149341583, -0.01071953121572733, -0.14204342663288116, 0.18972104787826538, -0.3272358775138855, -0.10626720637083054, 0.06079118698835373, 0.0867433175444603, -0.2960396111011505, 0.20646683871746063, 0.05238121747970581, -0.004457205533981323, 0.05033973231911659, 0.15290741622447968, -0.2166007161140442, -0.31002259254455566, -0.04492732882499695, 0.11982320249080658, -0.272780179977417, 0.12593571841716766, 0.040321044623851776, -0.10801386833190918, 0.0628366470336914, -0.17700566351413727, 0.06227646768093109, -0.14760857820510864, -0.007713090628385544, 0.2542102038860321, 0.022529464215040207, -0.13538147509098053, -0.1725584715604782, 0.013818198814988136, 0.23516058921813965, -0.09196442365646362, -0.10291124135255814, 0.013799101114273071, -0.06451674550771713, 0.061807505786418915, 0.2978403866291046, 0.16634555160999298], [0.014848727732896805, -0.09841636568307877, 0.1745266318321228, -0.06571993231773376, -0.16692416369915009, 0.13041339814662933, 0.05838653817772865, 0.05085091292858124, -0.05289765074849129, 0.1419406235218048, -0.0060166665352880955, -0.12987786531448364, -0.3515356779098511, -0.1393878161907196, -0.1496637612581253, -0.08160029351711273, -0.01032787375152111, 0.06168799474835396, -0.05561920627951622, 0.12331005930900574, -0.31998029351234436, -0.29337993264198303, -0.12054360657930374, -0.146264910697937, -0.15018238127231598, -0.08068320155143738, -0.09958099573850632, 0.11822596937417984, -0.07250912487506866, 0.24241945147514343, 0.16400587558746338, 0.1906687617301941, 0.14330489933490753, -0.10863040387630463, 0.17111805081367493, -0.1656494289636612, 0.10163812339305878, 0.054217513650655746, 0.03764725849032402, 0.11305303126573563, -0.18437568843364716, 0.27298447489738464], [0.08610786497592926, 0.08642400056123734, -0.057275887578725815, 0.07842609286308289, 0.06988826394081116, 0.6778740882873535, 0.35340410470962524, -0.08949612826108932, 0.08804395794868469, 0.12789961695671082, 0.07303612679243088, 0.2561818063259125, 0.03541284799575806, -0.13277879357337952, -0.0630713552236557, 0.12108157575130463, -0.21754291653633118, 0.0502781979739666, 0.14475789666175842, -0.09850900620222092, 0.013668819330632687, -0.09694471955299377, 0.2962267994880676, -0.10066212713718414, -0.017208699136972427, -0.05765168368816376, 0.027041686698794365, -0.048621099442243576, -0.07824012637138367, 0.12685666978359222, 0.0537223182618618, -0.04794152081012726, 0.1206224113702774, 0.12438597530126572, 0.1667158156633377, 0.1334313303232193, 0.20277146995067596, 0.018267322331666946, -0.11303626745939255, -0.0020752339623868465, 0.18115851283073425, 0.10842986404895782], [0.17042846977710724, -0.04245752841234207, -0.1896848976612091, -0.2775190770626068, 0.10439564287662506, 0.05710383132100105, -0.16550208628177643, 0.10329290479421616, -0.1324905902147293, -0.11423754692077637, 0.08285447955131531, -0.07584439963102341, -0.19333401322364807, -0.12431009858846664, 0.28560730814933777, -0.15257973968982697, 0.09085617959499359, 0.022376002743840218, -0.15930485725402832, 0.1114613264799118, -0.14977408945560455, 0.05066815763711929, -0.08932613581418991, 0.22722503542900085, 0.0557158887386322, 0.08135025203227997, -0.17650191485881805, 0.02110856957733631, -0.14649763703346252, 0.16981805860996246, 0.06978393346071243, 0.047640737146139145, -0.01747247576713562, 0.10771191120147705, -0.20207487046718597, 0.09418424963951111, 0.019013971090316772, 0.026941318064928055, 0.08214209973812103, -0.16501422226428986, 0.20948217809200287, 0.05257055163383484], [0.025024956092238426, -0.14188064634799957, -0.30517148971557617, 0.044327475130558014, -0.2541904151439667, 0.3535679876804352, -0.4224831461906433, 0.15586988627910614, -0.2769646644592285, 0.050462525337934494, -0.017457522451877594, 0.11267587542533875, -0.08422521501779556, 0.03285801038146019, 0.05479046702384949, -0.027915075421333313, 0.26262858510017395, -0.20451682806015015, 0.07612000405788422, -0.10027378052473068, -0.032142747193574905, -0.013294623233377934, -0.04151236638426781, 0.10461615025997162, 0.03142637386918068, 0.11178744584321976, -0.0370032899081707, 0.16646377742290497, 0.23609089851379395, -0.021009933203458786, 0.20847056806087494, -0.19327792525291443, -0.16525501012802124, -0.012608740478754044, 0.1118716150522232, -0.24738530814647675, -0.32012036442756653, -0.019307389855384827, -0.01154762227088213, -0.22696475684642792, -0.2841724455356598, -0.03714963048696518], [0.104756198823452, 0.19160686433315277, 0.0010849095415323973, 0.13305233418941498, -0.27658551931381226, 0.023683521896600723, 0.017135173082351685, 0.013793649151921272, 0.19860059022903442, -0.03828447312116623, -0.018505217507481575, -0.14749100804328918, -0.13726869225502014, 0.04920705035328865, -0.19865445792675018, -0.22402673959732056, 0.004650215618312359, -0.13475242257118225, 0.14800766110420227, -0.06747490167617798, 0.10370773077011108, -0.10372379422187805, -0.1132461205124855, 0.09046825766563416, -0.002243993105366826, 0.19303900003433228, -0.5960330963134766, -0.16269385814666748, 0.06220297887921333, 0.19429349899291992, -0.08179176598787308, 0.12782683968544006, -0.06422531604766846, -0.18036462366580963, -0.27900832891464233, 0.1352338194847107, -0.049972083419561386, 0.03414149954915047, -0.011501130647957325, -0.30675840377807617, 0.004929799120873213, -0.4005860388278961], [-0.25368767976760864, 0.07420835644006729, -0.026436639949679375, 0.02208065241575241, 0.08906260877847672, 0.2895529270172119, -0.2672850787639618, 0.07681945711374283, -0.1287366896867752, -0.009114707820117474, 0.07828361541032791, 0.07022804021835327, 0.0016934206942096353, 0.15337565541267395, -0.056543342769145966, -0.19208012521266937, -0.2540667951107025, 0.01819445937871933, 0.13668419420719147, 0.10826200246810913, -0.23596787452697754, 0.14126360416412354, 0.24749313294887543, -0.1810646653175354, -0.012113619595766068, 0.14150118827819824, 0.12808892130851746, 0.044612765312194824, 0.13234660029411316, 0.07859446853399277, 0.1153760477900505, 0.07804111391305923, -0.36250850558280945, 0.18907377123832703, -0.014086516574025154, -0.021815143525600433, -0.21634404361248016, 0.029639648273587227, 0.26988688111305237, 0.11714958399534225, -0.015321580693125725, 0.07510463893413544], [-0.12254774570465088, -0.33357295393943787, -0.10671849548816681, 0.16528646647930145, 0.10556459426879883, -0.08259746432304382, -0.08408156037330627, -0.16121982038021088, 0.06633830070495605, -0.040439531207084656, 0.031332992017269135, -0.017412561923265457, -0.12349311262369156, -0.04863724112510681, 0.02119646593928337, -0.08254235237836838, -0.3102220594882965, 0.14428482949733734, -0.040189243853092194, -0.14097052812576294, -0.17655536532402039, 0.18286530673503876, -0.02172725833952427, 0.2879161536693573, 0.07900188863277435, 0.021242789924144745, -0.0846695601940155, 0.2445434182882309, 0.3010784387588501, 0.09117492288351059, -0.0788901150226593, 0.09013624489307404, -0.07908477634191513, -0.19354890286922455, -0.014502794481813908, -0.040732234716415405, -0.0483320876955986, 0.2059810906648636, -0.14944897592067719, -0.08279818296432495, 0.13042977452278137, -0.050171539187431335], [-0.16165350377559662, 0.15553273260593414, 0.37539446353912354, -0.01053826604038477, 0.1484583467245102, -0.020761437714099884, 0.03591955080628395, 0.02537417970597744, -0.09334108978509903, -0.26675552129745483, 0.16504952311515808, -0.17222380638122559, -0.36571794748306274, 0.019277462735772133, -0.1369447112083435, 0.05827706679701805, 0.2589147984981537, -0.28989338874816895, -0.2876218259334564, 0.037174202501773834, 0.1684485226869583, -0.027959100902080536, 0.07620900124311447, -0.16116391122341156, -0.2616085112094879, -0.1481228768825531, -0.11178755015134811, 0.054188281297683716, -0.1598324477672577, -0.1392103135585785, -0.22673141956329346, -0.08316126465797424, -0.22469046711921692, -0.2721652388572693, -0.15580633282661438, 0.07099440693855286, -0.30332425236701965, -0.031608060002326965, 0.11916568130254745, 0.0405370257794857, 0.12642882764339447, 0.15349864959716797], [0.17571741342544556, 0.0960991382598877, 0.23760661482810974, -0.19170412421226501, -0.07193160057067871, -0.06627453118562698, -0.06353092938661575, 0.269707053899765, 0.09758927673101425, 0.05033668130636215, -0.3243180811405182, -0.11963430047035217, -0.18494942784309387, 0.18953312933444977, 0.05958244949579239, -0.11128297448158264, 0.09827122837305069, 0.0451454259455204, -0.009149712510406971, 0.1314685344696045, 0.1461990773677826, -0.024962393566966057, 0.10646947473287582, 0.08688364923000336, 0.005460131447762251, 0.07357415556907654, -0.059646207839250565, 0.1846400648355484, 0.31692951917648315, 0.23209942877292633, 0.06850878894329071, 0.12039089947938919, 0.1414066106081009, -0.16230325400829315, -0.12204103171825409, 0.36958765983581543, 0.12569034099578857, -0.13558746874332428, -0.18701423704624176, 0.024053102359175682, 0.26938197016716003, 0.030382685363292694], [0.024223048239946365, -0.20240040123462677, 0.008673053234815598, -0.06272401660680771, 0.027257902547717094, 0.13773944973945618, -0.1812584400177002, 0.16391052305698395, -0.0508829727768898, -0.4515182077884674, -0.2871157228946686, 0.12922590970993042, -0.11373602598905563, -0.3209775686264038, 0.0595906600356102, 0.2371414750814438, -0.21911972761154175, -0.03535516932606697, 0.07387596368789673, 0.13558319211006165, 0.040640633553266525, 0.07680978626012802, 0.114968441426754, 0.02495928481221199, 0.10061033815145493, -0.021232683211565018, 0.2801017761230469, 0.061552923172712326, 0.08750297129154205, 0.3193185031414032, -0.059342581778764725, -0.0716436579823494, -0.013036410324275494, 0.007349865045398474, 0.03999006748199463, -0.05327881872653961, 0.17347639799118042, 0.1276332288980484, 0.033032312989234924, 0.04890058934688568, 0.1484658122062683, -0.20015235245227814], [0.007907308638095856, 0.36910685896873474, -0.10734279453754425, 0.09992241114377975, 0.007701311260461807, -0.21411563456058502, 0.03272411227226257, 0.09877399355173111, 0.07360690087080002, -0.3404005467891693, 0.018549932166934013, -0.013860614970326424, 0.22612342238426208, 0.2923928499221802, 0.19649454951286316, -0.006764658726751804, -0.1941589117050171, 0.09975615888834, -0.05023377016186714, 0.059454817324876785, 0.021236378699541092, 0.1379772275686264, 0.1361132711172104, -0.3135375380516052, -0.334350049495697, -0.005094504915177822, 0.02179534360766411, 0.20535005629062653, 0.1818985790014267, -0.09406555444002151, -0.23871542513370514, -0.17982052266597748, 0.014002496376633644, 0.04823629930615425, -0.029845353215932846, -0.0590207539498806, 0.1433946192264557, 0.037330497056245804, 0.08133366703987122, 0.1601107120513916, 0.035203322768211365, -0.015284352004528046], [-0.26903748512268066, 0.021438153460621834, -0.18678100407123566, 0.02248484268784523, 0.30278247594833374, -0.07902314513921738, 0.1574951708316803, 0.4159815311431885, 0.21898894011974335, 0.11501538008451462, 0.07215481996536255, 0.2419467717409134, 0.14909078180789948, 0.013975133188068867, -0.10028551518917084, -0.21794961392879486, 0.015513421967625618, 0.11225869506597519, -0.2355950027704239, -0.01752323843538761, 0.12230018526315689, 0.26175767183303833, -0.46810197830200195, -0.08009018748998642, 0.056356195360422134, -0.10492214560508728, -0.2704606056213379, 0.20642216503620148, 0.12987640500068665, -0.00026687566423788667, -0.21404002606868744, 0.021911276504397392, -0.26575708389282227, -0.015010680072009563, -0.20681339502334595, 0.24706406891345978, -0.13593466579914093, 0.16260762512683868, 0.052796605974435806, 0.21648211777210236, -0.26698657870292664, -0.00642000325024128], [-0.18665048480033875, -0.11568696796894073, -0.15849116444587708, -0.03365132957696915, 0.30714330077171326, 0.06129635497927666, -0.08514649420976639, 0.15303124487400055, -0.23197303712368011, 0.02604694291949272, 0.020662136375904083, -0.123159259557724, -0.29051271080970764, -0.08650167286396027, -0.06885802000761032, 0.04794357717037201, 0.11893723905086517, 0.1338253766298294, 0.05787842348217964, -0.059710193425416946, -0.42793750762939453, -0.05380067601799965, -0.3530941605567932, 0.18335439264774323, -0.19697104394435883, -0.2502005994319916, -0.3167589008808136, -0.3594180941581726, 0.052120618522167206, -0.09591033309698105, 0.00026163068832829595, -0.21547506749629974, 0.19254280626773834, -0.04876885935664177, 0.16652491688728333, -0.32618582248687744, 0.16049472987651825, -0.2126092165708542, -0.22636312246322632, -0.3011620044708252, -0.1306481957435608, -0.1497831791639328], [0.2284102737903595, -0.25519296526908875, -0.051942139863967896, 0.17022956907749176, 0.13784660398960114, 0.027741996571421623, -0.04856913909316063, -0.13078033924102783, 0.0052527678199112415, -0.19309936463832855, -0.04670187830924988, 0.10502278059720993, 0.14798606932163239, -0.0675373524427414, 0.23530296981334686, -0.05482586473226547, -0.39975500106811523, 0.09552862495183945, -0.016750169917941093, -0.15468287467956543, -0.22986789047718048, 0.01919698528945446, 0.028052881360054016, 0.05922797694802284, 0.0030803456902503967, -0.03370880335569382, -0.3098020851612091, 0.04302867501974106, -0.022151967510581017, 0.19460061192512512, 0.10857874155044556, 0.3375251293182373, -0.017005790024995804, 0.09003479033708572, -0.037852942943573, -0.08924257755279541, 0.054541461169719696, 0.10137680172920227, -0.004160332027822733, -0.07866411656141281, -0.01316460408270359, 0.055128052830696106], [-0.17651213705539703, -0.21060025691986084, 0.06288284808397293, -0.0773034617304802, -0.3225579857826233, 0.06319519877433777, 0.15233558416366577, -0.12870101630687714, 0.20273642241954803, -0.03539586439728737, -0.03809446468949318, -0.27745717763900757, 0.06458581238985062, 0.1318308711051941, -0.12247350811958313, 0.04257591813802719, -0.07200772315263748, -0.07050216943025589, -0.08517096191644669, 0.004419268108904362, 0.302753210067749, -0.12120326608419418, -0.019594648852944374, -0.008748622611165047, -0.0001732724776957184, -0.1322074681520462, 0.31993624567985535, 0.25260114669799805, -0.12419519573450089, -0.40118515491485596, 0.042059775441884995, -0.2704632878303528, -0.042257945984601974, 0.130293071269989, 0.08393184095621109, 0.09787368029356003, -0.10860195010900497, -0.015195808373391628, -0.00919466745108366, 0.04456469416618347, -0.08244497328996658, -0.34152114391326904], [0.0002182544267270714, -0.07268211990594864, -0.1727231740951538, -0.015090501867234707, 0.29351723194122314, 0.23796336352825165, -0.07052306830883026, 0.18286025524139404, -0.022646458819508553, 0.057099778205156326, 0.17087005078792572, 0.24118822813034058, -0.09725487232208252, 0.2315487563610077, 0.1922319084405899, -0.03587959706783295, 0.23276551067829132, -0.00010973163443850353, 0.22362954914569855, 0.17922663688659668, 0.020765021443367004, -0.050378113985061646, 0.23352286219596863, 0.19612601399421692, 0.019432714208960533, 0.020291240885853767, 0.41409310698509216, -0.3756183981895447, -0.022848276421427727, -0.1548808366060257, -0.012247989885509014, -0.18753764033317566, -0.10108700394630432, 0.2685970962047577, -0.2123393565416336, 0.07596229016780853, 0.004779693204909563, -0.05031569302082062, 0.08503077179193497, 0.0662834420800209, 0.09602124989032745, -0.23407331109046936], [-0.0047852457500994205, 0.07812187820672989, 0.176991268992424, 0.23042438924312592, 0.04647962003946304, -0.0925518199801445, -0.06123892590403557, -0.07232674211263657, -0.06856085360050201, -0.07026932388544083, 0.017883852124214172, -0.17105986177921295, 0.012336542829871178, -0.09334604442119598, 0.34022751450538635, 0.13840419054031372, -0.3898027539253235, -0.1167391911149025, -0.028184354305267334, 0.09819167852401733, 0.15028204023838043, -0.19664041697978973, 0.1679856926202774, 0.02873515523970127, -0.1339768022298813, -0.09370363503694534, 0.3101942241191864, 0.07852981239557266, 0.3348689377307892, -0.20980966091156006, 0.012175427749752998, -0.14011159539222717, 0.13603907823562622, -0.08950670063495636, -0.029176611453294754, 0.09503594785928726, -0.2674919366836548, 0.14797936379909515, -0.17432273924350739, -0.04438663646578789, 0.13227185606956482, -0.22046135365962982], [0.1782277226448059, -0.30085667967796326, -0.41754692792892456, -0.03886040672659874, -0.17561519145965576, -0.0966927632689476, -0.35519659519195557, 0.11747413128614426, 0.033566635102033615, -0.1334208846092224, 0.11004282534122467, 0.007332261651754379, 0.13774749636650085, -0.18318220973014832, -0.0779353454709053, 0.2797532081604004, 0.00869317539036274, -0.11823679506778717, -0.12798580527305603, 0.25474199652671814, 0.08024987578392029, 0.06029819697141647, 0.0801931768655777, 0.05718906968832016, 0.005744182504713535, -0.029184207320213318, 0.08639459311962128, -0.03874073550105095, 0.22942443192005157, 0.11490005999803543, -0.13036760687828064, -0.40580517053604126, -0.25606411695480347, -0.043298814445734024, -0.22500288486480713, 0.03103412315249443, 0.04401300102472305, 0.1280049979686737, -0.25265371799468994, -0.04872043803334236, -0.0988764613866806, -0.06800813227891922], [-0.13887032866477966, 0.13043129444122314, 0.13826203346252441, -0.3283713459968567, -0.08517155051231384, -0.1538262665271759, 0.06607726216316223, -0.04293050244450569, -0.2376706898212433, -0.12403824180364609, 0.18398575484752655, 0.16452732682228088, -0.1420566588640213, -0.13658058643341064, 0.018092893064022064, -0.036594174802303314, 0.05388209968805313, -0.06005653366446495, -0.08469299226999283, -0.03359146788716316, -0.24171920120716095, -0.09879103302955627, -0.16342812776565552, 0.10634232312440872, -0.05777391046285629, -0.23241694271564484, -0.24837084114551544, -0.14272060990333557, -0.09784205257892609, 0.3796283006668091, -0.04053191840648651, 0.2454604059457779, 0.00519118458032608, 0.06640452891588211, -0.3054247498512268, -0.10066462308168411, 0.0351979061961174, -0.17214731872081757, 0.16699501872062683, -0.3642359673976898, 0.015085111372172832, -0.11400619149208069], [0.4190254509449005, 0.16950571537017822, -0.030031075701117516, -0.10891568660736084, -0.05623023211956024, 0.13489539921283722, 0.05820845440030098, 0.059450048953294754, -0.37787407636642456, 0.001981334062293172, 0.10461235046386719, -0.48170337080955505, 0.1773555427789688, -0.1586361974477768, -0.08596476912498474, -0.024560151621699333, -0.014810727909207344, -0.07570774853229523, 0.1308399885892868, -0.10215047001838684, -0.30709144473075867, 0.24330835044384003, 0.014918887987732887, -0.4539184868335724, -0.07289591431617737, 0.0012686500558629632, 0.01471308246254921, -0.2279297411441803, -0.18710118532180786, -0.03466704860329628, -0.282507985830307, -0.027713341638445854, -0.10483808070421219, -0.05353090539574623, 0.025830572471022606, 0.0593770295381546, 0.04699091613292694, 0.06639431416988373, -0.15698479115962982, -0.0739695280790329, -0.0904516652226448, 0.1308942437171936], [0.18571078777313232, -0.05749209597706795, -0.0362197607755661, -0.026617493480443954, -0.05367162451148033, -0.15124991536140442, -0.2532675266265869, -0.09151473641395569, -0.21264265477657318, -0.13197599351406097, 0.050727780908346176, -0.12830160558223724, 0.25643762946128845, 0.17319822311401367, 0.14640924334526062, 0.0440935343503952, -0.16373513638973236, -0.03907553851604462, 0.0009506234200671315, -0.091696597635746, -0.04114563763141632, -0.06956174224615097, -0.28393226861953735, 0.30635517835617065, 0.13548046350479126, -0.18852834403514862, -0.04375874996185303, -0.0934472382068634, -0.17003196477890015, 0.04889712855219841, 0.20872606337070465, -0.6076264381408691, -0.2016773223876953, 0.008592100813984871, 0.1269853413105011, -0.1919575035572052, -0.2857687175273895, 0.05097139999270439, -0.0611080601811409, 0.12294580787420273, -0.03763401880860329, -0.14215798676013947], [0.149111807346344, 0.12182546406984329, -0.07732146233320236, -0.03300313279032707, -0.061798304319381714, 0.10332702100276947, -0.0442269966006279, 0.15120837092399597, 0.11836348474025726, -0.043868888169527054, 0.038580551743507385, 0.053797945380210876, 0.25149714946746826, 0.05559055507183075, 0.12208776921033859, 0.11527900397777557, -0.15524636209011078, 0.04869600012898445, -0.06512219458818436, 0.16659322381019592, -0.18309840559959412, 0.009833854623138905, -0.03819017484784126, 0.3177270293235779, -0.3585360050201416, 0.0399949811398983, 0.1029556468129158, 0.08207041770219803, -0.3796590566635132, -0.18243861198425293, -0.4476872682571411, -0.028260909020900726, -0.17823711037635803, 0.27282118797302246, 0.10358317196369171, -0.19479839503765106, -0.033205945044755936, -0.2979382276535034, -0.2708945870399475, 0.027593983337283134, -0.0005369169521145523, -0.0011944429716095328], [-0.11106884479522705, -0.15848931670188904, 0.23294463753700256, -0.1335497349500656, -0.1749764084815979, 0.1338093876838684, -0.13317298889160156, 0.09917055815458298, 0.008883219212293625, 0.1145462691783905, 0.041564278304576874, -0.1070135086774826, 0.18414312601089478, -0.14302825927734375, -0.16173851490020752, -0.3401485085487366, -0.21756727993488312, 0.02566354162991047, -0.018589049577713013, -0.020071646198630333, -0.13339044153690338, 0.25167107582092285, -0.10495425760746002, 0.13513462245464325, -0.27765172719955444, 0.0017386260442435741, -0.18043358623981476, -0.19294624030590057, -0.13811959326267242, 0.17372563481330872, 0.0391111746430397, 0.11473561078310013, -0.1117967963218689, -0.09031949937343597, 0.016024921089410782, 0.12329704314470291, 0.04227295517921448, -0.005236838478595018, -0.35304537415504456, -0.1523221880197525, -0.3041258752346039, 0.17992566525936127], [-0.10626764595508575, 0.004155168309807777, 0.10821612924337387, -0.20644594728946686, 0.018937913700938225, 0.10641992092132568, -0.23298275470733643, -0.019926751032471657, 0.13326352834701538, -0.1337810903787613, 0.03435765206813812, 0.08094735443592072, 0.10027970373630524, -0.20357976853847504, -0.032035212963819504, 0.3641062378883362, -0.0631105974316597, 0.059237826615571976, -0.0038845979142934084, -0.28527334332466125, 0.015387620776891708, 0.14506562054157257, -0.050479207187891006, -0.11781476438045502, 0.0872575119137764, -0.08811037242412567, 0.19734540581703186, 0.1928182989358902, 0.11820543557405472, -0.09350571781396866, 0.04048289358615875, 0.018024375662207603, 0.12742218375205994, -0.10008994489908218, -0.21826204657554626, -0.15861830115318298, -0.28333306312561035, 0.028961239382624626, -0.011440488509833813, -0.08189959079027176, 0.18160124123096466, 0.1292732208967209], [0.131454199552536, -0.3737354278564453, -0.1470356583595276, -0.0790930986404419, -0.01967318169772625, -0.09792791306972504, 0.025258148089051247, -0.241545632481575, -0.4248349964618683, 0.08668268471956253, -0.04164018854498863, 0.12638409435749054, -0.04294447973370552, 0.11921485513448715, 0.14520545303821564, -0.46530911326408386, 0.03951260820031166, -0.18183588981628418, 0.023510519415140152, -0.022668667137622833, 0.17401422560214996, -0.1259218156337738, 0.1907021850347519, -0.054513875395059586, -0.32877540588378906, -0.11892113834619522, -0.14495901763439178, -0.12440627813339233, -0.11849712580442429, -0.11767712235450745, -0.15332549810409546, 0.018539350479841232, -0.13141465187072754, -0.30718520283699036, -0.021493548527359962, -0.020637093111872673, -0.12863197922706604, -0.2502721846103668, 0.0675513818860054, -0.011222485452890396, 0.1952356994152069, 0.08898915350437164], [-0.04322249814867973, -0.2017233818769455, -0.32439345121383667, 0.17395995557308197, -0.17321090400218964, -0.21026994287967682, -0.1537785530090332, -0.008272701874375343, -0.19621996581554413, -0.0316980741918087, -0.011097532697021961, -0.017362602055072784, 0.21145372092723846, -0.24462968111038208, 0.07177212089300156, 0.037592627108097076, -0.09328075498342514, 0.05999879166483879, 0.04605906084179878, -0.2846370041370392, 0.16135311126708984, 0.024074599146842957, 0.06051923707127571, -0.09435305744409561, -0.04127241671085358, 0.1150982528924942, -0.3161631226539612, 0.10718785971403122, -0.02972394786775112, 0.006199423689395189, 0.1388995200395584, -0.1917562186717987, 0.31439298391342163, -0.03827223554253578, -0.12333746999502182, -0.0619686096906662, -0.32752418518066406, -0.10761462897062302, -0.31923869252204895, 0.06368496268987656, -0.18290095031261444, 0.1903175413608551], [-0.06119837239384651, -0.07063653320074081, -0.2479344606399536, -0.07734466344118118, 0.03578135371208191, 0.11878475546836853, -0.0710211768746376, -0.24271562695503235, -0.1386243999004364, 0.059587735682725906, 0.01850167103111744, 0.09203961491584778, 0.15849529206752777, -0.1881318986415863, 0.13087540864944458, -0.315497487783432, -0.18545101583003998, -0.06285179406404495, 0.15581342577934265, 0.009187702089548111, 0.0809253454208374, 0.16028064489364624, 0.07902195304632187, -0.11864380538463593, -0.03795003145933151, 0.22523900866508484, 0.013191035017371178, -0.06022022292017937, 0.16754482686519623, 0.007215283345431089, 0.16310617327690125, 0.0938759595155716, 0.23802408576011658, 0.20208080112934113, 0.22660759091377258, 0.21697039902210236, 0.27636316418647766, -0.08528237789869308, -0.229315385222435, -0.10096566379070282, 0.1622023582458496, 0.29645177721977234], [-0.15541619062423706, 0.2552056610584259, -0.00399895990267396, -0.1705920547246933, -0.01274256594479084, 0.07927142083644867, -0.0219371747225523, -0.20057979226112366, 0.26878246665000916, -0.32522106170654297, -0.2973407804965973, 0.1830354779958725, 0.2458563596010208, 0.1511320322751999, 0.28964170813560486, 0.039724159985780716, -0.10848378390073776, 0.026037640869617462, -0.16195496916770935, 0.053388673812150955, -0.3424197733402252, -0.10151400417089462, 0.08328811824321747, 0.04128386825323105, 0.13990403711795807, -0.12535801529884338, 0.2596774101257324, 0.025288086384534836, 0.2006184458732605, 0.16860243678092957, 0.13144908845424652, -0.029390940442681313, 0.1124681681394577, 0.1255931556224823, 0.1361524760723114, -0.09590375423431396, -0.039313726127147675, -0.115218386054039, 0.007935670204460621, 0.14317657053470612, -0.13111531734466553, 0.03856777027249336], [-0.11541134864091873, -0.2913343012332916, 0.0631200298666954, -0.32737118005752563, -0.012133530341088772, -0.024687396362423897, 0.043523289263248444, -0.042569536715745926, -0.11348471790552139, -0.11895208060741425, 0.10757391154766083, -0.18509384989738464, 0.06196368858218193, -0.20107120275497437, -0.11652325093746185, -0.1345491260290146, -0.25497356057167053, -0.24105551838874817, -0.1068062037229538, -0.292283833026886, -0.20229029655456543, 0.20535703003406525, -0.046290598809719086, -0.001931728096678853, -0.3336857557296753, -0.04210876300930977, -0.07787089049816132, -0.304820716381073, -0.07237515598535538, 0.14913170039653778, -0.05916528031229973, -0.18235532939434052, -0.018956061452627182, -0.025132473558187485, -0.011645280756056309, 0.06885533779859543, -0.16150891780853271, -0.025309184566140175, 0.031938258558511734, 0.12136776000261307, -0.07875969260931015, 0.03233790397644043]], "fc1.bias": [-0.15097717940807343, -0.030644720420241356, -0.05900932475924492, -0.012907980009913445, -0.17844489216804504, -0.0962093397974968, 0.13899466395378113, 0.062487050890922546, 0.11828344315290451, -0.3655281066894531, -0.25705084204673767, -0.07027716934680939, 0.10702800750732422, 0.08941853791475296, -0.26609668135643005, -0.12235430628061295, -0.08874451369047165, 0.045126043260097504, 0.016056053340435028, 0.03704667463898659, 0.06668340414762497, 0.160350039601326, -0.08750671148300171, -0.40651383996009827, -0.07713757455348969, -0.032110944390296936, 0.015665197744965553, -0.07452613860368729, 0.22514748573303223, 0.11424553394317627, -0.06925024092197418, 0.1163734719157219, 0.09152945876121521, 0.04516187310218811, -0.048481158912181854, -0.15107077360153198, -0.046802256256341934, -0.3102867603302002, 0.2172480821609497, -0.2743973731994629, -0.05294392257928848, -0.20185203850269318, 0.1264394372701645, 0.2006208300590515, -0.22782398760318756, -0.18129053711891174, 0.06806458532810211, -0.06047854945063591, -0.10701055824756622, 0.14600136876106262, 0.17560754716396332, -0.20493878424167633, 0.06789937615394592, -0.14199912548065186, -0.012337468564510345, 0.12854838371276855, -0.18430228531360626, 0.08069207519292831, -0.09521395713090897, 0.0028642357792705297, -0.2133442759513855, -0.0696076974272728, -0.002622757339850068, 0.1556304544210434], "fc2.weight": [[0.13920535147190094, 0.18946103751659393, 0.16124191880226135, -0.16550637781620026, -0.07180669158697128, 0.20265275239944458, 0.1881759613752365, -0.0560273751616478, 0.3199041783809662, -0.05219411477446556, -0.27124422788619995, 0.007208565715700388, 0.0735275149345398, -0.03325389325618744, 0.18279103934764862, 0.2003110647201538, -0.2086344212293625, 0.04803580045700073, -0.23043006658554077, 0.17443570494651794, -0.10026100277900696, -0.041186075657606125, 0.014922942034900188, 0.18134845793247223, -0.16042141616344452, 0.12232428789138794, 0.13508081436157227, -0.06658340990543365, 0.07192156463861465, 0.05684439837932587, 0.15858390927314758, 0.028367163613438606, 0.1738961637020111, 0.21546663343906403, -0.11603980511426926, 0.18806885182857513, -0.030426260083913803, -0.12676262855529785, 0.21409471333026886, 0.19136017560958862, -0.07473296672105789, -0.004482076968997717, 0.1459188312292099, 0.14468182623386383, 0.2137824296951294, -0.08893625438213348, 0.16179364919662476, 0.22385549545288086, -0.08846508711576462, 0.19258616864681244, 0.013244923204183578, -0.3184658885002136, -0.07064065337181091, 0.0697522833943367, 0.10666310787200928, -0.0329476036131382, 0.1801804006099701, 0.09922569245100021, 0.10422725230455399, -0.164016991853714, 0.11994533240795135, 0.17037107050418854, -0.0640823170542717, -0.05422390624880791], [0.16829359531402588, 0.04837788641452789, 0.10100557655096054, -0.1485312581062317, -0.10603126883506775, 0.1010666936635971, 0.1608256995677948, 0.09048599749803543, 0.009959100745618343, -0.17714476585388184, -0.2433031052350998, -0.015694301575422287, 0.22609910368919373, -0.18527810275554657, 0.14665386080741882, 0.19624273478984833, -0.1933317333459854, 0.13396309316158295, -0.19494619965553284, 0.13490229845046997, 0.08105705678462982, -0.22393792867660522, -0.17301084101200104, 0.10542088001966476, -0.2311497926712036, 0.15103191137313843, 0.09780600666999817, -0.23671266436576843, 0.12518052756786346, 0.026597945019602776, 0.01463607233017683, 0.12059487402439117, 0.023727623745799065, 0.04567042365670204, -0.044632766395807266, 0.0794614776968956, -0.03105241432785988, -0.2536509037017822, 0.3382129371166229, 0.0684816837310791, -0.024412984028458595, 0.015315224416553974, 0.03291057422757149, 0.017496522516012192, 0.07305034250020981, -0.19392873346805573, 0.17887701094150543, 0.2995299994945526, -0.430794358253479, 0.1633320152759552, -0.01127863023430109, -0.38775312900543213, -0.07011391967535019, 0.048483848571777344, 0.042925238609313965, 0.2180204838514328, 0.07710500061511993, -0.013651601038873196, 0.04514352232217789, -0.02559473179280758, -0.03229334205389023, 0.07266686856746674, 0.053762514144182205, -0.13253165781497955], [-0.4255702793598175, 0.39888104796409607, -0.7185101509094238, 0.21050098538398743, -0.21072587370872498, 0.23245854675769806, 0.03033667802810669, 0.10102874785661697, -0.10110919922590256, 0.1503559798002243, -0.08913266658782959, 0.1726427972316742, 0.09215147793292999, -0.031396545469760895, 0.20131359994411469, -0.4075767993927002, 0.3004375994205475, 0.005205946043133736, 0.17739924788475037, 0.08844441175460815, -0.3808174431324005, 0.3235308527946472, -0.680433452129364, -0.30705416202545166, -0.12820938229560852, -0.009295868687331676, 0.13839583098888397, 0.16301795840263367, 0.023374348878860474, 0.03521927446126938, 0.09791059046983719, 0.0006314569618552923, -0.3801369369029999, -0.07994171231985092, 0.032538238912820816, -0.11815173178911209, -0.2905443012714386, 0.18262141942977905, 0.06694692373275757, 0.0739966332912445, -0.142085462808609, -0.30245843529701233, 0.3300383687019348, 0.20149971544742584, -0.764557957649231, -0.1331893354654312, 0.29374977946281433, 0.2541743814945221, 0.13169310986995697, -0.06601865589618683, -0.6812945008277893, 0.33319583535194397, -0.02294234372675419, 0.18586018681526184, -0.3188580572605133, -0.1105937510728836, 0.1257617473602295, 0.16053208708763123, -0.20571741461753845, 0.08394543826580048, -0.0921424999833107, -0.22500000894069672, -0.4373241662979126, 0.2981758117675781], [0.10888002067804337, 0.11850321292877197, 0.07707952708005905, -0.1506999284029007, -0.12389087677001953, 0.23744145035743713, 0.2062775194644928, -0.0857788622379303, 0.2530502676963806, -0.08644416183233261, -0.10625028610229492, -0.03468749672174454, 0.0853097066283226, -0.10254080593585968, 0.19597899913787842, 0.2025536596775055, -0.0582503117620945, 0.11288449913263321, -0.12271961569786072, 0.19814908504486084, -0.06381997466087341, -0.1374017894268036, 0.04089226946234703, 0.08927428722381592, -0.14149262011051178, 0.1279425024986267, 0.24764245748519897, -0.0843866765499115, 0.010335155762732029, 0.04404917731881142, 0.012812670320272446, 0.12367191165685654, 0.15858180820941925, 0.13087280094623566, 0.1263115406036377, 0.2162921130657196, 0.07416197657585144, -0.11577589064836502, 0.23367157578468323, 0.1652093380689621, 0.05711926147341728, 0.14961358904838562, 0.17258195579051971, 0.10165156424045563, 0.1162625253200531, -0.145417258143425, 0.06661694496870041, 0.15563181042671204, -0.023457525297999382, 0.09315952658653259, -0.06820698827505112, -0.08923418074846268, -0.0807400569319725, 0.21574683487415314, 0.03496909141540527, 0.09559532254934311, 0.13813769817352295, 0.1324755847454071, 0.09547032415866852, -0.1428932249546051, 0.13838987052440643, 0.10560163110494614, -0.0745970830321312, 6.544073585246224e-06], [-0.05399797484278679, 0.0006119742756709456, -0.22917938232421875, 0.07472284138202667, 0.005948636680841446, -0.04225929453969002, -0.0113716134801507, -0.22337834537029266, 0.08449456840753555, 0.1069667860865593, 0.28818047046661377, 0.15016496181488037, -0.17616547644138336, -0.05427073687314987, -0.07713480293750763, 0.036774519830942154, 0.15903055667877197, -0.06869293004274368, 0.0908302292227745, -0.25477761030197144, -0.19863806664943695, 0.24958711862564087, 0.11767123639583588, -0.09162342548370361, 0.11229617148637772, 0.018977217376232147, 0.24017713963985443, 0.10388489067554474, -0.3339475989341736, -0.31218433380126953, -0.11724822968244553, -0.2764135003089905, 0.01664123870432377, -0.12180671840906143, -0.0029683357570320368, 0.0033550860825926065, -0.38966578245162964, 0.1173958107829094, 0.203718900680542, -0.0010202048579230905, -0.10784158855676651, -0.16739249229431152, -0.07390152662992477, 0.146748885512352, -0.05734368786215782, -0.0326031818985939, 0.2121918946504593, 0.342489093542099, 0.14176855981349945, -0.020441610366106033, -0.2248995006084442, 0.1571022868156433, 0.12701992690563202, 0.08012820780277252, -0.11711940914392471, 0.037135299295186996, -0.0646827295422554, -0.13966257870197296, -0.14860616624355316, 0.18044379353523254, -0.04663747921586037, 0.1171008050441742, -0.038747720420360565, 0.0847524031996727], [-0.019643450155854225, -0.09927891194820404, -0.044717758893966675, -0.12686288356781006, 0.0639231726527214, 0.12930558621883392, 0.01576291210949421, -0.3085239827632904, 0.020161669701337814, 0.16656255722045898, 0.30743464827537537, 0.024314532056450844, -0.2910083532333374, -0.05500538647174835, -0.276455283164978, 0.08988046646118164, 0.23620536923408508, 0.14572401344776154, 0.23133055865764618, -0.22691257297992706, -0.19844870269298553, 0.1517760157585144, 0.09651888906955719, 0.129374697804451, 0.21144816279411316, 0.24004028737545013, -0.056193869560956955, 0.1678789258003235, 0.004136764910072088, -0.019896546378731728, -0.3682120442390442, -0.30325719714164734, -0.10961885750293732, 0.044430866837501526, -0.3661324381828308, -0.38646265864372253, -0.5100934505462646, 0.23612944781780243, -0.07452000677585602, -0.17314845323562622, -0.11414934694766998, -0.2692173719406128, -0.2493116706609726, -0.07532784342765808, -0.05032249167561531, 0.2602137327194214, 0.044579435139894485, 0.18848039209842682, 0.06788690388202667, 0.3247068524360657, -0.10236723721027374, -0.026859188452363014, 0.13622522354125977, -0.07157834619283676, 0.003685722593218088, 0.14509041607379913, 0.023386944085359573, 0.11107473820447922, 0.3915659785270691, 0.15898244082927704, 0.09301822632551193, 0.08574619144201279, 0.1209515631198883, 0.12908434867858887], [0.09821268171072006, 0.052242711186409, 0.08221087604761124, -0.150404691696167, -0.1792183220386505, 0.044196609407663345, 0.07813742011785507, -0.09604956954717636, 0.2145310789346695, -0.1214945837855339, -0.0031945924274623394, -0.20408359169960022, 0.10188689827919006, -0.08429442346096039, 0.17351721227169037, 0.2230858951807022, -0.13823463022708893, 0.2135729193687439, -0.11599905788898468, 0.171541228890419, -0.10578267276287079, 0.033605266362428665, 0.0959378033876419, 0.10185334831476212, -0.12612703442573547, 0.13347233831882477, 0.11615528911352158, 0.012887167744338512, -0.006204377394169569, 0.11692214757204056, 0.06034942343831062, 0.11454929411411285, 0.17659743130207062, 0.08755543828010559, 0.15510836243629456, 0.20362217724323273, 0.07319008558988571, -0.18191775679588318, 0.1906626969575882, 0.09524250030517578, 0.0837678387761116, 0.009810931980609894, 0.1734103262424469, 0.08000905066728592, -0.0036834937054663897, -0.16396480798721313, 0.039791982620954514, 0.12059642374515533, 0.04444076493382454, 0.08414054661989212, -0.11068162322044373, 0.028324581682682037, -0.0580780990421772, 0.12770849466323853, 0.03127868101000786, 0.13669760525226593, 0.05748419836163521, 0.12018856406211853, -0.037884876132011414, -0.0011080352123826742, 0.16879674792289734, 0.044626686722040176, 0.03569683060050011, -0.041757404804229736], [0.00210713897831738, 0.12334784120321274, 0.1137249693274498, -0.09171845763921738, -0.17168070375919342, 0.21421687304973602, 0.1859356015920639, 0.032296907156705856, 0.23516158759593964, -0.1369306445121765, -0.03331968933343887, 0.03097936138510704, 0.07303418964147568, -0.08412160724401474, 0.2248736470937729, 0.24913015961647034, 0.013921771198511124, 0.20823578536510468, -0.15389646589756012, 0.11625847220420837, -0.04559212550520897, 0.04132672771811485, 0.04932229965925217, 0.10187242925167084, -0.11046214401721954, 0.0383593887090683, 0.1254768818616867, 0.026677774265408516, -0.022199854254722595, 0.07916866987943649, 0.08330916613340378, 0.10605893284082413, 0.1298278272151947, 0.15392515063285828, 0.06089930608868599, 0.24244080483913422, 0.09457048773765564, -0.09865027666091919, 0.13644574582576752, 0.09322555363178253, 0.0505802221596241, 0.08835166692733765, 0.11811698973178864, 0.13159658014774323, 0.14857938885688782, -0.05828360468149185, 0.019584210589528084, 0.08966252207756042, 0.03303117677569389, 0.10651475936174393, -0.015006687492132187, -0.04205213859677315, -0.06622831523418427, 0.15949657559394836, 0.03557249531149864, 0.11990439891815186, 0.09667185693979263, 0.03560817614197731, 0.0209632758051157, -0.06466628611087799, 0.13030022382736206, 0.07200184464454651, 0.05931762605905533, -0.10138678550720215], [-0.28221023082733154, -0.20803600549697876, 0.12747743725776672, 0.21168576180934906, 0.060612212866544724, -0.0018806577427312732, -0.29574596881866455, -0.18535420298576355, -0.08940017223358154, 0.4969245195388794, -0.011257326230406761, -0.09142763912677765, -0.38656601309776306, 0.1584014743566513, -0.1326553076505661, -0.37863394618034363, 0.04422475025057793, 0.1290149837732315, 0.3580951690673828, 0.13221216201782227, 0.06278712302446365, 0.2173202931880951, 0.2233295887708664, -0.3190276324748993, 0.22446753084659576, -0.27985844016075134, -0.41084718704223633, 0.018491214141249657, 0.442423939704895, 0.17535127699375153, 0.062281571328639984, -0.37914085388183594, -0.3750748336315155, -0.3622090816497803, 0.06317544728517532, -0.021304666996002197, -0.03003004752099514, 0.2661256790161133, -0.05414494872093201, -0.09320417046546936, -0.04162552207708359, 0.002392825437709689, -0.29788121581077576, 0.07297135889530182, -0.22759343683719635, -0.08442015945911407, -0.4740351438522339, -0.4259350299835205, -0.14563815295696259, 0.06486998498439789, 0.09581873565912247, 0.06487568467855453, -0.03352732956409454, -0.1684161275625229, -0.2910064160823822, 0.36105239391326904, 0.0028553984593600035, -0.17849348485469818, -0.03731689602136612, 0.1569770872592926, 0.21486788988113403, 0.11028555035591125, 0.14065898954868317, -0.08482564240694046], [0.12051534652709961, 0.054976485669612885, 0.14748737215995789, -0.20814873278141022, -0.10981516540050507, 0.12735100090503693, 0.12572845816612244, 0.009037382900714874, 0.22676020860671997, -0.13773934543132782, -0.266808420419693, 0.0037034451961517334, 0.12455090880393982, -0.07601571828126907, 0.23349259793758392, 0.1905575543642044, -0.12830600142478943, 0.17454789578914642, -0.15784130990505219, 0.0761679857969284, -0.0668182522058487, -0.11845719069242477, 0.06503959745168686, 0.07152792811393738, -0.09154462069272995, 0.0899733230471611, 0.15391863882541656, 0.041935499757528305, 0.00108258705586195, 0.04437924921512604, 0.1618959754705429, 0.08941091597080231, 0.18506217002868652, 0.08469610661268234, 0.13653405010700226, 0.16900098323822021, -0.09625363349914551, -0.10724851489067078, 0.2293788492679596, 0.10964758694171906, 0.14217756688594818, 0.1349075436592102, 0.1117418110370636, 0.1057988628745079, 0.05142086744308472, -0.16410979628562927, 0.059124402701854706, 0.1719052940607071, -0.2386903464794159, 0.2150573581457138, 0.019086018204689026, -0.11252269148826599, -0.06404376029968262, 0.07102096825838089, 0.12795737385749817, 0.13094016909599304, 0.02932828851044178, 0.035805609077215195, 0.05649907886981964, -0.04291888698935509, 0.04727160930633545, 0.025067569687962532, -0.08163637667894363, -0.032985202968120575], [0.16332225501537323, -0.025374911725521088, -0.09471654891967773, 0.30943062901496887, 0.2981600761413574, -0.28983473777770996, -0.24422986805438995, 0.08851122111082077, 0.1510103940963745, 0.21348462998867035, 0.021493926644325256, 0.12963880598545074, 0.28068113327026367, 0.46500223875045776, -0.08152468502521515, -0.39758309721946716, -0.12985637784004211, 0.034824565052986145, 0.2113819569349289, 0.06582239270210266, -0.01638922654092312, -0.06435611844062805, -0.2742331326007843, 0.16618892550468445, 0.1110725924372673, -0.21731846034526825, -0.45514458417892456, 0.17087776958942413, 0.29842689633369446, 0.21284964680671692, 0.04678434506058693, 0.3144203722476959, -0.35532623529434204, 0.03456084057688713, 0.09372257441282272, 0.0907280370593071, 0.24557828903198242, -0.17896078526973724, -0.06193606182932854, -0.14639446139335632, 0.2233378142118454, -0.15860143303871155, 0.2862347662448883, -0.2692354917526245, -0.1127362847328186, -0.1266327202320099, -0.2963520884513855, 0.031280532479286194, 0.12118855863809586, -0.5681509971618652, -0.3904932141304016, -0.04584376513957977, 0.20323437452316284, 0.063245490193367, -0.18372215330600739, -0.43449845910072327, -0.4239034950733185, -0.3386724889278412, 0.062392521649599075, -0.030022336170077324, -0.7375047206878662, -0.3313809633255005, -0.5219966769218445, -0.03778047487139702], [0.045680586248636246, 0.09468542039394379, 0.07781325280666351, -0.15105673670768738, -0.12023918330669403, 0.14844848215579987, 0.18802930414676666, 0.008026167750358582, 0.25314944982528687, -0.13346493244171143, -0.1497136652469635, -0.04499607905745506, 0.0981886088848114, -0.035071033984422684, 0.22502931952476501, 0.213220477104187, -0.08324456959962845, 0.13204342126846313, -0.07011483609676361, 0.1494903266429901, -0.07316114008426666, -0.01959344744682312, -0.032861750572919846, 0.11568556725978851, -0.06426554918289185, 0.06811414659023285, 0.24854016304016113, -0.06979470700025558, 0.09409457445144653, 0.07849248498678207, 0.15778756141662598, 0.14355705678462982, 0.1436968296766281, 0.10295554250478745, 0.01983034238219261, 0.1254347264766693, 0.11622022837400436, -0.11929889023303986, 0.19564808905124664, 0.07579086720943451, 0.14566388726234436, 0.07088062912225723, 0.061900071799755096, 0.1288970708847046, 0.04140214994549751, -0.08040101826190948, 0.011996535584330559, 0.1843971163034439, -0.06602324545383453, 0.11239901185035706, 0.000781393435318023, -0.08638083189725876, 0.01551460288465023, 0.20097164809703827, 0.04320060834288597, 0.09360352903604507, 0.08330667018890381, 0.12848469614982605, 0.11111494153738022, -0.11520925909280777, 0.06876946985721588, 0.060377590358257294, -0.03458288684487343, -0.060103606432676315], [-0.1181524321436882, -0.02718421444296837, -0.913516104221344, 0.09556534886360168, -0.3516870439052582, -0.2141823023557663, 0.4086797833442688, 0.6507187485694885, -0.12183962017297745, 0.15002313256263733, -0.007234516553580761, 0.3030611276626587, -0.05588163807988167, 0.11462415009737015, -0.27564242482185364, -0.13234178721904755, -0.019222406670451164, -0.33373844623565674, 0.27232861518859863, -0.34080132842063904, -0.03991437703371048, 0.3569795489311218, -0.47513747215270996, -0.6377324461936951, 0.07209336757659912, -0.4764471650123596, 0.2421238273382187, 0.013328506611287594, -0.13277968764305115, -0.14078107476234436, 0.4114760756492615, 0.11747673153877258, -0.4395318925380707, -0.49013829231262207, -0.28441786766052246, -0.08447503298521042, 0.05678267404437065, 0.2058560699224472, -0.5473551154136658, -0.4833405315876007, 0.16979877650737762, -0.07866872102022171, 0.37108635902404785, 0.2739798128604889, -0.23439659178256989, -0.3118627071380615, 0.2748510241508484, 0.009084680117666721, -0.011948611587285995, 0.19834020733833313, -0.26620104908943176, 0.05372560769319534, 0.16223615407943726, -0.01873488537967205, -0.7623213529586792, -0.44598686695098877, -0.47903913259506226, -0.15655460953712463, -0.24891817569732666, 0.6079835295677185, 0.1527561992406845, -0.612852156162262, -0.2989300489425659, 0.3139609396457672], [-0.07401898503303528, -0.0773962214589119, -0.10587253421545029, -0.09732110053300858, 0.055602941662073135, 0.17140808701515198, -0.12398184090852737, -0.16664345562458038, 0.03131432831287384, 0.132916659116745, 0.04580390080809593, 0.08355794847011566, -0.07699800282716751, -0.022406267002224922, -0.04784071817994118, -0.273205429315567, 0.1795683354139328, -0.19527828693389893, 0.06331836432218552, -0.19195283949375153, 0.04158860445022583, 0.03232806548476219, 0.10645320266485214, -0.16843251883983612, 0.13978241384029388, 0.10914240777492523, 0.2362339049577713, 0.1024075448513031, -0.23314020037651062, -0.14173933863639832, -0.2019682675600052, -0.06488896906375885, 0.15661166608333588, -0.13466912508010864, -0.11915909498929977, 0.2115822732448578, -0.14118510484695435, 0.0778878778219223, 0.1786198914051056, -0.2603236138820648, -0.321592777967453, -0.010567497462034225, 0.04529782384634018, -0.223518967628479, -0.0064066373743116856, 0.23566682636737823, 0.22829964756965637, 0.2649610936641693, 0.14004135131835938, -0.08356689661741257, -0.15064071118831635, 0.025900574401021004, 0.23751984536647797, -0.039897046983242035, 0.08073333650827408, -0.2254595160484314, -0.09149681776762009, -0.10938210785388947, -0.111991748213768, 0.04461658000946045, -0.16670362651348114, 0.10786052793264389, -0.2355855405330658, 0.09783594310283661], [0.0884324461221695, 0.18214194476604462, 0.13105766475200653, -0.1169411763548851, -0.09455756843090057, 0.10471270978450775, 0.14041146636009216, -0.05054411664605141, 0.13102920353412628, -0.21401669085025787, 0.02595459297299385, 0.01338853407651186, 0.1210128515958786, -0.16706283390522003, 0.17668241262435913, 0.12957128882408142, -0.09186289459466934, 0.09756061434745789, -0.12500852346420288, 0.10065445303916931, 0.051205676048994064, -0.07914821803569794, -0.04909290000796318, 0.0135424192994833, -0.08772903680801392, 0.07356385886669159, 0.019337857142090797, -0.11798980832099915, 0.05920565500855446, 0.056744083762168884, 0.013803872279822826, 0.044836003333330154, 0.012663683854043484, 0.10896359384059906, 0.013482700102031231, 0.11456319689750671, 0.05390901491045952, -0.2119438499212265, 0.258886456489563, 0.1566595733165741, -0.02205560728907585, 0.03858483210206032, 0.03696392849087715, 0.10759280622005463, 0.06158774346113205, -0.22060750424861908, 0.17022114992141724, 0.24603159725666046, -0.2472555935382843, 0.13381342589855194, -0.13694773614406586, -0.3326070308685303, -0.07341251522302628, 0.20479010045528412, 0.05275588110089302, 0.07203979790210724, 0.03531233221292496, 0.0029180534183979034, 0.006759528536349535, -0.1432161182165146, 0.0375792533159256, 0.11726677417755127, 0.046361882239580154, -0.13021086156368256], [-0.23110871016979218, -0.06828255206346512, 0.04952539503574371, 0.019600940868258476, -0.0040734694339334965, 0.05558169260621071, 0.1473313421010971, -0.14360719919204712, -0.014746592380106449, -0.0007080401992425323, 0.14971992373466492, 0.11158958822488785, -0.12659642100334167, 0.09064041078090668, -0.1169382631778717, -0.03341755270957947, 0.13002444803714752, 0.37420904636383057, 0.0490201860666275, -0.07247397303581238, -0.37150490283966064, 0.04057556763291359, -0.04778539016842842, 0.012045325711369514, 0.05304912477731705, 0.10742530971765518, 0.18104447424411774, 0.3019423186779022, -0.33709678053855896, -0.6138032078742981, -0.01624293439090252, -0.5687222480773926, 0.16099753975868225, -0.044779207557439804, -0.4880998432636261, 0.11754872649908066, 0.1605338156223297, 0.21015910804271698, 0.07964453101158142, -0.13912329077720642, -0.2774808704853058, 0.07376901060342789, -0.06953416764736176, 0.022070590406656265, -0.09363555163145065, -0.05879935994744301, 0.17716261744499207, 0.17165935039520264, 0.0830964520573616, -0.21090351045131683, -0.24196767807006836, 0.19527491927146912, 0.24354571104049683, -0.1814126819372177, 0.09600155055522919, -0.16217271983623505, -0.1861608326435089, -0.2988235652446747, -0.14477302134037018, 0.3576386868953705, -0.07141026854515076, 0.264000803232193, -0.18185387551784515, 0.09247183054685593], [0.15238521993160248, 0.23914019763469696, 0.14326712489128113, -0.33542338013648987, -0.19971351325511932, 0.15623623132705688, 0.16168144345283508, -0.06468142569065094, 0.23182626068592072, -0.20290347933769226, -0.15069615840911865, -0.073353111743927, 0.06314428150653839, -0.20191887021064758, 0.26318562030792236, 0.22243429720401764, -0.0905519649386406, 0.09282766282558441, -0.21623635292053223, 0.015692463144659996, 0.040172792971134186, -0.26957595348358154, 0.035144105553627014, 0.19253355264663696, -0.1526356339454651, 0.08309710025787354, -0.006073492579162121, -0.1766967922449112, 0.14992012083530426, 0.0030554465483874083, -0.06862612068653107, 0.10737697780132294, 0.15394742786884308, 0.15331695973873138, 0.19788745045661926, 0.09222924709320068, 0.027004709467291832, -0.2393600046634674, 0.10317392647266388, 0.09547043591737747, -0.014062891714274883, 0.1680086851119995, 0.047919586300849915, 0.08521696925163269, 0.03065786138176918, -0.16276957094669342, 0.203926220536232, 0.24856191873550415, -0.43462878465652466, 0.22634269297122955, -0.10520666092634201, -0.07047206163406372, -0.12522590160369873, 0.11411995440721512, 0.1388450711965561, 0.17063406109809875, 0.1580895334482193, 0.015722306445240974, 0.1366712599992752, -0.07068247348070145, 0.011330456472933292, 0.1318615823984146, -0.011341589502990246, -0.08869624137878418], [-0.1334042251110077, 0.13866549730300903, 0.08447775989770889, -0.209158256649971, -0.07874926924705505, 0.20318914949893951, -0.03530867397785187, -0.051557108759880066, 0.045616377145051956, -0.3480028808116913, -0.21718096733093262, 0.11161170154809952, 0.16859079897403717, -0.24038144946098328, 0.15196532011032104, 0.2600693702697754, -0.02720843069255352, 0.09041226655244827, -0.23308922350406647, 0.1898631602525711, 0.04898310452699661, 0.047382257878780365, 0.0035480335354804993, 0.2562672197818756, -0.13814352452754974, 0.0895896926522255, 0.13822554051876068, -0.1904773712158203, -0.006480705924332142, 0.10330070555210114, -0.015957079827785492, 0.07264057546854019, 0.07484050840139389, 0.23411516845226288, -0.005090313497930765, 0.2005339115858078, 0.13548575341701508, -0.21338853240013123, 0.2509230375289917, 0.2391398847103119, 0.10859318822622299, 0.03394881635904312, 0.08356393128633499, 0.18768753111362457, 0.15059325098991394, -0.16713713109493256, 0.13863104581832886, 0.15175381302833557, -0.05674552544951439, 0.14191152155399323, -0.07224034518003464, -0.42449474334716797, -0.09706462174654007, 0.20175009965896606, 0.08902239054441452, 0.0389619879424572, -0.03928235173225403, 0.07684801518917084, -0.0547594353556633, -0.008596451953053474, -0.017912209033966064, 0.07900439947843552, 0.08537779748439789, -0.18262438476085663], [-0.02867070771753788, 0.08930380642414093, 0.06003202125430107, -0.1714114248752594, -0.12458883970975876, 0.17101919651031494, 0.1881183236837387, 0.03386795520782471, 0.20440392196178436, -0.12222853302955627, -0.08764629811048508, -0.10001072287559509, 0.15287227928638458, -0.2249622941017151, 0.1510961502790451, 0.20480254292488098, -0.08187493681907654, 0.16068647801876068, -0.06830986589193344, 0.1391933113336563, 0.07470841705799103, -0.09094725549221039, -0.01877497509121895, 0.07453767955303192, -0.09276814758777618, 0.06284213811159134, 0.20854231715202332, 0.003908871207386255, -0.034538861364126205, 0.07960345596075058, 0.0842999666929245, 0.13447542488574982, 0.14620532095432281, 0.10387735813856125, 0.11423251777887344, 0.08337265253067017, -0.05095513537526131, -0.10730178654193878, 0.24380935728549957, 0.07211035490036011, 0.13789059221744537, 0.12266288697719574, 0.17924058437347412, 0.17399394512176514, 0.06761801987886429, -0.10522156208753586, 0.02898402512073517, 0.09039171785116196, -0.13378219306468964, 0.06379378587007523, 0.0666046291589737, 0.05154351890087128, -0.08530769497156143, 0.07080746442079544, 0.07050711661577225, -0.015595310367643833, 0.07573540508747101, -0.06885780394077301, 0.06291595846414566, -0.08672977983951569, 0.09135299921035767, 0.06616276502609253, -0.032456304877996445, -0.05443745478987694], [-0.007439211010932922, 0.024034781381487846, -0.06277649849653244, 0.014213846065104008, 0.11300390213727951, -0.3513825535774231, -0.3124590218067169, -0.023999586701393127, 0.08357137441635132, 0.11341220885515213, 0.15052632987499237, 0.33272260427474976, 0.11110519617795944, -0.04438846558332443, -0.4058547019958496, 0.11891768872737885, 0.23363032937049866, -0.10593222826719284, 0.23629218339920044, -0.3376820981502533, -0.2662847638130188, -0.0003694913466461003, -0.05319688841700554, 0.09415027499198914, 0.19080311059951782, 0.10433146357536316, 0.0054374393075704575, 0.10165517777204514, 0.019824199378490448, -0.3673918843269348, -0.4503600299358368, 0.13150255382061005, 0.14510294795036316, 0.019029740244150162, 0.15642669796943665, -0.22132350504398346, -0.18459022045135498, 0.1275005042552948, -0.04575914144515991, -0.016068976372480392, -0.1100095734000206, -0.15005140006542206, -0.22741246223449707, 0.07853899151086807, 0.07864260673522949, 0.1349446326494217, 0.23699955642223358, 0.23694263398647308, 0.20005902647972107, 0.07159702479839325, 0.05088496208190918, 0.13290095329284668, 0.054047681391239166, -0.2423567771911621, -0.10140541940927505, -0.012784748338162899, -0.5005038380622864, -0.10880260169506073, -0.08613020181655884, 0.0001320572046097368, -0.23893442749977112, 0.21873238682746887, 0.08459477871656418, 0.11976952105760574], [0.22802738845348358, -0.43401890993118286, 0.19784550368785858, 0.21598997712135315, 0.3475126624107361, -0.29930776357650757, -0.3263293206691742, 0.1385345757007599, 0.0451962873339653, 0.3714945614337921, 0.13221688568592072, 0.26589396595954895, 0.2548578381538391, 0.18516497313976288, -0.06310029327869415, 0.005326548125594854, -0.22283318638801575, 0.09801886230707169, 0.11374838650226593, 0.025916343554854393, -0.5090804696083069, 0.08127078413963318, 0.021289389580488205, -0.02765539661049843, 0.1401025801897049, -0.34030598402023315, -0.12348663061857224, 0.24831677973270416, 0.22298917174339294, 0.1464984118938446, 0.08700165152549744, 0.01485341228544712, -0.10003167390823364, -0.24961130321025848, 0.03463086858391762, 0.009883874095976353, 0.19139093160629272, -0.04818251356482506, 0.2083815485239029, -0.16743838787078857, -0.1261080652475357, 0.08552058786153793, -0.006629143375903368, -0.14010053873062134, 0.27725595235824585, -0.3258078396320343, -0.4161648452281952, 0.24940860271453857, 0.16668500006198883, -0.49707314372062683, -0.16307072341442108, 0.1563454270362854, 0.3905490040779114, -0.30965352058410645, -0.18721401691436768, -0.38267287611961365, -0.11352666467428207, 0.042422667145729065, -0.21382355690002441, 0.10217311233282089, -0.22895637154579163, -0.11311618238687515, -0.4932539761066437, 0.10536429286003113], [-0.16096042096614838, -0.00440175598487258, -0.03800465911626816, 0.10315578430891037, 0.11398245394229889, 0.06303665786981583, 0.23265095055103302, -0.21837909519672394, -0.1189955547451973, 0.0495079830288887, 0.04988071322441101, 0.08121927082538605, -0.09534671157598495, -0.10773707926273346, -0.2537326216697693, 0.33759111166000366, 0.11851470917463303, 0.05286729335784912, -0.08117019385099411, -0.08374422788619995, -0.03485994413495064, 0.20736071467399597, 0.12197814881801605, -0.05682368949055672, 0.17649953067302704, 0.09334473311901093, 0.10647299885749817, 0.072409987449646, -0.4312703311443329, -0.5865154266357422, -0.0038603018037974834, -0.185051828622818, 0.08345559984445572, 0.024854911491274834, -0.13905204832553864, 0.02472684532403946, -0.24283172190189362, 0.08844898641109467, 0.03307107463479042, -0.24486584961414337, -0.35552725195884705, -0.30756691098213196, 0.0729246586561203, -0.11850648373365402, -0.014345296658575535, -0.01435843762010336, 0.1324860155582428, 0.30930644273757935, 0.019294138997793198, 0.06351195275783539, -0.1612335592508316, 0.192709818482399, 0.05437615513801575, -0.3193368911743164, 0.10859259217977524, -0.017290176823735237, -0.21633322536945343, -0.46716246008872986, -0.17298626899719238, 0.24753476679325104, -0.15108788013458252, 0.0347433015704155, 0.17395848035812378, 0.053122397512197495], [-0.08494389802217484, 0.1311354786157608, -0.016064956784248352, -0.13227687776088715, 0.12672832608222961, 0.21696925163269043, 0.22577987611293793, -0.12336321175098419, 0.2653758227825165, -0.043852318078279495, 0.3739449977874756, 0.193258136510849, -0.14742344617843628, -0.1272277981042862, -0.32095396518707275, 0.053099535405635834, 0.044915821403265, -0.15718604624271393, -0.08812100440263748, -0.19594520330429077, -0.048601679503917694, 0.2401627004146576, 0.04069637134671211, -0.29639965295791626, 0.11047391593456268, 0.12087330967187881, 0.2706850469112396, 0.05046892911195755, 0.007301016710698605, -0.1453709602355957, -0.04711709916591644, -0.14172883331775665, -0.004098508041352034, -0.12635628879070282, -0.2731230556964874, 0.14017373323440552, -0.33017686009407043, -0.05258963257074356, 0.2886471450328827, -0.7712793350219727, -0.36618924140930176, -0.08374856412410736, -0.12433991581201553, -0.323795884847641, -0.16175870597362518, 0.08684561401605606, -0.016856255009770393, 0.26941120624542236, -0.005848785396665335, 0.06527161598205566, -0.3897530436515808, -0.04838460311293602, 0.1553250402212143, -0.3120518624782562, 0.08861466497182846, 0.1735972911119461, 0.07468679547309875, -0.21472525596618652, -0.1104447990655899, 0.1407482773065567, -0.27652838826179504, -0.15208971500396729, -0.09883050620555878, 0.04591576009988785], [-0.15135766565799713, -0.09570536017417908, 0.13769635558128357, 0.015960341319441795, 0.10009346902370453, -0.06864815205335617, -0.022643761709332466, -0.16734883189201355, 0.11686713993549347, -0.002642039442434907, 0.03668497875332832, 0.046589046716690063, -0.20142051577568054, 0.021009601652622223, -0.154506653547287, -0.2653424143791199, 0.22739112377166748, -0.26817527413368225, -0.0619376078248024, -0.27554550766944885, 0.08440958708524704, -0.05601086840033531, 0.18654729425907135, -0.004564973991364241, 0.18062591552734375, 0.12124652415513992, 0.23839519917964935, 0.1124592274427414, -0.1302040070295334, -0.14032025635242462, -0.33399227261543274, -0.17144112288951874, 0.10206405818462372, -0.05524788796901703, -0.17386601865291595, 0.15591946244239807, -0.05013783648610115, -0.09245672076940536, 0.04626097530126572, -0.19808340072631836, -0.28801077604293823, 0.045368071645498276, -0.03532391041517258, -0.22015929222106934, -0.07473874092102051, 0.276627779006958, 0.17699278891086578, 0.22146761417388916, 0.02154146321117878, -0.061311881989240646, -0.2847614586353302, 0.22146233916282654, 0.2663661539554596, -0.22645768523216248, 0.11991206556558609, -0.15861396491527557, -0.2136787623167038, -0.04085667431354523, -0.0227724090218544, -0.004821148235350847, -0.19228342175483704, 0.06134987249970436, -0.04822339490056038, 0.04290700703859329], [0.0765979066491127, 0.1745617389678955, 0.0606825016438961, -0.13558107614517212, -0.11414870619773865, 0.19580437242984772, 0.14634986221790314, -0.06180804967880249, 0.22196529805660248, -0.08332143723964691, -0.25175997614860535, -0.03937927260994911, 0.17435215413570404, -0.09285277128219604, 0.20807337760925293, 0.23292019963264465, -0.08595219254493713, 0.2130570113658905, -0.19471822679042816, 0.10775692760944366, 0.0708795115351677, -0.14159178733825684, -0.006030886434018612, 0.16170711815357208, -0.13197390735149384, 0.12092895060777664, 0.17202608287334442, -0.07016058266162872, -0.01922241784632206, 0.14020481705665588, 0.14135684072971344, 0.05828198790550232, 0.19707047939300537, 0.1452822983264923, 0.15819674730300903, 0.19823996722698212, -0.00793647114187479, -0.09929527342319489, 0.2267875224351883, 0.11894962191581726, 0.11856378614902496, 0.18812260031700134, 0.1461574137210846, 0.07574117928743362, 0.09567128121852875, -0.047230806201696396, 0.031008711084723473, 0.1454334557056427, -0.19348810613155365, 0.09053666889667511, -0.02350042760372162, -0.022582784295082092, -0.04933490231633186, 0.220180943608284, 0.13622289896011353, 0.06387020647525787, 0.11108347773551941, 0.13423985242843628, 0.010218285955488682, -0.025306424126029015, 0.09946799278259277, 0.1896643340587616, -0.0393083319067955, -0.018456842750310898], [-0.017066875472664833, 0.15582510828971863, 0.08067095279693604, -0.1744091510772705, -0.1124853566288948, 0.18107275664806366, 0.13621504604816437, -0.07723937928676605, 0.17448246479034424, -0.133820042014122, -0.08084545284509659, -0.0765082985162735, 0.0953989028930664, -0.07477744668722153, 0.23312966525554657, 0.22518110275268555, -0.074087955057621, 0.13422270119190216, -0.12556803226470947, 0.11528728157281876, -0.1393740177154541, -0.003989942837506533, 0.01095705758780241, 0.16245172917842865, -0.06181897968053818, 0.07539664953947067, 0.20242354273796082, -0.12276456505060196, 0.04035521671175957, 0.07787430286407471, 0.1003185361623764, 0.18913768231868744, 0.18883879482746124, 0.0969502180814743, 0.09826657921075821, 0.1726445108652115, 0.021371113136410713, -0.09344862401485443, 0.22964124381542206, 0.11667516082525253, 0.17387762665748596, 0.029676569625735283, 0.15788812935352325, 0.16525998711585999, 0.1618460863828659, 0.010653886012732983, 0.07244767993688583, 0.17300666868686676, -0.06691200286149979, 0.10288991034030914, -0.10886959731578827, 0.03558668494224548, -0.14078588783740997, 0.17270348966121674, 0.11814428865909576, 0.15330825746059418, 0.0819445252418518, 0.14495787024497986, -0.06227027252316475, -0.03687256574630737, 0.17812694609165192, 0.12086350470781326, 0.028384609147906303, -0.063523069024086], [-0.041212886571884155, 0.15085512399673462, 0.05566839128732681, -0.08946836739778519, -0.1749953180551529, 0.17732034623622894, 0.1571768820285797, 0.15678803622722626, 0.28333961963653564, -0.10443965345621109, -0.14985114336013794, -0.24192112684249878, 0.028142888098955154, -0.040343329310417175, 0.25700846314430237, 0.24181608855724335, -0.04275033250451088, 0.14726072549819946, -0.19905845820903778, 0.2024601250886917, 0.07058490067720413, -0.1509169042110443, 0.03607402369379997, 0.24423833191394806, -0.14992138743400574, 0.21666473150253296, 0.22277379035949707, 0.002015197416767478, 0.16102570295333862, 0.08833976835012436, 0.1499447524547577, 0.3175741136074066, 0.19067427515983582, 0.14222922921180725, 0.04374709725379944, 0.2413044422864914, -0.10523974895477295, -0.09777078777551651, 0.31820082664489746, 0.14791367948055267, -0.18436074256896973, 0.18330048024654388, 0.1769922524690628, 0.27109572291374207, 0.12113343179225922, -0.2103739082813263, 0.13800311088562012, 0.1992090940475464, -0.025844715535640717, 0.10830782353878021, -0.2283392697572708, -0.1392020732164383, 0.02363799326121807, 0.2300400733947754, 0.19850793480873108, -0.005408888682723045, 0.12161608040332794, -0.01612522080540657, 0.16068097949028015, -0.0635201558470726, 0.2059740424156189, 0.12952686846256256, -0.011672969907522202, -0.0404730886220932], [-0.019987981766462326, -0.06086667627096176, 0.0641726404428482, 0.1072768047451973, 0.07915578037500381, -0.02654728665947914, 0.1219993457198143, -0.30574265122413635, -0.14572928845882416, 0.2178652286529541, 0.11276327073574066, 0.13514374196529388, -0.396964967250824, 0.043640922755002975, -0.2806762456893921, 0.011025236919522285, 0.249337300658226, 0.10299183428287506, 0.0968187153339386, -0.1239355057477951, -0.1153387725353241, -0.11442187428474426, 0.14504003524780273, 0.023941805586218834, 0.02762884460389614, 0.19236037135124207, 0.18558239936828613, 0.08814124763011932, -0.15315571427345276, -0.1337481439113617, -0.28116199374198914, -0.2810806334018707, 0.06254011392593384, 0.03682739660143852, -0.017056679353117943, -0.059613220393657684, -0.2388061136007309, 0.1572519987821579, -0.012268539518117905, 0.13727742433547974, -0.06630455702543259, -0.2249140441417694, -0.11415350437164307, 0.06491320580244064, 0.0927005484700203, 0.08669375628232956, 0.1775713413953781, 0.21108028292655945, 0.09992025047540665, 0.020162705332040787, 0.01700541190803051, 0.16616009175777435, 0.14795319736003876, -0.022257283329963684, 0.11539971083402634, -0.22936968505382538, -0.34896406531333923, -0.288677841424942, -0.11827599257230759, 0.21221213042736053, -0.16791455447673798, 0.2517911195755005, 0.13805092871189117, 0.01769404485821724], [0.11442466080188751, 0.1595851480960846, 0.15372709929943085, -0.2633194327354431, -0.11867433041334152, 0.17340528964996338, 0.12459488958120346, -0.10908866673707962, 0.15741442143917084, -0.2208854705095291, -0.12200618535280228, 0.08403465151786804, 0.1585387885570526, -0.20802727341651917, 0.17757360637187958, 0.19463281333446503, -0.1406087726354599, 0.10816587507724762, -0.17706198990345, 0.049744632095098495, 0.0652695819735527, -0.08808300644159317, 0.06310856342315674, 0.0610385499894619, -0.12797096371650696, 0.01881651021540165, 0.0899830013513565, -0.2571261525154114, 0.025405190885066986, 0.033339306712150574, 0.08360204845666885, 0.058548007160425186, 0.03826865553855896, 0.12597300112247467, 0.019708983600139618, 0.0411539226770401, 0.06434384733438492, -0.18463461101055145, 0.33406147360801697, 0.11391923576593399, 0.19694533944129944, 0.0669180154800415, 0.10065024346113205, 0.054025400429964066, 0.05871952697634697, -0.07045412808656693, 0.24401311576366425, 0.25999951362609863, -0.4180232286453247, 0.11836715042591095, -0.02802930772304535, -0.224994957447052, -0.16066652536392212, 0.13741639256477356, 0.0854300782084465, 0.15033362805843353, 0.009509716182947159, -0.014312929473817348, 0.010464031249284744, -0.02937198057770729, -0.044908616691827774, 0.18145155906677246, -0.018749495968222618, -0.18448896706104279], [-0.2902526557445526, -0.1118854507803917, -0.18094956874847412, -0.014366698451340199, -0.07724347710609436, -0.17238378524780273, -0.06736188381910324, -0.15057478845119476, 0.04387135058641434, 0.11725401133298874, 0.1856173872947693, 0.14576803147792816, 0.3130864202976227, 0.3100091814994812, -0.014629685319960117, -0.14742179214954376, -0.06883435696363449, 0.2956061363220215, 0.2286517173051834, 0.09196437150239944, -0.40462103486061096, -0.1376643180847168, -0.13360528647899628, -0.003916050307452679, -0.033843085169792175, -0.16258542239665985, -0.21936775743961334, 0.10981989651918411, 0.06140568107366562, 0.2945663332939148, -0.0019436645088717341, 0.3104632794857025, -0.5437265038490295, 0.11806914210319519, 0.1002688780426979, -0.4009706377983093, 0.1975230872631073, -0.021804431453347206, -0.5391751527786255, 0.16452200710773468, 0.030529256910085678, -0.11265072226524353, -0.2427607774734497, 0.03983120247721672, 0.013542830012738705, 0.2503444254398346, -0.39851292967796326, 0.15177378058433533, 0.007128483150154352,